{"learner":{"attributes":{"best_iteration":"2","best_score":"0.512958593135493"},"feature_names":[],"feature_types":[],"gradient_booster":{"model":{"cats":{"enc":[],"feature_segments":[],"sorted_idx":[]},"gbtree_model_param":{"num_parallel_tree":"1","num_trees":"13"},"iteration_indptr":[0,1,2,3,4,5,6,7,8,9,10,11,12,13],"tree_info":[0,0,0,0,0,0,0,0,0,0,0,0,0],"trees":[{"base_weights":[-1.8490053E-3,8.026586E-3,-1.3921292E-1,1.0969286E-2,-4.5252058E-1,-1.1176052E-1,-9.7875226E-1,8.289503E-3,4.1472843E-1,-5.9888256E-1,6.709442E-1,-1.43427E-1,4.6357068E-1,-1E0,2.897534E-1,6.89603E-3,6.715284E-1,6.7171925E-1,-5.7206552E-2,-3.8177735E-1,-1E-1,-1.783125E-2,1E-1,-4.3656772E-1,-8.973809E-2,5.219189E-3,9.211284E-1,-1E0,2.8281883E-4,-3.9690804E-2,1E-1,5.1851417E-3,5.1679355E-1,-3.4881204E-1,1E0,-6.64223E-2,7.596461E-1,1E-1,-2.805596E-1,-5.743323E-1,6.709442E-1,-5.007089E-1,3.682E-1,-1.1202221E-1,6.411755E-1,-6.044726E-1,4.2908946E-1,1E0,4.039453E-3,-1E-1,-2.1921959E-2,1.6197577E-4,2.4812682E-2,1E-1,1.1843066E-2,-9.974868E-2,6.696691E-2,1E-1,-1.783125E-2,3.820238E-2,1E-1,-1E-1,9.604908E-3,-7.22404E-2,9.163472E-3,2.5424097E-2,1E-1,-3.746016E-2,-9.3907334E-2,1E-1,-4.5795754E-2,-1.3465595E-2,5.355793E-2,1E-1,-2.563048E-2,-1E-1,4.6538632E-2,-1.7725363E-2,1E-1,1E-1,2.8281883E-4,-7.975117E-2,1E-1],"categories":[],"categories_nodes":[],"categories_segments":[],"categories_sizes":[],"default_left":[0,0,0,0,0,0,0,0,0,0,0,0,0,0,0,0,0,0,0,0,0,0,0,0,0,0,0,0,0,0,0,0,0,0,0,0,0,0,0,0,0,0,0,0,0,0,0,0,0,0,0,0,0,0,0,0,0,0,0,0,0,0,0,0,0,0,0,0,0,0,0,0,0,0,0,0,0,0,0,0,0,0,0],"id":0,"left_children":[1,3,5,7,9,11,13,15,17,19,21,23,25,27,29,31,33,35,37,39,-1,-1,-1,41,43,45,47,49,-1,-1,-1,51,53,55,57,-1,59,-1,61,63,65,67,69,71,73,75,77,79,81,-1,-1,-1,-1,-1,-1,-1,-1,-1,-1,-1,-1,-1,-1,-1,-1,-1,-1,-1,-1,-1,-1,-1,-1,-1,-1,-1,-1,-1,-1,-1,-1,-1,-1],"loss_changes":[9.503478E0,8.862788E0,1.0720062E1,7.0245013E0,7.229101E0,8.376561E0,4.820956E0,5.959817E0,5.2300506E0,4.859231E0,2.2505434E0,6.777069E0,5.0352535E0,1.0122757E0,2.1120594E0,5.6163726E0,5.276251E0,3.769248E0,4.0738506E0,6.672695E0,0E0,0E0,0E0,3.6316795E0,6.054521E0,3.6218903E0,2.3993416E0,3.720703E-1,0E0,0E0,0E0,5.5609484E0,4.2805686E0,3.4768944E0,2.8197927E0,0E0,4.0624914E0,0E0,4.976306E0,2.7049913E0,6.57475E-1,3.091011E0,3.711945E0,5.3092375E0,6.661704E0,5.08678E0,3.9348688E0,9.896412E-1,3.6019769E0,0E0,0E0,0E0,0E0,0E0,0E0,0E0,0E0,0E0,0E0,0E0,0E0,0E0,0E0,0E0,0E0,0E0,0E0,0E0,0E0,0E0,0E0,0E0,0E0,0E0,0E0,0E0,0E0,0E0,0E0,0E0,0E0,0E0,0E0],"parents":[2147483647,0,0,1,1,2,2,3,3,4,4,5,5,6,6,7,7,8,8,9,9,10,10,11,11,12,12,13,13,14,14,15,15,16,16,17,17,18,18,19,19,23,23,24,24,25,25,26,26,27,27,31,31,32,32,33,33,34,34,36,36,38,38,39,39,40,40,41,41,42,42,43,43,44,44,45,45,46,46,47,47,48,48],"right_children":[2,4,6,8,10,12,14,16,18,20,22,24,26,28,30,32,34,36,38,40,-1,-1,-1,42,44,46,48,50,-1,-1,-1,52,54,56,58,-1,60,-1,62,64,66,68,70,72,74,76,78,80,82,-1,-1,-1,-1,-1,-1,-1,-1,-1,-1,-1,-1,-1,-1,-1,-1,-1,-1,-1,-1,-1,-1,-1,-1,-1,-1,-1,-1,-1,-1,-1,-1,-1,-1],"split_conditions":[1.5405273E-1,2.2033691E-1,1.8371582E-1,6.7529297E-1,5.126953E-2,1.0479736E-1,2.2436523E-1,4.008789E-1,2.4023438E-1,1.3759766E0,8.477783E-2,1.6223145E-1,7.348633E-2,2.1209717E-2,2.0935059E-1,2.538681E-3,1.730957E-1,1.4135742E-1,5.2246094E-2,3.2910156E-1,-1E-1,-1.783125E-2,1E-1,6.8603516E-1,1.6442871E-1,5.2337646E-3,2.9833984E-1,1.1242676E-1,2.8281883E-4,-3.9690804E-2,1E-1,1.9506836E-1,4.9438477E-1,1.6442871E-1,5.209961E-1,-6.64223E-2,6.011963E-2,1E-1,9.7351074E-2,9.893799E-2,3.7841797E-1,1.5808105E-1,7.0214844E-1,5.4003906E-1,1.7602539E-1,5.9173584E-2,1.7492676E-1,9.765625E-2,1.940918E-1,-1E-1,-2.1921959E-2,1.6197577E-4,2.4812682E-2,1E-1,1.1843066E-2,-9.974868E-2,6.696691E-2,1E-1,-1.783125E-2,3.820238E-2,1E-1,-1E-1,9.604908E-3,-7.22404E-2,9.163472E-3,2.5424097E-2,1E-1,-3.746016E-2,-9.3907334E-2,1E-1,-4.5795754E-2,-1.3465595E-2,5.355793E-2,1E-1,-2.563048E-2,-1E-1,4.6538632E-2,-1.7725363E-2,1E-1,1E-1,2.8281883E-4,-7.975117E-2,1E-1],"split_indices":[29,20,10,1,4,0,10,4,25,11,6,29,25,6,5,14,5,25,6,6,0,0,0,1,3,28,5,3,0,0,0,20,16,0,1,0,6,0,4,19,6,25,1,30,6,3,0,3,11,0,0,0,0,0,0,0,0,0,0,0,0,0,0,0,0,0,0,0,0,0,0,0,0,0,0,0,0,0,0,0,0,0,0],"split_type":[0,0,0,0,0,0,0,0,0,0,0,0,0,0,0,0,0,0,0,0,0,0,0,0,0,0,0,0,0,0,0,0,0,0,0,0,0,0,0,0,0,0,0,0,0,0,0,0,0,0,0,0,0,0,0,0,0,0,0,0,0,0,0,0,0,0,0,0,0,0,0,0,0,0,0,0,0,0,0,0,0,0,0],"sum_hessian":[7.0038E3,6.5349224E3,4.6887772E2,6.494402E3,4.0520275E1,4.5512845E2,1.3749292E1,6.452596E3,4.180588E1,3.6262966E1,4.2573094E0,4.3209637E2,2.3032068E1,1.1245991E1,2.5033011E0,6.4400757E3,1.2520278E1,2.6792679E1,1.5013205E1,3.0016975E1,6.245991E0,1.751179E0,2.5061307E0,6.578419E1,3.663122E2,1.2011318E1,1.102075E1,1.0245048E1,1.0009432E0,1.5004716E0,1.0028296E0,6.419546E3,2.052971E1,3.2516503E0,9.268628E0,1.2497642E0,2.5542915E1,2.004716E0,1.3008489E1,2.5759666E1,4.2573094E0,6.1278057E1,4.5061307E0,3.5629614E2,1.0016034E1,4.7511787E0,7.260139E0,8.518392E0,2.502358E0,8.99434E0,1.2507074E0,6.3276885E3,9.185776E1,8.266742E0,1.2262968E1,1.9990567E0,1.2525938E0,7.517449E0,1.751179E0,1.6271458E1,9.271458E0,2.9981134E0,1.0010375E1,2.1004715E1,4.7549515E0,3.0037727E0,1.2535369E0,4.9028294E1,1.22497635E1,2.2554233E0,2.2507074E0,3.4502942E2,1.1266741E1,5.2629685E0,4.753065E0,2.4976418E0,2.253537E0,4.503301E0,2.756838E0,7.517449E0,1.0009432E0,1.4995283E0,1.0028296E0],"tree_param":{"num_deleted":"0","num_feature":"32","num_nodes":"83","size_leaf_vector":"1"}},{"base_weights":[-9.6964295E-4,2.4390927E-2,-7.017244E-2,-1.3335328E-2,7.606784E-2,-9.433925E-1,-6.572721E-2,-1.3803081E-1,5.1174937E-3,6.542665E-2,4.1762304E-1,3.3699545E-1,-1E-1,2.3948295E-1,-7.8323744E-2,-1.9002527E-1,1.9766226E-1,1.2094318E-2,-3.0747268E-1,6.116954E-2,8.37065E-1,5.3617066E-1,-2.9448843E-1,5.027472E-2,2.7472829E-4,-2.8904554E-1,3.882442E-1,-8.0729276E-2,8.0394095E-1,5.513042E-1,-2.0821781E-1,3.2572177E-1,-5.762485E-1,3.3470716E-2,-9.620999E-2,-6.6213834E-1,-7.2464496E-2,1.7757869E-1,3.5216317E-2,1E0,-3.3767402E-2,3.0322915E-1,8.809615E-1,3.5870764E-1,-6.6249853E-1,4.0452272E-1,-6.3370675E-1,2.0416063E-1,8.2810354E-1,-7.687616E-2,-9.6395713E-1,1E-1,1.8534526E-2,5.757413E-4,1E-1,-1.6608838E-2,-5.279935E-2,-1E-1,4.0522337E-2,-1E-1,1.218606E-2,2.3444442E-3,3.325876E-2,-1.5164695E-2,1.6655235E-2,-7.954216E-2,2.8788311E-2,-3.61157E-2,2.0835485E-2,2.0815784E-2,-2.0250306E-2,5.920019E-3,-7.7465377E-3,1E-1,-3.714849E-4,9.2126526E-2,-1.5353997E-3,-1.2935496E-2,1E-1,-6.628042E-2,1E-1,-9.967359E-2,1.8534526E-2,8.926018E-2,-5.4242563E-2,-7.8637324E-2,5.027472E-2,-1.101201E-2,6.527076E-2,9.418743E-2,-4.9772423E-2,-6.3930587E-3,-2.1980358E-2,5.027472E-2,-1E-1],"categories":[],"categories_nodes":[],"categories_segments":[],"categories_sizes":[],"default_left":[0,0,0,0,0,0,0,0,0,0,0,0,0,0,0,0,0,0,0,0,0,0,0,0,0,0,0,0,0,0,0,0,0,0,0,0,0,0,0,0,0,0,0,0,0,0,0,0,0,0,0,0,0,0,0,0,0,0,0,0,0,0,0,0,0,0,0,0,0,0,0,0,0,0,0,0,0,0,0,0,0,0,0,0,0,0,0,0,0,0,0,0,0,0,0],"id":1,"left_children":[1,3,5,7,9,11,13,15,17,19,21,23,-1,25,27,29,31,33,35,37,39,41,43,-1,-1,45,47,49,51,53,55,57,59,61,63,65,67,69,71,73,-1,75,77,79,81,83,85,87,89,91,93,-1,-1,-1,-1,-1,-1,-1,-1,-1,-1,-1,-1,-1,-1,-1,-1,-1,-1,-1,-1,-1,-1,-1,-1,-1,-1,-1,-1,-1,-1,-1,-1,-1,-1,-1,-1,-1,-1,-1,-1,-1,-1,-1,-1],"loss_changes":[1.237072E1,1.0057718E1,7.275777E0,6.863429E0,7.884692E0,4.337288E0,7.253789E0,6.7487497E0,5.6718745E0,6.887599E0,5.6946325E0,1.6498232E-1,0E0,5.996176E0,3.902133E0,4.611862E0,5.346944E0,5.891204E0,4.6845813E0,6.3436604E0,4.0641336E0,4.2772007E0,2.6428246E0,0E0,0E0,4.3226132E0,4.594103E0,6.065324E0,6.339941E-1,2.2831156E0,4.3066587E0,5.8772774E0,2.9613678E0,6.364395E0,6.135737E0,3.0787544E0,2.9349048E0,4.4926386E0,4.6526165E0,1.5199986E0,0E0,6.9630356E0,3.4697876E0,3.470705E0,2.0978963E0,3.3762102E0,2.434486E0,6.105011E0,3.0373516E0,3.3114166E0,3.5106912E0,0E0,0E0,0E0,0E0,0E0,0E0,0E0,0E0,0E0,0E0,0E0,0E0,0E0,0E0,0E0,0E0,0E0,0E0,0E0,0E0,0E0,0E0,0E0,0E0,0E0,0E0,0E0,0E0,0E0,0E0,0E0,0E0,0E0,0E0,0E0,0E0,0E0,0E0,0E0,0E0,0E0,0E0,0E0,0E0],"parents":[2147483647,0,0,1,1,2,2,3,3,4,4,5,5,6,6,7,7,8,8,9,9,10,10,11,11,13,13,14,14,15,15,16,16,17,17,18,18,19,19,20,20,21,21,22,22,25,25,26,26,27,27,28,28,29,29,30,30,31,31,32,32,33,33,34,34,35,35,36,36,37,37,38,38,39,39,41,41,42,42,43,43,44,44,45,45,46,46,47,47,48,48,49,49,50,50],"right_children":[2,4,6,8,10,12,14,16,18,20,22,24,-1,26,28,30,32,34,36,38,40,42,44,-1,-1,46,48,50,52,54,56,58,60,62,64,66,68,70,72,74,-1,76,78,80,82,84,86,88,90,92,94,-1,-1,-1,-1,-1,-1,-1,-1,-1,-1,-1,-1,-1,-1,-1,-1,-1,-1,-1,-1,-1,-1,-1,-1,-1,-1,-1,-1,-1,-1,-1,-1,-1,-1,-1,-1,-1,-1,-1,-1,-1,-1,-1,-1],"split_conditions":[2.65625E-1,1.0955811E-2,2.5073242E-1,1.1956787E-1,1.583252E-1,2.6757812E-1,3.2910156E-1,4.5288086E-2,1.7211914E-1,8.926392E-3,3.059082E-1,7.171631E-4,-1E-1,2.8759766E-1,3.1640625E-1,1.7529297E-1,1.315918E-1,1.5405273E-1,1.8041992E-1,1.0643005E-2,6.3378906E-1,2.7563477E-1,3.5205078E-1,5.027472E-2,2.7472829E-4,3.012085E-2,1.6326904E-2,4.446411E-2,3.1689453E-1,1.508789E-1,5.2246094E-2,2.3266602E-1,5.7556152E-2,4.208374E-2,2.2338867E-1,1.6937256E-3,4.9041748E-2,1.7028809E-2,1.8811035E-1,1.0878906E0,-3.3767402E-2,5.366211E-1,4.6069336E-1,4.5263672E-1,4.6826172E-1,2.8027344E-1,3.227539E-1,4.4873047E-1,1.7236328E-1,1.1657715E-1,1.8933105E-1,1E-1,1.8534526E-2,5.757413E-4,1E-1,-1.6608838E-2,-5.279935E-2,-1E-1,4.0522337E-2,-1E-1,1.218606E-2,2.3444442E-3,3.325876E-2,-1.5164695E-2,1.6655235E-2,-7.954216E-2,2.8788311E-2,-3.61157E-2,2.0835485E-2,2.0815784E-2,-2.0250306E-2,5.920019E-3,-7.7465377E-3,1E-1,-3.714849E-4,9.2126526E-2,-1.5353997E-3,-1.2935496E-2,1E-1,-6.628042E-2,1E-1,-9.967359E-2,1.8534526E-2,8.926018E-2,-5.4242563E-2,-7.8637324E-2,5.027472E-2,-1.101201E-2,6.527076E-2,9.418743E-2,-4.9772423E-2,-6.3930587E-3,-2.1980358E-2,5.027472E-2,-1E-1],"split_indices":[21,21,30,11,12,11,30,12,19,14,5,6,0,21,27,31,6,29,19,6,30,5,6,0,0,6,6,12,6,31,6,31,29,9,29,21,27,15,5,11,0,11,11,11,6,21,30,11,5,27,31,0,0,0,0,0,0,0,0,0,0,0,0,0,0,0,0,0,0,0,0,0,0,0,0,0,0,0,0,0,0,0,0,0,0,0,0,0,0,0,0,0,0,0,0],"split_type":[0,0,0,0,0,0,0,0,0,0,0,0,0,0,0,0,0,0,0,0,0,0,0,0,0,0,0,0,0,0,0,0,0,0,0,0,0,0,0,0,0,0,0,0,0,0,0,0,0,0,0,0,0,0,0,0,0,0,0,0,0,0,0,0,0,0,0,0,0,0,0,0,0,0,0,0,0,0,0,0,0,0,0,0,0,0,0,0,0,0,0,0,0,0,0],"sum_hessian":[7.046778E3,5.157405E3,1.8893733E3,2.9815176E3,2.1758872E3,8.49953E0,1.8808738E3,3.835032E2,2.5980142E3,2.111301E3,6.458627E1,2.00283E0,6.4967003E0,7.383608E1,1.8070377E3,3.3244565E2,5.1057545E1,2.5422344E3,5.5779827E1,2.1007903E3,1.0510739E1,5.558064E1,9.005631E0,1.0018866E0,1.0009434E0,1.6010378E1,5.7825703E1,1.8030302E3,4.0075464E0,7.26104E0,3.251846E2,4.430542E1,6.7521234E0,2.123753E3,4.1848154E2,2.1506102E1,3.4273727E1,3.8191727E2,1.7188729E3,8.509845E0,2.0008953E0,3.4292202E1,2.1288439E1,3.2544518E0,5.75118E0,5.257311E0,1.0753067E1,4.1797405E1,1.60283E1,1.7962809E3,6.749294E0,2.2554238E0,1.7521225E0,4.0037446E0,3.2572958E0,2.8867233E2,3.6512283E1,1.4985855E0,4.2806835E1,3.498586E0,3.2535377E0,2.0559177E3,6.783514E1,3.4592255E2,7.255901E1,1.9002832E1,2.503269E0,1.6758894E1,1.7514833E1,3.5389713E2,2.8020155E1,1.4176139E3,3.0125912E2,7.008466E0,1.5013789E0,1.1020738E1,2.3271461E1,2.7521226E0,1.8536316E1,1.2497499E0,2.0047019E0,3.9990575E0,1.7521225E0,3.5070746E0,1.7502362E0,9.751181E0,1.0018866E0,2.5020756E1,1.677665E1,1.5028299E1,1.0000002E0,1.6484231E3,1.4785779E2,1.0018866E0,5.7474074E0],"tree_param":{"num_deleted":"0","num_feature":"32","num_nodes":"95","size_leaf_vector":"1"}},{"base_weights":[8.906645E-3,1.1681071E-2,-3.5812438E-1,5.59423E-2,-7.336721E-3,-1E-1,-2.9344106E-1,4.9448553E-2,4.8634374E-1,1.4339738E-2,-8.5427694E-2,5.5006903E-1,-4.2991167E-1,5.7897035E-2,-2.7379707E-1,9.0006006E-1,1.1531589E-1,8.407362E-3,2.5703517E-1,-5.588671E-1,-7.3211275E-2,-1.4878671E-1,8.7759995E-1,-7.792435E-1,-1.0290928E-1,5.3226516E-2,5.383682E-1,3.089895E-1,-5.537627E-1,1E0,2.5756622E-3,-4.8565903E-1,3.9442766E-1,2.3531688E-3,2.623627E-1,2.9802138E-1,-8.5427773E-1,-6.32658E-1,4.0188845E-2,-3.0339394E-2,-1.88066E-1,-6.531648E-2,4.926322E-2,1E-1,2.111614E-2,-1.124671E-1,-8.5232306E-1,3.370794E-1,-3.662472E-1,4.0183966E-3,1.9849308E-2,-1.5090083E-2,8.615758E-2,-4.4910185E-2,8.144587E-2,-6.553215E-2,9.106257E-2,1.5744884E-4,1E-1,7.520061E-2,-1E-1,-9.988156E-2,3.5991866E-2,-2.2954999E-2,6.619289E-2,7.7109864E-5,9.607894E-2,7.132446E-2,1.05270455E-2,1.510149E-2,6.602173E-2,-1E-1,-2.2520883E-2,-8.2008414E-2,-6.1042076E-3,-3.6478632E-3,1E-1,-4.7188528E-2,-1.2491893E-2,1.6389088E-3,-1.7706726E-2,-1E-1,-4.403015E-2,-1.7050458E-2,7.368278E-2,-7.076106E-5,-8.105856E-2],"categories":[],"categories_nodes":[],"categories_segments":[],"categories_sizes":[],"default_left":[0,0,0,0,0,0,0,0,0,0,0,0,0,0,0,0,0,0,0,0,0,0,0,0,0,0,0,0,0,0,0,0,0,0,0,0,0,0,0,0,0,0,0,0,0,0,0,0,0,0,0,0,0,0,0,0,0,0,0,0,0,0,0,0,0,0,0,0,0,0,0,0,0,0,0,0,0,0,0,0,0,0,0,0,0,0,0],"id":2,"left_children":[1,3,5,7,9,-1,11,13,15,17,19,21,23,25,27,29,31,33,35,37,39,41,43,45,47,49,51,53,55,57,59,61,63,65,67,69,71,73,-1,75,77,-1,-1,-1,-1,79,81,83,85,-1,-1,-1,-1,-1,-1,-1,-1,-1,-1,-1,-1,-1,-1,-1,-1,-1,-1,-1,-1,-1,-1,-1,-1,-1,-1,-1,-1,-1,-1,-1,-1,-1,-1,-1,-1,-1,-1],"loss_changes":[7.156254E0,5.86894E0,2.6014366E0,5.832466E0,8.25737E0,0E0,6.075912E0,5.656279E0,4.659599E0,5.4956264E0,6.089005E0,1.8479638E0,4.9716625E0,4.489966E0,8.782917E0,4.3308554E0,3.1281476E0,5.731875E0,4.4030757E0,2.1336374E0,5.0874534E0,1.372973E0,6.32247E-1,9.3862724E-1,2.9035788E0,3.7724614E0,4.424147E0,7.174921E0,5.9524775E0,9.946499E-1,5.7628417E0,2.9631152E0,2.2394757E0,5.5226703E0,6.073416E0,4.616761E0,2.76186E-1,2.6290836E0,0E0,5.6106367E0,4.9764223E0,0E0,0E0,0E0,0E0,2.9947154E-2,1.247549E0,2.054182E0,2.5153177E0,0E0,0E0,0E0,0E0,0E0,0E0,0E0,0E0,0E0,0E0,0E0,0E0,0E0,0E0,0E0,0E0,0E0,0E0,0E0,0E0,0E0,0E0,0E0,0E0,0E0,0E0,0E0,0E0,0E0,0E0,0E0,0E0,0E0,0E0,0E0,0E0,0E0,0E0],"parents":[2147483647,0,0,1,1,2,2,3,3,4,4,6,6,7,7,8,8,9,9,10,10,11,11,12,12,13,13,14,14,15,15,16,16,17,17,18,18,19,19,20,20,21,21,22,22,23,23,24,24,25,25,26,26,27,27,28,28,29,29,30,30,31,31,32,32,33,33,34,34,35,35,36,36,37,37,39,39,40,40,45,45,46,46,47,47,48,48],"right_children":[2,4,6,8,10,-1,12,14,16,18,20,22,24,26,28,30,32,34,36,38,40,42,44,46,48,50,52,54,56,58,60,62,64,66,68,70,72,74,-1,76,78,-1,-1,-1,-1,80,82,84,86,-1,-1,-1,-1,-1,-1,-1,-1,-1,-1,-1,-1,-1,-1,-1,-1,-1,-1,-1,-1,-1,-1,-1,-1,-1,-1,-1,-1,-1,-1,-1,-1,-1,-1,-1,-1,-1,-1],"split_conditions":[2.163086E-1,1.8463135E-3,5.371094E-1,1.5588379E-1,4.3798828E-1,-1E-1,5.605469E-1,4.074707E-1,9.399414E-2,1.0253906E-1,4.387207E-1,5.498047E-1,5.8935547E-1,3.3789062E-1,1.1743164E-1,5.493164E-1,9.9243164E-2,4.345703E-1,3.7719727E-2,9.5703125E-2,2.0446777E-3,3.8635254E-2,5.566406E-1,5.9765625E-1,6.0009766E-1,1.7529297E-1,1.1743164E-1,3.930664E-2,5.053711E-1,3.2641602E-1,1.9067383E-1,3.8964844E-1,6.561279E-2,4.008789E-1,1.0900879E-1,1.7004395E-1,1.1242676E-1,3.1884766E-1,4.0188845E-2,7.4768066E-4,4.7973633E-1,-6.531648E-2,4.926322E-2,1E-1,2.111614E-2,2.2277832E-1,6.870117E-1,5.9277344E-1,7.753906E-1,4.0183966E-3,1.9849308E-2,-1.5090083E-2,8.615758E-2,-4.4910185E-2,8.144587E-2,-6.553215E-2,9.106257E-2,1.5744884E-4,1E-1,7.520061E-2,-1E-1,-9.988156E-2,3.5991866E-2,-2.2954999E-2,6.619289E-2,7.7109864E-5,9.607894E-2,7.132446E-2,1.05270455E-2,1.510149E-2,6.602173E-2,-1E-1,-2.2520883E-2,-8.2008414E-2,-6.1042076E-3,-3.6478632E-3,1E-1,-4.7188528E-2,-1.2491893E-2,1.6389088E-3,-1.7706726E-2,-1E-1,-4.403015E-2,-1.7050458E-2,7.368278E-2,-7.076106E-5,-8.105856E-2],"split_indices":[20,13,30,10,30,0,30,1,7,15,30,30,30,1,27,1,7,27,7,7,20,4,30,16,30,5,27,19,31,4,10,4,25,4,1,27,15,4,0,20,30,0,0,0,0,20,16,30,16,0,0,0,0,0,0,0,0,0,0,0,0,0,0,0,0,0,0,0,0,0,0,0,0,0,0,0,0,0,0,0,0,0,0,0,0,0,0],"split_type":[0,0,0,0,0,0,0,0,0,0,0,0,0,0,0,0,0,0,0,0,0,0,0,0,0,0,0,0,0,0,0,0,0,0,0,0,0,0,0,0,0,0,0,0,0,0,0,0,0,0,0,0,0,0,0,0,0,0,0,0,0,0,0,0,0,0,0,0,0,0,0,0,0,0,0,0,0,0,0,0,0,0,0,0,0,0,0],"sum_hessian":[7.022538E3,6.970813E3,5.172492E1,2.0944153E3,4.876398E3,1.9976864E0,4.9727234E1,2.0643833E3,3.003181E1,3.8175425E3,1.0588555E3,6.5028915E0,4.3224342E1,2.012602E3,5.1781322E1,1.3524926E1,1.6506886E1,3.727464E3,9.007839E1,2.550935E1,1.0333461E3,2.249291E0,4.2536006E0,2.022997E1,2.299437E1,1.9943265E3,1.8275476E1,1.6769548E1,3.5011772E1,9.020678E0,4.504248E0,5.0003242E0,1.1506562E1,3.6416577E3,8.580638E1,8.7580185E1,2.4982047E0,2.400699E1,1.5023592E0,7.533914E2,2.7995465E2,1.2489053E0,1.0003858E0,2.5040455E0,1.7495551E0,2.249011E0,1.798096E1,8.504652E0,1.4489718E1,1.8311923E3,1.6313435E2,6.004167E0,1.2271308E1,6.753027E0,1.0016521E1,3.3257763E1,1.75401E0,1.000944E0,8.019733E0,3.0056615E0,1.4985864E0,2.9990592E0,2.0012648E0,3.4952826E0,8.011279E0,3.6366555E3,5.0021453E0,2.1256435E1,6.454994E1,6.3303703E1,2.4276484E1,1.2485505E0,1.249654E0,1.775173E1,6.2552605E0,7.506346E2,2.7568016E0,4.977307E1,2.3018158E2,1.0002127E0,1.2487981E0,1.0484907E1,7.4960537E0,3.9995978E0,4.5050545E0,8.499286E0,5.9904327E0],"tree_param":{"num_deleted":"0","num_feature":"32","num_nodes":"87","size_leaf_vector":"1"}},{"base_weights":[-7.926026E-4,2.2945208E-2,-5.9185322E-2,3.558815E-2,-1.0204918E-1,-5.813546E-1,-5.031547E-2,2.8574223E-2,2.9612458E-1,-1E0,-8.579793E-2,-1E0,-2.0598608E-1,-5.621746E-2,3.8945854E-1,3.226381E-2,-4.121944E-1,3.4825003E-1,-1E0,-1E-1,1.5358531E-4,-2.4563064E-1,5.8781677E-3,-1E0,-2.3457535E-2,1E-1,-5.526179E-1,8.010808E-2,-7.466841E-2,9.193696E-1,1.4197093E-1,2.9156325E-2,5.503005E-1,-2.219197E-1,-9.5529336E-1,1.2562916E-1,6.85239E-1,1.3677335E-5,-1E-1,-1.4073192E-1,-6.4959586E-1,-5.6625985E-2,4.8710728E-1,-1E-1,-1.7304567E-4,6.496878E-2,-6.8704434E-2,-6.853235E-1,3.386815E-1,-6.150352E-1,1.1205785E-1,-6.474276E-2,-3.793186E-1,1E-1,2.3072734E-1,1E-1,-4.378568E-2,3.1728395E-3,-5.7473995E-2,-3.465386E-2,8.823863E-2,1.9389192E-3,-1E-1,-1E-1,-1.8423934E-2,-3.442489E-2,5.305781E-2,1E-1,4.7651023E-2,-3.3243578E-2,3.9739306E-3,-7.5591646E-2,4.0174697E-2,1.2127851E-2,-2.1546537E-2,6.1275598E-2,-9.863546E-2,-7.982494E-2,5.0316554E-2,5.006544E-2,7.3214713E-4,-6.803341E-3,-9.7669765E-2,2.6243335E-2,1.1141564E-3,-8.697635E-3,9.920746E-3,-9.43457E-2,-1.7066985E-2,-9.0235926E-2,1E-1,-4.5417797E-2,3.0915508E-2],"categories":[],"categories_nodes":[],"categories_segments":[],"categories_sizes":[],"default_left":[0,0,0,0,0,0,0,0,0,0,0,0,0,0,0,0,0,0,0,0,0,0,0,0,0,0,0,0,0,0,0,0,0,0,0,0,0,0,0,0,0,0,0,0,0,0,0,0,0,0,0,0,0,0,0,0,0,0,0,0,0,0,0,0,0,0,0,0,0,0,0,0,0,0,0,0,0,0,0,0,0,0,0,0,0,0,0,0,0,0,0,0,0],"id":3,"left_children":[1,3,5,7,9,11,13,15,17,19,21,23,25,27,29,31,33,35,37,-1,-1,39,41,43,45,-1,47,49,51,53,55,57,59,61,63,65,67,-1,-1,69,71,73,75,-1,-1,-1,-1,77,79,81,83,85,87,-1,89,-1,91,-1,-1,-1,-1,-1,-1,-1,-1,-1,-1,-1,-1,-1,-1,-1,-1,-1,-1,-1,-1,-1,-1,-1,-1,-1,-1,-1,-1,-1,-1,-1,-1,-1,-1,-1,-1],"loss_changes":[9.719695E0,7.8822136E0,9.357523E0,8.266474E0,7.900477E0,6.804202E0,5.197249E0,7.186211E0,8.989439E0,1.0070944E0,6.63501E0,2.3391457E0,1.07497425E1,4.9571853E0,3.3489814E0,7.0268044E0,3.579176E0,8.549252E0,1.0014839E0,0E0,0E0,6.902233E0,8.710595E0,9.940109E-1,2.0104468E0,0E0,2.3616667E0,5.2912307E0,5.219619E0,1.6117702E0,3.8951383E0,6.7748914E0,8.058653E0,6.1702824E0,1.301364E0,1.36046915E1,4.364004E0,0E0,0E0,4.5902214E0,4.0757217E0,7.271173E0,6.767366E0,0E0,0E0,0E0,0E0,2.549274E0,1.57484E-1,2.008086E0,3.421397E0,6.1353226E0,6.255734E0,0E0,6.283995E0,0E0,2.6770763E0,0E0,0E0,0E0,0E0,0E0,0E0,0E0,0E0,0E0,0E0,0E0,0E0,0E0,0E0,0E0,0E0,0E0,0E0,0E0,0E0,0E0,0E0,0E0,0E0,0E0,0E0,0E0,0E0,0E0,0E0,0E0,0E0,0E0,0E0,0E0,0E0],"parents":[2147483647,0,0,1,1,2,2,3,3,4,4,5,5,6,6,7,7,8,8,9,9,10,10,11,11,12,12,13,13,14,14,15,15,16,16,17,17,18,18,21,21,22,22,23,23,24,24,26,26,27,27,28,28,29,29,30,30,31,31,32,32,33,33,34,34,35,35,36,36,39,39,40,40,41,41,42,42,47,47,48,48,49,49,50,50,51,51,52,52,54,54,56,56],"right_children":[2,4,6,8,10,12,14,16,18,20,22,24,26,28,30,32,34,36,38,-1,-1,40,42,44,46,-1,48,50,52,54,56,58,60,62,64,66,68,-1,-1,70,72,74,76,-1,-1,-1,-1,78,80,82,84,86,88,-1,90,-1,92,-1,-1,-1,-1,-1,-1,-1,-1,-1,-1,-1,-1,-1,-1,-1,-1,-1,-1,-1,-1,-1,-1,-1,-1,-1,-1,-1,-1,-1,-1,-1,-1,-1,-1,-1,-1],"split_conditions":[2.4707031E-1,3.1176758E-1,2.5219727E-1,2.9223633E-1,1.5966797E-1,4.7088623E-2,2.3730469E-1,2.1276855E-1,3.0932617E-1,2.0874023E-1,8.7646484E-2,1.5930176E-1,3.186035E-2,3.6743164E-1,2.4633789E-1,2.0117188E-1,1.3183594E-1,2.1459961E-1,2.9760742E-1,-1E-1,1.5358531E-4,6.8115234E-2,5.9472656E-1,1.03149414E-1,1.0223389E-3,1E-1,3.0541992E-1,2.5073242E-1,1.619873E-1,4.428711E-1,3.2250977E-1,6.4746094E-1,2.9492188E-1,1.1993408E-2,3.6987305E-1,3.630371E-1,1.3830566E-1,1.3677335E-5,-1E-1,1.817627E-1,7.314453E-1,1.6906738E-1,2.9345703E-1,-1E-1,-1.7304567E-4,6.496878E-2,-6.8704434E-2,2.9174805E-1,4.8291016E-1,2.3400879E-1,2.0141602E-2,6.2805176E-2,1.4233398E-1,1E-1,4.777832E-1,1E-1,4.6691895E-2,3.1728395E-3,-5.7473995E-2,-3.465386E-2,8.823863E-2,1.9389192E-3,-1E-1,-1E-1,-1.8423934E-2,-3.442489E-2,5.305781E-2,1E-1,4.7651023E-2,-3.3243578E-2,3.9739306E-3,-7.5591646E-2,4.0174697E-2,1.2127851E-2,-2.1546537E-2,6.1275598E-2,-9.863546E-2,-7.982494E-2,5.0316554E-2,5.006544E-2,7.3214713E-4,-6.803341E-3,-9.7669765E-2,2.6243335E-2,1.1141564E-3,-8.697635E-3,9.920746E-3,-9.43457E-2,-1.7066985E-2,-9.0235926E-2,1E-1,-4.5417797E-2,3.0915508E-2],"split_indices":[21,13,21,13,30,26,4,20,6,6,6,5,6,30,4,20,19,27,13,0,0,6,31,4,1,0,6,30,13,21,21,31,6,4,6,30,6,0,0,29,1,6,26,0,0,0,0,31,16,30,5,31,6,0,21,0,13,0,0,0,0,0,0,0,0,0,0,0,0,0,0,0,0,0,0,0,0,0,0,0,0,0,0,0,0,0,0,0,0,0,0,0,0],"split_type":[0,0,0,0,0,0,0,0,0,0,0,0,0,0,0,0,0,0,0,0,0,0,0,0,0,0,0,0,0,0,0,0,0,0,0,0,0,0,0,0,0,0,0,0,0,0,0,0,0,0,0,0,0,0,0,0,0,0,0,0,0,0,0,0,0,0,0,0,0,0,0,0,0,0,0,0,0,0,0,0,0,0,0,0,0,0,0,0,0,0,0,0,0],"sum_hessian":[7.0102046E3,4.984509E3,2.0256957E3,4.527297E3,4.57212E2,3.2756794E1,1.9929388E3,4.409693E3,1.1760408E2,5.4964643E0,4.5171555E2,1.1993963E1,2.0762833E1,1.9674075E3,2.5531452E1,4.374006E3,3.5687153E1,1.14105934E2,3.4981449E0,4.49552E0,1.000944E0,1.6404024E2,2.876753E2,9.492471E0,2.5014915E0,3.7584949E0,1.7004337E1,2.3413681E2,1.7332706E3,7.263758E0,1.8267694E1,4.348974E3,2.5031408E1,2.7471228E1,8.215927E0,6.953963E1,4.4566303E1,1.0009362E0,2.4972088E0,1.312949E2,3.274532E1,2.5538686E2,3.2288437E1,8.491541E0,1.0009303E0,1.2522E0,1.2492917E0,1.5001813E1,2.0025237E0,9.486451E0,2.2465036E2,1.6797559E3,5.3514748E1,3.7595615E0,3.5041966E0,1.7546307E0,1.6513063E1,4.331473E3,1.750083E1,6.752343E0,1.8279066E1,2.2487387E1,4.9838414E0,5.729974E0,2.4859529E0,3.2258606E1,3.7281025E1,9.5189905E0,3.5047314E1,6.325784E1,6.803707E1,2.9993158E1,2.7521617E0,1.2057547E2,1.3481139E2,3.0289642E1,1.9987949E0,1.3999939E1,1.001874E0,1.001883E0,1.0006405E0,4.2486424E0,5.237809E0,8.957461E1,1.3507574E2,1.4795773E3,2.0017862E2,1.3497865E1,4.0016884E1,1.7492597E0,1.7549369E0,7.502486E0,9.010577E0],"tree_param":{"num_deleted":"0","num_feature":"32","num_nodes":"93","size_leaf_vector":"1"}},{"base_weights":[-1.1199159E-3,1.8378856E-2,-5.3369455E-2,3.1629518E-2,-1.1611252E-1,-4.3104544E-2,-3.6426345E-1,-8.608188E-2,4.2734955E-2,-8.879818E-2,-6.88058E-1,-6.648186E-2,1.08518034E-1,2.870519E-1,-5.1418656E-1,5.9048957E-1,-1.2698883E-1,4.571834E-2,-4.5502856E-1,-3.8935372E-1,-3.403329E-2,3.7528828E-2,-1E0,1.4054453E-1,-8.759743E-2,-3.070301E-1,1.8036355E-1,5.140117E-1,-7.816452E-2,-6.6482544E-1,4.4145264E-2,7.445414E-1,-6.866329E-2,-1.4611964E-1,7.221613E-1,4.184907E-2,3.7223187E-1,-1.8316433E-1,-1E-1,-5.283616E-2,-5.8628005E-1,-1.6489935E-1,7.449216E-2,-1E-1,4.351187E-1,-8.65087E-2,-1E0,-2.760081E-2,4.7620717E-1,6.8480384E-1,-9.276601E-2,8.069944E-1,-4.6801823E-1,2.578804E-1,-1.0496695E-1,1E0,-2.4586837E-1,-9.002576E-1,-1.3547349E-1,3.600632E-1,-9.7174786E-2,9.016579E-2,-2.9962862E-2,-2.264173E-2,6.569858E-3,1E-1,1.3468884E-3,4.3748557E-3,-5.256499E-2,6.853076E-2,1.0484349E-2,1.520803E-2,-8.6773336E-2,-2.9296055E-2,3.6038693E-2,-1E-1,-3.5500553E-2,-1.00558875E-2,-7.733304E-2,1E-1,5.029488E-3,1E-1,-6.3072587E-3,-1E-1,8.330713E-2,-1E-1,1.1277378E-3,1.1248133E-2,-4.5104798E-2,1E-1,2.760393E-2,-3.2021295E-2,9.850845E-2,-7.0481184E-3,-3.1797912E-2,-1.6337987E-2,1E-1,-7.675491E-2,-2.5684924E-3,8.6377375E-2,2.1244243E-2,-5.4404136E-2,1.1081556E-2,1.6748108E-3,1E-1,-8.8881694E-2,8.15227E-2,-3.5279028E-2,-1E-1,5.330668E-2,-8.09339E-2,7.456116E-2,-5.1612E-2],"categories":[],"categories_nodes":[],"categories_segments":[],"categories_sizes":[],"default_left":[0,0,0,0,0,0,0,0,0,0,0,0,0,0,0,0,0,0,0,0,0,0,0,0,0,0,0,0,0,0,0,0,0,0,0,0,0,0,0,0,0,0,0,0,0,0,0,0,0,0,0,0,0,0,0,0,0,0,0,0,0,0,0,0,0,0,0,0,0,0,0,0,0,0,0,0,0,0,0,0,0,0,0,0,0,0,0,0,0,0,0,0,0,0,0,0,0,0,0,0,0,0,0,0,0,0,0,0,0,0,0,0,0],"id":4,"left_children":[1,3,5,7,9,11,13,15,17,19,21,23,25,27,29,31,33,35,37,39,41,43,45,47,49,51,53,55,-1,57,59,61,-1,63,65,67,69,71,-1,73,75,77,79,-1,81,83,85,87,89,91,93,95,97,99,101,103,105,107,109,111,-1,-1,-1,-1,-1,-1,-1,-1,-1,-1,-1,-1,-1,-1,-1,-1,-1,-1,-1,-1,-1,-1,-1,-1,-1,-1,-1,-1,-1,-1,-1,-1,-1,-1,-1,-1,-1,-1,-1,-1,-1,-1,-1,-1,-1,-1,-1,-1,-1,-1,-1,-1,-1],"loss_changes":[7.136446E0,9.094402E0,6.0594106E0,6.0750203E0,7.089605E0,6.543104E0,6.075794E0,1.1165815E1,6.324237E0,7.1963253E0,5.051503E0,6.998968E0,7.420727E0,3.3127563E0,4.210186E0,5.0411654E0,6.257581E0,5.3162146E0,5.2567253E0,4.436475E0,5.2897873E0,3.7988389E0,2.1270466E0,8.383657E0,5.8559504E0,6.966054E0,4.6931987E0,4.6649604E0,0E0,4.7645454E0,4.0405746E0,3.719616E0,0E0,6.3283353E0,1.751409E0,4.5202284E0,4.0551267E0,4.8767724E0,0E0,2.683991E0,4.409795E0,6.529017E0,5.086863E0,0E0,2.3682795E0,4.275334E0,1.556221E0,5.967971E0,5.8659077E0,3.262013E0,7.2155733E0,2.5354714E0,4.316804E0,4.3916817E0,4.397734E0,9.3403816E-1,4.3047557E0,3.2300816E0,6.3994455E0,3.5945258E0,0E0,0E0,0E0,0E0,0E0,0E0,0E0,0E0,0E0,0E0,0E0,0E0,0E0,0E0,0E0,0E0,0E0,0E0,0E0,0E0,0E0,0E0,0E0,0E0,0E0,0E0,0E0,0E0,0E0,0E0,0E0,0E0,0E0,0E0,0E0,0E0,0E0,0E0,0E0,0E0,0E0,0E0,0E0,0E0,0E0,0E0,0E0,0E0,0E0,0E0,0E0,0E0,0E0],"parents":[2147483647,0,0,1,1,2,2,3,3,4,4,5,5,6,6,7,7,8,8,9,9,10,10,11,11,12,12,13,13,14,14,15,15,16,16,17,17,18,18,19,19,20,20,21,21,22,22,23,23,24,24,25,25,26,26,27,27,29,29,30,30,31,31,33,33,34,34,35,35,36,36,37,37,39,39,40,40,41,41,42,42,44,44,45,45,46,46,47,47,48,48,49,49,50,50,51,51,52,52,53,53,54,54,55,55,56,56,57,57,58,58,59,59],"right_children":[2,4,6,8,10,12,14,16,18,20,22,24,26,28,30,32,34,36,38,40,42,44,46,48,50,52,54,56,-1,58,60,62,-1,64,66,68,70,72,-1,74,76,78,80,-1,82,84,86,88,90,92,94,96,98,100,102,104,106,108,110,112,-1,-1,-1,-1,-1,-1,-1,-1,-1,-1,-1,-1,-1,-1,-1,-1,-1,-1,-1,-1,-1,-1,-1,-1,-1,-1,-1,-1,-1,-1,-1,-1,-1,-1,-1,-1,-1,-1,-1,-1,-1,-1,-1,-1,-1,-1,-1,-1,-1,-1,-1,-1,-1],"split_conditions":[2.631836E-1,1.5405273E-1,1.5795898E-1,1.1956787E-1,1.7468262E-1,6.2805176E-2,5.649414E-1,1.7895508E-1,2.2033691E-1,1.6223145E-1,1.6125488E-1,3.6743164E-1,3.449707E-1,1.0726929E-2,2.1813965E-1,1.6937256E-3,4.852295E-2,6.726074E-2,8.544922E-4,2.9760742E-1,5.3222656E-1,1.5551758E-1,3.803711E-1,7.019043E-2,2.8027344E-1,7.6660156E-2,1.2988281E-1,2.6123047E-1,-7.816452E-2,4.4433594E-1,4.7192383E-1,1.161499E-1,-6.866329E-2,1.583252E-1,3.6743164E-2,6.4746094E-1,3.190918E-1,1.3447266E0,-1E-1,2.775879E-1,1.8383789E-1,5.209961E-1,5.3515625E-1,-1E-1,1.8164062E-1,2.532959E-2,2.2436523E-1,6.921387E-2,3.5424805E-1,3.8842773E-1,2.5291443E-3,4.159546E-2,1.381836E-1,3.6157227E-1,1.3928223E-1,2.705078E-1,7.8964233E-4,2.3303223E-1,6.2939453E-1,1.9677734E-1,-9.7174786E-2,9.016579E-2,-2.9962862E-2,-2.264173E-2,6.569858E-3,1E-1,1.3468884E-3,4.3748557E-3,-5.256499E-2,6.853076E-2,1.0484349E-2,1.520803E-2,-8.6773336E-2,-2.9296055E-2,3.6038693E-2,-1E-1,-3.5500553E-2,-1.00558875E-2,-7.733304E-2,1E-1,5.029488E-3,1E-1,-6.3072587E-3,-1E-1,8.330713E-2,-1E-1,1.1277378E-3,1.1248133E-2,-4.5104798E-2,1E-1,2.760393E-2,-3.2021295E-2,9.850845E-2,-7.0481184E-3,-3.1797912E-2,-1.6337987E-2,1E-1,-7.675491E-2,-2.5684924E-3,8.6377375E-2,2.1244243E-2,-5.4404136E-2,1.1081556E-2,1.6748108E-3,1E-1,-8.8881694E-2,8.15227E-2,-3.5279028E-2,-1E-1,5.330668E-2,-8.09339E-2,7.456116E-2,-5.1612E-2],"split_indices":[21,29,13,11,10,31,11,31,20,29,29,30,30,16,13,3,28,9,4,13,31,29,30,4,11,31,13,26,0,30,30,11,0,27,18,31,31,11,0,13,27,31,31,0,10,7,10,13,21,30,31,27,27,30,13,21,12,26,11,31,0,0,0,0,0,0,0,0,0,0,0,0,0,0,0,0,0,0,0,0,0,0,0,0,0,0,0,0,0,0,0,0,0,0,0,0,0,0,0,0,0,0,0,0,0,0,0,0,0,0,0,0,0],"split_type":[0,0,0,0,0,0,0,0,0,0,0,0,0,0,0,0,0,0,0,0,0,0,0,0,0,0,0,0,0,0,0,0,0,0,0,0,0,0,0,0,0,0,0,0,0,0,0,0,0,0,0,0,0,0,0,0,0,0,0,0,0,0,0,0,0,0,0,0,0,0,0,0,0,0,0,0,0,0,0,0,0,0,0,0,0,0,0,0,0,0,0,0,0,0,0,0,0,0,0,0,0,0,0,0,0,0,0,0,0,0,0,0,0],"sum_hessian":[7.0027812E3,5.100134E3,1.9026478E3,4.64341E3,4.567237E2,1.8429374E3,5.9710365E1,3.9973123E2,4.2436787E3,4.3700876E2,1.9714928E1,1.5972356E3,2.4570181E2,1.1001511E1,4.8708855E1,2.2024645E1,3.777066E2,4.2192983E3,2.4380545E1,6.641371E1,3.7059506E2,6.4941745E0,1.3220753E1,1.4730789E2,1.4499277E3,3.5735767E1,2.0996603E2,9.502491E0,1.4990199E0,3.8209206E1,1.0499647E1,2.0026037E1,1.9986079E0,3.7019427E2,7.5123134E0,4.170999E3,4.829924E1,1.9674711E1,4.705834E0,2.4985518E1,4.1428192E1,1.6776962E2,2.0282542E2,1.2471956E0,5.2469788E0,2.7473617E0,1.0473391E1,9.8755516E1,4.8552376E1,8.76376E0,1.441164E3,4.0054727E0,3.1730295E1,1.6518562E2,4.4780415E1,5.2547455E0,4.2477455E0,2.5961853E1,1.2247353E1,8.501468E0,1.9981791E0,1.7525461E1,2.500576E0,2.6838422E2,1.0181005E2,5.010095E0,2.502218E0,4.1580044E3,1.2994416E1,2.152887E1,2.677037E1,1.3729162E1,5.945549E0,1.5986677E1,8.998841E0,1.1968003E1,2.946019E1,1.5277881E2,1.4990806E1,3.505475E0,1.9931996E2,1.5026878E0,3.7442908E0,1.2467649E0,1.5005968E0,8.973864E0,1.499527E0,7.475868E1,2.3996834E1,1.0513454E1,3.803892E1,2.0008123E0,6.7629476E0,1.3125956E3,1.2856831E2,1.7499526E0,2.25552E0,1.8480677E1,1.32496195E1,1.0267222E1,1.549184E2,1.4254369E1,3.0526045E1,1.0004866E0,4.2542586E0,2.746139E0,1.5016065E0,9.738896E0,1.6222958E1,6.252854E0,5.994499E0,6.0071535E0,2.4943144E0],"tree_param":{"num_deleted":"0","num_feature":"32","num_nodes":"113","size_leaf_vector":"1"}},{"base_weights":[-2.3396784E-3,5.6077694E-3,-1.688714E-1,8.275025E-3,-4.3484238E-1,-4.630448E-1,-1.1790078E-1,4.7000065E-3,2.2623636E-1,-7.004832E-1,-2.1616709E-1,-8.808535E-1,-1.21190816E-1,-1.5092248E-1,2.9302117E-1,1.2889438E-2,-1.085963E-1,1.8635243E-1,1E-1,-3.6605495E-1,-1E0,-5.1857984E-1,2.318767E-1,-1E0,-7.0402905E-2,-1E0,1.1583744E-1,8.914114E-2,-1.9773754E-1,5.1915586E-1,-2.829734E-1,1.1973403E-2,8.7375516E-1,-8.150439E-2,-6.144181E-1,7.9383075E-1,1.332476E-1,3.7320486E-1,-7.7518874E-1,-1E-1,-4.237785E-1,1.1200093E-1,-8.900252E-1,-7.708482E-2,4.9195054E-1,-4.6514673E-4,-1E0,6.741832E-2,-4.7206786E-1,-1E-1,-1.6438829E-2,4.5407218E-1,-3.952397E-1,3.1746346E-1,-8.2253724E-1,-2.4488461E-1,3.3577845E-1,9.029861E-1,8.37802E-2,-1E-1,2.2356577E-1,5.888545E-4,1.34068E-2,1E-1,-2.6769498E-2,-6.084849E-3,-6.690558E-2,5.7882328E-2,-7.433783E-2,-1.1754765E-2,1E-1,3.2938566E-2,-1.3606074E-2,-2.277465E-2,8.864373E-2,-2.2254879E-2,-1E-1,-1E-1,5.0316084E-2,-6.433394E-2,6.1828732E-2,-2.7635515E-2,-1E-1,9.3110435E-2,-3.4149915E-2,-4.4344123E-2,-1E-1,-8.9051746E-2,2.4865141E-2,-5.284338E-2,6.3732594E-2,2.6536008E-2,-1E-1,-1.3584144E-2,5.4988086E-2,-1E-1,4.1944887E-2,-4.2191103E-2,-9.705702E-3,6.2300175E-2,-3.309678E-2,1E-1,1.9680397E-3,-5.0563622E-2,6.8679325E-2,1E-1,-2.2784865E-2],"categories":[],"categories_nodes":[],"categories_segments":[],"categories_sizes":[],"default_left":[0,0,0,0,0,0,0,0,0,0,0,0,0,0,0,0,0,0,0,0,0,0,0,0,0,0,0,0,0,0,0,0,0,0,0,0,0,0,0,0,0,0,0,0,0,0,0,0,0,0,0,0,0,0,0,0,0,0,0,0,0,0,0,0,0,0,0,0,0,0,0,0,0,0,0,0,0,0,0,0,0,0,0,0,0,0,0,0,0,0,0,0,0,0,0,0,0,0,0,0,0,0,0,0,0,0,0],"id":5,"left_children":[1,3,5,7,9,11,13,15,17,19,21,23,25,27,29,31,33,35,-1,37,39,41,43,45,47,49,51,53,55,57,59,61,63,65,67,69,71,73,75,-1,77,79,81,-1,83,-1,85,-1,87,-1,-1,89,91,93,95,97,99,101,103,-1,105,-1,-1,-1,-1,-1,-1,-1,-1,-1,-1,-1,-1,-1,-1,-1,-1,-1,-1,-1,-1,-1,-1,-1,-1,-1,-1,-1,-1,-1,-1,-1,-1,-1,-1,-1,-1,-1,-1,-1,-1,-1,-1,-1,-1,-1,-1],"loss_changes":[9.317287E0,7.8976145E0,4.7534866E0,5.2041216E0,2.199173E0,6.608184E0,3.7710283E0,6.100277E0,4.171335E0,1.9664392E0,3.3234658E0,3.240696E0,6.172761E0,2.8821182E0,2.8521278E0,4.8243732E0,6.0235753E0,3.290601E0,0E0,3.7252312E0,7.759571E-2,3.4780095E0,3.043811E0,1.47789E0,1.8890828E0,9.208312E-1,4.0721416E0,9.062513E0,5.4549923E0,2.4755669E0,3.1485825E0,4.550045E0,2.5097375E0,5.0788417E0,3.8739567E0,3.9597096E0,5.222355E0,1.6583513E0,8.525548E-1,0E0,2.444302E0,2.7821E0,1.4940052E0,0E0,3.5109825E0,0E0,6.8416595E-3,0E0,1.4277556E0,0E0,0E0,2.8603537E0,5.5399723E0,3.7132287E0,3.765695E0,5.110038E0,3.6082454E0,1.8091612E0,3.281417E0,0E0,2.015834E0,0E0,0E0,0E0,0E0,0E0,0E0,0E0,0E0,0E0,0E0,0E0,0E0,0E0,0E0,0E0,0E0,0E0,0E0,0E0,0E0,0E0,0E0,0E0,0E0,0E0,0E0,0E0,0E0,0E0,0E0,0E0,0E0,0E0,0E0,0E0,0E0,0E0,0E0,0E0,0E0,0E0,0E0,0E0,0E0,0E0,0E0],"parents":[2147483647,0,0,1,1,2,2,3,3,4,4,5,5,6,6,7,7,8,8,9,9,10,10,11,11,12,12,13,13,14,14,15,15,16,16,17,17,19,19,20,20,21,21,22,22,23,23,24,24,25,25,26,26,27,27,28,28,29,29,30,30,31,31,32,32,33,33,34,34,35,35,36,36,37,37,38,38,40,40,41,41,42,42,44,44,46,46,48,48,51,51,52,52,53,53,54,54,55,55,56,56,57,57,58,58,60,60],"right_children":[2,4,6,8,10,12,14,16,18,20,22,24,26,28,30,32,34,36,-1,38,40,42,44,46,48,50,52,54,56,58,60,62,64,66,68,70,72,74,76,-1,78,80,82,-1,84,-1,86,-1,88,-1,-1,90,92,94,96,98,100,102,104,-1,106,-1,-1,-1,-1,-1,-1,-1,-1,-1,-1,-1,-1,-1,-1,-1,-1,-1,-1,-1,-1,-1,-1,-1,-1,-1,-1,-1,-1,-1,-1,-1,-1,-1,-1,-1,-1,-1,-1,-1,-1,-1,-1,-1,-1,-1,-1],"split_conditions":[5.2197266E-1,2.2033691E-1,4.099121E-1,9.863281E-2,2.133789E-1,5.419922E-1,1.7907715E-1,1.5332031E-1,2.163086E-1,1.8078613E-1,5.8203125E-1,6.176758E-1,4.1137695E-2,5.527344E-1,1.9836426E-4,6.854248E-2,1.7468262E-1,1.3208008E-1,1E-1,1.0321045E-1,6.040039E-1,5.6396484E-1,5.3710938E-3,3.6914062E-1,1.234436E-2,2.2888184E-3,6.359863E-2,4.7454834E-2,2.243042E-2,2.0043945E-1,5.3808594E-1,6.074219E-1,8.239746E-2,3.8842773E-1,3.6743164E-1,9.234619E-2,1.2878418E-2,2.3010254E-1,2.2680664E-1,-1E-1,1.9055176E-1,1.0273438E0,3.3081055E-2,-7.708482E-2,5.966797E-1,-4.6514673E-4,2.5772095E-2,6.741832E-2,4.006958E-2,-1E-1,-1.6438829E-2,7.330322E-2,5.629883E-1,8.590698E-3,5.683594E-1,6.3427734E-1,5.331421E-2,7.314453E-1,2.1069336E-1,-1E-1,5.517578E-1,5.888545E-4,1.34068E-2,1E-1,-2.6769498E-2,-6.084849E-3,-6.690558E-2,5.7882328E-2,-7.433783E-2,-1.1754765E-2,1E-1,3.2938566E-2,-1.3606074E-2,-2.277465E-2,8.864373E-2,-2.2254879E-2,-1E-1,-1E-1,5.0316084E-2,-6.433394E-2,6.1828732E-2,-2.7635515E-2,-1E-1,9.3110435E-2,-3.4149915E-2,-4.4344123E-2,-1E-1,-8.9051746E-2,2.4865141E-2,-5.284338E-2,6.3732594E-2,2.6536008E-2,-1E-1,-1.3584144E-2,5.4988086E-2,-1E-1,4.1944887E-2,-4.2191103E-2,-9.705702E-3,6.2300175E-2,-3.309678E-2,1E-1,1.9680397E-3,-5.0563622E-2,6.8679325E-2,1E-1,-2.2784865E-2],"split_indices":[21,20,30,15,21,21,4,29,27,21,30,11,13,11,9,28,10,11,0,19,30,30,19,30,5,5,13,5,27,4,21,1,3,27,30,5,9,20,20,0,21,11,19,0,30,0,13,0,27,0,0,4,21,13,21,11,27,11,4,0,21,0,0,0,0,0,0,0,0,0,0,0,0,0,0,0,0,0,0,0,0,0,0,0,0,0,0,0,0,0,0,0,0,0,0,0,0,0,0,0,0,0,0,0,0,0,0],"split_type":[0,0,0,0,0,0,0,0,0,0,0,0,0,0,0,0,0,0,0,0,0,0,0,0,0,0,0,0,0,0,0,0,0,0,0,0,0,0,0,0,0,0,0,0,0,0,0,0,0,0,0,0,0,0,0,0,0,0,0,0,0,0,0,0,0,0,0,0,0,0,0,0,0,0,0,0,0,0,0,0,0,0,0,0,0,0,0,0,0,0,0,0,0,0,0,0,0,0,0,0,0,0,0,0,0,0,0],"sum_hessian":[7.038158E3,6.7184956E3,3.1966263E2,6.6790303E3,3.946532E1,4.6013626E1,2.73649E2,6.572253E3,1.0677704E2,1.6824305E1,2.2641016E1,1.9996958E1,2.6016668E1,2.5387993E2,1.976907E1,6.1300396E3,4.4221332E2,1.0428125E2,2.4957871E0,1.0360085E1,6.4642196E0,1.3423336E1,9.21768E0,1.5744673E1,4.252284E0,4.4979644E0,2.1518703E1,4.1282543E1,2.1259738E2,1.4266673E1,5.5023966E0,6.1245366E3,5.5031238E0,4.2083447E2,2.1378843E1,7.2619348E0,9.701932E1,3.722234E0,6.637851E0,4.2187557E0,2.2454638E0,5.234874E0,8.188462E0,1.4939065E0,7.7237735E0,1.5011063E0,1.42435665E1,1.2523218E0,2.9999623E0,2.7470312E0,1.750933E0,1.3016092E1,8.50261E0,3.3535606E1,7.7469354E0,1.9583257E2,1.6764816E1,7.011365E0,7.2553086E0,1.4983389E0,4.004058E0,5.834795E3,2.897419E2,4.2546673E0,1.2484565E0,4.0760822E2,1.3226272E1,1.7449359E0,1.9633907E1,3.2524111E0,4.009524E0,5.600652E1,4.1012794E1,1.9708213E0,1.7514126E0,2.7036064E0,3.9342446E0,1.2441747E0,1.0012889E0,1.9921048E0,3.242769E0,3.9748435E0,4.2136188E0,4.9816947E0,2.7420788E0,2.2504127E0,1.1993155E1,1.7489352E0,1.2510271E0,1.74999E0,1.1266103E1,5.255189E0,3.2474217E0,1.1507333E1,2.2028275E1,6.2449126E0,1.5020229E0,8.827157E1,1.07561E2,1.1763083E1,5.0017333E0,5.009823E0,2.0015423E0,3.7506807E0,3.5046277E0,1.0026767E0,3.0013812E0],"tree_param":{"num_deleted":"0","num_feature":"32","num_nodes":"107","size_leaf_vector":"1"}},{"base_weights":[3.8642841E-3,1.8302399E-5,2.4850814E-1,7.0191966E-3,-1.1707914E-1,3.7416328E-2,5.576924E-1,1.7042458E-3,1.9231313E-1,-3.412358E-2,-4.80689E-1,2.339763E-1,-3.7394318E-1,1E0,3.1848186E-1,5.208174E-3,-2.6968974E-1,7.945505E-1,1.4086436E-1,-8.7049566E-2,3.871588E-1,-5.317189E-1,7.608428E-1,6.694509E-1,1.9108016E-2,-6.3738173E-1,2.0321833E-1,1E-1,2.096325E-2,-1.664823E-1,6.950575E-1,4.6205035E-4,1.7182928E-1,1.3397944E-1,-4.3391213E-1,9.707636E-1,-4.053668E-2,-4.4458884E-1,2.1965274E-1,-7.76638E-1,-3.8544685E-2,5.6539047E-1,-4.2029202E-1,-1E0,-4.245383E-1,2.2251248E-2,9.8543674E-2,-1.7231534E-1,8.3467346E-1,-5.500444E-1,5.523166E-1,4.3194136E-1,-8.603138E-1,8.073556E-1,-8.376924E-2,6.0645807E-1,-6.6530687E-1,9.9684876E-1,-2.7773857E-2,-1.1326864E-4,4.7670968E-2,-6.977081E-3,3.1796247E-2,-6.2393765E-3,1E-1,-5.3374853E-2,5.0855894E-2,1E-1,1.4118849E-3,8.044628E-3,-8.935588E-2,1.1764021E-2,5.597153E-2,-9.2318706E-2,6.897594E-2,-1.217946E-3,-8.5713536E-2,3.6716755E-2,1E-1,-8.065338E-2,1.2852519E-2,5.261488E-2,-1E-1,4.278254E-2,-4.9289625E-2,-6.8744764E-2,4.9246505E-2,1E-1,-3.4122542E-3,-1E-1,-7.995678E-3,7.965189E-2,-9.620751E-2,-2.3685452E-2,9.6813165E-2,-1E-1,-1.706246E-2,-1.9241518E-3,1E-1,9.429747E-2,-1.9512359E-2,-1E-1,1E-1,-1.7218037E-2,1E-1,-6.773737E-2,4.11444E-2],"categories":[],"categories_nodes":[],"categories_segments":[],"categories_sizes":[],"default_left":[0,0,0,0,0,0,0,0,0,0,0,0,0,0,0,0,0,0,0,0,0,0,0,0,0,0,0,0,0,0,0,0,0,0,0,0,0,0,0,0,0,0,0,0,0,0,0,0,0,0,0,0,0,0,0,0,0,0,0,0,0,0,0,0,0,0,0,0,0,0,0,0,0,0,0,0,0,0,0,0,0,0,0,0,0,0,0,0,0,0,0,0,0,0,0,0,0,0,0,0,0,0,0,0,0,0,0],"id":6,"left_children":[1,3,5,7,9,11,13,15,17,19,21,23,25,27,29,31,33,35,37,39,41,43,45,47,49,51,53,-1,-1,55,57,59,61,63,65,67,-1,69,71,73,75,77,79,81,83,-1,-1,85,87,89,91,93,95,97,-1,99,101,103,105,-1,-1,-1,-1,-1,-1,-1,-1,-1,-1,-1,-1,-1,-1,-1,-1,-1,-1,-1,-1,-1,-1,-1,-1,-1,-1,-1,-1,-1,-1,-1,-1,-1,-1,-1,-1,-1,-1,-1,-1,-1,-1,-1,-1,-1,-1,-1,-1],"loss_changes":[6.5632324E0,5.6315727E0,7.025472E0,6.3833447E0,1.16731415E1,5.3618674E0,5.7642403E0,5.994527E0,5.488069E0,7.0934324E0,4.9607086E0,4.174904E0,3.3949063E0,4.0603447E-1,6.1393633E0,4.9210415E0,5.384636E0,3.355692E0,7.834364E0,9.405982E0,5.3496966E0,3.6536198E0,1.7373455E-1,2.1962523E0,9.710849E0,3.9444056E0,5.3856306E0,0E0,0E0,6.2731767E0,4.1200304E0,4.5966554E0,6.106972E0,5.5428495E0,5.6676826E0,2.8778057E0,0E0,4.8395176E0,5.085757E0,4.609539E0,5.700612E0,3.5430431E0,1.5867897E0,3.661089E0,3.7174911E0,0E0,0E0,1.4515721E0,2.4008818E0,4.5400233E0,6.8694563E0,1.3952243E0,1.328165E0,1.4011548E0,0E0,1.9358191E0,7.698742E0,2.7788744E0,2.1327958E0,0E0,0E0,0E0,0E0,0E0,0E0,0E0,0E0,0E0,0E0,0E0,0E0,0E0,0E0,0E0,0E0,0E0,0E0,0E0,0E0,0E0,0E0,0E0,0E0,0E0,0E0,0E0,0E0,0E0,0E0,0E0,0E0,0E0,0E0,0E0,0E0,0E0,0E0,0E0,0E0,0E0,0E0,0E0,0E0,0E0,0E0,0E0,0E0],"parents":[2147483647,0,0,1,1,2,2,3,3,4,4,5,5,6,6,7,7,8,8,9,9,10,10,11,11,12,12,13,13,14,14,15,15,16,16,17,17,18,18,19,19,20,20,21,21,22,22,23,23,24,24,25,25,26,26,29,29,30,30,31,31,32,32,33,33,34,34,35,35,37,37,38,38,39,39,40,40,41,41,42,42,43,43,44,44,47,47,48,48,49,49,50,50,51,51,52,52,53,53,55,55,56,56,57,57,58,58],"right_children":[2,4,6,8,10,12,14,16,18,20,22,24,26,28,30,32,34,36,38,40,42,44,46,48,50,52,54,-1,-1,56,58,60,62,64,66,68,-1,70,72,74,76,78,80,82,84,-1,-1,86,88,90,92,94,96,98,-1,100,102,104,106,-1,-1,-1,-1,-1,-1,-1,-1,-1,-1,-1,-1,-1,-1,-1,-1,-1,-1,-1,-1,-1,-1,-1,-1,-1,-1,-1,-1,-1,-1,-1,-1,-1,-1,-1,-1,-1,-1,-1,-1,-1,-1,-1,-1,-1,-1,-1,-1],"split_conditions":[9.863281E-2,3.1958008E-1,1.2756348E-1,2.8588867E-1,1.864624E-2,8.129883E-2,1.4807129E-1,1.505127E-1,3.215332E-1,4.411621E-1,1.5991211E-1,1.2072754E-1,1.7578125E-1,1.2072754E-1,1.7736816E-1,5.019531E-1,3.3422852E-1,2.9907227E-1,3.253174E-2,5.770874E-2,3.8378906E-1,1.583252E-1,4.411621E-1,1.1071777E-1,5.1220703E-1,8.276367E-2,1.920166E-1,1E-1,2.096325E-2,1.07421875E-1,2.163086E-1,2.538681E-3,3.3789062E-1,3.1201172E-1,4.7851562E-1,1.8615723E-1,-4.053668E-2,1.8066406E-1,7.080078E-3,1.8035889E-2,8.8378906E-2,1.3708496E-1,4.2822266E-1,1.508789E-1,4.7387695E-1,2.2251248E-2,9.8543674E-2,3.274536E-2,5.0927734E-1,1.4953613E-1,2.2167969E-1,7.702637E-2,1.3464355E-1,9.350586E-2,-8.376924E-2,6.1376953E-1,1.4624023E-1,2.8442383E-1,2.3266602E-1,-1.1326864E-4,4.7670968E-2,-6.977081E-3,3.1796247E-2,-6.2393765E-3,1E-1,-5.3374853E-2,5.0855894E-2,1E-1,1.4118849E-3,8.044628E-3,-8.935588E-2,1.1764021E-2,5.597153E-2,-9.2318706E-2,6.897594E-2,-1.217946E-3,-8.5713536E-2,3.6716755E-2,1E-1,-8.065338E-2,1.2852519E-2,5.261488E-2,-1E-1,4.278254E-2,-4.9289625E-2,-6.8744764E-2,4.9246505E-2,1E-1,-3.4122542E-3,-1E-1,-7.995678E-3,7.965189E-2,-9.620751E-2,-2.3685452E-2,9.6813165E-2,-1E-1,-1.706246E-2,-1.9241518E-3,1E-1,9.429747E-2,-1.9512359E-2,-1E-1,1E-1,-1.7218037E-2,1E-1,-6.773737E-2,4.11444E-2],"split_indices":[15,13,29,13,15,29,29,29,31,13,3,4,27,4,29,26,30,26,3,27,11,27,13,15,31,27,27,0,0,15,29,14,30,30,11,29,0,11,15,23,7,3,11,11,31,0,0,9,31,4,11,27,4,29,0,31,15,30,29,0,0,0,0,0,0,0,0,0,0,0,0,0,0,0,0,0,0,0,0,0,0,0,0,0,0,0,0,0,0,0,0,0,0,0,0,0,0,0,0,0,0,0,0,0,0,0,0],"split_type":[0,0,0,0,0,0,0,0,0,0,0,0,0,0,0,0,0,0,0,0,0,0,0,0,0,0,0,0,0,0,0,0,0,0,0,0,0,0,0,0,0,0,0,0,0,0,0,0,0,0,0,0,0,0,0,0,0,0,0,0,0,0,0,0,0,0,0,0,0,0,0,0,0,0,0,0,0,0,0,0,0,0,0,0,0,0,0,0,0,0,0,0,0,0,0,0,0,0,0,0,0,0,0,0,0,0,0],"sum_hessian":[6.974519E3,6.867556E3,1.0696296E2,6.481016E3,3.865399E2,6.4231026E1,4.2731937E1,6.3012803E3,1.7973602E2,3.1562552E2,7.091436E1,4.375485E1,2.0476175E1,1.0748363E1,3.1983576E1,6.2219307E3,7.934964E1,1.3009451E1,1.6672658E2,2.8110367E2,3.4521866E1,6.866383E1,2.2505236E0,1.37572775E1,2.9997572E1,1.3987436E1,6.488739E0,9.497559E0,1.2508037E0,1.4223752E1,1.7759823E1,6.050585E3,1.713453E2,2.2999516E1,5.635012E1,1.1510115E1,1.499337E0,1.9225409E1,1.4750116E2,1.7486633E1,2.6361703E2,2.852518E1,5.9966855E0,9.480715E0,5.9183117E1,1.2485647E0,1.001959E0,2.2501938E0,1.1507084E1,1.4494461E1,1.5503112E1,2.2512882E0,1.1736148E1,4.2477503E0,2.2409887E0,5.4943514E0,8.729401E0,1.2261431E1,5.4983926E0,6.031386E3,1.919875E1,6.477545E1,1.0656986E2,2.0744226E1,2.2552893E0,5.1344814E1,5.005307E0,8.509442E0,3.0006716E0,9.240356E0,9.985052E0,1.1449938E2,3.300178E1,1.6234613E1,1.2520188E0,2.5637457E2,7.2424517E0,2.4269672E1,4.255509E0,3.244039E0,2.7526464E0,1.0012139E0,8.479501E0,4.003564E0,5.5179554E1,1.2485818E0,1.001612E0,9.007267E0,2.499817E0,5.2437305E0,9.25073E0,1.3758524E1,1.7445883E0,1.250184E0,1.001104E0,8.990236E0,2.745912E0,1.4988207E0,2.7489295E0,3.7455277E0,1.7488239E0,7.4774256E0,1.2519749E0,1.7503531E0,1.0511078E1,1.9992661E0,3.4991264E0],"tree_param":{"num_deleted":"0","num_feature":"32","num_nodes":"107","size_leaf_vector":"1"}},{"base_weights":[7.0406054E-3,3.6299697E-3,2.2569443E-1,5.583774E-3,-3.77669E-1,6.771077E-2,6.1658645E-1,6.322739E-3,-8.4155905E-1,-5.1911676E-1,1E-1,8.3932996E-1,4.1939502E-4,-5.5344263E-3,8.818091E-1,7.5054383E-3,-5.01909E-1,-1.9566763E-2,-1E-1,-1E0,-3.179866E-1,-7.0745163E-3,1E-1,-1.0036556E-1,3.5719734E-1,6.1515534E-1,-5.486912E-1,5.978656E-2,1E0,1.0913398E-2,-1.6147013E-1,5.983499E-2,-8.456292E-1,6.890387E-4,-1E-1,1.9057794E-1,-5.694499E-1,4.5449078E-1,-1.8637647E-1,-1E-1,6.005335E-1,1E-1,-2.0753242E-2,-1E0,2.9006226E-2,7.291735E-1,-8.350505E-2,1E0,6.003332E-3,-1.3744172E-4,1.0542707E-2,-1.0538929E-2,-5.9741337E-2,-1E-1,5.9050597E-2,-1E-1,1.4023105E-2,-2.7469834E-2,1E-1,-1E-1,-2.4957204E-2,-2.6485959E-2,9.392961E-2,-3.9472666E-2,7.5047375E-3,8.769127E-2,-5.3969484E-2,-1E-1,-2.4216825E-2,-6.233259E-5,1E-1,1E-1,3.8304277E-2],"categories":[],"categories_nodes":[],"categories_segments":[],"categories_sizes":[],"default_left":[0,0,0,0,0,0,0,0,0,0,0,0,0,0,0,0,0,0,0,0,0,0,0,0,0,0,0,0,0,0,0,0,0,0,0,0,0,0,0,0,0,0,0,0,0,0,0,0,0,0,0,0,0,0,0,0,0,0,0,0,0,0,0,0,0,0,0,0,0,0,0,0,0],"id":7,"left_children":[1,3,5,7,9,11,13,15,17,19,-1,21,23,25,27,29,31,-1,-1,33,35,-1,-1,37,39,41,43,45,47,49,51,53,55,-1,-1,57,59,61,63,-1,65,-1,-1,67,-1,69,-1,71,-1,-1,-1,-1,-1,-1,-1,-1,-1,-1,-1,-1,-1,-1,-1,-1,-1,-1,-1,-1,-1,-1,-1,-1,-1],"loss_changes":[5.230755E0,5.148806E0,6.6109724E0,4.308654E0,8.810861E0,4.041576E0,5.1008015E0,4.1327662E0,6.288309E-1,4.3345623E0,0E0,2.2682166E0,2.646411E0,3.7846766E0,2.891636E0,3.9488783E0,3.1327643E0,0E0,0E0,1.0277233E0,3.6878726E0,0E0,0E0,2.8235643E0,6.8410397E0,2.2297125E0,2.7651167E0,3.450852E0,1.8591537E0,7.804185E0,3.2514594E0,5.057612E0,4.283451E0,0E0,0E0,4.6344953E0,3.9189901E0,3.0363436E0,2.7746184E0,0E0,5.1111426E0,0E0,0E0,2.8813934E-1,0E0,7.6432276E-1,0E0,2.2841454E-1,0E0,0E0,0E0,0E0,0E0,0E0,0E0,0E0,0E0,0E0,0E0,0E0,0E0,0E0,0E0,0E0,0E0,0E0,0E0,0E0,0E0,0E0,0E0,0E0,0E0],"parents":[2147483647,0,0,1,1,2,2,3,3,4,4,5,5,6,6,7,7,8,8,9,9,11,11,12,12,13,13,14,14,15,15,16,16,19,19,20,20,23,23,24,24,25,25,26,26,27,27,28,28,29,29,30,30,31,31,32,32,35,35,36,36,37,37,38,38,40,40,43,43,45,45,47,47],"right_children":[2,4,6,8,10,12,14,16,18,20,-1,22,24,26,28,30,32,-1,-1,34,36,-1,-1,38,40,42,44,46,48,50,52,54,56,-1,-1,58,60,62,64,-1,66,-1,-1,68,-1,70,-1,72,-1,-1,-1,-1,-1,-1,-1,-1,-1,-1,-1,-1,-1,-1,-1,-1,-1,-1,-1,-1,-1,-1,-1,-1,-1],"split_conditions":[9.863281E-2,9.082031E-2,1.7004395E-1,3.166504E-1,2.0446777E-1,8.276367E-2,5.053711E-2,7.133789E-1,4.638672E-3,1.381836E-1,1E-1,4.8779297E-1,4.501343E-3,1.3092041E-2,2.8173828E-1,1.53125E0,4.736328E-2,-1.9566763E-2,-1E-1,1.015625E-1,3.1555176E-2,-7.0745163E-3,1E-1,2.319336E-2,1.907959E-1,2.0788574E-1,3.4332275E-2,2.0324707E-1,1.8322754E-1,3.2055664E-1,1.541748E-1,1.6320801E-1,4.421997E-2,6.890387E-4,-1E-1,1.5136719E-2,6.652832E-2,2.2003174E-2,1.3500977E-1,-1E-1,3.6193848E-2,1E-1,-2.0753242E-2,3.5949707E-2,2.9006226E-2,2.4304199E-1,-8.350505E-2,4.5562744E-2,6.003332E-3,-1.3744172E-4,1.0542707E-2,-1.0538929E-2,-5.9741337E-2,-1E-1,5.9050597E-2,-1E-1,1.4023105E-2,-2.7469834E-2,1E-1,-1E-1,-2.4957204E-2,-2.6485959E-2,9.392961E-2,-3.9472666E-2,7.5047375E-3,8.769127E-2,-5.3969484E-2,-1E-1,-2.4216825E-2,-6.233259E-5,1E-1,1E-1,3.8304277E-2],"split_indices":[15,15,27,18,10,27,6,1,29,27,0,1,7,7,30,11,6,0,0,27,29,0,0,25,11,11,7,11,10,6,20,27,26,0,0,29,29,9,29,0,7,0,0,6,0,30,0,26,0,0,0,0,0,0,0,0,0,0,0,0,0,0,0,0,0,0,0,0,0,0,0,0,0],"split_type":[0,0,0,0,0,0,0,0,0,0,0,0,0,0,0,0,0,0,0,0,0,0,0,0,0,0,0,0,0,0,0,0,0,0,0,0,0,0,0,0,0,0,0,0,0,0,0,0,0,0,0,0,0,0,0,0,0,0,0,0,0,0,0,0,0,0,0,0,0,0,0,0,0],"sum_hessian":[7.014198E3,6.90747E3,1.0672844E2,6.8732363E3,3.423362E1,7.684417E1,2.9884268E1,6.868238E3,4.9986463E0,3.2229084E1,2.0045362E0,5.2436004E0,7.160057E1,9.22492E0,2.0659348E1,6.853275E3,1.4962933E1,1.7504702E0,3.248176E0,5.240344E0,2.698874E1,1.9911981E0,3.252402E0,5.638988E1,1.52106905E1,4.243325E0,4.9815946E0,3.7445617E0,1.6914785E1,6.718705E3,1.3456981E2,5.9935527E0,8.96938E0,1.0000647E0,4.240279E0,9.00962E0,1.797912E1,6.993126E0,4.9396755E1,1.4935994E0,1.3717092E1,2.4957893E0,1.747536E0,2.9872043E0,1.9943904E0,2.2480385E0,1.496523E0,1.4678757E1,2.2360291E0,5.946571E3,7.721341E2,1.2033177E2,1.4238036E1,1.493663E0,4.49989E0,5.722852E0,3.2465281E0,6.5037045E0,2.5059152E0,3.9967315E0,1.39823885E1,2.998159E0,3.9949672E0,2.7204967E1,2.219179E1,1.1226773E1,2.490318E0,1.744266E0,1.2429383E0,1.0000626E0,1.2479761E0,1.2451487E1,2.2272701E0],"tree_param":{"num_deleted":"0","num_feature":"32","num_nodes":"73","size_leaf_vector":"1"}},{"base_weights":[4.7820397E-3,1.18690105E-2,-1.5048996E-1,1.8566097E-1,6.13933E-3,-6.930626E-1,-1.2938695E-1,3.2013384E-1,-1.831908E-1,9.101369E-3,-2.8664166E-1,-8.6012673E-1,5.0712597E-2,-1.0414901E-1,-5.866929E-1,3.5266834E-1,-1E0,1.8691891E-1,-5.3212696E-1,7.756024E-3,5.682632E-1,-4.6982324E-1,1.9476274E-1,-1E0,1.934995E-3,-1.3006741E-1,5.2930903E-1,-3.1337103E-1,-1E0,3.0385092E-1,1E0,-1E-1,-2.3085559E-2,-4.596124E-3,1E-1,-8.440358E-1,8.2526036E-2,6.2889694E-3,5.1376384E-1,8.8213784E-1,-2.626695E-1,-1E-1,-1.8586184E-1,-2.9115918E-1,4.8940063E-1,-1.7039098E-2,-1E0,-3.5665435E-1,-8.734926E-2,7.8224266E-1,-2.5488502E-1,-8.0336386E-1,1.8669684E-1,-1E-1,2.298455E-3,2.1636827E-2,7.3969044E-2,1E-1,-2.1205084E-2,1E-1,-2.5133608E-2,-9.64986E-2,3.8720604E-2,1E-1,-5.113685E-2,3.1174862E-4,1.9947093E-2,1E-1,-1.8185819E-2,1E-1,-5.9862677E-3,-9.2413835E-2,7.6592565E-2,-1E-1,-8.005569E-3,-1E-1,1.607526E-2,-3.1087546E-2,8.91334E-2,-3.5958353E-2,-1E-1,1.3369481E-2,-6.6260986E-2,2.6444823E-2,-1.5475986E-2,3.730064E-3,1E-1,5.210302E-2,-7.743632E-2,-1E-1,2.39844E-3,6.9262244E-2,-6.35595E-2],"categories":[],"categories_nodes":[],"categories_segments":[],"categories_sizes":[],"default_left":[0,0,0,0,0,0,0,0,0,0,0,0,0,0,0,0,0,0,0,0,0,0,0,0,0,0,0,0,0,0,0,0,0,0,0,0,0,0,0,0,0,0,0,0,0,0,0,0,0,0,0,0,0,0,0,0,0,0,0,0,0,0,0,0,0,0,0,0,0,0,0,0,0,0,0,0,0,0,0,0,0,0,0,0,0,0,0,0,0,0,0,0,0],"id":8,"left_children":[1,3,5,7,9,11,13,15,17,19,21,23,-1,25,27,29,31,33,35,37,39,41,43,45,-1,47,49,51,53,55,57,-1,-1,59,-1,61,63,65,67,69,71,-1,73,75,77,-1,79,81,83,85,87,89,91,-1,-1,-1,-1,-1,-1,-1,-1,-1,-1,-1,-1,-1,-1,-1,-1,-1,-1,-1,-1,-1,-1,-1,-1,-1,-1,-1,-1,-1,-1,-1,-1,-1,-1,-1,-1,-1,-1,-1,-1],"loss_changes":[7.7121906E0,6.6724634E0,3.4131136E0,1.0666579E1,5.630115E0,2.6866274E0,3.3516946E0,7.1740036E0,7.56077E0,4.8289337E0,5.8254843E0,1.3986788E0,0E0,4.689739E0,1.8181677E0,5.2216797E0,3.313656E-1,6.234677E0,5.8207445E0,4.7556496E0,4.2501845E0,8.111871E0,2.8096676E0,5.4606724E-1,0E0,2.5937839E0,2.4328513E0,2.9685507E0,1.093504E0,5.409685E0,2.3058844E0,0E0,0E0,7.59773E0,0E0,3.3503628E0,8.010606E0,3.9162705E0,7.8964987E0,1.6452274E0,4.106293E0,0E0,3.5265555E0,3.1419477E0,4.127433E0,0E0,2.3769379E-2,6.493548E0,5.4834003E0,2.2927647E0,1.8143723E0,1.3903875E0,3.1461697E0,0E0,0E0,0E0,0E0,0E0,0E0,0E0,0E0,0E0,0E0,0E0,0E0,0E0,0E0,0E0,0E0,0E0,0E0,0E0,0E0,0E0,0E0,0E0,0E0,0E0,0E0,0E0,0E0,0E0,0E0,0E0,0E0,0E0,0E0,0E0,0E0,0E0,0E0,0E0,0E0],"parents":[2147483647,0,0,1,1,2,2,3,3,4,4,5,5,6,6,7,7,8,8,9,9,10,10,11,11,13,13,14,14,15,15,16,16,17,17,18,18,19,19,20,20,21,21,22,22,23,23,25,25,26,26,27,27,28,28,29,29,30,30,33,33,35,35,36,36,37,37,38,38,39,39,40,40,42,42,43,43,44,44,46,46,47,47,48,48,49,49,50,50,51,51,52,52],"right_children":[2,4,6,8,10,12,14,16,18,20,22,24,-1,26,28,30,32,34,36,38,40,42,44,46,-1,48,50,52,54,56,58,-1,-1,60,-1,62,64,66,68,70,72,-1,74,76,78,-1,80,82,84,86,88,90,92,-1,-1,-1,-1,-1,-1,-1,-1,-1,-1,-1,-1,-1,-1,-1,-1,-1,-1,-1,-1,-1,-1,-1,-1,-1,-1,-1,-1,-1,-1,-1,-1,-1,-1,-1,-1,-1,-1,-1,-1],"split_conditions":[5.2197266E-1,1.4819336E-1,1.5975952E-2,5.4718018E-2,2.1276855E-1,5.629883E-1,5.5371094E-1,2.0263672E-1,2.1862793E-1,8.926392E-3,3.2055664E-1,4.7705078E-1,5.0712597E-2,9.9243164E-2,7.928467E-2,3.9367676E-2,2.1923828E-1,1.0681152E-1,4.9713135E-2,5.185547E-1,1.1054688E0,2.133789E-1,1.0107422E-1,4.8339844E-2,1.934995E-3,4.099121E-1,5.517578E-1,2.3208618E-2,5.6396484E-1,5.0689697E-2,1.4147949E-1,-1E-1,-2.3085559E-2,2.7313232E-2,1E-1,1.15112305E-1,2.0739746E-1,9.863281E-2,1.8066406E-1,6.1816406E-1,6.455078E-1,-1E-1,5.371094E-1,7.6123047E-1,1.2402344E0,-1.7039098E-2,1.828003E-2,3.9331055E-1,5.527344E-1,5.239258E-1,1.11572266E-1,3.0731201E-2,1.8463135E-3,-1E-1,2.298455E-3,2.1636827E-2,7.3969044E-2,1E-1,-2.1205084E-2,1E-1,-2.5133608E-2,-9.64986E-2,3.8720604E-2,1E-1,-5.113685E-2,3.1174862E-4,1.9947093E-2,1E-1,-1.8185819E-2,1E-1,-5.9862677E-3,-9.2413835E-2,7.6592565E-2,-1E-1,-8.005569E-3,-1E-1,1.607526E-2,-3.1087546E-2,8.91334E-2,-3.5958353E-2,-1E-1,1.3369481E-2,-6.6260986E-2,2.6444823E-2,-1.5475986E-2,3.730064E-3,1E-1,5.210302E-2,-7.743632E-2,-1E-1,2.39844E-3,6.9262244E-2,-6.35595E-2],"split_indices":[21,30,16,6,20,21,30,21,11,14,6,30,0,20,4,6,21,29,12,21,11,21,21,13,0,30,21,4,30,3,1,0,0,1,0,3,13,15,16,30,30,0,30,16,11,0,31,30,11,30,20,6,13,0,0,0,0,0,0,0,0,0,0,0,0,0,0,0,0,0,0,0,0,0,0,0,0,0,0,0,0,0,0,0,0,0,0,0,0,0,0,0,0],"split_type":[0,0,0,0,0,0,0,0,0,0,0,0,0,0,0,0,0,0,0,0,0,0,0,0,0,0,0,0,0,0,0,0,0,0,0,0,0,0,0,0,0,0,0,0,0,0,0,0,0,0,0,0,0,0,0,0,0,0,0,0,0,0,0,0,0,0,0,0,0,0,0,0,0,0,0,0,0,0,0,0,0,0,0,0,0,0,0,0,0,0,0,0,0],"sum_hessian":[7.005858E3,6.7009355E3,3.0492255E2,2.128673E2,6.488068E3,1.0223651E1,2.946989E2,1.560925E2,5.67748E1,6.4240454E3,6.402259E1,9.223146E0,1.0005047E0,2.8044913E2,1.4249769E1,1.5309395E2,2.9985566E0,2.7776804E1,2.8997993E1,6.4096377E3,1.4407742E1,4.63933E1,1.7629288E1,7.722181E0,1.500965E0,2.7018884E2,1.0260303E1,1.0502955E1,3.7468145E0,1.4507822E2,8.015734E0,1.7480438E0,1.2505127E0,2.5019321E1,2.7574842E0,1.8988825E1,1.0009169E1,6.3921177E3,1.7520065E1,1.0412807E1,3.9949346E0,1.3547763E1,3.2845535E1,6.658983E0,1.09703045E1,1.2463715E0,6.4758096E0,4.16926E1,2.2849623E2,7.759912E0,2.5003903E0,4.9985766E0,5.5043783E0,2.746328E0,1.0004864E0,1.22072075E2,2.3006134E1,6.765405E0,1.2503289E0,3.758596E0,2.1260725E1,1.7487228E1,1.5015972E0,3.0075107E0,7.001658E0,6.2898726E3,1.02245186E2,9.01604E0,8.504026E0,8.916817E0,1.4959908E0,2.493176E0,1.5017586E0,1.9890277E0,3.085651E1,1.7286278E0,4.9303555E0,3.7434316E0,7.226873E0,1.4961892E0,4.9796205E0,1.6235422E1,2.5457178E1,3.627322E1,1.92223E2,3.0010617E0,4.7588506E0,1.0015075E0,1.4988829E0,3.497655E0,1.5009217E0,3.5053558E0,1.9990225E0],"tree_param":{"num_deleted":"0","num_feature":"32","num_nodes":"93","size_leaf_vector":"1"}},{"base_weights":[6.7399563E-3,1.3743913E-4,1.4897528E-1,2.2989577E-3,-3.5848048E-1,1.12490624E-1,8.593563E-1,6.4785643E-3,-1.8382746E-1,-6.0720956E-1,-6.4294646E-3,3.4841545E-2,3.8487488E-1,1E0,4.241748E-1,5.1251007E-3,5.6267893E-1,-2.1879275E-1,1E-1,-3.9548612E-1,-1E-1,-2.32381E-1,5.024001E-1,1.0291927E-1,-5.024545E-1,5.208195E-1,1.6149854E-2,1E-1,-8.3512097E-4,-8.026418E-2,8.150901E-1,3.9339017E-2,-1.3642131E-2,7.686404E-1,-8.418322E-2,-7.812939E-2,-4.4058332E-1,-1E0,-1.524219E-1,-5.79739E-1,5.4861003E-1,-3.0616833E-2,8.588357E-1,-2.7640426E-1,1.7019704E-1,7.1861345E-1,-6.911933E-1,-2.3928108E-2,5.9933513E-1,6.278491E-1,-3.6074167E-1,1E0,-1.908057E-2,9.300924E-3,7.499879E-5,-1.1072499E-3,-3.8867787E-2,1E-1,-2.3329558E-2,7.0266942E-3,-5.201396E-2,-8.27345E-2,-1.3619562E-2,-1E-1,-3.1341594E-2,-3.3962626E-2,1E-1,-1E-1,-8.124292E-3,-7.72749E-3,9.7265415E-2,5.8370396E-3,1E-1,-4.4591087E-3,-1E-1,1.0471281E-2,7.6630846E-2,-2.4574524E-2,1E-1,-9.307345E-2,-9.188563E-3,8.917495E-2,-4.996006E-2,1E-1,4.2609703E-2,-8.228036E-2,1E-1,-5.2687973E-2,6.1047E-2,9.930959E-4,1E-1],"categories":[],"categories_nodes":[],"categories_segments":[],"categories_sizes":[],"default_left":[0,0,0,0,0,0,0,0,0,0,0,0,0,0,0,0,0,0,0,0,0,0,0,0,0,0,0,0,0,0,0,0,0,0,0,0,0,0,0,0,0,0,0,0,0,0,0,0,0,0,0,0,0,0,0,0,0,0,0,0,0,0,0,0,0,0,0,0,0,0,0,0,0,0,0,0,0,0,0,0,0,0,0,0,0,0,0,0,0,0,0],"id":9,"left_children":[1,3,5,7,9,11,13,15,17,19,21,23,25,27,29,31,33,35,-1,37,-1,39,41,43,45,47,49,-1,-1,-1,51,53,55,57,-1,59,61,63,65,67,69,-1,71,73,75,77,79,81,83,85,87,89,-1,-1,-1,-1,-1,-1,-1,-1,-1,-1,-1,-1,-1,-1,-1,-1,-1,-1,-1,-1,-1,-1,-1,-1,-1,-1,-1,-1,-1,-1,-1,-1,-1,-1,-1,-1,-1,-1,-1],"loss_changes":[6.5754E0,5.1883063E0,7.9534636E0,5.1768303E0,3.5075226E0,6.2593203E0,1.4412165E0,4.8962393E0,7.1861644E0,2.5596418E0,2.141705E0,8.533627E0,3.284443E0,1.0343494E0,4.6149335E0,4.169764E0,5.214358E0,4.439261E0,0E0,2.8072019E0,0E0,3.812302E0,1.9150249E0,5.3204885E0,6.5456476E0,2.0658073E0,4.544007E0,0E0,0E0,0E0,2.6696405E0,4.763991E0,4.037308E0,4.65576E0,0E0,5.871831E0,6.4134293E0,2.6573515E-1,3.91715E0,2.9917538E0,1.2638986E0,0E0,1.1268098E0,6.4762564E0,6.795124E0,2.1747763E0,3.2511978E0,3.4961329E0,3.8587093E0,6.2635927E0,2.2938719E0,9.608755E-1,0E0,0E0,0E0,0E0,0E0,0E0,0E0,0E0,0E0,0E0,0E0,0E0,0E0,0E0,0E0,0E0,0E0,0E0,0E0,0E0,0E0,0E0,0E0,0E0,0E0,0E0,0E0,0E0,0E0,0E0,0E0,0E0,0E0,0E0,0E0,0E0,0E0,0E0,0E0],"parents":[2147483647,0,0,1,1,2,2,3,3,4,4,5,5,6,6,7,7,8,8,9,9,10,10,11,11,12,12,13,13,14,14,15,15,16,16,17,17,19,19,21,21,22,22,23,23,24,24,25,25,26,26,30,30,31,31,32,32,33,33,35,35,36,36,37,37,38,38,39,39,40,40,42,42,43,43,44,44,45,45,46,46,47,47,48,48,49,49,50,50,51,51],"right_children":[2,4,6,8,10,12,14,16,18,20,22,24,26,28,30,32,34,36,-1,38,-1,40,42,44,46,48,50,-1,-1,-1,52,54,56,58,-1,60,62,64,66,68,70,-1,72,74,76,78,80,82,84,86,88,90,-1,-1,-1,-1,-1,-1,-1,-1,-1,-1,-1,-1,-1,-1,-1,-1,-1,-1,-1,-1,-1,-1,-1,-1,-1,-1,-1,-1,-1,-1,-1,-1,-1,-1,-1,-1,-1,-1,-1],"split_conditions":[4.7802734E-1,2.2033691E-1,1.5808105E-1,5.683594E-1,2.434082E-1,3.7841797E-1,1.0467529E-1,8.926392E-3,3.1707764E-2,8.544922E-4,6.506348E-2,5.395508E-1,2.5683594E-1,8.514404E-2,3.2788086E-1,1.5487671E-2,2.6416016E-1,4.0222168E-2,1E-1,9.680176E-2,-1E-1,2.1154785E-1,7.6293945E-3,4.6691895E-2,1.9787598E-1,2.1057129E-1,1.7822266E-1,1E-1,-8.3512097E-4,-8.026418E-2,5.019531E-1,4.8754883E-1,3.1433105E-2,2.494812E-2,-8.418322E-2,1.0974121E-1,8.2092285E-2,1.6186523E-1,3.7841797E-1,6.40625E-1,6.347656E-1,-3.0616833E-2,1.1804199E-1,3.17688E-2,3.4729004E-2,1.7797852E-1,1.2646484E-1,1.6552734E-1,1.7370605E-1,1.3586426E-1,2.7246094E-1,2.9541016E-1,-1.908057E-2,9.300924E-3,7.499879E-5,-1.1072499E-3,-3.8867787E-2,1E-1,-2.3329558E-2,7.0266942E-3,-5.201396E-2,-8.27345E-2,-1.3619562E-2,-1E-1,-3.1341594E-2,-3.3962626E-2,1E-1,-1E-1,-8.124292E-3,-7.72749E-3,9.7265415E-2,5.8370396E-3,1E-1,-4.4591087E-3,-1E-1,1.0471281E-2,7.6630846E-2,-2.4574524E-2,1E-1,-9.307345E-2,-9.188563E-3,8.917495E-2,-4.996006E-2,1E-1,4.2609703E-2,-8.228036E-2,1E-1,-5.2687973E-2,6.1047E-2,9.930959E-4,1E-1],"split_indices":[26,20,0,21,21,6,12,14,31,4,26,26,13,21,31,13,27,13,0,21,0,6,4,13,27,31,12,0,0,0,26,16,23,4,0,4,4,19,6,16,16,0,6,23,23,27,12,31,12,31,13,27,0,0,0,0,0,0,0,0,0,0,0,0,0,0,0,0,0,0,0,0,0,0,0,0,0,0,0,0,0,0,0,0,0,0,0,0,0,0,0],"split_type":[0,0,0,0,0,0,0,0,0,0,0,0,0,0,0,0,0,0,0,0,0,0,0,0,0,0,0,0,0,0,0,0,0,0,0,0,0,0,0,0,0,0,0,0,0,0,0,0,0,0,0,0,0,0,0,0,0,0,0,0,0,0,0,0,0,0,0,0,0,0,0,0,0,0,0,0,0,0,0,0,0,0,0,0,0,0,0,0,0,0,0],"sum_hessian":[7.000748E3,6.691148E3,3.095999E2,6.6520474E3,3.9100677E1,2.955776E2,1.4022305E1,6.5068955E3,1.4515198E2,2.248789E1,1.661279E1,2.3088634E2,6.469128E1,6.763628E0,7.2586765E0,6.492107E3,1.4788743E1,1.4239738E2,2.754591E0,1.8657162E1,3.8307276E0,1.1880446E1,4.7323437E0,2.0563939E2,2.5246948E1,4.6963787E1,1.7727491E1,5.7628365E0,1.0007915E0,1.4995077E0,5.759169E0,2.2992764E3,4.1928306E3,1.3292263E1,1.4964801E0,8.7962395E1,5.443499E1,4.358121E0,1.4299041E1,8.401456E0,3.4789906E0,1.491019E0,3.2413247E0,3.0510057E1,1.7512933E2,3.0041018E0,2.2242847E1,6.003848E0,4.0959938E1,6.504596E0,1.1222896E1,4.0083246E0,1.7508445E0,9.611223E2,1.338154E3,4.1653203E3,2.7510004E1,1.00708885E1,3.2213736E0,6.648303E1,2.1479357E1,2.3216955E1,3.1218037E1,2.6730523E0,1.6850687E0,1.3061889E1,1.2371528E0,2.7054062E0,5.696049E0,1.7353691E0,1.7436213E0,1.493981E0,1.7473438E0,2.5264757E1,5.245301E0,1.5885446E2,1.6274872E1,1.2500527E0,1.7540491E0,1.5496095E1,6.746753E0,1.7535402E0,4.250308E0,6.756904E0,3.4203033E1,1.498922E0,5.0056744E0,9.974187E0,1.2487082E0,1.0004101E0,3.0079143E0],"tree_param":{"num_deleted":"0","num_feature":"32","num_nodes":"91","size_leaf_vector":"1"}},{"base_weights":[7.35711E-3,2.7535163E-2,-4.2429622E-2,1.9237557E-2,1.7000915E-1,-5.910868E-1,-3.3150334E-2,1.6127357E-2,3.8107517E-1,2.1864264E-1,-4.5715415E-1,4.94323E-1,-7.4462813E-1,-3.4948844E-2,1E-1,2.002603E-2,-4.1291556E-1,5.526045E-1,-4.7130334E-1,1.7751126E-1,1E0,-1E-1,-3.974249E-2,9.5554315E-2,-1.889575E-2,-9.168754E-1,-3.9191586E-1,-3.197155E-2,-9.0326506E-1,1.7723419E-2,3.8033962E-1,5.8008087E-1,-5.328502E-1,-5.8868325E-1,7.257814E-1,3.1131808E-2,-8.2879215E-1,2.1131587E-1,-5.9251434E-1,1E0,-2.359319E-2,-7.6101524E-1,2.0896584E-1,-1E-1,-2.806607E-1,5.028053E-1,-9.865603E-1,1.7985572E-1,-4.2436987E-2,-1E-1,2.3332225E-2,1.1570033E-3,1.2184732E-2,1E-1,3.960746E-3,1E-1,-1.666857E-2,-6.732325E-2,5.442332E-3,5.0223965E-2,-9.87494E-2,1.4420695E-2,1E-1,-1E-1,1.0147145E-3,1.320717E-2,4.490445E-2,-1E-1,1.5387426E-2,-2.0476615E-3,1E-1,-1E-1,-1.1756938E-3,7.075751E-2,-3.0308068E-2,-6.6350535E-2,2.3940995E-2,8.796677E-2,-1.601869E-2,-1E-1,2.2896517E-2,5.2689384E-3,8.2668744E-2,-6.732819E-3,4.3129926E-3,5.077952E-2,-3.7425205E-2],"categories":[],"categories_nodes":[],"categories_segments":[],"categories_sizes":[],"default_left":[0,0,0,0,0,0,0,0,0,0,0,0,0,0,0,0,0,0,0,0,0,0,0,0,0,0,0,0,0,0,0,0,0,0,0,0,0,0,0,0,0,0,0,0,0,0,0,0,0,0,0,0,0,0,0,0,0,0,0,0,0,0,0,0,0,0,0,0,0,0,0,0,0,0,0,0,0,0,0,0,0,0,0,0,0,0,0],"id":10,"left_children":[1,3,5,7,9,11,13,15,17,19,21,23,25,27,-1,29,31,33,35,37,39,-1,41,-1,-1,43,45,47,49,51,53,55,57,59,61,-1,63,65,67,69,-1,71,73,-1,75,77,79,81,83,-1,85,-1,-1,-1,-1,-1,-1,-1,-1,-1,-1,-1,-1,-1,-1,-1,-1,-1,-1,-1,-1,-1,-1,-1,-1,-1,-1,-1,-1,-1,-1,-1,-1,-1,-1,-1,-1],"loss_changes":[7.0175815E0,5.872943E0,1.0237456E1,5.2811284E0,8.43976E0,5.942315E0,4.4936457E0,7.8016777E0,6.108055E0,8.346368E0,6.7117586E0,1.6762666E0,1.4451447E0,5.0911236E0,0E0,3.8247914E0,5.311379E0,7.098818E0,2.2835748E0,6.4618173E0,2.4370756E0,0E0,2.8058836E0,0E0,0E0,1.322279E0,6.6103125E0,4.385387E0,2.6014748E0,2.9394083E0,6.6775994E0,2.5426297E0,3.1692543E0,2.6710196E0,7.019038E0,0E0,8.874216E-1,4.347623E0,4.583828E0,1.0831795E0,0E0,1.2133424E0,3.2159786E0,0E0,1.1035002E0,1.4528444E0,2.3971496E0,7.61944E0,4.012562E0,0E0,8.6405313E-1,0E0,0E0,0E0,0E0,0E0,0E0,0E0,0E0,0E0,0E0,0E0,0E0,0E0,0E0,0E0,0E0,0E0,0E0,0E0,0E0,0E0,0E0,0E0,0E0,0E0,0E0,0E0,0E0,0E0,0E0,0E0,0E0,0E0,0E0,0E0,0E0],"parents":[2147483647,0,0,1,1,2,2,3,3,4,4,5,5,6,6,7,7,8,8,9,9,10,10,11,11,12,12,13,13,15,15,16,16,17,17,18,18,19,19,20,20,22,22,25,25,26,26,27,27,28,28,29,29,30,30,31,31,32,32,33,33,34,34,36,36,37,37,38,38,39,39,41,41,42,42,44,44,45,45,46,46,47,47,48,48,50,50],"right_children":[2,4,6,8,10,12,14,16,18,20,22,24,26,28,-1,30,32,34,36,38,40,-1,42,-1,-1,44,46,48,50,52,54,56,58,60,62,-1,64,66,68,70,-1,72,74,-1,76,78,80,82,84,-1,86,-1,-1,-1,-1,-1,-1,-1,-1,-1,-1,-1,-1,-1,-1,-1,-1,-1,-1,-1,-1,-1,-1,-1,-1,-1,-1,-1,-1,-1,-1,-1,-1,-1,-1,-1,-1],"split_conditions":[2.4707031E-1,2.133789E-1,2.5219727E-1,3.540039E-2,2.1057129E-1,2.8857422E-1,3.010254E-1,2.8045654E-2,4.0454102E-1,2.34375E-1,3.8793945E-1,1.2359619E-3,6.323242E-2,2.6123047E-1,1E-1,2.4871826E-2,3.2409668E-2,1.8066406E-1,3.7109375E-2,2.1105957E-1,4.5288086E-2,-1E-1,2.401123E-1,9.5554315E-2,-1.889575E-2,6.311035E-2,1.6552734E-1,3.305664E-1,2.775879E-1,1.2060547E-1,6.70166E-2,3.1433105E-2,7.6660156E-2,2.770996E-1,3.0737305E-1,3.1131808E-2,1.9055176E-1,1.0974121E-1,4.8754883E-1,2.319336E-3,-2.359319E-2,1.9238281E-1,2.532959E-3,-1E-1,1.0126953E0,9.881592E-2,8.31604E-4,5.1220703E-1,1.1230469E-1,-1E-1,2.8198242E-1,1.1570033E-3,1.2184732E-2,1E-1,3.960746E-3,1E-1,-1.666857E-2,-6.732325E-2,5.442332E-3,5.0223965E-2,-9.87494E-2,1.4420695E-2,1E-1,-1E-1,1.0147145E-3,1.320717E-2,4.490445E-2,-1E-1,1.5387426E-2,-2.0476615E-3,1E-1,-1E-1,-1.1756938E-3,7.075751E-2,-3.0308068E-2,-6.6350535E-2,2.3940995E-2,8.796677E-2,-1.601869E-2,-1E-1,2.2896517E-2,5.2689384E-3,8.2668744E-2,-6.732819E-3,4.3129926E-3,5.077952E-2,-3.7425205E-2],"split_indices":[21,21,21,23,31,11,5,23,30,5,11,23,27,5,0,23,27,11,23,5,1,0,31,0,0,4,27,30,5,20,5,23,3,30,30,0,21,5,16,27,0,5,3,0,11,5,3,11,4,0,5,0,0,0,0,0,0,0,0,0,0,0,0,0,0,0,0,0,0,0,0,0,0,0,0,0,0,0,0,0,0,0,0,0,0,0,0],"split_type":[0,0,0,0,0,0,0,0,0,0,0,0,0,0,0,0,0,0,0,0,0,0,0,0,0,0,0,0,0,0,0,0,0,0,0,0,0,0,0,0,0,0,0,0,0,0,0,0,0,0,0,0,0,0,0,0,0,0,0,0,0,0,0,0,0,0,0,0,0,0,0,0,0,0,0,0,0,0,0,0,0,0,0,0,0,0,0],"sum_hessian":[6.9832886E3,4.9696055E3,2.0136833E3,4.697179E3,2.724261E2,3.2447666E1,1.9812356E3,4.658184E3,3.8995186E1,2.5342554E2,1.9000547E1,3.7461333E0,2.8701534E1,1.9794811E3,1.7544891E0,4.6171816E3,4.1002583E1,3.2755325E1,6.239861E0,2.4243098E2,1.0994549E1,5.245494E0,1.3755053E1,1.9985985E0,1.747535E0,1.8209442E1,1.0492092E1,1.9737504E3,5.7307987E0,4.588905E3,2.8276567E1,4.0051756E0,3.6997406E1,3.9993162E0,2.8756008E1,1.997045E0,4.242816E0,2.3293076E2,9.5002365E0,9.744459E0,1.2500896E0,2.998707E0,1.0756346E1,1.4464989E1,3.7444544E0,4.250738E0,6.2413535E0,9.2161224E1,1.8815891E3,3.2315373E0,2.4992611E0,4.333897E3,2.5500815E2,8.764715E0,1.9511854E1,1.7541119E0,2.2510636E0,2.9741587E1,7.2558203E0,1.0012134E0,2.9981027E0,1.3004403E1,1.5751605E1,3.2425175E0,1.0002985E0,1.7586401E2,5.706673E1,4.9968624E0,4.5033736E0,1.0004172E0,8.744041E0,1.4985409E0,1.5001663E0,5.2562118E0,5.5001335E0,1.9979129E0,1.7465414E0,2.5018215E0,1.7489165E0,4.991248E0,1.2501054E0,7.7923096E1,1.4238128E1,1.4577472E3,4.2384198E2,1.0015972E0,1.497664E0],"tree_param":{"num_deleted":"0","num_feature":"32","num_nodes":"87","size_leaf_vector":"1"}},{"base_weights":[5.705195E-3,1.2439771E-2,-1.3930245E-1,2.1361457E-2,-6.719648E-2,-1.5884556E-1,5.93846E-1,1.538901E-2,2.1208362E-1,-7.746569E-2,7.179304E-1,-1.3318413E-1,-7.970188E-1,1E0,-4.140476E-1,1.8405832E-2,-2.4696966E-1,2.7747741E-2,4.6769688E-1,-1.1721269E-1,1.4223036E-1,9.04598E-1,-2.233807E-2,-1.5553837E-1,6.083254E-1,-1E0,4.6438944E-2,1E-1,1.5722348E-3,5.0753325E-2,-1E-1,1.4284634E-2,2.0058607E-1,-3.7836236E-1,4.457571E-1,3.1245348E-1,-1.8774757E-1,6.4274997E-1,-3.3683634E-1,-7.858508E-2,-3.1803247E-1,2.863955E-1,-3.1902352E-1,4.3739894E-1,1E-1,-5.4541236E-1,-1.0217894E-1,9.71664E-1,-6.9560066E-2,-1E0,-1.3904768E-2,1.6503677E-3,-3.7063383E-2,3.3090267E-2,-4.870085E-3,-8.2354E-2,-2.518949E-2,-1.8128274E-2,1E-1,5.9711874E-2,-1.0883498E-2,-6.874009E-2,-4.231146E-3,8.386105E-2,-1.1607574E-2,-1E-1,6.5121003E-3,-9.65291E-3,6.6455536E-2,7.6931395E-2,-3.8748167E-2,4.6327416E-2,-9.5444854E-4,-5.028389E-2,7.589629E-2,1E-1,-3.3394206E-2,4.7455292E-2,-7.077393E-2,6.7848705E-2,-1.23286545E-2,-6.2692873E-3,1E-1,-1E-1,-1.6872434E-2],"categories":[],"categories_nodes":[],"categories_segments":[],"categories_sizes":[],"default_left":[0,0,0,0,0,0,0,0,0,0,0,0,0,0,0,0,0,0,0,0,0,0,0,0,0,0,0,0,0,0,0,0,0,0,0,0,0,0,0,0,0,0,0,0,0,0,0,0,0,0,0,0,0,0,0,0,0,0,0,0,0,0,0,0,0,0,0,0,0,0,0,0,0,0,0,0,0,0,0,0,0,0,0,0,0],"id":11,"left_children":[1,3,5,7,9,11,13,15,17,19,21,23,25,27,29,31,33,35,37,39,41,43,-1,45,47,49,-1,-1,-1,-1,-1,51,53,55,57,59,61,63,65,67,69,71,73,75,-1,77,79,81,-1,83,-1,-1,-1,-1,-1,-1,-1,-1,-1,-1,-1,-1,-1,-1,-1,-1,-1,-1,-1,-1,-1,-1,-1,-1,-1,-1,-1,-1,-1,-1,-1,-1,-1,-1,-1],"loss_changes":[6.7997975E0,4.728444E0,4.5221386E0,6.8125925E0,5.4616814E0,4.8362074E0,4.1290417E0,4.5975995E0,8.544247E0,5.8040133E0,1.7402902E0,4.92369E0,3.8811598E0,9.383192E-1,2.4323769E0,4.3052397E0,6.1794953E0,6.5976157E0,1.0924322E1,4.3327465E0,6.8731403E0,5.9254885E-1,0E0,5.8441663E0,4.811559E0,1.0352192E0,0E0,0E0,0E0,0E0,0E0,4.799744E0,4.137145E0,2.9482622E0,5.36792E0,5.6165752E0,4.4245644E0,9.429075E0,4.643536E0,6.364521E0,7.1168356E0,4.0993023E0,5.2875566E0,2.678668E0,0E0,5.950492E0,4.2145247E0,2.6532588E0,0E0,5.5095196E-1,0E0,0E0,0E0,0E0,0E0,0E0,0E0,0E0,0E0,0E0,0E0,0E0,0E0,0E0,0E0,0E0,0E0,0E0,0E0,0E0,0E0,0E0,0E0,0E0,0E0,0E0,0E0,0E0,0E0,0E0,0E0,0E0,0E0,0E0,0E0],"parents":[2147483647,0,0,1,1,2,2,3,3,4,4,5,5,6,6,7,7,8,8,9,9,10,10,11,11,12,12,13,13,14,14,15,15,16,16,17,17,18,18,19,19,20,20,21,21,23,23,24,24,25,25,31,31,32,32,33,33,34,34,35,35,36,36,37,37,38,38,39,39,40,40,41,41,42,42,43,43,45,45,46,46,47,47,49,49],"right_children":[2,4,6,8,10,12,14,16,18,20,22,24,26,28,30,32,34,36,38,40,42,44,-1,46,48,50,-1,-1,-1,-1,-1,52,54,56,58,60,62,64,66,68,70,72,74,76,-1,78,80,82,-1,84,-1,-1,-1,-1,-1,-1,-1,-1,-1,-1,-1,-1,-1,-1,-1,-1,-1,-1,-1,-1,-1,-1,-1,-1,-1,-1,-1,-1,-1,-1,-1,-1,-1,-1,-1],"split_conditions":[5.2197266E-1,2.7001953E-1,9.411621E-2,2.3730469E-1,1.6186523E-1,7.8125E-2,1.0290527E-1,6.4746094E-1,1.2573242E-1,3.7426758E-1,5.947876E-2,7.165527E-2,9.93042E-2,6.4819336E-2,8.544922E-4,6.1376953E-1,2.076416E-1,4.099121E-1,1.6833496E-1,1.9165039E-1,3.5705566E-2,5.0097656E-1,-2.233807E-2,9.7351074E-2,2.5830078E-1,9.863281E-2,4.6438944E-2,1E-1,1.5722348E-3,5.0753325E-2,-1E-1,6.0791016E-1,6.3378906E-1,3.630371E-1,5.432129E-2,7.965088E-3,4.1992188E-1,1.1987305E-1,5.102539E-1,5.4541016E-1,4.1137695E-2,4.909668E-1,5.3955078E-2,4.296875E-1,1E-1,2.482605E-2,3.8183594E-1,7.8125E-2,-6.9560066E-2,2.7416992E-1,-1.3904768E-2,1.6503677E-3,-3.7063383E-2,3.3090267E-2,-4.870085E-3,-8.2354E-2,-2.518949E-2,-1.8128274E-2,1E-1,5.9711874E-2,-1.0883498E-2,-6.874009E-2,-4.231146E-3,8.386105E-2,-1.1607574E-2,-1E-1,6.5121003E-3,-9.65291E-3,6.6455536E-2,7.6931395E-2,-3.8748167E-2,4.6327416E-2,-9.5444854E-4,-5.028389E-2,7.589629E-2,1E-1,-3.3394206E-2,4.7455292E-2,-7.077393E-2,6.7848705E-2,-1.23286545E-2,-6.2692873E-3,1E-1,-1E-1,-1.6872434E-2],"split_indices":[21,4,5,4,27,5,13,31,16,4,0,5,4,6,4,31,27,30,25,5,13,31,0,16,26,13,0,0,0,0,0,31,31,30,10,9,30,0,31,31,13,31,13,1,0,13,30,13,0,26,0,0,0,0,0,0,0,0,0,0,0,0,0,0,0,0,0,0,0,0,0,0,0,0,0,0,0,0,0,0,0,0,0,0,0],"split_type":[0,0,0,0,0,0,0,0,0,0,0,0,0,0,0,0,0,0,0,0,0,0,0,0,0,0,0,0,0,0,0,0,0,0,0,0,0,0,0,0,0,0,0,0,0,0,0,0,0,0,0,0,0,0,0,0,0,0,0,0,0,0,0,0,0,0,0,0,0,0,0,0,0,0,0,0,0,0,0,0,0,0,0,0,0],"sum_hessian":[6.960201E3,6.6521694E3,3.0803183E2,5.9826606E3,6.6950854E2,3.00797E2,7.2348323E0,5.802051E3,1.8061E2,6.617544E2,7.754206E0,2.9033124E2,1.0465743E1,4.990337E0,2.2444952E0,5.7370117E3,6.5039185E1,1.05579636E2,7.5030365E1,5.607678E2,1.0098657E2,6.5035214E0,1.2506847E0,2.826019E2,7.7293377E0,8.969254E0,1.4964896E0,3.9895992E0,1.0007375E0,1.000453E0,1.2440423E0,5.6111567E3,1.2585465E2,5.5051178E1,9.988006E0,4.5291702E1,6.028793E1,6.1787514E1,1.3242849E1,4.714717E2,8.929608E1,7.722801E1,2.375856E1,4.247198E0,2.2563236E0,3.2911377E1,2.4969054E2,6.244208E0,1.4851301E0,7.2235556E0,1.7456975E0,5.579946E3,3.1211094E1,8.243417E1,4.342048E1,1.095979E1,4.409139E1,5.982278E0,4.005728E0,2.6779434E1,1.8512268E1,1.2751839E1,4.753609E1,4.90278E1,1.2759713E1,3.747016E0,9.495833E0,4.6120547E2,1.0266249E1,4.755962E0,8.4540115E1,4.7983562E1,2.9244452E1,2.0753302E1,3.0052588E0,2.2464638E0,2.000734E0,4.2545967E0,2.865678E1,5.753482E0,2.4393704E2,2.2400804E0,4.004127E0,5.9791145E0,1.2444414E0],"tree_param":{"num_deleted":"0","num_feature":"32","num_nodes":"85","size_leaf_vector":"1"}},{"base_weights":[-3.086434E-3,4.653783E-2,-2.4764303E-2,5.4077793E-2,-3.6472586E-1,-4.838387E-3,-9.266037E-2,6.14384E-2,-3.2821867E-1,-4.3488294E-1,8.204577E-2,-3.544381E-2,6.1175458E-2,-3.2967934E-1,-6.705362E-2,4.526287E-2,3.8720927E-1,-1E0,-8.9545995E-2,-8.445741E-1,-2.1684787E-1,-3.2623436E-2,-8.6397E-1,8.488229E-2,-9.7367674E-2,-5.6839447E-2,-7.08926E-1,2.6611658E-2,-1.2272641E-1,6.660339E-2,-7.9357475E-2,3.1259695E-1,1E0,-3.9620763E-1,-1E-1,1E-1,-1.7956623E-1,-1E0,-3.732755E-2,4.5704484E-2,-8.8800555E-1,-3.616632E-2,6.049912E-1,-1E0,4.7937956E-2,1.0157695E-1,-1.4023334E-1,1.0837733E-2,-4.3650624E-1,-1.8448707E-1,1E-1,-7.618969E-1,6.358934E-2,6.8397415E-3,9.310889E-1,-5.942657E-1,-9.87225E-2,1.12172095E-2,-2.1941648E-3,-9.768515E-3,5.9295107E-2,4.0597178E-2,-1.4916374E-2,1E-1,2.3168126E-2,-7.385163E-2,2.7429668E-2,-1E-1,-5.2834055E-3,-1E-1,-2.8128102E-2,-6.0390305E-2,4.3892875E-2,-9.8513894E-2,1.7038798E-2,-4.733921E-2,-1E-1,-4.1424436E-3,3.2961998E-2,-6.6580094E-2,9.662502E-2,-1E-1,-1.8508747E-2,1.2595641E-2,-7.807751E-3,2.177125E-3,-8.981675E-2,-2.2176469E-2,2.306795E-2,-6.342168E-2,4.815674E-2,-5.434015E-2,3.2200988E-3,-8.1435554E-2,4.2835984E-2,8.175973E-3,-2.0472102E-2,1E-1,-2.0647427E-2,6.414914E-2,-7.0476025E-2,-8.855548E-3,-8.8844255E-2],"categories":[],"categories_nodes":[],"categories_segments":[],"categories_sizes":[],"default_left":[0,0,0,0,0,0,0,0,0,0,0,0,0,0,0,0,0,0,0,0,0,0,0,0,0,0,0,0,0,0,0,0,0,0,0,0,0,0,0,0,0,0,0,0,0,0,0,0,0,0,0,0,0,0,0,0,0,0,0,0,0,0,0,0,0,0,0,0,0,0,0,0,0,0,0,0,0,0,0,0,0,0,0,0,0,0,0,0,0,0,0,0,0,0,0,0,0,0,0,0,0,0,0],"id":12,"left_children":[1,3,5,7,9,11,13,15,17,19,-1,21,23,25,27,29,31,33,35,37,39,41,43,45,47,49,51,53,55,57,59,61,63,65,-1,-1,67,69,71,73,75,77,79,81,-1,83,85,87,89,91,-1,93,-1,95,97,99,101,-1,-1,-1,-1,-1,-1,-1,-1,-1,-1,-1,-1,-1,-1,-1,-1,-1,-1,-1,-1,-1,-1,-1,-1,-1,-1,-1,-1,-1,-1,-1,-1,-1,-1,-1,-1,-1,-1,-1,-1,-1,-1,-1,-1,-1,-1],"loss_changes":[7.5416565E0,6.6291523E0,6.600437E0,5.9123874E0,3.558272E0,7.625338E0,6.6963615E0,1.08125515E1,6.551747E0,3.1223617E0,0E0,5.997314E0,4.5018296E0,1.1101392E1,5.219364E0,5.215556E0,4.7499733E0,6.39554E-1,3.5343747E0,2.7961712E0,4.5334787E0,5.829461E0,4.3011656E0,3.924961E0,5.7287483E0,9.507663E0,3.687685E0,6.677055E0,7.044553E0,6.7538133E0,3.5930262E0,3.9119625E0,3.2914734E-1,1.2347869E0,0E0,0E0,3.3644087E0,2.8075314E-1,1.4583652E0,2.645684E0,1.9179821E-1,4.932814E0,7.190997E0,4.9325275E-1,0E0,4.2553062E0,8.892475E0,6.147982E0,7.158225E0,4.5445004E0,0E0,3.0784779E0,0E0,5.829579E0,2.214181E0,4.575676E0,4.725624E0,0E0,0E0,0E0,0E0,0E0,0E0,0E0,0E0,0E0,0E0,0E0,0E0,0E0,0E0,0E0,0E0,0E0,0E0,0E0,0E0,0E0,0E0,0E0,0E0,0E0,0E0,0E0,0E0,0E0,0E0,0E0,0E0,0E0,0E0,0E0,0E0,0E0,0E0,0E0,0E0,0E0,0E0,0E0,0E0,0E0,0E0],"parents":[2147483647,0,0,1,1,2,2,3,3,4,4,5,5,6,6,7,7,8,8,9,9,11,11,12,12,13,13,14,14,15,15,16,16,17,17,18,18,19,19,20,20,21,21,22,22,23,23,24,24,25,25,26,26,27,27,28,28,29,29,30,30,31,31,32,32,33,33,36,36,37,37,38,38,39,39,40,40,41,41,42,42,43,43,45,45,46,46,47,47,48,48,49,49,51,51,53,53,54,54,55,55,56,56],"right_children":[2,4,6,8,10,12,14,16,18,20,-1,22,24,26,28,30,32,34,36,38,40,42,44,46,48,50,52,54,56,58,60,62,64,66,-1,-1,68,70,72,74,76,78,80,82,-1,84,86,88,90,92,-1,94,-1,96,98,100,102,-1,-1,-1,-1,-1,-1,-1,-1,-1,-1,-1,-1,-1,-1,-1,-1,-1,-1,-1,-1,-1,-1,-1,-1,-1,-1,-1,-1,-1,-1,-1,-1,-1,-1,-1,-1,-1,-1,-1,-1,-1,-1,-1,-1,-1,-1],"split_conditions":[9.460449E-4,2.2033691E-1,4.3701172E-1,5.517578E-1,6.5979004E-2,9.93042E-2,4.404297E-1,4.4580078E-1,9.338379E-3,5.8203125E-1,8.204577E-2,5.854492E-1,9.033203E-3,2.5817871E-2,1.9638062E-2,2.8222656E-1,5.019531E-1,5.9472656E-1,1.2573242E-1,2.0874023E-1,1.3759766E0,4.3530273E-1,9.460449E-4,1.9812012E-1,2.420044E-2,1.4318848E-1,4.1455078E-1,5.7958984E-1,2.9281616E-2,1.4033203E0,6.0058594E-2,4.3603516E-1,1.6516113E-1,5.649414E-1,-1E-1,1E-1,2.0288086E-1,3.5229492E-1,2.133789E-1,5.3710938E-3,2.2680664E-1,4.0576172E-1,3.7475586E-1,9.04541E-2,4.7937956E-2,1.0827637E-1,3.665161E-2,1.7004395E-1,1.8920898E-3,1.3964844E-1,1E-1,4.2504883E-1,6.358934E-2,6.2939453E-1,2.2888184E-3,1.4916992E-1,2.0031738E-1,1.12172095E-2,-2.1941648E-3,-9.768515E-3,5.9295107E-2,4.0597178E-2,-1.4916374E-2,1E-1,2.3168126E-2,-7.385163E-2,2.7429668E-2,-1E-1,-5.2834055E-3,-1E-1,-2.8128102E-2,-6.0390305E-2,4.3892875E-2,-9.8513894E-2,1.7038798E-2,-4.733921E-2,-1E-1,-4.1424436E-3,3.2961998E-2,-6.6580094E-2,9.662502E-2,-1E-1,-1.8508747E-2,1.2595641E-2,-7.807751E-3,2.177125E-3,-8.981675E-2,-2.2176469E-2,2.306795E-2,-6.342168E-2,4.815674E-2,-5.434015E-2,3.2200988E-3,-8.1435554E-2,4.2835984E-2,8.175973E-3,-2.0472102E-2,1E-1,-2.0647427E-2,6.414914E-2,-7.0476025E-2,-8.855548E-3,-8.8844255E-2],"split_indices":[13,20,30,21,4,4,30,21,4,30,0,21,9,6,4,21,16,11,16,6,11,30,9,3,7,27,6,21,4,11,19,16,4,11,0,0,16,21,21,19,20,6,11,4,0,7,6,4,19,16,0,21,0,11,5,21,3,0,0,0,0,0,0,0,0,0,0,0,0,0,0,0,0,0,0,0,0,0,0,0,0,0,0,0,0,0,0,0,0,0,0,0,0,0,0,0,0,0,0,0,0,0,0],"split_type":[0,0,0,0,0,0,0,0,0,0,0,0,0,0,0,0,0,0,0,0,0,0,0,0,0,0,0,0,0,0,0,0,0,0,0,0,0,0,0,0,0,0,0,0,0,0,0,0,0,0,0,0,0,0,0,0,0,0,0,0,0,0,0,0,0,0,0,0,0,0,0,0,0,0,0,0,0,0,0,0,0,0,0,0,0,0,0,0,0,0,0,0,0,0,0,0,0,0,0,0,0,0,0],"sum_hessian":[7.0085425E3,2.130447E3,4.8780957E3,2.092944E3,3.7502773E1,3.7721335E3,1.1059623E3,2.054232E3,3.8712208E1,3.6004547E1,1.4982266E0,2.577577E3,1.1945564E3,1.0667658E2,9.9928564E2,1.9581431E3,9.608892E1,8.981526E0,2.9730682E1,1.1507749E1,2.44968E1,2.5698684E3,7.708677E0,1.0395743E3,1.5498213E2,6.271073E1,4.3965855E1,3.727253E2,6.2656036E2,1.672246E3,2.858971E2,8.832491E1,7.764006E0,3.4972844E0,5.484242E0,1.2526151E0,2.8478067E1,8.085439E0,3.4223099E0,1.827834E1,6.2184606E0,2.556606E3,1.3262426E1,6.212833E0,1.4958439E0,9.683126E2,7.126164E1,1.182283E2,3.675383E1,5.720829E1,5.502441E0,4.2716747E1,1.2491068E0,3.6573782E2,6.987484E0,2.9199547E1,5.9736084E2,1.1038799E3,5.68366E2,2.7914215E2,6.754939E0,7.3569E1,1.4755916E1,6.5124087E0,1.2515974E0,2.2481272E0,1.2491573E0,2.4957824E0,2.5982285E1,6.606036E0,1.4794023E0,1.4405485E0,1.9817613E0,1.2276231E0,1.7050716E1,3.6241055E0,2.594355E0,2.5212502E3,3.5355774E1,2.7490737E0,1.0513352E1,4.9642386E0,1.2485942E0,8.5287476E2,1.15437874E2,5.9512436E1,1.1749207E1,5.7442654E1,6.078565E1,3.0495663E1,6.2581673E0,2.0968708E1,3.6239582E1,4.1216034E1,1.500713E0,2.7054373E2,9.519408E1,5.753247E0,1.2342374E0,2.002148E0,2.71974E1,5.90866E2,6.4947977E0],"tree_param":{"num_deleted":"0","num_feature":"32","num_nodes":"103","size_leaf_vector":"1"}}]},"name":"gbtree"},"learner_model_param":{"base_score":"[4.9952886E-1]","boost_from_average":"0","num_class":"0","num_feature":"32","num_target":"1"},"objective":{"name":"binary:logistic","reg_loss_param":{"scale_pos_weight":"1.00188637"}}},"version":[3,1,2]}