{"learner":{"attributes":{"best_iteration":"0","best_score":"0.513670255713043"},"feature_names":[],"feature_types":[],"gradient_booster":{"model":{"cats":{"enc":[],"feature_segments":[],"sorted_idx":[]},"gbtree_model_param":{"num_parallel_tree":"1","num_trees":"11"},"iteration_indptr":[0,1,2,3,4,5,6,7,8,9,10,11],"tree_info":[0,0,0,0,0,0,0,0,0,0,0],"trees":[{"base_weights":[-1.8490053E-3,-9.509966E-3,2.504188E-1,-5.43724E-3,-3.6832622E-1,3.748253E-1,-3.3652507E-2,6.1302595E-2,-2.7531466E-2,-4.4852623E-1,5.231534E-1,4.7812197E-1,3.447542E-2,-5.5241984E-1,1.2673987E-1,5.407413E-2,6.550024E-1,-3.4854442E-2,2.6465535E-1,-7.021419E-1,-3.0472368E-1,8.927278E-1,-1.499977E-1,4.1890258E-1,1E-1,-1.2152842E-1,1E-1,-1E0,6.042968E-1,6.2029034E-1,-4.7834136E-2,6.0278803E-2,-6.392279E-1,7.781596E-1,-6.64223E-2,-3.1353414E-2,-3.8636664E-1,9.0440893E-1,2.0644085E-1,-1E-1,-3.9489794E-1,-4.0843856E-1,8.273964E-1,2.2541096E-2,1E-1,-2.1921959E-2,2.8281883E-4,4.465944E-1,-6.635246E-2,1E-1,-2.3188597E-1,-1.499977E-1,-1E0,-1.783125E-2,1E-1,-3.2977223E-2,8.2275987E-1,-1.3738754E-1,8.6072004E-1,9.887874E-3,-4.2271875E-3,-3.0607615E-2,-1E-1,9.553083E-2,4.398252E-4,-3.645539E-3,3.220283E-2,-2.2766976E-2,-1E-1,1E-1,1.3749703E-2,-1.340784E-2,3.358163E-2,1.2263595E-2,-9.2937015E-2,-2.8029785E-2,-9.638164E-2,1E-1,3.371034E-2,5.0670754E-2,-1.4127219E-2,5.40812E-4,-9.2937015E-2,-6.64223E-2,5.0282817E-2,-1E-1,2.8281883E-4,1E-1,-1.499977E-2,-2.529103E-3,-1E-1,2.8281883E-4,1E-1],"categories":[],"categories_nodes":[],"categories_segments":[],"categories_sizes":[],"default_left":[0,0,0,0,0,0,0,0,0,0,0,0,0,0,0,0,0,0,0,0,0,0,0,0,0,0,0,0,0,0,0,0,0,0,0,0,0,0,0,0,0,0,0,0,0,0,0,0,0,0,0,0,0,0,0,0,0,0,0,0,0,0,0,0,0,0,0,0,0,0,0,0,0,0,0,0,0,0,0,0,0,0,0,0,0,0,0,0,0,0,0,0,0],"id":0,"left_children":[1,3,5,7,9,11,13,15,17,19,21,23,25,27,29,31,33,35,37,39,41,43,45,47,-1,49,-1,51,53,55,57,59,61,63,-1,65,67,69,71,-1,73,75,77,-1,-1,-1,-1,79,-1,-1,81,83,85,-1,-1,-1,87,89,91,-1,-1,-1,-1,-1,-1,-1,-1,-1,-1,-1,-1,-1,-1,-1,-1,-1,-1,-1,-1,-1,-1,-1,-1,-1,-1,-1,-1,-1,-1,-1,-1,-1,-1],"loss_changes":[1.3539952E1,9.934237E0,7.3100834E0,9.916683E0,5.6894245E0,5.0350266E0,5.3791456E0,7.142875E0,1.0819624E1,2.3585072E0,1.8153385E0,4.1640263E0,6.4604206E0,8.829746E0,4.299074E0,7.1519837E0,3.7712173E0,6.0546484E0,4.4182215E0,2.2986612E0,5.8306804E0,2.9909897E-1,3.5018854E-2,3.4177856E0,0E0,4.1453357E0,0E0,1.34933E0,2.0358539E0,2.7756143E0,3.1720543E0,6.4955554E0,2.4999528E0,2.5700426E0,0E0,8.814039E0,5.0515494E0,1.7004166E0,5.0949736E0,0E0,4.265172E0,2.8272333E0,1.9273376E-1,0E0,0E0,0E0,0E0,3.6809807E0,0E0,0E0,4.890893E0,1.4255675E0,1.0122766E0,0E0,0E0,0E0,2.9541745E0,3.84034E0,9.216442E-1,0E0,0E0,0E0,0E0,0E0,0E0,0E0,0E0,0E0,0E0,0E0,0E0,0E0,0E0,0E0,0E0,0E0,0E0,0E0,0E0,0E0,0E0,0E0,0E0,0E0,0E0,0E0,0E0,0E0,0E0,0E0,0E0,0E0,0E0],"parents":[2147483647,0,0,1,1,2,2,3,3,4,4,5,5,6,6,7,7,8,8,9,9,10,10,11,11,12,12,13,13,14,14,15,15,16,16,17,17,18,18,19,19,20,20,21,21,22,22,23,23,25,25,27,27,28,28,29,29,30,30,31,31,32,32,33,33,35,35,36,36,37,37,38,38,40,40,41,41,42,42,47,47,50,50,51,51,52,52,56,56,57,57,58,58],"right_children":[2,4,6,8,10,12,14,16,18,20,22,24,26,28,30,32,34,36,38,40,42,44,46,48,-1,50,-1,52,54,56,58,60,62,64,-1,66,68,70,72,-1,74,76,78,-1,-1,-1,-1,80,-1,-1,82,84,86,-1,-1,-1,88,90,92,-1,-1,-1,-1,-1,-1,-1,-1,-1,-1,-1,-1,-1,-1,-1,-1,-1,-1,-1,-1,-1,-1,-1,-1,-1,-1,-1,-1,-1,-1,-1,-1,-1,-1],"split_conditions":[1.8505859E0,9.711914E-1,1.4465332E-1,2.878418E-1,1.1010742E-1,7.3779297E-1,1.9348145E-1,3.6071777E-2,4.763794E-2,6.489258E-1,1.3928223E-1,4.2236328E-2,4.006958E-2,2.1035156E0,2.2277832E-3,2.1557617E-1,1.5588379E-1,4.892578E-1,8.2910156E-1,3.8909912E-2,1.6430664E-1,1.0351562E0,1.6125488E-1,2.609253E-2,1E-1,1.6937256E-2,1E-1,1.0406494E-1,2.03125E-1,2.4853516E-1,6.772461E-1,7.739258E-1,1.5820312E-1,1.0479736E-1,-6.64223E-2,4.0722656E-1,4.4970703E-1,3.3129883E-1,3.540039E-1,-1E-1,8.203125E-2,8.0566406E-1,1.0351562E0,2.2541096E-2,1E-1,-2.1921959E-2,2.8281883E-4,3.2421875E-1,-6.635246E-2,1E-1,6.0424805E-3,2.0097656E0,2.6275635E-2,-1.783125E-2,1E-1,-3.2977223E-2,3.6987305E-1,6.533203E-1,4.4403076E-2,9.887874E-3,-4.2271875E-3,-3.0607615E-2,-1E-1,9.553083E-2,4.398252E-4,-3.645539E-3,3.220283E-2,-2.2766976E-2,-1E-1,1E-1,1.3749703E-2,-1.340784E-2,3.358163E-2,1.2263595E-2,-9.2937015E-2,-2.8029785E-2,-9.638164E-2,1E-1,3.371034E-2,5.0670754E-2,-1.4127219E-2,5.40812E-4,-9.2937015E-2,-6.64223E-2,5.0282817E-2,-1E-1,2.8281883E-4,1E-1,-1.499977E-2,-2.529103E-3,-1E-1,2.8281883E-4,1E-1],"split_indices":[0,16,23,0,1,25,25,20,7,6,1,24,7,0,7,10,14,24,19,14,0,16,1,24,0,23,0,25,23,3,25,8,1,3,0,24,8,24,5,0,14,6,16,0,0,0,0,3,0,0,24,0,7,0,0,0,3,25,7,0,0,0,0,0,0,0,0,0,0,0,0,0,0,0,0,0,0,0,0,0,0,0,0,0,0,0,0,0,0,0,0,0,0],"split_type":[0,0,0,0,0,0,0,0,0,0,0,0,0,0,0,0,0,0,0,0,0,0,0,0,0,0,0,0,0,0,0,0,0,0,0,0,0,0,0,0,0,0,0,0,0,0,0,0,0,0,0,0,0,0,0,0,0,0,0,0,0,0,0,0,0,0,0,0,0,0,0,0,0,0,0,0,0,0,0,0,0,0,0,0,0,0,0,0,0,0,0,0,0],"sum_hessian":[7.0038E3,6.7983086E3,2.0549121E2,6.7230146E3,7.529409E1,1.4268439E2,6.2806824E1,1.6716628E3,5.051352E3,6.953537E1,5.758724E0,1.0915185E2,3.353254E1,1.4255423E1,4.8551403E1,1.6526326E3,1.9030182E1,4.928706E3,1.2264572E2,2.3755894E1,4.5779472E1,3.5070739E0,2.2516506E0,1.031377E2,6.0141478E0,3.0524994E1,3.0075455E0,1.024882E1,4.0066023E0,1.2018864E1,3.653254E1,1.6388785E3,1.3754008E1,1.7780416E1,1.2497642E0,4.881179E3,4.752688E1,9.016977E0,1.1362874E2,9.748349E0,1.40075445E1,4.2523106E1,3.2563665E0,1.2516506E0,2.2554233E0,1.2507074E0,1.0009432E0,1.011377E2,1.9999999E0,2.004716E0,2.8520277E1,2.2516506E0,7.99717E0,1.751179E0,2.2554233E0,2.0009432E0,1.00179205E1,3.402735E1,2.5051875E0,1.1907266E3,4.48152E2,1.0256366E1,3.4976418E0,1.4277117E1,3.5033011E0,4.8125938E3,6.858536E1,3.977853E1,7.748349E0,6.2639117E0,2.7530653E0,3.1275229E1,8.2353516E1,7.508017E0,6.499528E0,3.5773815E1,6.7492924E0,1.2535369E0,2.0028296E0,9.1880394E1,9.257309E0,2.202075E1,6.499528E0,1.2497642E0,1.0018864E0,6.996227E0,1.0009432E0,7.7662697E0,2.2516506E0,3.1528767E1,2.498585E0,1.0009432E0,1.5042443E0],"tree_param":{"num_deleted":"0","num_feature":"32","num_nodes":"93","size_leaf_vector":"1"}},{"base_weights":[-9.888232E-4,9.141928E-4,-1E0,-1.0412237E-2,1.7777246E-1,2.2776192E-2,-1E0,2.2000773E-3,-1.3154766E-1,2.3128796E-1,-1.0177773E-1,-1E-1,-2.4270682E-1,6.789338E-2,-1.7609937E-2,-8.051006E-2,-4.4634116E-1,1.08717196E-1,4.0905717E-1,-2.9800484E-1,4.5718253E-1,1.8814055E-2,-6.618778E-2,8.348321E-2,-3.227226E-1,-1.0826871E-2,-3.1820792E-1,-3.73882E-1,-4.1495807E-2,-1E0,-2.684902E-1,1.5484682E-1,-2.913138E-1,6.0950214E-1,2.0084603E-1,-4.92209E-1,3.1415614E-1,1E0,-4.315898E-1,2.433039E-3,1.4591823E-2,-5.976599E-2,6.769807E-3,-1.3770639E-3,3.8483914E-2,-4.2735323E-2,1.6240444E-2,-1.9791067E-2,-6.931323E-2,2.5839109E-2,-8.751153E-3,-1E-1,2.274385E-2,-3.9120507E-3,-5.7959534E-2,1.9110542E-2,-4.2650666E-2,-5.5411495E-2,3.2844093E-2,6.709886E-2,-4.7995333E-2,4.5922916E-2,-1.601604E-2,-5.6048214E-2,2.531395E-2,1E-1,1.33957E-2,1E-1,-4.218545E-2,-9.2588685E-2,2.6225656E-2],"categories":[],"categories_nodes":[],"categories_segments":[],"categories_sizes":[],"default_left":[0,0,0,0,0,0,0,0,0,0,0,0,0,0,0,0,0,0,0,0,0,0,0,0,0,0,0,0,0,0,0,0,0,0,0,0,0,0,0,0,0,0,0,0,0,0,0,0,0,0,0,0,0,0,0,0,0,0,0,0,0,0,0,0,0,0,0,0,0,0,0],"id":1,"left_children":[1,3,5,7,9,-1,11,13,15,17,19,-1,21,23,25,27,29,31,33,35,37,-1,-1,39,41,43,45,47,49,51,53,55,57,59,61,63,65,67,69,-1,-1,-1,-1,-1,-1,-1,-1,-1,-1,-1,-1,-1,-1,-1,-1,-1,-1,-1,-1,-1,-1,-1,-1,-1,-1,-1,-1,-1,-1,-1,-1],"loss_changes":[1.4554321E1,1.4097031E1,2.3941174E0,1.0104939E1,6.3601522E0,0E0,1.295042E0,7.7980113E0,9.984606E0,7.7084312E0,7.6770234E0,0E0,8.472568E-1,8.481074E0,9.383764E0,6.141188E0,1.0010721E1,3.9565532E0,5.9227657E0,6.276204E0,9.501577E0,0E0,0E0,4.9298162E0,5.7817726E0,5.250542E0,5.3968954E0,3.4027996E0,6.5897093E0,2.3923378E0,4.9935465E0,4.1013317E0,3.807956E0,5.232752E0,6.8398223E0,2.1509209E0,1.6985058E0,4.051341E0,2.9005198E0,0E0,0E0,0E0,0E0,0E0,0E0,0E0,0E0,0E0,0E0,0E0,0E0,0E0,0E0,0E0,0E0,0E0,0E0,0E0,0E0,0E0,0E0,0E0,0E0,0E0,0E0,0E0,0E0,0E0,0E0,0E0,0E0],"parents":[2147483647,0,0,1,1,2,2,3,3,4,4,6,6,7,7,8,8,9,9,10,10,12,12,13,13,14,14,15,15,16,16,17,17,18,18,19,19,20,20,23,23,24,24,25,25,26,26,27,27,28,28,29,29,30,30,31,31,32,32,33,33,34,34,35,35,36,36,37,37,38,38],"right_children":[2,4,6,8,10,-1,12,14,16,18,20,-1,22,24,26,28,30,32,34,36,38,-1,-1,40,42,44,46,48,50,52,54,56,58,60,62,64,66,68,70,-1,-1,-1,-1,-1,-1,-1,-1,-1,-1,-1,-1,-1,-1,-1,-1,-1,-1,-1,-1,-1,-1,-1,-1,-1,-1,-1,-1,-1,-1,-1,-1],"split_conditions":[2.4487305E-1,1.6162109E0,5.1116943E-2,1.0604858E-3,1.4465332E-1,2.2776192E-2,3.1298828E-1,1.5722656E-1,1.6687012E-1,1.8505859E0,2.1035156E0,-1E-1,2.7563477E-1,2.1171875E0,7.098389E-2,8.728027E-2,1.5344238E-1,2.0599365E-2,1.125E0,6.677246E-2,4.348755E-2,1.8814055E-2,-6.618778E-2,3.0029297E-1,6.341553E-2,6.726074E-2,4.2749023E-1,4.6081543E-3,3.2006836E-1,4.812622E-2,7.5927734E-2,3.6547852E-1,3.0975342E-2,3.8842773E-1,4.5043945E-1,1.2705078E0,6.8481445E-2,4.2944336E-1,2.4267578E-1,2.433039E-3,1.4591823E-2,-5.976599E-2,6.769807E-3,-1.3770639E-3,3.8483914E-2,-4.2735323E-2,1.6240444E-2,-1.9791067E-2,-6.931323E-2,2.5839109E-2,-8.751153E-3,-1E-1,2.274385E-2,-3.9120507E-3,-5.7959534E-2,1.9110542E-2,-4.2650666E-2,-5.5411495E-2,3.2844093E-2,6.709886E-2,-4.7995333E-2,4.5922916E-2,-1.601604E-2,-5.6048214E-2,2.531395E-2,1E-1,1.33957E-2,1E-1,-4.218545E-2,-9.2588685E-2,2.6225656E-2],"split_indices":[15,0,19,14,23,0,1,31,5,0,0,0,19,8,10,31,6,23,5,7,7,0,0,8,1,30,31,31,29,30,14,31,7,31,22,5,7,18,23,0,0,0,0,0,0,0,0,0,0,0,0,0,0,0,0,0,0,0,0,0,0,0,0,0,0,0,0,0,0,0,0],"split_type":[0,0,0,0,0,0,0,0,0,0,0,0,0,0,0,0,0,0,0,0,0,0,0,0,0,0,0,0,0,0,0,0,0,0,0,0,0,0,0,0,0,0,0,0,0,0,0,0,0,0,0,0,0,0,0,0,0,0,0,0,0,0,0,0,0,0,0,0,0,0,0],"sum_hessian":[7.0466753E3,7.0354277E3,1.1247782E1,6.612865E3,4.2256268E2,1.25164E0,9.996142E0,5.990166E3,6.226991E2,3.548121E2,6.775057E1,6.9942813E0,3.0018609E0,1.3872817E3,4.6028843E3,5.3690607E2,8.579305E1,2.1096478E2,1.4384734E2,5.0491886E1,1.725869E1,1.7521073E0,1.2497536E0,1.3347952E3,5.2486576E1,4.502324E3,1.0056003E2,6.2012566E1,4.748935E2,1.649659E1,6.929646E1,1.8970216E2,2.1262611E1,7.230854E1,7.1538795E1,3.848023E1,1.2011657E1,1.0509527E1,6.749162E0,6.861272E2,6.4866797E2,3.0486755E1,2.199982E1,4.470032E3,3.2291992E1,8.203989E1,1.8520145E1,4.102141E1,2.0991154E1,6.2561504E1,4.1233197E2,1.52449465E1,1.2516422E0,4.053604E1,2.8760418E1,1.7919705E2,1.0505117E1,1.5005559E1,6.2570534E0,6.8809204E1,3.4993353E0,4.1537254E1,3.000154E1,3.5478466E1,3.001764E0,1.253532E0,1.0758124E1,9.010929E0,1.4985975E0,3.7460473E0,3.003115E0],"tree_param":{"num_deleted":"0","num_feature":"32","num_nodes":"71","size_leaf_vector":"1"}},{"base_weights":[8.613533E-3,3.267213E-3,3.602046E-1,5.2104224E-5,5.1132065E-1,4.081867E-1,-9.5871985E-1,1.5310354E-3,-8.1360346E-1,5.934134E-1,-9.218388E-2,3.159881E-1,1E0,-2.1499446E-2,-1E-1,-5.805232E-3,1.5280801E-1,-1E0,1.8175223E-1,7.2593063E-1,-1.6846234E-1,2.2165269E-1,1E0,1E-1,1.7589282E-2,-4.1953837E-3,-6.731599E-1,-2.5021168E-3,3.7140778E-1,-1E-1,-1.0637249E-1,5.2131034E-2,-2.0110544E-2,9.7840834E-1,3.1027895E-1,6.7632586E-2,-4.702291E-1,3.8071185E-1,-9.452035E-2,1E0,4.00241E-2,-5.5303687E-4,7.878171E-2,-1E-1,6.606409E-2,-2.9505596E-2,1.6393488E-2,8.174865E-2,3.0265957E-2,-6.2077798E-2,5.245917E-2,6.6276066E-2,1E-1,-4.435737E-2,8.264988E-2,-9.091574E-2,6.165467E-2,2.8310189E-2,9.343363E-2,-9.003018E-2,1.3214613E-2,3.438278E-2,1E-1],"categories":[],"categories_nodes":[],"categories_segments":[],"categories_sizes":[],"default_left":[0,0,0,0,0,0,0,0,0,0,0,0,0,0,0,0,0,0,0,0,0,0,0,0,0,0,0,0,0,0,0,0,0,0,0,0,0,0,0,0,0,0,0,0,0,0,0,0,0,0,0,0,0,0,0,0,0,0,0,0,0,0,0],"id":2,"left_children":[1,3,5,7,9,11,13,15,17,19,-1,21,23,-1,-1,25,27,29,31,33,35,37,39,-1,-1,41,43,45,47,-1,49,-1,-1,51,53,-1,55,57,59,61,-1,-1,-1,-1,-1,-1,-1,-1,-1,-1,-1,-1,-1,-1,-1,-1,-1,-1,-1,-1,-1,-1,-1],"loss_changes":[1.3200598E1,1.1301932E1,7.048113E0,8.276106E0,5.6661263E0,7.272415E0,3.797722E-1,7.6198287E0,3.105362E0,4.3386154E0,0E0,5.936349E0,5.272474E-1,0E0,0E0,7.032523E0,1.0782495E1,1.5932617E0,5.273606E-1,3.449417E0,2.102334E0,4.269755E0,1.6857433E-1,0E0,0E0,6.9126806E0,7.6719537E0,9.1367855E0,3.797966E0,0E0,1.3796633E0,0E0,0E0,6.980972E-1,6.1955695E0,0E0,3.3019276E0,2.7729578E0,5.411662E0,7.585144E-2,0E0,0E0,0E0,0E0,0E0,0E0,0E0,0E0,0E0,0E0,0E0,0E0,0E0,0E0,0E0,0E0,0E0,0E0,0E0,0E0,0E0,0E0,0E0],"parents":[2147483647,0,0,1,1,2,2,3,3,4,4,5,5,6,6,7,7,8,8,9,9,11,11,12,12,15,15,16,16,17,17,18,18,19,19,20,20,21,21,22,22,25,25,26,26,27,27,28,28,30,30,33,33,34,34,36,36,37,37,38,38,39,39],"right_children":[2,4,6,8,10,12,14,16,18,20,-1,22,24,-1,-1,26,28,30,32,34,36,38,40,-1,-1,42,44,46,48,-1,50,-1,-1,52,54,-1,56,58,60,62,-1,-1,-1,-1,-1,-1,-1,-1,-1,-1,-1,-1,-1,-1,-1,-1,-1,-1,-1,-1,-1,-1,-1],"split_conditions":[2.0839844E0,1.6923828E0,9.887695E-2,2.4487305E-1,2.8759766E-1,5.7037354E-2,3.564453E-1,4.2236328E-2,1.5100098E-1,3.112793E-1,-9.218388E-2,6.286621E-2,1.7028809E-1,-2.1499446E-2,-1E-1,3.878784E-2,1.4770508E-1,4.1748047E-2,9.7265625E-1,1.9902344E0,1.7753906E0,2.2277832E-3,2.2539062E0,1E-1,1.7589282E-2,5.800781E-1,3.8061523E-1,1.8341064E-2,4.272461E-1,-1E-1,2.626953E-1,5.2131034E-2,-2.0110544E-2,1.8789062E0,6.1706543E-2,6.7632586E-2,1.9072266E0,3.8879395E-2,1.1932373E-2,1.1728516E0,4.00241E-2,-5.5303687E-4,7.878171E-2,-1E-1,6.606409E-2,-2.9505596E-2,1.6393488E-2,8.174865E-2,3.0265957E-2,-6.2077798E-2,5.245917E-2,6.6276066E-2,1E-1,-4.435737E-2,8.264988E-2,-9.091574E-2,6.165467E-2,2.8310189E-2,9.343363E-2,-9.003018E-2,1.3214613E-2,3.438278E-2,1E-1],"split_indices":[19,18,7,15,3,7,3,15,3,10,0,2,22,0,0,15,3,10,8,18,18,7,19,0,0,10,3,10,8,0,15,0,0,18,29,0,18,24,7,5,0,0,0,0,0,0,0,0,0,0,0,0,0,0,0,0,0,0,0,0,0,0,0],"split_type":[0,0,0,0,0,0,0,0,0,0,0,0,0,0,0,0,0,0,0,0,0,0,0,0,0,0,0,0,0,0,0,0,0,0,0,0,0,0,0,0,0,0,0,0,0,0,0,0,0,0,0,0,0,0,0,0,0,0,0,0,0,0,0],"sum_hessian":[7.022272E3,6.9180845E3,1.0418763E2,6.8755737E3,4.251051E1,1.0119664E2,2.990991E0,6.8640957E3,1.1478322E1,4.076159E1,1.7489218E0,9.318396E1,8.012677E0,1.250077E0,1.7409141E0,6.547531E3,3.165648E2,9.228211E0,2.2501101E0,3.476236E1,5.9992275E0,8.3186775E1,9.997184E0,6.7639217E0,1.248755E0,6.5327783E3,1.4752625E1,1.856519E2,1.3091289E2,6.980827E0,2.2473848E0,1.0008354E0,1.2492747E0,2.0783812E1,1.3978549E1,1.2522804E0,4.7469473E0,5.5208546E1,2.7978235E1,7.7485332E0,2.248651E0,6.522777E3,1.0001515E1,1.1997825E1,2.7548006E0,6.703996E1,1.18611946E2,1.6027306E1,1.1488558E2,1.2469383E0,1.0004463E0,1.4020173E1,6.763638E0,5.7387667E0,8.239782E0,3.4977198E0,1.2492272E0,4.8218468E1,6.9900746E0,5.4899554E0,2.248828E1,1.498717E0,6.249816E0],"tree_param":{"num_deleted":"0","num_feature":"32","num_nodes":"63","size_leaf_vector":"1"}},{"base_weights":[-9.491915E-4,6.829927E-4,-1E0,-2.2291967E-3,5.251385E-1,-4.560401E-1,-1E-1,-1.664453E-2,1.0104753E-1,6.4220244E-1,-1.5415218E-1,1E-1,-1E0,3.531801E-2,-3.8025834E-2,2.461128E-1,5.5395357E-2,1.1517585E-1,9.2501014E-1,-9.246041E-2,3.237623E-1,-1E-1,-1.5096274E-2,6.500653E-2,-1.07112326E-1,-1.4976336E-1,-1.8207815E-2,4.2028007E-1,1.14626445E-1,-3.2613984E-1,8.584061E-2,7.860414E-1,-1E0,1E0,3.089609E-1,-1.2920219E-1,7.832671E-2,6.9303657E-3,-9.171513E-2,-6.989212E-2,-5.5756154E-3,-1.9304605E-2,1.3521525E-2,6.5189945E-3,-4.0492783E-3,3.151288E-2,1E-1,-1.9780186E-3,4.7071416E-2,-4.364429E-2,6.592392E-2,7.444943E-3,6.7752145E-2,3.1512793E-2,1E-1,-1E-1,-2.677163E-2,3.40974E-2,1E-1,-6.4756654E-2,1E-1,5.0284334E-2,-6.3411556E-2],"categories":[],"categories_nodes":[],"categories_segments":[],"categories_sizes":[],"default_left":[0,0,0,0,0,0,0,0,0,0,0,0,0,0,0,0,0,0,0,0,0,0,0,0,0,0,0,0,0,0,0,0,0,0,0,0,0,0,0,0,0,0,0,0,0,0,0,0,0,0,0,0,0,0,0,0,0,0,0,0,0,0,0],"id":3,"left_children":[1,3,5,7,9,11,-1,13,15,17,19,-1,21,23,25,27,29,31,33,-1,35,-1,-1,37,39,41,43,45,47,49,51,53,55,57,59,61,-1,-1,-1,-1,-1,-1,-1,-1,-1,-1,-1,-1,-1,-1,-1,-1,-1,-1,-1,-1,-1,-1,-1,-1,-1,-1,-1],"loss_changes":[1.2656524E1,1.069499E1,6.2339306E-1,1.036954E1,3.1739388E0,5.760961E0,0E0,6.7918577E0,5.6362076E0,4.8385344E0,2.6892934E0,0E0,6.18093E-1,7.5434017E0,9.587137E0,4.621767E0,7.5806823E0,1.1058554E1,1.8546638E0,0E0,1.089134E0,0E0,0E0,6.2907357E0,9.316007E0,8.071337E0,6.840872E0,5.7980185E0,5.636455E0,5.5328975E0,4.013356E0,1.1791434E0,2.0567465E-1,6.2584305E-1,5.494158E0,1.3556018E0,0E0,0E0,0E0,0E0,0E0,0E0,0E0,0E0,0E0,0E0,0E0,0E0,0E0,0E0,0E0,0E0,0E0,0E0,0E0,0E0,0E0,0E0,0E0,0E0,0E0,0E0,0E0],"parents":[2147483647,0,0,1,1,2,2,3,3,4,4,5,5,7,7,8,8,9,9,10,10,12,12,13,13,14,14,15,15,16,16,17,17,18,18,20,20,23,23,24,24,25,25,26,26,27,27,28,28,29,29,30,30,31,31,32,32,33,33,34,34,35,35],"right_children":[2,4,6,8,10,12,-1,14,16,18,20,-1,22,24,26,28,30,32,34,-1,36,-1,-1,38,40,42,44,46,48,50,52,54,56,58,60,62,-1,-1,-1,-1,-1,-1,-1,-1,-1,-1,-1,-1,-1,-1,-1,-1,-1,-1,-1,-1,-1,-1,-1,-1,-1,-1,-1],"split_conditions":[1.2529297E0,1.6923828E0,1.6662598E-2,3.232422E-1,3.112793E-1,1.015625E-1,-1E-1,2.8979492E-1,9.536743E-4,2.4780273E-1,3.4033203E-1,1E-1,1.3110352E-1,4.2871094E-1,1.4001465E-1,4.831543E-1,2.5344849E-2,8.0200195E-2,2.475586E-1,-9.246041E-2,1.6591797E0,-1E-1,-1.5096274E-2,7.2509766E-2,9.0722656E-1,9.82666E-2,3.503418E-1,2.8710938E-1,1.1445312E0,7.458496E-2,9.1552734E-2,1.3946533E-2,1.4367676E-1,4.1107178E-2,4.1748047E-1,1.8085938E0,7.832671E-2,6.9303657E-3,-9.171513E-2,-6.989212E-2,-5.5756154E-3,-1.9304605E-2,1.3521525E-2,6.5189945E-3,-4.0492783E-3,3.151288E-2,1E-1,-1.9780186E-3,4.7071416E-2,-4.364429E-2,6.592392E-2,7.444943E-3,6.7752145E-2,3.1512793E-2,1E-1,-1E-1,-2.677163E-2,3.40974E-2,1E-1,-6.4756654E-2,1E-1,5.0284334E-2,-6.3411556E-2],"split_indices":[16,18,1,5,10,29,0,0,10,2,10,0,0,6,29,5,10,10,10,0,6,0,0,2,8,2,0,24,29,30,26,29,10,10,2,18,0,0,0,0,0,0,0,0,0,0,0,0,0,0,0,0,0,0,0,0,0,0,0,0,0,0,0],"split_type":[0,0,0,0,0,0,0,0,0,0,0,0,0,0,0,0,0,0,0,0,0,0,0,0,0,0,0,0,0,0,0,0,0,0,0,0,0,0,0,0,0,0,0,0,0,0,0,0,0,0,0,0,0,0,0,0,0,0,0,0,0,0,0],"sum_hessian":[7.009932E3,7.0007183E3,9.214107E0,6.96305E3,3.766858E1,4.486431E0,4.727676E0,6.1109272E3,8.5212244E2,3.217788E1,5.490699E0,1.000792E0,3.485639E0,1.7812764E3,4.329651E3,2.0292212E2,6.492003E2,1.1728494E1,2.0449385E1,1.7441955E0,3.7465034E0,2.2409818E0,1.2446572E0,1.4744766E3,3.067999E2,6.512471E2,3.6784038E3,8.634837E1,1.1657374E2,4.7258003E1,6.019423E2,7.742451E0,3.986043E0,1.5218875E1,5.2305107E0,2.2486663E0,1.4978371E0,1.4689789E3,5.497614E0,2.3490864E1,2.8330902E2,5.6565735E2,8.558971E1,7.752469E2,2.9031567E3,7.607867E1,1.0269707E1,8.531553E1,3.1258211E1,4.300151E1,4.2564955E0,5.9167706E2,1.026528E1,4.499113E0,3.2433379E0,2.737655E0,1.248388E0,2.7434573E0,1.2475417E1,2.4884987E0,2.742012E0,1.0004337E0,1.2482327E0],"tree_param":{"num_deleted":"0","num_feature":"32","num_nodes":"63","size_leaf_vector":"1"}},{"base_weights":[-9.823409E-4,7.9985487E-4,-1E0,-3.4504284E-3,3.9271817E-1,-1.3568533E-2,-1E0,-1.5508132E-2,1.02304466E-1,4.854614E-1,-1.1124211E-1,-1E-1,-4.1899312E-1,-1.4328589E-2,-1E-1,8.0734275E-2,5.082423E-1,3.8105422E-1,1E-1,-5.349218E-1,8.3262146E-1,-7.542234E-1,2.8703973E-2,-2.2025675E-2,1.4264967E-1,-3.6275864E-1,1.0197511E-1,1E-1,3.88905E-1,4.6634182E-1,-1.409775E-1,-8.5697395E-1,6.828503E-2,1E-1,-2.2291146E-2,-1.5660092E-2,-1E-1,-1.996827E-3,-5.3193796E-2,2.2311015E-2,-1.761825E-2,-4.8208926E-2,1E-1,1.335474E-2,-3.7854493E-3,-2.872168E-2,5.5426884E-2,3.0986995E-2,7.236285E-2,-1E-1,2.5910562E-2,2.9908394E-2,-1E-1],"categories":[],"categories_nodes":[],"categories_segments":[],"categories_sizes":[],"default_left":[0,0,0,0,0,0,0,0,0,0,0,0,0,0,0,0,0,0,0,0,0,0,0,0,0,0,0,0,0,0,0,0,0,0,0,0,0,0,0,0,0,0,0,0,0,0,0,0,0,0,0,0,0],"id":4,"left_children":[1,3,5,7,9,-1,11,13,15,17,19,-1,21,23,-1,25,27,29,-1,31,33,35,-1,37,39,41,43,-1,45,47,49,51,-1,-1,-1,-1,-1,-1,-1,-1,-1,-1,-1,-1,-1,-1,-1,-1,-1,-1,-1,-1,-1],"loss_changes":[1.2513309E1,1.1648536E1,6.751671E-1,8.823245E0,3.5605078E0,0E0,5.957098E-1,7.90555E0,6.159835E0,4.443281E0,5.433738E0,0E0,1.3353086E0,7.500745E0,0E0,6.3826914E0,2.4612274E0,2.653699E0,0E0,4.2004957E0,2.2467153E0,3.8504744E-1,0E0,6.1958666E0,7.4831867E0,6.223221E0,2.8464751E0,0E0,3.7688203E0,1.7965546E0,4.2117195E0,3.8967323E0,0E0,0E0,0E0,0E0,0E0,0E0,0E0,0E0,0E0,0E0,0E0,0E0,0E0,0E0,0E0,0E0,0E0,0E0,0E0,0E0,0E0],"parents":[2147483647,0,0,1,1,2,2,3,3,4,4,6,6,7,7,8,8,9,9,10,10,12,12,13,13,15,15,16,16,17,17,19,19,20,20,21,21,23,23,24,24,25,25,26,26,28,28,29,29,30,30,31,31],"right_children":[2,4,6,8,10,-1,12,14,16,18,20,-1,22,24,-1,26,28,30,-1,32,34,36,-1,38,40,42,44,-1,46,48,50,52,-1,-1,-1,-1,-1,-1,-1,-1,-1,-1,-1,-1,-1,-1,-1,-1,-1,-1,-1,-1,-1],"split_conditions":[2.4487305E-1,1.3203125E0,2.7563477E-1,8.149414E-1,3.857422E-1,-1.3568533E-2,4.0405273E-1,1.2734375E0,1.4257812E-1,8.671875E-1,3.9086914E-1,-1E-1,9.025574E-3,5.126953E-2,-1E-1,7.626953E-1,1.19018555E-1,2.0175781E0,1E-1,9.819336E-1,7.973633E-1,4.4360352E-1,2.8703973E-2,1.6430664E-1,6.020508E-1,1.71875E-1,3.017578E-1,1E-1,1.5063477E-1,9.7473145E-2,2.0488281E0,1.9042969E-1,6.828503E-2,1E-1,-2.2291146E-2,-1.5660092E-2,-1E-1,-1.996827E-3,-5.3193796E-2,2.2311015E-2,-1.761825E-2,-4.8208926E-2,1E-1,1.335474E-2,-3.7854493E-3,-2.872168E-2,5.5426884E-2,3.0986995E-2,7.236285E-2,-1E-1,2.5910562E-2,2.9908394E-2,-1E-1],"split_indices":[15,6,6,29,29,0,6,16,4,19,31,0,3,15,0,19,16,18,0,19,29,6,0,26,4,30,10,0,6,29,18,31,0,0,0,0,0,0,0,0,0,0,0,0,0,0,0,0,0,0,0,0,0],"split_type":[0,0,0,0,0,0,0,0,0,0,0,0,0,0,0,0,0,0,0,0,0,0,0,0,0,0,0,0,0,0,0,0,0,0,0,0,0,0,0,0,0,0,0,0,0,0,0,0,0,0,0,0,0],"sum_hessian":[7.0025254E3,6.991096E3,1.1429431E1,6.9170728E3,7.402321E1,1.2424084E0,1.0187023E1,6.209901E3,7.0717194E2,6.2549076E1,1.1474129E1,6.459967E0,3.727056E0,6.204211E3,5.6898026E0,6.726295E2,3.4542427E1,5.7126476E1,5.4226E0,8.218353E0,3.2557752E0,2.480865E0,1.2461909E0,5.9150396E3,2.891714E2,3.000793E1,6.426216E2,3.2577488E0,3.128468E1,4.919574E1,7.9307375E0,6.7338066E0,1.4845462E0,2.0050797E0,1.2506956E0,1.2427437E0,1.2381213E0,5.8923047E3,2.2735214E1,2.311409E2,5.803048E1,2.850411E1,1.5038202E0,5.242871E2,1.1833447E2,6.0030756E0,2.5281605E1,3.1962032E1,1.7233707E1,1.4863821E0,6.4443555E0,1.9953082E0,4.7384987E0],"tree_param":{"num_deleted":"0","num_feature":"32","num_nodes":"53","size_leaf_vector":"1"}},{"base_weights":[-2.2441028E-3,-4.4438844E-3,5.503451E-1,-1.4828393E-3,-2.5699496E-1,3.453195E-1,1E0,-2.4345145E-3,1E0,-7.1585164E-3,-6.616814E-1,4.6988967E-1,-3.244174E-1,1E-1,6.778429E-3,-1.2631029E-2,6.483762E-2,1.9189276E-2,1E-1,-9.04731E-2,1E-1,-3.0168077E-1,-1E0,1.5275352E-1,9.2610216E-1,-6.824248E-2,8.796743E-3,-2.6799679E-2,4.3388568E-2,3.4490682E-2,2.781234E-1,-9.8923844E-1,1.1946359E-2,-6.092827E-1,4.4381195E-1,-4.5666948E-5,-1E0,-3.5382956E-1,3.950203E-1,1E0,-4.3554306E-3,-2.1962381E-3,-3.9173663E-2,2.6593288E-2,1.7191576E-3,6.7911255E-3,-2.2817822E-2,6.279834E-2,1.0337101E-5,-1E-1,2.31877E-2,9.320033E-3,-1E-1,-1E-1,-2.5719663E-2,7.509274E-2,-1.41954515E-2,-1E-1,-2.1276677E-2,-8.708694E-2,1.9783916E-2,-1.8903663E-3,8.9147195E-2,2.8150758E-2,1E-1],"categories":[],"categories_nodes":[],"categories_segments":[],"categories_sizes":[],"default_left":[0,0,0,0,0,0,0,0,0,0,0,0,0,0,0,0,0,0,0,0,0,0,0,0,0,0,0,0,0,0,0,0,0,0,0,0,0,0,0,0,0,0,0,0,0,0,0,0,0,0,0,0,0,0,0,0,0,0,0,0,0,0,0,0,0],"id":5,"left_children":[1,3,5,7,9,11,13,15,17,19,21,23,25,-1,-1,27,29,-1,-1,31,-1,33,35,37,39,-1,-1,41,43,45,47,49,51,53,55,-1,57,59,61,63,-1,-1,-1,-1,-1,-1,-1,-1,-1,-1,-1,-1,-1,-1,-1,-1,-1,-1,-1,-1,-1,-1,-1,-1,-1],"loss_changes":[8.559475E0,5.243723E0,2.6100912E0,7.436837E0,8.211142E0,1.9539957E0,9.284086E-1,4.75271E0,7.9719496E-1,4.9772654E0,6.185231E0,2.5518827E0,6.473453E-1,0E0,0E0,4.776649E0,5.8932295E0,0E0,0E0,4.4990916E0,0E0,5.31814E0,9.9878883E-1,1.6345103E0,1.667573E0,0E0,0E0,8.469545E0,7.078435E0,7.0341234E0,1.1035411E1,2.4162636E0,4.565036E0,2.6295404E0,1.3673558E0,0E0,3.9481163E-1,1.4466407E0,1.8070161E0,2.8256893E-1,0E0,0E0,0E0,0E0,0E0,0E0,0E0,0E0,0E0,0E0,0E0,0E0,0E0,0E0,0E0,0E0,0E0,0E0,0E0,0E0,0E0,0E0,0E0,0E0,0E0],"parents":[2147483647,0,0,1,1,2,2,3,3,4,4,5,5,6,6,7,7,8,8,9,9,10,10,11,11,12,12,15,15,16,16,19,19,21,21,22,22,23,23,24,24,27,27,28,28,29,29,30,30,31,31,32,32,33,33,34,34,36,36,37,37,38,38,39,39],"right_children":[2,4,6,8,10,12,14,16,18,20,22,24,26,-1,-1,28,30,-1,-1,32,-1,34,36,38,40,-1,-1,42,44,46,48,50,52,54,56,-1,58,60,62,64,-1,-1,-1,-1,-1,-1,-1,-1,-1,-1,-1,-1,-1,-1,-1,-1,-1,-1,-1,-1,-1,-1,-1,-1,-1],"split_conditions":[1.8251953E0,1.953125E-2,8.671875E-1,1.8859863E-2,1.9604492E-1,2.6733398E-1,4.663086E-1,6.085205E-2,3.708496E-1,4.736328E-1,3.9367676E-3,1.7687988E-1,6.645508E-1,1E-1,6.778429E-3,2.1533203E-1,2.7319336E-1,1.9189276E-2,1E-1,2.2033691E-2,1E-1,2.5634766E-2,5.571289E-1,1.01257324E-1,1.9902344E0,-6.824248E-2,8.796743E-3,5.4748535E-2,2.2631836E-1,2.1166992E-1,3.2202148E-1,3.984375E-1,1.3562012E-1,2.0800781E-1,2.9693604E-2,-4.5666948E-5,4.623413E-2,6.1706543E-2,2.4438477E-1,7.0751953E-1,-4.3554306E-3,-2.1962381E-3,-3.9173663E-2,2.6593288E-2,1.7191576E-3,6.7911255E-3,-2.2817822E-2,6.279834E-2,1.0337101E-5,-1E-1,2.31877E-2,9.320033E-3,-1E-1,-1E-1,-2.5719663E-2,7.509274E-2,-1.41954515E-2,-1E-1,-2.1276677E-2,-8.708694E-2,1.9783916E-2,-1.8903663E-3,8.9147195E-2,2.8150758E-2,1E-1],"split_indices":[18,20,19,20,24,29,2,10,29,29,5,10,19,0,0,24,3,0,0,20,0,20,19,3,18,0,0,11,24,3,3,29,23,24,20,0,5,29,2,19,0,0,0,0,0,0,0,0,0,0,0,0,0,0,0,0,0,0,0,0,0,0,0,0,0],"split_type":[0,0,0,0,0,0,0,0,0,0,0,0,0,0,0,0,0,0,0,0,0,0,0,0,0,0,0,0,0,0,0,0,0,0,0,0,0,0,0,0,0,0,0,0,0,0,0,0,0,0,0,0,0,0,0,0,0,0,0,0,0,0,0,0,0],"sum_hessian":[7.038488E3,7.011568E3,2.6920128E1,6.931307E3,8.026052E1,2.059381E1,6.326318E0,6.926547E3,4.760409E0,5.0253693E1,3.0006828E1,1.7615707E1,2.9781015E0,5.107272E0,1.2190452E0,6.015572E3,9.1097485E2,1.7520547E0,3.0083542E0,4.774766E1,2.50603E0,2.1012228E1,8.994599E0,1.1179269E1,6.4364395E0,1.2436312E0,1.7344704E0,4.8016465E3,1.2139255E3,7.985207E2,1.124542E2,3.998733E0,4.3748928E1,1.5004041E1,6.0081882E0,1.0006155E0,7.9939837E0,3.4677215E0,7.7115474E0,4.9496007E0,1.486839E0,4.739879E3,6.1767643E1,1.268847E2,1.0870409E3,7.090469E2,8.947382E1,4.923641E1,6.3217796E1,2.7471383E0,1.2515947E0,4.2000656E1,1.7482713E0,4.9978905E0,1.000615E1,3.7566385E0,2.25155E0,6.7433324E0,1.2506515E0,1.4913635E0,1.9763579E0,4.72987E0,2.9816773E0,1.4844875E0,3.4651132E0],"tree_param":{"num_deleted":"0","num_feature":"32","num_nodes":"65","size_leaf_vector":"1"}},{"base_weights":[4.380161E-3,5.8072456E-3,-8.3305216E-1,6.258398E-2,-1.2300617E-2,-1E0,9.4184935E-2,7.176922E-2,-5.327131E-1,-1.34540405E-2,1E-1,5.3569167E-3,-1E-1,-3.2981955E-2,4.80165E-2,7.890131E-2,-4.4925845E-1,-2.5974166E-1,-1E-1,-1.1042309E-2,-5.363494E-1,6.458482E-2,2.893019E-1,-1.7156782E-2,-1E0,-9.530159E-1,1.6622683E-2,-7.400824E-3,-3.018839E-1,-2.993716E-1,-1E-1,6.789751E-3,-9.172403E-2,1.5234736E-2,5.5317845E-2,-5.5439483E-2,4.4461936E-2,-1E-1,-3.576276E-2,1.6672508E-3,-1E-1,-1.1918294E-2,1E-1,-1.4346812E-3,1.3899701E-2,-1.2986371E-2,-9.6494846E-2,-6.2825285E-2,3.324988E-2],"categories":[],"categories_nodes":[],"categories_segments":[],"categories_sizes":[],"default_left":[0,0,0,0,0,0,0,0,0,0,0,0,0,0,0,0,0,0,0,0,0,0,0,0,0,0,0,0,0,0,0,0,0,0,0,0,0,0,0,0,0,0,0,0,0,0,0,0,0],"id":6,"left_children":[1,3,5,7,9,11,13,15,17,19,-1,-1,-1,-1,-1,21,23,25,-1,27,29,31,33,35,37,39,41,43,45,47,-1,-1,-1,-1,-1,-1,-1,-1,-1,-1,-1,-1,-1,-1,-1,-1,-1,-1,-1],"loss_changes":[8.341717E0,7.161613E0,3.4429512E0,9.248405E0,7.7380066E0,1.770072E0,8.1093955E-1,6.2028503E0,4.87685E0,6.650309E0,0E0,0E0,0E0,0E0,0E0,4.915655E0,7.2531815E0,4.0337453E0,0E0,5.5632844E0,3.6039443E0,5.0549717E0,3.676919E0,4.123547E0,3.0010223E-2,1.0546861E0,2.3066566E0,5.280624E0,7.283626E0,4.361353E0,0E0,0E0,0E0,0E0,0E0,0E0,0E0,0E0,0E0,0E0,0E0,0E0,0E0,0E0,0E0,0E0,0E0,0E0,0E0],"parents":[2147483647,0,0,1,1,2,2,3,3,4,4,5,5,6,6,7,7,8,8,9,9,15,15,16,16,17,17,19,19,20,20,21,21,22,22,23,23,24,24,25,25,26,26,27,27,28,28,29,29],"right_children":[2,4,6,8,10,12,14,16,18,20,-1,-1,-1,-1,-1,22,24,26,-1,28,30,32,34,36,38,40,42,44,46,48,-1,-1,-1,-1,-1,-1,-1,-1,-1,-1,-1,-1,-1,-1,-1,-1,-1,-1,-1],"split_conditions":[2.4487305E-1,1.3085938E-1,2.626953E-1,8.4350586E-2,1.105957E-1,5.1116943E-2,2.5732422E-1,2.3476562E0,6.359863E-2,1.6772461E-1,1E-1,5.3569167E-3,-1E-1,-3.2981955E-2,4.80165E-2,3.2128906E-1,1.2731934E-1,9.60083E-2,-1E-1,1.953125E-2,4.885254E-1,3.100586E-1,6.036377E-2,2.09198E-2,1.6564941E-1,5.5419922E-2,1.23168945E-1,9.918213E-4,4.404297E-1,4.0039062E-1,-1E-1,6.789751E-3,-9.172403E-2,1.5234736E-2,5.5317845E-2,-5.5439483E-2,4.4461936E-2,-1E-1,-3.576276E-2,1.6672508E-3,-1E-1,-1.1918294E-2,1E-1,-1.4346812E-3,1.3899701E-2,-1.2986371E-2,-9.6494846E-2,-6.2825285E-2,3.324988E-2],"split_indices":[15,31,1,14,11,19,19,8,3,26,0,0,0,0,0,2,29,29,0,20,8,2,31,29,2,1,31,20,0,8,0,0,0,0,0,0,0,0,0,0,0,0,0,0,0,0,0,0,0],"split_type":[0,0,0,0,0,0,0,0,0,0,0,0,0,0,0,0,0,0,0,0,0,0,0,0,0,0,0,0,0,0,0,0,0,0,0,0,0,0,0,0,0,0,0,0,0,0,0,0,0],"sum_hessian":[6.9749624E3,6.964088E3,1.0874572E1,1.6833938E3,5.280694E3,7.8871427E0,2.9874287E0,1.6586804E3,2.4713453E1,5.277186E3,3.507926E0,1.4955434E0,6.391599E0,1.4929278E0,1.4945009E0,1.6371191E3,2.1561167E1,1.9970678E1,4.742775E0,5.2539746E3,2.3211597E1,1.5340437E3,1.0307546E2,1.4628E1,6.933167E0,4.9941616E0,1.4976516E1,5.190018E3,6.3956223E1,1.8981977E1,4.229619E0,1.529813E3,4.2307534E0,6.88954E1,3.4180058E1,6.668817E0,7.959183E0,5.4370317E0,1.4961351E0,1.0006508E0,3.9935107E0,1.397436E1,1.0021554E0,4.955788E3,2.342302E2,5.173131E1,1.2224907E1,1.2487898E1,6.4940805E0],"tree_param":{"num_deleted":"0","num_feature":"32","num_nodes":"49","size_leaf_vector":"1"}},{"base_weights":[7.2652535E-3,1.1436304E-2,-2.2822739E-1,8.55951E-3,2.6820862E-1,-9.001345E-1,-1.603236E-1,9.153419E-3,-1E-1,7.876787E-1,1.7101489E-1,2.4170678E-2,-1E0,-2.1363646E-1,7.3832077E-1,7.488438E-3,5.960423E-1,-2.4415043E-1,1E0,-5.3396785E-1,2.8161895E-1,-1E0,-7.623897E-4,3.5131305E-1,-3.154564E-1,1E-1,-5.8741372E-2,4.615996E-3,2.4208003E-1,7.615401E-1,-4.539563E-1,-6.436986E-2,1.7097427E-2,-2.1921692E-3,1E-1,1.9859155E-1,-1E0,3.896212E-1,-2.4052912E-1,-1E-1,1.7789447E-3,-8.392937E-2,8.092168E-1,-3.4317157E-1,8.005896E-2,2.6756737E-3,-3.0845008E-3,1.9076733E-2,1E-1,2.3453886E-2,1E-1,-1E-1,5.084889E-2,1E-1,-4.7921143E-2,-2.1974656E-3,-1E-1,1.9396795E-2,7.994606E-2,-5.6078613E-2,5.5835363E-2,-9.5808975E-2,4.654386E-2,1E-1,-1.7205056E-2,-1.2780589E-2,-5.2884907E-2],"categories":[],"categories_nodes":[],"categories_segments":[],"categories_sizes":[],"default_left":[0,0,0,0,0,0,0,0,0,0,0,0,0,0,0,0,0,0,0,0,0,0,0,0,0,0,0,0,0,0,0,0,0,0,0,0,0,0,0,0,0,0,0,0,0,0,0,0,0,0,0,0,0,0,0,0,0,0,0,0,0,0,0,0,0,0,0],"id":7,"left_children":[1,3,5,7,9,11,13,15,-1,17,19,-1,21,23,25,27,29,31,33,35,37,39,-1,41,43,-1,-1,45,47,49,51,-1,-1,-1,-1,53,55,57,59,-1,-1,61,63,65,-1,-1,-1,-1,-1,-1,-1,-1,-1,-1,-1,-1,-1,-1,-1,-1,-1,-1,-1,-1,-1,-1,-1],"loss_changes":[6.894018E0,5.0907454E0,5.428847E0,4.628526E0,3.7205534E0,2.35989E0,5.531061E0,6.6567526E0,0E0,4.6568875E0,5.2654977E0,0E0,9.70417E-1,6.2457066E0,5.477888E0,4.580158E0,3.6946363E0,7.729998E-1,1.0888615E0,3.458084E0,3.328361E0,1.5908165E0,0E0,3.4080427E0,3.0861425E0,0E0,0E0,5.274901E0,3.5045E0,2.7214928E0,2.586014E0,0E0,0E0,0E0,0E0,3.2152255E0,9.1342306E-1,3.6866403E0,2.986496E0,0E0,0E0,5.007365E0,2.478094E0,3.5069447E0,0E0,0E0,0E0,0E0,0E0,0E0,0E0,0E0,0E0,0E0,0E0,0E0,0E0,0E0,0E0,0E0,0E0,0E0,0E0,0E0,0E0,0E0,0E0],"parents":[2147483647,0,0,1,1,2,2,3,3,4,4,5,5,6,6,7,7,9,9,10,10,12,12,13,13,14,14,15,15,16,16,17,17,18,18,19,19,20,20,21,21,23,23,24,24,27,27,28,28,29,29,30,30,35,35,36,36,37,37,38,38,41,41,42,42,43,43],"right_children":[2,4,6,8,10,12,14,16,-1,18,20,-1,22,24,26,28,30,32,34,36,38,40,-1,42,44,-1,-1,46,48,50,52,-1,-1,-1,-1,54,56,58,60,-1,-1,62,64,66,-1,-1,-1,-1,-1,-1,-1,-1,-1,-1,-1,-1,-1,-1,-1,-1,-1,-1,-1,-1,-1,-1,-1],"split_conditions":[7.0007324E-2,1.3203125E0,7.6293945E-2,1.3317871E-1,1.4980469E0,3.0078125E-1,1.0039062E0,1.2763977E-2,-1E-1,1.171875E0,1.5634766E0,2.4170678E-2,1.7199707E-1,8.605957E-2,1.4294434E-1,2.1367188E0,5.698242E-1,3.803711E-1,1.3427734E-1,7.006836E-1,3.0541992E-1,4.892578E-1,-7.623897E-4,2.6904297E-1,9.4628906E-1,1E-1,-5.8741372E-2,3.0151367E-1,5.014038E-2,4.2529297E-1,3.8427734E-1,-6.436986E-2,1.7097427E-2,-2.1921692E-3,1E-1,6.9084167E-3,1.640625E-1,1.0644531E-1,4.3432617E-1,-1E-1,1.7789447E-3,7.019043E-2,3.4326172E-1,1.9238281E-1,8.005896E-2,2.6756737E-3,-3.0845008E-3,1.9076733E-2,1E-1,2.3453886E-2,1E-1,-1E-1,5.084889E-2,1E-1,-4.7921143E-2,-2.1974656E-3,-1E-1,1.9396795E-2,7.994606E-2,-5.6078613E-2,5.5835363E-2,-9.5808975E-2,4.654386E-2,1E-1,-1.7205056E-2,-1.2780589E-2,-5.2884907E-2],"split_indices":[26,6,26,17,18,19,19,17,0,18,18,0,1,6,30,19,19,31,2,19,10,24,0,31,18,0,0,29,18,19,31,0,0,0,0,29,2,29,10,0,0,10,31,6,0,0,0,0,0,0,0,0,0,0,0,0,0,0,0,0,0,0,0,0,0,0,0],"split_type":[0,0,0,0,0,0,0,0,0,0,0,0,0,0,0,0,0,0,0,0,0,0,0,0,0,0,0,0,0,0,0,0,0,0,0,0,0,0,0,0,0,0,0,0,0,0,0,0,0,0,0,0,0,0,0,0,0,0,0,0,0,0,0,0,0,0,0],"sum_hessian":[7.014929E3,6.893778E3,1.211513E2,6.81842E3,7.535802E1,9.9949875E0,1.1115631E2,6.8159224E3,2.4975123E0,1.0757633E1,6.460039E1,1.2502695E0,8.744719E0,1.0565076E2,5.5055537E0,6.7976504E3,1.827192E1,2.9969537E0,7.7606792E0,8.241552E0,5.6358833E1,7.7439094E0,1.0008091E0,1.5759359E1,8.9891396E1,3.7580595E0,1.7474945E0,6.716431E3,8.121924E1,1.6021393E1,2.250525E0,1.2465563E0,1.7503974E0,1.0002043E0,6.7604747E0,3.5002942E0,4.7412586E0,4.6909733E1,9.4491E0,6.242869E0,1.5010403E0,8.4983225E0,7.261037E0,8.838891E1,1.5024837E0,4.134946E3,2.5814854E3,7.8001526E1,3.2177176E0,7.003302E0,9.018091E0,1.2487121E0,1.0018129E0,1.2528774E0,2.247417E0,1.0003713E0,3.7408872E0,3.2748978E1,1.4160757E1,6.9578614E0,2.4912386E0,2.9925532E0,5.505769E0,5.5102367E0,1.7508E0,4.170452E1,4.6684387E1],"tree_param":{"num_deleted":"0","num_feature":"32","num_nodes":"67","size_leaf_vector":"1"}},{"base_weights":[4.7191037E-3,-1.0091206E-3,1.9677766E-1,5.2306586E-4,-6.398696E-1,1.5253651E-1,1E0,-1.7233678E-3,3.873674E-1,-8.988692E-1,1.3476604E-1,2.22991E-1,-2.3194067E-1,1E0,1.2484536E-3,-6.166535E-4,-7.6347226E-1,4.5673898E-1,-8.145975E-2,-1E0,1.1444179E-2,6.1926644E-2,-3.2117043E-2,2.7039114E-1,-2.635303E-1,-8.202942E-1,-7.0615946E-3,1E-1,2.1153899E-2,-1.3325779E-3,1E-1,-4.4459778E-1,-1E-1,8.599103E-1,2.3833683E-1,-3.72664E-1,-1E-1,2.9046136E-1,-9.2111476E-2,-8.54422E-1,1.0880255E-1,-1.6931884E-1,-1E0,3.2996324E-1,-4.867717E-1,-1.5838066E-3,4.6964064E-3,-5.2370583E-3,-7.4244976E-2,1E-1,-5.4970817E-3,3.937122E-2,-4.9996544E-2,-8.835527E-2,2.0999797E-2,3.6189966E-2,-6.3251154E-3,1.9177357E-2,-1E-1,-7.018239E-2,3.90541E-2,-6.845989E-2,4.940846E-2,-1.6065598E-2,-1E-1,-1.387803E-2,1E-1,-7.320114E-2,6.820863E-2],"categories":[],"categories_nodes":[],"categories_segments":[],"categories_sizes":[],"default_left":[0,0,0,0,0,0,0,0,0,0,0,0,0,0,0,0,0,0,0,0,0,0,0,0,0,0,0,0,0,0,0,0,0,0,0,0,0,0,0,0,0,0,0,0,0,0,0,0,0,0,0,0,0,0,0,0,0,0,0,0,0,0,0,0,0,0,0,0,0],"id":8,"left_children":[1,3,5,7,9,11,13,15,17,19,21,23,25,27,-1,29,31,33,-1,35,-1,-1,-1,37,39,41,43,-1,-1,45,-1,47,-1,49,51,53,-1,55,-1,57,59,61,63,65,67,-1,-1,-1,-1,-1,-1,-1,-1,-1,-1,-1,-1,-1,-1,-1,-1,-1,-1,-1,-1,-1,-1,-1,-1],"loss_changes":[7.7097807E0,6.6621823E0,8.424984E0,5.9017344E0,3.388225E0,5.3459826E0,9.5117855E-1,5.691955E0,3.641439E0,1.9499397E0,1.2923422E0,3.8921957E0,4.0638175E0,3.9914513E-1,0E0,5.6537366E0,4.9628258E-1,3.1156225E0,0E0,1.0463381E0,0E0,0E0,0E0,3.8898087E0,3.4405434E0,9.678354E-1,3.921435E0,0E0,0E0,4.722893E0,0E0,7.35332E-1,0E0,2.0472412E0,3.161491E0,1.7333634E0,0E0,3.8061743E0,0E0,2.0664558E0,2.608441E0,1.4490427E0,9.3777704E-1,5.2436438E0,3.3666358E0,0E0,0E0,0E0,0E0,0E0,0E0,0E0,0E0,0E0,0E0,0E0,0E0,0E0,0E0,0E0,0E0,0E0,0E0,0E0,0E0,0E0,0E0,0E0,0E0],"parents":[2147483647,0,0,1,1,2,2,3,3,4,4,5,5,6,6,7,7,8,8,9,9,10,10,11,11,12,12,13,13,15,15,16,16,17,17,19,19,23,23,24,24,25,25,26,26,29,29,31,31,33,33,34,34,35,35,37,37,39,39,40,40,41,41,42,42,43,43,44,44],"right_children":[2,4,6,8,10,12,14,16,18,20,22,24,26,28,-1,30,32,34,-1,36,-1,-1,-1,38,40,42,44,-1,-1,46,-1,48,-1,50,52,54,-1,56,-1,58,60,62,64,66,68,-1,-1,-1,-1,-1,-1,-1,-1,-1,-1,-1,-1,-1,-1,-1,-1,-1,-1,-1,-1,-1,-1,-1,-1],"split_conditions":[2.7801514E-2,2.2875977E-1,3.0200195E-1,1.6923828E0,4.1601562E-1,1.665039E-1,9.1674805E-2,1.2529297E0,2.8759766E-1,4.5751953E-1,4.4360352E-1,3.3203125E-1,8.605957E-2,2.5830078E-1,1.2484536E-3,1.0864258E-1,1.2900391E0,1.6591797E0,-8.145975E-2,3.2543945E-1,1.1444179E-2,6.1926644E-2,-3.2117043E-2,2.7563477E-1,3.0151367E-2,1.8029785E-1,5.8154297E-1,1E-1,2.1153899E-2,8.972168E-2,1E-1,1.015625E-1,-1E-1,1.5148926E-1,2.7319336E-1,2.734375E-1,-1E-1,5.999756E-2,-9.2111476E-2,3.933716E-2,6.970215E-2,3.0822754E-3,1.9714355E-1,5.46875E-1,2.310791E-1,-1.5838066E-3,4.6964064E-3,-5.2370583E-3,-7.4244976E-2,1E-1,-5.4970817E-3,3.937122E-2,-4.9996544E-2,-8.835527E-2,2.0999797E-2,3.6189966E-2,-6.3251154E-3,1.9177357E-2,-1E-1,-7.018239E-2,3.90541E-2,-6.845989E-2,4.940846E-2,-1.6065598E-2,-1E-1,-1.387803E-2,1E-1,-7.320114E-2,6.820863E-2],"split_indices":[7,15,31,18,6,31,11,16,3,16,6,3,6,3,0,11,16,6,0,6,0,0,0,6,22,22,29,0,0,4,0,29,0,31,10,4,0,11,0,7,7,6,31,29,31,0,0,0,0,0,0,0,0,0,0,0,0,0,0,0,0,0,0,0,0,0,0,0,0],"split_type":[0,0,0,0,0,0,0,0,0,0,0,0,0,0,0,0,0,0,0,0,0,0,0,0,0,0,0,0,0,0,0,0,0,0,0,0,0,0,0,0,0,0,0,0,0,0,0,0,0,0,0,0,0,0,0,0,0,0,0,0,0,0,0,0,0,0,0,0,0],"sum_hessian":[7.006727E3,6.804767E3,2.0196019E2,6.789483E3,1.5284115E1,1.9444572E2,7.5144625E0,6.7512734E3,3.82096E1,1.1334158E1,3.9499564E0,1.6468721E2,2.9758514E1,6.5136366E0,1.0008259E0,6.742478E3,8.795066E0,3.6710835E1,1.498764E0,9.8574E0,1.4767578E0,1.7413175E0,2.208639E0,1.5047153E2,1.4215693E1,7.4968123E0,2.2261702E1,5.2630153E0,1.2506211E0,6.739475E3,3.003305E0,5.627096E0,3.16797E0,1.1867006E1,2.4843828E1,4.199686E0,5.6577144E0,1.487226E2,1.7489228E0,4.9945574E0,9.221135E0,2.249466E0,5.2473464E0,1.3258781E1,9.00292E0,5.1833667E3,1.5561083E3,2.9362779E0,2.6908185E0,9.902167E0,1.9648386E0,2.0910051E1,3.9337766E0,1.9625121E0,2.2371738E0,1.2371341E2,2.500919E1,1.2484291E0,3.7461286E0,1.9937139E0,7.2274218E0,1.248094E0,1.001372E0,1.7505773E0,3.4967692E0,8.750858E0,4.507923E0,7.750512E0,1.252408E0],"tree_param":{"num_deleted":"0","num_feature":"32","num_nodes":"69","size_leaf_vector":"1"}},{"base_weights":[6.438508E-3,8.008857E-3,-8.2539713E-1,1.4281004E-2,-1.5228237E-1,-1E0,2.485901E-1,8.714899E-3,2.6401126E-1,-1.92296E-1,4.2685556E-1,3.6457002E-3,-1E-1,-6.743155E-3,4.953328E-2,1.8361576E-2,-8.914025E-2,2.2593482E-1,1E0,-1.6246025E-1,-8.8318413E-1,8.086831E-1,9.740713E-2,1.5530015E-2,3.1440762E-1,-5.0698865E-2,-4.464795E-1,2.7944213E-1,-4.186427E-1,1E-1,2.5625054E-2,7.555988E-2,-2.9537523E-1,-1E0,5.1065344E-2,-2.2071911E-2,1E-1,3.6655843E-1,-9.11343E-2,1.9882717E-4,8.1998445E-3,7.194924E-2,1.3441279E-3,-2.6307514E-2,3.2326903E-3,-9.5104754E-2,-2.3651553E-2,3.3267733E-2,-3.4991235E-2,8.786746E-2,-7.508319E-2,1.1246236E-3,1E-1,-1.4150609E-2,-5.128029E-2,-1E-1,2.3329077E-2,8.79054E-2,9.445104E-3],"categories":[],"categories_nodes":[],"categories_segments":[],"categories_sizes":[],"default_left":[0,0,0,0,0,0,0,0,0,0,0,0,0,0,0,0,0,0,0,0,0,0,0,0,0,0,0,0,0,0,0,0,0,0,0,0,0,0,0,0,0,0,0,0,0,0,0,0,0,0,0,0,0,0,0,0,0,0,0],"id":9,"left_children":[1,3,5,7,9,11,13,15,17,19,21,-1,-1,-1,-1,23,25,27,29,31,33,35,37,39,41,43,45,47,49,-1,-1,51,53,55,-1,-1,-1,57,-1,-1,-1,-1,-1,-1,-1,-1,-1,-1,-1,-1,-1,-1,-1,-1,-1,-1,-1,-1,-1],"loss_changes":[9.154121E0,7.0302663E0,5.1817865E0,9.350103E0,6.1841846E0,1.6809683E0,3.62733E-1,6.215432E0,4.1735964E0,4.947873E0,2.1009948E0,0E0,0E0,0E0,0E0,5.0186424E0,8.093752E0,4.9875855E0,3.7090063E-1,7.5516605E0,3.431826E0,2.8029475E0,3.1683476E0,5.3437133E0,6.90581E0,9.434896E0,5.8413286E0,4.505228E0,5.497021E0,0E0,0E0,5.9169426E0,5.0434275E0,2.424652E0,0E0,0E0,0E0,1.1655853E0,0E0,0E0,0E0,0E0,0E0,0E0,0E0,0E0,0E0,0E0,0E0,0E0,0E0,0E0,0E0,0E0,0E0,0E0,0E0,0E0,0E0],"parents":[2147483647,0,0,1,1,2,2,3,3,4,4,5,5,6,6,7,7,8,8,9,9,10,10,15,15,16,16,17,17,18,18,19,19,20,20,21,21,22,22,23,23,24,24,25,25,26,26,27,27,28,28,31,31,32,32,33,33,37,37],"right_children":[2,4,6,8,10,12,14,16,18,20,22,-1,-1,-1,-1,24,26,28,30,32,34,36,38,40,42,44,46,48,50,-1,-1,52,54,56,-1,-1,-1,58,-1,-1,-1,-1,-1,-1,-1,-1,-1,-1,-1,-1,-1,-1,-1,-1,-1,-1,-1,-1,-1],"split_conditions":[2.3413086E-1,1.5002441E-1,2.626953E-1,1.8505859E0,2.1035156E0,5.1116943E-2,4.033203E-1,5.214691E-3,5.4382324E-2,2.3364258E-1,4.5776367E-4,3.6457002E-3,-1E-1,-6.743155E-3,4.953328E-2,1.3203125E0,3.6987305E-1,5.957031E-1,1.0797119E-1,4.8535156E-1,3.232422E-1,2.1367188E0,1.8789062E0,1.0571289E-1,7.006836E-1,1.776123E-1,3.6865234E-1,2.2539062E0,2.0429688E0,1E-1,2.5625054E-2,6.582031E-1,1.4819336E-1,4.555664E-1,5.1065344E-2,-2.2071911E-2,1E-1,4.006958E-2,-9.11343E-2,1.9882717E-4,8.1998445E-3,7.194924E-2,1.3441279E-3,-2.6307514E-2,3.2326903E-3,-9.5104754E-2,-2.3651553E-2,3.3267733E-2,-3.4991235E-2,8.786746E-2,-7.508319E-2,1.1246236E-3,1E-1,-1.4150609E-2,-5.128029E-2,-1E-1,2.3329077E-2,8.79054E-2,9.445104E-3],"split_indices":[15,23,1,0,0,19,4,14,24,8,7,0,0,0,0,6,31,22,24,0,8,19,29,4,19,31,8,19,19,0,0,19,24,19,0,0,0,7,0,0,0,0,0,0,0,0,0,0,0,0,0,0,0,0,0,0,0,0,0],"split_type":[0,0,0,0,0,0,0,0,0,0,0,0,0,0,0,0,0,0,0,0,0,0,0,0,0,0,0,0,0,0,0,0,0,0,0,0,0,0,0,0,0,0,0,0,0,0,0,0,0,0,0,0,0,0,0,0,0,0,0],"sum_hessian":[7.001758E3,6.989553E3,1.220459E1,6.7272295E3,2.6232352E2,8.981088E0,3.2235022E0,6.5815713E3,1.4565822E2,2.4599524E2,1.6328268E1,1.4956806E0,7.4854074E0,1.7319627E0,1.4915395E0,5.991714E3,5.8985785E2,1.402193E2,5.4389286E0,2.369958E2,8.99943E0,6.889151E0,9.4391165E0,5.9359907E3,5.5722893E1,5.335971E2,5.626075E1,1.2999472E2,1.0224579E1,3.9606364E0,1.4782922E0,8.507592E1,1.5191988E2,7.9976206E0,1.0018092E0,1.7458268E0,5.1433244E0,7.9535885E0,1.4855282E0,4.932178E3,1.00381244E3,2.316006E1,3.256283E1,1.4936342E2,3.8423367E2,1.5494963E1,4.0765785E1,1.2029106E2,9.703656E0,1.7490011E0,8.475577E0,8.131764E1,3.7582817E0,8.992946E1,6.1990425E1,6.7460494E0,1.2515712E0,1.9848047E0,5.968784E0],"tree_param":{"num_deleted":"0","num_feature":"32","num_nodes":"59","size_leaf_vector":"1"}},{"base_weights":[7.3459186E-3,8.461916E-3,-8.603201E-1,1.2808394E-2,-2.1523608E-1,-3.9771077E-1,-1E-1,9.679806E-3,2.734273E-1,-1E-1,-1.9011866E-1,-7.2243325E-2,1.1657706E-2,1.0605239E-3,1.0751635E-1,4.4310755E-1,-5.229095E-2,3.9872855E-1,-2.7261928E-1,-6.5013877E-4,5.1792425E-1,7.0204824E-2,4.455797E-1,6.2192345E-1,-1.4156763E-2,-1E-1,1.6170505E-1,1.1564425E-1,1E0,-1.4339955E-1,-6.321391E-1,-2.34659E-3,3.633565E-3,1E-1,-2.0615576E-2,3.210205E-3,3.5767138E-2,2.6434405E-2,1E-1,8.566302E-2,4.77641E-3,-1E-1,3.8740393E-2,5.634872E-2,-1.33397505E-2,5.7047587E-2,-4.274294E-2,2.4103414E-2,1E-1,-1.9652916E-2,9.968888E-2,-1E-1,-2.0681364E-2],"categories":[],"categories_nodes":[],"categories_segments":[],"categories_sizes":[],"default_left":[0,0,0,0,0,0,0,0,0,0,0,0,0,0,0,0,0,0,0,0,0,0,0,0,0,0,0,0,0,0,0,0,0,0,0,0,0,0,0,0,0,0,0,0,0,0,0,0,0,0,0,0,0],"id":10,"left_children":[1,3,5,7,9,11,-1,13,15,-1,17,-1,-1,19,21,23,25,27,29,31,33,35,37,39,41,-1,43,45,47,49,51,-1,-1,-1,-1,-1,-1,-1,-1,-1,-1,-1,-1,-1,-1,-1,-1,-1,-1,-1,-1,-1,-1],"loss_changes":[6.770936E0,6.786493E0,3.441162E-1,5.5785317E0,3.0244918E0,7.836927E-1,0E0,5.704525E0,4.508647E0,0E0,6.47506E0,0E0,0E0,5.4982586E0,6.8773284E0,4.3805447E0,7.575624E0,3.201121E0,5.276903E0,5.2315903E0,9.144651E0,5.404415E0,6.006459E0,5.141659E0,7.525163E0,0E0,3.0926476E0,3.4558644E0,2.9661655E-1,5.4232554E0,7.653248E0,0E0,0E0,0E0,0E0,0E0,0E0,0E0,0E0,0E0,0E0,0E0,0E0,0E0,0E0,0E0,0E0,0E0,0E0,0E0,0E0,0E0,0E0],"parents":[2147483647,0,0,1,1,2,2,3,3,4,4,5,5,7,7,8,8,10,10,13,13,14,14,15,15,16,16,17,17,18,18,19,19,20,20,21,21,22,22,23,23,24,24,26,26,27,27,28,28,29,29,30,30],"right_children":[2,4,6,8,10,12,-1,14,16,-1,18,-1,-1,20,22,24,26,28,30,32,34,36,38,40,42,-1,44,46,48,50,52,-1,-1,-1,-1,-1,-1,-1,-1,-1,-1,-1,-1,-1,-1,-1,-1,-1,-1,-1,-1,-1,-1],"split_conditions":[1.2529297E0,1.5588379E-1,1.2734375E0,8.081055E-2,8.728027E-2,2.960205E-3,-1E-1,8.7402344E-2,6.982422E-2,-1E-1,2.0288086E-1,-7.2243325E-2,1.1657706E-2,1.4819336E-1,2.7172852E-1,6.201172E-2,9.326172E-2,1.8341064E-2,4.519043E-1,2.8955078E-1,5.2490234E-1,1.8505859E0,1.1633301E-1,2.6904297E-1,7.15332E-2,-1E-1,9.509277E-2,1.965332E-1,1.751709E-1,4.21875E-1,5.3808594E-1,-2.34659E-3,3.633565E-3,1E-1,-2.0615576E-2,3.210205E-3,3.5767138E-2,2.6434405E-2,1E-1,8.566302E-2,4.77641E-3,-1E-1,3.8740393E-2,5.634872E-2,-1.33397505E-2,5.7047587E-2,-4.274294E-2,2.4103414E-2,1E-1,-1.9652916E-2,9.968888E-2,-1E-1,-2.0681364E-2],"split_indices":[16,14,16,7,31,1,0,2,23,0,31,0,0,14,3,11,23,10,16,31,29,0,10,24,11,0,7,14,31,16,16,0,0,0,0,0,0,0,0,0,0,0,0,0,0,0,0,0,0,0,0,0,0],"split_type":[0,0,0,0,0,0,0,0,0,0,0,0,0,0,0,0,0,0,0,0,0,0,0,0,0,0,0,0,0,0,0,0,0,0,0,0,0,0,0,0,0,0,0,0,0,0,0,0,0,0,0,0,0],"sum_hessian":[6.9839917E3,6.9760093E3,7.9823346E0,6.8439727E3,1.3203645E2,3.1884427E0,4.793892E0,6.763814E3,8.015873E1,1.9881932E0,1.3004826E2,1.7063342E0,1.4821084E0,6.2171055E3,5.4670874E2,5.2466396E1,2.7692335E1,1.5510345E1,1.1453791E2,6.197592E3,1.9513412E1,4.9345462E2,5.325414E1,3.745809E1,1.5008305E1,3.2427435E0,2.444959E1,1.200378E1,3.5065646E0,8.5283806E1,2.9254108E1,3.8332844E3,2.3643074E3,1.0263352E1,9.250059E0,4.3668506E2,5.6769547E1,4.276136E1,1.0492777E1,2.6239748E1,1.1218345E1,3.4967172E0,1.1511587E1,9.968295E0,1.4481296E1,6.5051613E0,5.4986196E0,1.2509562E0,2.2556086E0,8.227787E1,3.0059347E0,9.992817E0,1.9261292E1],"tree_param":{"num_deleted":"0","num_feature":"32","num_nodes":"53","size_leaf_vector":"1"}}]},"name":"gbtree"},"learner_model_param":{"base_score":"[4.9952886E-1]","boost_from_average":"0","num_class":"0","num_feature":"32","num_target":"1"},"objective":{"name":"binary:logistic","reg_loss_param":{"scale_pos_weight":"1.00188637"}}},"version":[3,1,2]}