{"learner":{"attributes":{"best_iteration":"20","best_score":"0.5093310517624874"},"feature_names":[],"feature_types":[],"gradient_booster":{"model":{"cats":{"enc":[],"feature_segments":[],"sorted_idx":[]},"gbtree_model_param":{"num_parallel_tree":"1","num_trees":"31"},"iteration_indptr":[0,1,2,3,4,5,6,7,8,9,10,11,12,13,14,15,16,17,18,19,20,21,22,23,24,25,26,27,28,29,30,31],"tree_info":[0,0,0,0,0,0,0,0,0,0,0,0,0,0,0,0,0,0,0,0,0,0,0,0,0,0,0,0,0,0,0],"trees":[{"base_weights":[-1.8490053E-3,-9.845533E-3,4.289719E-1,5.417003E-3,-1.9947492E-1,-1.586862E-1,5.042685E-1,-4.2991717E-3,2.1444233E-1,-3.6695567E-1,-9.532012E-2,-6.621917E-1,3.7985852E-1,6.089532E-2,5.819094E-1,-5.6022627E-4,-5.1158863E-1,4.8671892E-1,1.1754012E-2,9.122223E-2,-3.8319302E-1,-2.444454E-1,2.860932E-2,-1E-1,-8.230653E-2,6.199006E-1,-3.9690804E-2,6.71231E-1,-3.428054E-1,6.478452E-1,1.4809743E-1,-2.3625717E-2,8.583174E-2,-8.187653E-1,-9.464262E-2,5.5487114E-1,-2.8070056E-1,-1.618243E-1,4.0144008E-1,-2.9395452E-1,-6.348559E-1,-1.4762509E-1,-7.167461E-1,3.698778E-1,-1.3336016E-1,6.696691E-2,-4.403249E-1,1E0,-3.9690804E-2,1E-1,-9.065828E-2,6.557838E-2,-1E0,4.4859767E-1,8.732354E-1,-4.719114E-1,4.6645576E-1,-1.9410141E-3,-5.548053E-2,4.625549E-3,2.2086835E-2,-9.618116E-2,1.2198432E-2,5.5036005E-2,-7.955885E-2,4.18657E-2,1E-1,-8.294057E-2,3.6820002E-2,5.5036005E-2,-2.3600332E-2,5.350065E-2,-8.534108E-2,2.6415918E-2,-3.865383E-2,-1E-1,-3.250905E-2,-2.5436288E-2,1.4080842E-2,2.5424097E-2,-8.659517E-2,2.7998615E-2,1E-1,-1E-1,-8.212289E-3,-9.065828E-2,1.8544827E-2,2.8281883E-4,1E-1,-6.6262685E-2,1E-1,2.8281883E-4,-1E-1,-7.660961E-2,5.2800514E-2,-1.13361655E-2,9.686687E-2,2.8975341E-2,-1E-1,9.130933E-2,-9.068595E-3],"categories":[],"categories_nodes":[],"categories_segments":[],"categories_sizes":[],"default_left":[0,0,0,0,0,0,0,0,0,0,0,0,0,0,0,0,0,0,0,0,0,0,0,0,0,0,0,0,0,0,0,0,0,0,0,0,0,0,0,0,0,0,0,0,0,0,0,0,0,0,0,0,0,0,0,0,0,0,0,0,0,0,0,0,0,0,0,0,0,0,0,0,0,0,0,0,0,0,0,0,0,0,0,0,0,0,0,0,0,0,0,0,0,0,0,0,0,0,0,0,0],"id":0,"left_children":[1,3,5,7,9,11,13,15,17,19,21,23,25,27,29,31,33,35,37,-1,39,41,43,-1,45,47,-1,49,51,53,55,57,59,61,63,65,67,69,71,73,75,77,79,81,83,-1,85,87,-1,-1,-1,89,91,93,95,97,99,-1,-1,-1,-1,-1,-1,-1,-1,-1,-1,-1,-1,-1,-1,-1,-1,-1,-1,-1,-1,-1,-1,-1,-1,-1,-1,-1,-1,-1,-1,-1,-1,-1,-1,-1,-1,-1,-1,-1,-1,-1,-1,-1,-1],"loss_changes":[2.4136257E1,1.9907934E1,5.729265E0,1.2931316E1,8.90299E0,4.3897376E0,3.8685455E0,1.1541161E1,1.560241E1,4.4229584E0,5.870425E0,2.9041703E0,1.739455E0,4.669358E0,2.6612282E0,1.2040577E1,5.6243725E0,6.4668274E0,1.1100854E1,0E0,4.1783504E0,6.48368E0,9.676418E0,0E0,1.8439727E0,2.9389143E0,0E0,8.181997E0,3.406269E0,3.3526497E0,2.9863079E0,1.0668358E1,6.7945795E0,3.5493279E0,9.4873495E0,7.684944E0,4.046148E0,6.1306524E0,8.9316635E0,7.6124144E0,5.4348965E0,3.7562575E0,3.7342062E0,3.108056E0,5.8660173E0,0E0,1.4815092E0,9.896412E-1,0E0,0E0,0E0,6.304859E0,1.0122776E0,4.871562E0,3.6938877E0,3.3630474E0,2.5121083E0,0E0,0E0,0E0,0E0,0E0,0E0,0E0,0E0,0E0,0E0,0E0,0E0,0E0,0E0,0E0,0E0,0E0,0E0,0E0,0E0,0E0,0E0,0E0,0E0,0E0,0E0,0E0,0E0,0E0,0E0,0E0,0E0,0E0,0E0,0E0,0E0,0E0,0E0,0E0,0E0,0E0,0E0,0E0,0E0],"parents":[2147483647,0,0,1,1,2,2,3,3,4,4,5,5,6,6,7,7,8,8,9,9,10,10,11,11,12,12,13,13,14,14,15,15,16,16,17,17,18,18,20,20,21,21,22,22,24,24,25,25,27,27,28,28,29,29,30,30,31,31,32,32,33,33,34,34,35,35,36,36,37,37,38,38,39,39,40,40,41,41,42,42,43,43,44,44,46,46,47,47,51,51,52,52,53,53,54,54,55,55,56,56],"right_children":[2,4,6,8,10,12,14,16,18,20,22,24,26,28,30,32,34,36,38,-1,40,42,44,-1,46,48,-1,50,52,54,56,58,60,62,64,66,68,70,72,74,76,78,80,82,84,-1,86,88,-1,-1,-1,90,92,94,96,98,100,-1,-1,-1,-1,-1,-1,-1,-1,-1,-1,-1,-1,-1,-1,-1,-1,-1,-1,-1,-1,-1,-1,-1,-1,-1,-1,-1,-1,-1,-1,-1,-1,-1,-1,-1,-1,-1,-1,-1,-1,-1,-1,-1,-1],"split_conditions":[7.158203E-1,7.3828125E-1,5.2337646E-3,4.609375E-1,7.800293E-2,1.1303711E-1,3.137207E-2,2.3291016E-1,2.8979492E-1,4.1601562E-1,5.473633E-1,4.8486328E-1,1.6098022E-3,4.609375E-1,2.824707E-1,3.4484863E-2,1.2487793E-1,4.765625E-1,1.8273926E-1,9.122223E-2,3.95813E-2,5.2685547E-1,9.3066406E-1,-1E-1,4.765625E-1,1.2915039E-1,-3.9690804E-2,4.008789E-1,3.317871E-1,1.2878418E-1,4.1357422E-1,1.9897461E-1,9.039307E-2,3.9868164E-1,4.7851562E-1,6.5185547E-1,4.6606445E-1,1.0668945E-1,1.3769531E0,1.3626099E-2,2.770996E-1,2.6831055E-1,4.7088623E-2,6.538086E-1,2.1032715E-1,6.696691E-2,1.0418701E-1,1.217041E-1,-3.9690804E-2,1E-1,-9.065828E-2,8.9904785E-2,2.2729492E-1,1.5246582E-1,3.2641602E-1,3.5913086E-1,2.8884888E-2,-1.9410141E-3,-5.548053E-2,4.625549E-3,2.2086835E-2,-9.618116E-2,1.2198432E-2,5.5036005E-2,-7.955885E-2,4.18657E-2,1E-1,-8.294057E-2,3.6820002E-2,5.5036005E-2,-2.3600332E-2,5.350065E-2,-8.534108E-2,2.6415918E-2,-3.865383E-2,-1E-1,-3.250905E-2,-2.5436288E-2,1.4080842E-2,2.5424097E-2,-8.659517E-2,2.7998615E-2,1E-1,-1E-1,-8.212289E-3,-9.065828E-2,1.8544827E-2,2.8281883E-4,1E-1,-6.6262685E-2,1E-1,2.8281883E-4,-1E-1,-7.660961E-2,5.2800514E-2,-1.13361655E-2,9.686687E-2,2.8975341E-2,-1E-1,9.130933E-2,-9.068595E-3],"split_indices":[4,23,9,10,29,11,23,8,17,3,22,10,9,10,23,3,29,25,9,0,29,22,3,0,25,11,0,9,7,23,10,8,8,4,30,4,10,24,24,26,9,16,4,10,28,0,11,24,0,0,0,25,5,24,10,10,8,0,0,0,0,0,0,0,0,0,0,0,0,0,0,0,0,0,0,0,0,0,0,0,0,0,0,0,0,0,0,0,0,0,0,0,0,0,0,0,0,0,0,0,0],"split_type":[0,0,0,0,0,0,0,0,0,0,0,0,0,0,0,0,0,0,0,0,0,0,0,0,0,0,0,0,0,0,0,0,0,0,0,0,0,0,0,0,0,0,0,0,0,0,0,0,0,0,0,0,0,0,0,0,0,0,0,0,0,0,0,0,0,0,0,0,0,0,0,0,0,0,0,0,0,0,0,0,0,0,0,0,0,0,0,0,0,0,0,0,0,0,0,0,0,0,0,0,0],"sum_hessian":[7.0038E3,6.87713E3,1.2667024E2,6.3657466E3,5.113829E2,1.4261082E1,1.1240916E2,6.083926E3,2.8182114E2,1.9511507E2,3.1626785E2,7.2516503E0,7.009432E0,1.7016977E1,9.539218E1,6.0404062E3,4.3519333E1,1.1966741E2,1.6215373E2,1.7540085E0,1.9336105E2,1.4310092E2,1.7316693E2,2.4976418E0,4.7540083E0,5.5089602E0,1.5004716E0,6.5108466E0,1.050613E1,8.237804E1,1.3014148E1,4.7681113E3,1.2722949E3,2.45033E1,1.9016033E1,1.10161285E2,9.50613E0,1.1258818E2,4.956555E1,1.4434502E2,4.9016033E1,1.198455E2,2.3255423E1,5.5321445E1,1.178455E2,1.2525938E0,3.5014145E0,4.0084887E0,1.5004716E0,4.761554E0,1.7492925E0,7.2573094E0,3.2488208E0,4.531201E1,3.706602E1,4.2516503E0,8.762497E0,4.7315967E3,3.6514618E1,9.849658E2,2.8732916E2,2.1249763E1,3.253537E0,1.0015091E1,9.000943E0,8.987002E1,2.0291264E1,5E0,4.5061307E0,1.0015091E1,1.0257309E2,4.5315784E1,4.249764E0,2.0274286E1,1.2407073E2,2.124882E1,2.7767212E1,8.756083E1,3.228466E1,3.0037727E0,2.025165E1,5.0060364E1,5.261082E0,4.748349E0,1.13097145E2,1.7492925E0,1.7521222E0,1.0009432E0,3.0075455E0,4.250707E0,3.0066023E0,1.0009432E0,2.2478776E0,2.2497642E0,4.306225E1,3.2525938E0,3.3813427E1,2.5033011E0,1.7483493E0,4.5089602E0,4.2535367E0],"tree_param":{"num_deleted":"0","num_feature":"32","num_nodes":"101","size_leaf_vector":"1"}},{"base_weights":[-1.000974E-3,-1.1696746E-2,3.0484027E-1,-3.1328665E-3,-3.3532774E-1,2.4578536E-1,7.9303735E-1,-1.2859497E-2,1.4851125E-1,-4.1874677E-1,1.6011266E-1,1.2595451E-1,5.106144E-1,1E0,2.179131E-1,-1.5083093E-2,6.8684316E-1,1.1648964E-1,7.501937E-1,-3.5493076E-1,-1E0,-3.9099824E-2,9.094291E-1,2.4218807E-1,-3.2253692E-1,7.045322E-1,-1.8560762E-2,5.583813E-4,1E-1,1E0,-5.6603706E-1,-7.841996E-3,-3.8134766E-1,-2.3622078E-1,1E0,2.6833758E-1,-2.8757514E-2,1E0,2.8192723E-1,6.232293E-2,-4.67345E-1,-1E0,6.8094686E-2,2.2227918E-1,-7.1308833E-1,1E-1,6.0226776E-5,1.965068E-1,9.686779E-1,2.4900343E-1,-5.5863756E-1,9.2104757E-1,-7.259353E-2,-1E0,5.446386E-1,2.017726E-2,1E-1,-8.6006E-1,6.631043E-2,-1.5343098E-3,1.817139E-2,-6.4440876E-2,-2.0589406E-2,-8.170497E-2,6.640267E-2,2.4778284E-2,1E-1,2.9904252E-2,-8.491888E-2,-9.755547E-2,2.077089E-3,1E-1,4.055212E-2,1E-1,-3.5659602E-4,-7.5372726E-2,4.3346774E-2,-3.942838E-2,-1E-1,-1E-1,-2.2179017E-2,8.807907E-2,-1.7247774E-2,-1E-1,-2.4968645E-2,5.469665E-2,1.0667846E-2,1E-1,-2.1814125E-2,6.66657E-2,-5.189798E-2,-8.730664E-2,2.1154538E-2,1E-1,-5.5301424E-2,1E-1,-4.7137402E-2,4.5586136E-4,-1E-1,-2.0233942E-2,1E-1,-3.426749E-3,-1E-1],"categories":[],"categories_nodes":[],"categories_segments":[],"categories_sizes":[],"default_left":[0,0,0,0,0,0,0,0,0,0,0,0,0,0,0,0,0,0,0,0,0,0,0,0,0,0,0,0,0,0,0,0,0,0,0,0,0,0,0,0,0,0,0,0,0,0,0,0,0,0,0,0,0,0,0,0,0,0,0,0,0,0,0,0,0,0,0,0,0,0,0,0,0,0,0,0,0,0,0,0,0,0,0,0,0,0,0,0,0,0,0,0,0,0,0,0,0,0,0,0,0,0,0],"id":1,"left_children":[1,3,5,7,9,11,13,15,17,19,21,23,25,27,29,31,33,35,37,39,41,43,45,47,49,51,53,-1,-1,55,57,59,61,63,65,67,69,71,73,75,77,79,-1,81,83,-1,-1,85,87,89,91,93,95,97,99,-1,-1,101,-1,-1,-1,-1,-1,-1,-1,-1,-1,-1,-1,-1,-1,-1,-1,-1,-1,-1,-1,-1,-1,-1,-1,-1,-1,-1,-1,-1,-1,-1,-1,-1,-1,-1,-1,-1,-1,-1,-1,-1,-1,-1,-1,-1,-1],"loss_changes":[2.3057095E1,1.8873772E1,6.671583E0,9.789448E0,7.3226395E0,6.7242575E0,6.783634E0,9.713667E0,7.620225E0,5.2698116E0,3.9200482E0,7.82479E0,6.817848E0,1.4706612E0,1.1572221E1,1.6487745E1,6.6146984E0,8.411182E0,4.0730076E0,6.4687576E0,5.3640995E0,3.9489226E0,1.4518256E0,3.7452517E0,4.3242946E0,8.236668E0,1.197284E1,0E0,0E0,4.3319798E-1,3.729333E0,8.673875E0,5.430092E0,3.811555E0,1.2653828E0,6.649023E0,9.194634E0,3.26684E-1,3.260025E0,9.419005E0,4.980316E0,3.6305237E-1,0E0,4.3803005E0,7.383356E-1,0E0,0E0,3.493599E0,2.3331156E0,3.4760013E0,5.5745125E0,5.3921814E0,5.7922745E0,1.52427E0,6.7802153E0,0E0,0E0,1.1841459E0,0E0,0E0,0E0,0E0,0E0,0E0,0E0,0E0,0E0,0E0,0E0,0E0,0E0,0E0,0E0,0E0,0E0,0E0,0E0,0E0,0E0,0E0,0E0,0E0,0E0,0E0,0E0,0E0,0E0,0E0,0E0,0E0,0E0,0E0,0E0,0E0,0E0,0E0,0E0,0E0,0E0,0E0,0E0,0E0,0E0],"parents":[2147483647,0,0,1,1,2,2,3,3,4,4,5,5,6,6,7,7,8,8,9,9,10,10,11,11,12,12,13,13,14,14,15,15,16,16,17,17,18,18,19,19,20,20,21,21,22,22,23,23,24,24,25,25,26,26,29,29,30,30,31,31,32,32,33,33,34,34,35,35,36,36,37,37,38,38,39,39,40,40,41,41,43,43,44,44,47,47,48,48,49,49,50,50,51,51,52,52,53,53,54,54,57,57],"right_children":[2,4,6,8,10,12,14,16,18,20,22,24,26,28,30,32,34,36,38,40,42,44,46,48,50,52,54,-1,-1,56,58,60,62,64,66,68,70,72,74,76,78,80,-1,82,84,-1,-1,86,88,90,92,94,96,98,100,-1,-1,102,-1,-1,-1,-1,-1,-1,-1,-1,-1,-1,-1,-1,-1,-1,-1,-1,-1,-1,-1,-1,-1,-1,-1,-1,-1,-1,-1,-1,-1,-1,-1,-1,-1,-1,-1,-1,-1,-1,-1,-1,-1,-1,-1,-1,-1],"split_conditions":[2.4084473E-1,3.630371E-1,1.2041016E0,3.0297852E-1,2.9882812E-1,6.329346E-2,2.1911621E-1,1.0917969E0,1.6918945E-1,2.3120117E-1,3.5473633E-1,9.893799E-2,2.5317383E-1,7.513428E-2,3.0380249E-2,3.6401367E-1,1.07421875E-1,3.251953E-1,3.095703E-1,9.788513E-3,1.4794922E-1,3.894043E-1,1.6491699E-1,1.3748169E-2,2.3651123E-2,9.375E-1,3.4326172E-1,5.583813E-4,1E-1,3.9764404E-2,1.6760254E-1,2.0251465E-1,2.0983887E-1,2.7270508E-1,2.2973633E-1,8.8012695E-2,3.2592773E-1,2.3522949E-1,3.8726807E-2,4.5239258E-1,4.423828E-1,1.3134766E-1,6.8094686E-2,2.902832E-1,4.2651367E-1,1E-1,6.0226776E-5,4.1900635E-2,2.7905273E-1,7.011719E-1,2.0983887E-1,7.763672E-1,8.3862305E-2,6.220703E-1,5.807495E-2,2.017726E-2,1E-1,4.255371E-1,6.631043E-2,-1.5343098E-3,1.817139E-2,-6.4440876E-2,-2.0589406E-2,-8.170497E-2,6.640267E-2,2.4778284E-2,1E-1,2.9904252E-2,-8.491888E-2,-9.755547E-2,2.077089E-3,1E-1,4.055212E-2,1E-1,-3.5659602E-4,-7.5372726E-2,4.3346774E-2,-3.942838E-2,-1E-1,-1E-1,-2.2179017E-2,8.807907E-2,-1.7247774E-2,-1E-1,-2.4968645E-2,5.469665E-2,1.0667846E-2,1E-1,-2.1814125E-2,6.66657E-2,-5.189798E-2,-8.730664E-2,2.1154538E-2,1E-1,-5.5301424E-2,1E-1,-4.7137402E-2,4.5586136E-4,-1E-1,-2.0233942E-2,1E-1,-3.426749E-3,-1E-1],"split_indices":[27,28,17,5,17,7,23,14,11,17,21,18,5,1,8,9,27,29,5,31,27,9,16,16,5,14,27,0,0,5,30,11,23,1,10,9,29,23,24,10,28,27,0,22,17,0,0,30,23,22,18,22,8,17,1,0,0,10,0,0,0,0,0,0,0,0,0,0,0,0,0,0,0,0,0,0,0,0,0,0,0,0,0,0,0,0,0,0,0,0,0,0,0,0,0,0,0,0,0,0,0,0,0],"split_type":[0,0,0,0,0,0,0,0,0,0,0,0,0,0,0,0,0,0,0,0,0,0,0,0,0,0,0,0,0,0,0,0,0,0,0,0,0,0,0,0,0,0,0,0,0,0,0,0,0,0,0,0,0,0,0,0,0,0,0,0,0,0,0,0,0,0,0,0,0,0,0,0,0,0,0,0,0,0,0,0,0,0,0,0,0,0,0,0,0,0,0,0,0,0,0,0,0,0,0,0,0,0,0],"sum_hessian":[7.046406E3,6.8092373E3,2.3716847E2,6.6346807E3,1.7455632E2,2.1291643E2,2.4252047E1,6.2356353E3,3.9904575E2,1.4953363E2,2.5022694E1,1.4760374E2,6.531269E1,1.0758254E1,1.3493792E1,6.216857E3,1.8778202E1,3.8001492E2,1.9030828E1,1.3629015E2,1.3243483E1,2.0516117E1,4.506575E0,1.1758877E2,3.001497E1,4.7554737E1,1.775795E1,1.4984833E0,9.259771E0,5.7526145E0,7.741177E0,6.097333E3,1.1952366E2,5.2518196E0,1.3526382E1,1.8537161E2,1.9464331E2,7.768136E0,1.1262692E1,2.9020157E1,1.0726999E2,1.1991169E1,1.252314E0,1.5266018E1,5.2501E0,3.006569E0,1.5000058E0,1.118276E2,5.7611675E0,8.7584095E0,2.1256561E1,3.704767E1,1.0507069E1,5.747841E0,1.201011E1,1.2493291E0,4.5032854E0,6.4891768E0,1.2520003E0,5.866118E3,2.3121489E2,4.675305E1,7.277061E1,3.2484047E0,2.003415E0,3.003642E0,1.052274E1,1.811274E2,4.244218E0,8.746484E0,1.8589682E2,5.0141344E0,2.7540011E0,1.7547486E0,9.507943E0,8.75012E0,2.0270037E1,9.902619E1,8.243795E0,1.0740462E1,1.2507062E0,5.2601333E0,1.0005884E1,2.24841E0,3.0016901E0,2.1776993E1,9.0050606E1,4.5104637E0,1.250704E0,5.758625E0,2.9997845E0,1.499943E1,6.2571316E0,3.5299015E1,1.7486539E0,2.254781E0,8.252287E0,1.5014108E0,4.24643E0,6.2480416E0,5.7620683E0,1.4991536E0,4.990023E0],"tree_param":{"num_deleted":"0","num_feature":"32","num_nodes":"103","size_leaf_vector":"1"}},{"base_weights":[9.035717E-3,1.554765E-3,5.1232094E-1,-2.4398842E-3,3.7358817E-1,-1E-1,5.4337406E-1,5.2094646E-3,-2.0097733E-1,7.2290397E-1,1.1917523E-1,3.7320492E-1,1E0,1.46712E-2,-1.3129409E-1,-3.802967E-1,-6.7131394E-3,-7.670812E-1,8.6723495E-1,-6.8570834E-1,2.2311407E-1,-2.6705083E-1,4.1933376E-1,1E0,-1.6256293E-2,-5.5601276E-3,9.342561E-2,-1.7603679E-1,2.2803812E-1,-4.2998925E-1,4.4449133E-1,2.2196138E-1,-2.8235358E-1,4.566855E-4,-1E-1,3.5250333E-1,1E0,4.9910627E-2,-1E0,2.958825E-1,-1E-1,1E-1,-8.8365E-1,1E0,3.0547452E-1,1E0,-3.7982275E-3,6.8839313E-4,-1.6521016E-2,7.899115E-3,4.9994778E-2,-1.613416E-2,-1E-1,-5.3076267E-2,3.768189E-2,-3.7503935E-2,-1E-1,8.979947E-2,-6.121495E-2,3.1681594E-2,-3.7506383E-2,-7.7666156E-2,-8.391832E-3,-4.006479E-2,9.454257E-2,1E-1,-2.3165336E-2,-1E-1,-2.4873551E-2,6.5464266E-2,-1.3982442E-3,-3.3330172E-2,-1E-1,-5.0670872E-3,1E-1,4.2578712E-2,-5.556016E-2,1E-1,4.058885E-2],"categories":[],"categories_nodes":[],"categories_segments":[],"categories_sizes":[],"default_left":[0,0,0,0,0,0,0,0,0,0,0,0,0,0,0,0,0,0,0,0,0,0,0,0,0,0,0,0,0,0,0,0,0,0,0,0,0,0,0,0,0,0,0,0,0,0,0,0,0,0,0,0,0,0,0,0,0,0,0,0,0,0,0,0,0,0,0,0,0,0,0,0,0,0,0,0,0,0,0],"id":2,"left_children":[1,3,5,7,9,-1,11,13,15,17,19,21,23,25,27,29,31,33,35,37,39,41,43,45,-1,47,49,51,53,55,57,59,61,-1,-1,63,65,-1,67,69,-1,-1,71,73,75,77,-1,-1,-1,-1,-1,-1,-1,-1,-1,-1,-1,-1,-1,-1,-1,-1,-1,-1,-1,-1,-1,-1,-1,-1,-1,-1,-1,-1,-1,-1,-1,-1,-1],"loss_changes":[2.6440716E1,1.028654E1,5.7865868E0,1.0401731E1,6.4485283E0,0E0,7.8328056E0,8.520276E0,8.849042E0,7.286339E0,3.8123798E0,2.368679E0,2.716196E0,9.829255E0,6.915298E0,5.605919E0,7.814634E0,8.429568E-1,2.5888443E0,2.980256E0,4.1452413E0,5.724652E0,4.580928E0,1.6905766E0,0E0,9.753622E0,7.359192E0,6.0292883E0,5.5948133E0,4.289734E0,4.382796E0,3.9571807E0,5.447943E0,0E0,0E0,4.7371936E0,2.413906E0,0E0,2.692604E-1,4.2609415E0,0E0,0E0,2.719345E-1,1.7580109E0,6.6247044E0,5.856724E-1,0E0,0E0,0E0,0E0,0E0,0E0,0E0,0E0,0E0,0E0,0E0,0E0,0E0,0E0,0E0,0E0,0E0,0E0,0E0,0E0,0E0,0E0,0E0,0E0,0E0,0E0,0E0,0E0,0E0,0E0,0E0,0E0,0E0],"parents":[2147483647,0,0,1,1,2,2,3,3,4,4,6,6,7,7,8,8,9,9,10,10,11,11,12,12,13,13,14,14,15,15,16,16,17,17,18,18,19,19,20,20,21,21,22,22,23,23,25,25,26,26,27,27,28,28,29,29,30,30,31,31,32,32,35,35,36,36,38,38,39,39,42,42,43,43,44,44,45,45],"right_children":[2,4,6,8,10,-1,12,14,16,18,20,22,24,26,28,30,32,34,36,38,40,42,44,46,-1,48,50,52,54,56,58,60,62,-1,-1,64,66,-1,68,70,-1,-1,72,74,76,78,-1,-1,-1,-1,-1,-1,-1,-1,-1,-1,-1,-1,-1,-1,-1,-1,-1,-1,-1,-1,-1,-1,-1,-1,-1,-1,-1,-1,-1,-1,-1,-1,-1],"split_conditions":[7.368164E-1,3.5424805E-1,6.0653687E-4,3.6914062E-1,5.8935547E-1,-1E-1,1.986084E-1,1.19262695E-1,1.1755371E-1,4.248047E-1,2.1459961E-1,5.2337646E-3,6.6845703E-1,3.942871E-2,3.8427734E-1,1.0742188E0,6.451416E-2,6.567383E-2,1.3977051E-1,5.566406E-1,1.5930176E-1,3.3154297E-1,2.4749756E-2,2.4902344E-1,-1.6256293E-2,1.11572266E-1,4.9804688E-1,4.3823242E-1,1.508789E-1,8.4277344E-1,4.885254E-1,3.3081055E-1,5.2685547E-1,4.566855E-4,-1E-1,2.9296875E-3,4.1259766E-1,4.9910627E-2,7.0373535E-2,3.8867188E-1,-1E-1,1E-1,3.5229492E-1,3.3154297E-1,2.9858398E-1,2.734375E-1,-3.7982275E-3,6.8839313E-4,-1.6521016E-2,7.899115E-3,4.9994778E-2,-1.613416E-2,-1E-1,-5.3076267E-2,3.768189E-2,-3.7503935E-2,-1E-1,8.979947E-2,-6.121495E-2,3.1681594E-2,-3.7506383E-2,-7.7666156E-2,-8.391832E-3,-4.006479E-2,9.454257E-2,1E-1,-2.3165336E-2,-1E-1,-2.4873551E-2,6.5464266E-2,-1.3982442E-3,-3.3330172E-2,-1E-1,-5.0670872E-3,1E-1,4.2578712E-2,-5.556016E-2,1E-1,4.058885E-2],"split_indices":[4,1,24,9,22,0,2,13,27,22,9,9,10,3,13,2,18,4,9,24,18,17,9,7,0,16,17,28,29,24,9,1,22,0,0,7,9,0,18,27,0,0,18,17,29,8,0,0,0,0,0,0,0,0,0,0,0,0,0,0,0,0,0,0,0,0,0,0,0,0,0,0,0,0,0,0,0,0,0],"split_type":[0,0,0,0,0,0,0,0,0,0,0,0,0,0,0,0,0,0,0,0,0,0,0,0,0,0,0,0,0,0,0,0,0,0,0,0,0,0,0,0,0,0,0,0,0,0,0,0,0,0,0,0,0,0,0,0,0,0,0,0,0,0,0,0,0,0,0,0,0,0,0,0,0,0,0,0,0,0,0],"sum_hessian":[7.02188E3,6.920022E3,1.0185778E2,6.8474917E3,7.253041E1,1.2483083E0,1.0060947E2,6.5943936E3,2.530983E2,2.9788517E1,4.2741894E1,7.540939E1,2.5200077E1,6.1677676E3,4.2662592E2,1.3111365E2,1.2198465E2,2.2496598E0,2.7538857E1,4.248105E0,3.849379E1,4.7460647E0,7.066333E1,2.3450502E1,1.7495751E0,4.9079E3,1.2598677E3,3.7983978E2,4.6786133E1,1.2411455E2,6.9990964E0,6.677886E1,5.5205784E1,1.000937E0,1.2487227E0,8.759963E0,1.8778894E1,1.0017893E0,3.246316E0,3.7246788E1,1.2470012E0,1.2508931E0,3.4951715E0,1.0000793E1,6.0662533E1,2.1953234E1,1.4972687E0,4.553899E3,3.540007E2,1.2178206E3,4.2047092E1,3.766044E2,3.235389E0,7.248819E0,3.9537315E1,1.1662374E2,7.4908137E0,5.0022883E0,1.9968078E0,5.802869E1,8.750174E0,1.4978922E1,4.022686E1,4.001455E0,4.758508E0,1.7528416E1,1.2504785E0,1.9974432E0,1.2488726E0,1.674585E1,2.0500938E1,1.9984868E0,1.4966848E0,1.4984031E0,8.50239E0,5.36692E1,6.9933343E0,1.8460833E1,3.4924014E0],"tree_param":{"num_deleted":"0","num_feature":"32","num_nodes":"79","size_leaf_vector":"1"}},{"base_weights":[-5.600378E-4,-2.9083282E-2,1.0036175E-1,-2.48139E-2,-5.410992E-1,7.61869E-2,3.6843407E-1,-8.384342E-3,-1.3237834E-1,-3.695703E-1,-9.614191E-1,1.1566366E-1,-6.6414945E-2,5.654249E-1,1.7687412E-1,-2.0667866E-2,1.1271181E-1,-1.4174305E-1,8.387259E-1,-5.090893E-1,5.877359E-1,-5.1964138E-2,-1E0,1.4255136E-1,-1.5231231E-1,-1.7993033E-1,1.4199786E-1,8.823994E-1,3.1665072E-1,5.5959325E-2,9.3921125E-1,-1.1427447E-2,-2.6711312E-1,3.8723677E-1,-2.5822356E-2,-1.2957424E-1,-8.8917094E-1,1E0,1.3381936E-2,-8.438261E-1,-2.3033978E-2,9.533969E-2,5.6173378E-3,9.8523505E-2,-6.775432E-2,-3.481386E-2,-1E-1,1.3329296E-1,8.4165883E-1,-8.024187E-2,-9.8814166E-1,-2.4475951E-1,2.6328018E-1,8.345603E-2,8.259197E-1,3.5997763E-1,1E0,-1.02972165E-1,5.8021593E-1,3.3923647E-1,-2.7305004E-1,1E-1,1.6725732E-1,-7.590449E-4,-3.9796308E-2,-2.0093663E-2,-7.9869255E-2,4.5389798E-2,-4.281753E-2,3.646507E-2,-7.4646897E-3,-1.1603681E-2,-6.7987345E-2,-1E-1,-3.1469434E-2,1E-1,1.9767474E-2,2.1223135E-3,-1.1479134E-4,-9.83523E-2,2.7677301E-2,-8.1044786E-2,6.881977E-2,1.681414E-2,-3.8930376E-3,8.8694515E-3,1E-1,7.4823365E-2,-1.706225E-2,-1E-1,2.4681497E-2,-1.1841531E-2,-4.8375715E-2,8.1888914E-2,-1.9959025E-2,1.4394059E-2,-7.254566E-2,-2.6827311E-2,1E-1,-5.3948086E-2,6.690848E-2,1E-1,1.7222973E-2,-2.4924872E-2,5.652917E-2,-7.155409E-2,7.40336E-2,1E-1,2.237879E-2,-5.3201746E-2,3.1803783E-2,-2.111224E-2,5.0880548E-2],"categories":[],"categories_nodes":[],"categories_segments":[],"categories_sizes":[],"default_left":[0,0,0,0,0,0,0,0,0,0,0,0,0,0,0,0,0,0,0,0,0,0,0,0,0,0,0,0,0,0,0,0,0,0,0,0,0,0,0,0,0,0,0,0,0,0,0,0,0,0,0,0,0,0,0,0,0,0,0,0,0,0,0,0,0,0,0,0,0,0,0,0,0,0,0,0,0,0,0,0,0,0,0,0,0,0,0,0,0,0,0,0,0,0,0,0,0,0,0,0,0,0,0,0,0,0,0,0,0,0,0,0,0],"id":3,"left_children":[1,3,5,7,9,11,13,15,17,19,21,23,25,27,29,31,33,35,37,39,41,43,45,47,49,51,53,55,57,59,61,63,65,67,69,71,73,75,77,79,81,-1,-1,-1,-1,-1,-1,83,85,87,89,91,93,95,97,99,101,103,105,107,109,-1,111,-1,-1,-1,-1,-1,-1,-1,-1,-1,-1,-1,-1,-1,-1,-1,-1,-1,-1,-1,-1,-1,-1,-1,-1,-1,-1,-1,-1,-1,-1,-1,-1,-1,-1,-1,-1,-1,-1,-1,-1,-1,-1,-1,-1,-1,-1,-1,-1,-1,-1],"loss_changes":[2.018234E1,1.1935654E1,9.983851E0,9.580938E0,2.900176E0,7.9923344E0,4.7125797E0,7.000485E0,6.651822E0,4.799217E0,2.791606E0,8.028307E0,7.315884E0,4.642782E0,6.0416718E0,9.725966E0,1.6493813E1,6.3639593E0,1.7391691E0,4.8521924E0,8.696861E-1,3.4182026E0,6.088257E-2,6.4277744E0,6.053704E0,5.8092194E0,4.3039246E0,4.144766E0,4.1001663E0,5.510056E0,1.2202263E0,6.1058693E0,5.269368E0,8.099321E0,5.536932E0,5.1516666E0,8.577242E-1,4.4897223E-1,3.662905E-4,3.0435314E0,7.972135E0,0E0,0E0,0E0,0E0,0E0,0E0,5.9985714E0,3.8675785E0,7.22747E0,2.494526E0,5.225253E0,6.84871E0,5.0811653E0,2.3547788E0,4.1052837E0,5.384426E-1,1.6016004E0,5.216523E0,2.6006536E0,4.3705044E0,0E0,5.273761E-1,0E0,0E0,0E0,0E0,0E0,0E0,0E0,0E0,0E0,0E0,0E0,0E0,0E0,0E0,0E0,0E0,0E0,0E0,0E0,0E0,0E0,0E0,0E0,0E0,0E0,0E0,0E0,0E0,0E0,0E0,0E0,0E0,0E0,0E0,0E0,0E0,0E0,0E0,0E0,0E0,0E0,0E0,0E0,0E0,0E0,0E0,0E0,0E0,0E0,0E0],"parents":[2147483647,0,0,1,1,2,2,3,3,4,4,5,5,6,6,7,7,8,8,9,9,10,10,11,11,12,12,13,13,14,14,15,15,16,16,17,17,18,18,19,19,20,20,21,21,22,22,23,23,24,24,25,25,26,26,27,27,28,28,29,29,30,30,31,31,32,32,33,33,34,34,35,35,36,36,37,37,38,38,39,39,40,40,47,47,48,48,49,49,50,50,51,51,52,52,53,53,54,54,55,55,56,56,57,57,58,58,59,59,60,60,62,62],"right_children":[2,4,6,8,10,12,14,16,18,20,22,24,26,28,30,32,34,36,38,40,42,44,46,48,50,52,54,56,58,60,62,64,66,68,70,72,74,76,78,80,82,-1,-1,-1,-1,-1,-1,84,86,88,90,92,94,96,98,100,102,104,106,108,110,-1,112,-1,-1,-1,-1,-1,-1,-1,-1,-1,-1,-1,-1,-1,-1,-1,-1,-1,-1,-1,-1,-1,-1,-1,-1,-1,-1,-1,-1,-1,-1,-1,-1,-1,-1,-1,-1,-1,-1,-1,-1,-1,-1,-1,-1,-1,-1,-1,-1,-1,-1],"split_conditions":[6.8603516E-2,2.290039E-1,7.158203E-1,1.6699219E-1,5.161133E-1,7.751465E-2,2.6635742E-1,5.1953125E-1,2.084961E-1,3.0786133E-1,3.2470703E-1,3.4326172E-1,2.1203613E-1,8.8964844E-1,3.7695312E-1,3.1689453E-1,2.5512695E-1,3.3129883E-1,2.6953125E-1,1.0333252E-1,2.8393555E-1,2.109375E-1,4.070282E-3,1.0235596E-1,7.713318E-3,3.1201172E-1,4.4262695E-1,4.220581E-2,1.0087891E0,4.437256E-2,3.4301758E-1,3.310547E-1,2.4023438E-1,3.5253906E-1,3.2177734E-1,4.423828E-1,1.8518066E-1,1.3867188E-1,4.6679688E-1,4.711914E-1,2.4987793E-1,9.533969E-2,5.6173378E-3,9.8523505E-2,-6.775432E-2,-3.481386E-2,-1E-1,3.4985352E-1,2.9614258E-1,1.0168457E-1,5.7617188E-2,4.248047E-1,1.3671875E-1,4.1796875E-1,4.2041016E-1,3.2641602E-1,3.408203E-1,1.0996094E0,5.966797E-1,3.8482666E-2,3.1274414E-1,1E-1,5.263672E-1,-7.590449E-4,-3.9796308E-2,-2.0093663E-2,-7.9869255E-2,4.5389798E-2,-4.281753E-2,3.646507E-2,-7.4646897E-3,-1.1603681E-2,-6.7987345E-2,-1E-1,-3.1469434E-2,1E-1,1.9767474E-2,2.1223135E-3,-1.1479134E-4,-9.83523E-2,2.7677301E-2,-8.1044786E-2,6.881977E-2,1.681414E-2,-3.8930376E-3,8.8694515E-3,1E-1,7.4823365E-2,-1.706225E-2,-1E-1,2.4681497E-2,-1.1841531E-2,-4.8375715E-2,8.1888914E-2,-1.9959025E-2,1.4394059E-2,-7.254566E-2,-2.6827311E-2,1E-1,-5.3948086E-2,6.690848E-2,1E-1,1.7222973E-2,-2.4924872E-2,5.652917E-2,-7.155409E-2,7.40336E-2,1E-1,2.237879E-2,-5.3201746E-2,3.1803783E-2,-2.111224E-2,5.0880548E-2],"split_indices":[24,8,4,26,22,8,18,4,31,16,23,18,27,22,7,7,18,13,26,29,8,29,4,28,1,1,10,5,4,2,26,9,23,29,7,28,29,27,4,22,8,0,0,0,0,0,0,7,10,29,8,22,8,10,9,10,8,22,6,23,29,0,10,0,0,0,0,0,0,0,0,0,0,0,0,0,0,0,0,0,0,0,0,0,0,0,0,0,0,0,0,0,0,0,0,0,0,0,0,0,0,0,0,0,0,0,0,0,0,0,0,0,0],"split_type":[0,0,0,0,0,0,0,0,0,0,0,0,0,0,0,0,0,0,0,0,0,0,0,0,0,0,0,0,0,0,0,0,0,0,0,0,0,0,0,0,0,0,0,0,0,0,0,0,0,0,0,0,0,0,0,0,0,0,0,0,0,0,0,0,0,0,0,0,0,0,0,0,0,0,0,0,0,0,0,0,0,0,0,0,0,0,0,0,0,0,0,0,0,0,0,0,0,0,0,0,0,0,0,0,0,0,0,0,0,0,0,0,0],"sum_hessian":[7.009111E3,5.4652065E3,1.5439043E3,5.4210522E3,4.415431E1,1.4173696E3,1.26534645E2,4.7036826E3,7.1736975E2,3.2692173E1,1.1462132E1,1.1102153E3,3.071543E2,6.1420815E1,6.511383E1,4.2712524E3,4.3242996E2,7.113639E2,6.0059056E0,2.8942297E1,3.7498782E0,3.23929E0,8.222842E0,1.0094037E3,1.0081171E2,1.9893683E2,1.08217476E2,2.588833E1,3.5532486E1,5.712638E1,7.9874473E0,4.117899E3,1.5335347E2,1.4442876E2,2.880012E2,7.011223E2,1.024156E1,4.004731E0,2.0011742E0,1.6703115E1,1.22391815E1,1.7514703E0,1.9984078E0,1.0024042E0,2.2368858E0,1.4966443E0,6.7261977E0,9.9738574E2,1.2017897E1,9.381812E1,6.9935837E0,1.739418E2,2.499502E1,1.0071829E2,7.4991837E0,1.2467392E1,1.3420938E1,1.3943042E1,2.1589443E1,3.06799E1,2.6446484E1,5.737893E0,2.2495544E0,4.0784336E3,3.946549E1,1.3760143E2,1.575205E1,1.3392365E2,1.0505115E1,3.129018E1,2.56711E2,6.854705E2,1.5651799E1,6.9919443E0,3.2496157E0,2.7538168E0,1.2509145E0,1.0005553E0,1.0006189E0,1.4960432E1,1.7426829E0,5.742303E0,6.496878E0,8.295538E2,1.6783202E2,5.2541857E0,6.7637115E0,8.512202E0,8.530592E1,5.744923E0,1.2486608E0,1.1476674E2,5.917507E1,1.1009979E1,1.398504E1,9.447612E1,6.2421737E0,1.2457571E0,6.2534266E0,2.9980884E0,9.469304E0,1.2175707E1,1.2452309E0,1.1953546E1,1.9894961E0,1.9929441E0,1.95965E1,2.7467642E0,2.7933134E1,1.8459112E1,7.9873714E0,1.2483984E0,1.0011559E0],"tree_param":{"num_deleted":"0","num_feature":"32","num_nodes":"113","size_leaf_vector":"1"}},{"base_weights":[-8.3728763E-4,-8.234628E-3,4.008556E-1,-1.6066968E-2,1.645798E-1,2.8835508E-1,8.9110535E-1,-1.020042E-2,-3.21504E-1,8.7844336E-1,1.328635E-1,1.8271376E-1,7.960424E-1,1E0,4.7799522E-1,8.3007395E-2,-2.2282258E-2,-4.374908E-1,3.520301E-2,1E0,-2.215106E-2,5.994186E-2,4.009932E-1,4.2292583E-1,-4.8948947E-2,1E0,3.983205E-1,1E-1,2.3241598E-2,-4.8585865E-1,8.3294535E-1,-5.092076E-1,1.0162946E-1,-2.330861E-2,1E0,-2.0045206E-1,-5.809989E-1,1E0,-2.397339E-1,1E-1,1.9664988E-1,2.6961043E-1,-1.2324747E-1,-8.279701E-1,4.8427582E-1,1.9851466E-1,9.5187855E-1,-5.471736E-1,1.1997791E-1,-3.8151935E-4,1E-1,-6.2859464E-1,9.081968E-1,-1E-1,2.8604029E-2,9.7281444E-1,1.0117669E-2,-2.0564808E-2,-1E-1,1.1079229E-2,-9.2049986E-2,-2.081433E-3,-3.933116E-2,1E-1,-1.7500702E-2,1.4352987E-2,-5.086856E-2,-9.472331E-2,-4.5700703E-2,1E-1,-3.8108937E-2,9.081142E-2,-4.4440243E-2,8.7348364E-2,-4.373076E-2,3.4458864E-2,-1.8200496E-2,-1.69562E-2,7.589671E-2,-1.9449433E-2,-1E-1,2.8079618E-2,7.767721E-2,-1.1743305E-3,6.580223E-2,8.5321063E-4,1E-1,-9.213128E-2,-7.059225E-3,-3.982873E-2,2.7573774E-2,-9.39161E-2,-3.4336415E-3,-3.846078E-3,1E-1,3.3750873E-2,1E-1],"categories":[],"categories_nodes":[],"categories_segments":[],"categories_sizes":[],"default_left":[0,0,0,0,0,0,0,0,0,0,0,0,0,0,0,0,0,0,0,0,0,0,0,0,0,0,0,0,0,0,0,0,0,0,0,0,0,0,0,0,0,0,0,0,0,0,0,0,0,0,0,0,0,0,0,0,0,0,0,0,0,0,0,0,0,0,0,0,0,0,0,0,0,0,0,0,0,0,0,0,0,0,0,0,0,0,0,0,0,0,0,0,0,0,0,0,0],"id":4,"left_children":[1,3,5,7,9,11,13,15,17,19,21,23,25,27,29,31,33,35,37,39,-1,41,43,45,47,49,51,-1,-1,53,55,57,59,61,63,65,67,69,71,-1,73,75,77,79,81,83,85,87,89,-1,-1,91,93,-1,-1,95,-1,-1,-1,-1,-1,-1,-1,-1,-1,-1,-1,-1,-1,-1,-1,-1,-1,-1,-1,-1,-1,-1,-1,-1,-1,-1,-1,-1,-1,-1,-1,-1,-1,-1,-1,-1,-1,-1,-1,-1,-1],"loss_changes":[2.0809725E1,9.310211E0,6.727377E0,1.1785774E1,6.6356106E0,5.457965E0,2.3625278E0,7.272395E0,5.1437616E0,2.1733198E0,5.582136E0,4.905492E0,2.236638E0,4.5526505E-1,4.971244E0,8.22435E0,6.5473423E0,3.0679626E0,9.539406E0,2.2244139E0,0E0,8.736507E0,6.6577024E0,4.9388256E0,3.90194E0,1.0162077E0,6.316935E0,0E0,0E0,1.9946828E0,9.3775463E-1,4.409713E0,6.838672E0,5.2633305E0,2.1043944E0,3.9778845E0,2.1910725E0,3.762826E0,6.473753E0,0E0,2.5257761E0,3.6511555E0,5.098006E0,6.586704E-1,3.2268133E0,3.060194E0,2.6335306E0,2.0249653E0,2.9238987E0,0E0,0E0,7.487892E-1,2.1648998E0,0E0,0E0,7.326274E-1,0E0,0E0,0E0,0E0,0E0,0E0,0E0,0E0,0E0,0E0,0E0,0E0,0E0,0E0,0E0,0E0,0E0,0E0,0E0,0E0,0E0,0E0,0E0,0E0,0E0,0E0,0E0,0E0,0E0,0E0,0E0,0E0,0E0,0E0,0E0,0E0,0E0,0E0,0E0,0E0,0E0],"parents":[2147483647,0,0,1,1,2,2,3,3,4,4,5,5,6,6,7,7,8,8,9,9,10,10,11,11,12,12,13,13,14,14,15,15,16,16,17,17,18,18,19,19,21,21,22,22,23,23,24,24,25,25,26,26,29,29,30,30,31,31,32,32,33,33,34,34,35,35,36,36,37,37,38,38,40,40,41,41,42,42,43,43,44,44,45,45,46,46,47,47,48,48,51,51,52,52,55,55],"right_children":[2,4,6,8,10,12,14,16,18,20,22,24,26,28,30,32,34,36,38,40,-1,42,44,46,48,50,52,-1,-1,54,56,58,60,62,64,66,68,70,72,-1,74,76,78,80,82,84,86,88,90,-1,-1,92,94,-1,-1,96,-1,-1,-1,-1,-1,-1,-1,-1,-1,-1,-1,-1,-1,-1,-1,-1,-1,-1,-1,-1,-1,-1,-1,-1,-1,-1,-1,-1,-1,-1,-1,-1,-1,-1,-1,-1,-1,-1,-1,-1,-1],"split_conditions":[7.158203E-1,6.098633E-1,1.2041016E0,3.6914062E-1,1.2243652E-1,3.1274414E-1,2.1911621E-1,5.0598145E-2,5.058594E-1,3.5766602E-1,4.8046875E-1,2.6635742E-1,3.1811523E-1,4.8431396E-2,2.2597656E0,4.5288086E-2,1.1386719E0,4.0100098E-2,3.630371E-1,1.7529297E-1,-2.215106E-2,3.2196045E-2,5.24292E-2,6.0455322E-2,4.8486328E-1,2.8637695E-1,3.5742188E-1,1E-1,2.3241598E-2,2.3620605E-1,5.7958984E-1,4.7088623E-2,3.330078E-1,3.815918E-1,3.5205078E-1,5.1220703E-1,1.9604492E-1,2.7236938E-2,1.0888672E0,1E-1,2.0092773E-1,8.5839844E-1,1.05285645E-1,2.4072266E-1,2.8027344E-1,9.4384766E-1,3.5668945E-1,7.368164E-1,3.3081055E-1,-3.8151935E-4,1E-1,1.2683105E-1,3.2592773E-1,-1E-1,2.8604029E-2,5.8670044E-3,1.0117669E-2,-2.0564808E-2,-1E-1,1.1079229E-2,-9.2049986E-2,-2.081433E-3,-3.933116E-2,1E-1,-1.7500702E-2,1.4352987E-2,-5.086856E-2,-9.472331E-2,-4.5700703E-2,1E-1,-3.8108937E-2,9.081142E-2,-4.4440243E-2,8.7348364E-2,-4.373076E-2,3.4458864E-2,-1.8200496E-2,-1.69562E-2,7.589671E-2,-1.9449433E-2,-1E-1,2.8079618E-2,7.767721E-2,-1.1743305E-3,6.580223E-2,8.5321063E-4,1E-1,-9.213128E-2,-7.059225E-3,-3.982873E-2,2.7573774E-2,-9.39161E-2,-3.4336415E-3,-3.846078E-3,1E-1,3.3750873E-2,1E-1],"split_indices":[4,24,17,9,4,29,23,4,4,17,10,18,29,7,31,23,3,3,28,27,0,18,27,7,10,26,18,0,0,23,10,27,29,16,9,6,10,27,23,0,16,17,16,6,27,27,31,4,18,0,0,23,29,0,0,30,0,0,0,0,0,0,0,0,0,0,0,0,0,0,0,0,0,0,0,0,0,0,0,0,0,0,0,0,0,0,0,0,0,0,0,0,0,0,0,0,0],"split_type":[0,0,0,0,0,0,0,0,0,0,0,0,0,0,0,0,0,0,0,0,0,0,0,0,0,0,0,0,0,0,0,0,0,0,0,0,0,0,0,0,0,0,0,0,0,0,0,0,0,0,0,0,0,0,0,0,0,0,0,0,0,0,0,0,0,0,0,0,0,0,0,0,0,0,0,0,0,0,0,0,0,0,0,0,0,0,0,0,0,0,0,0,0,0,0,0,0],"sum_hessian":[7.001091E3,6.875456E3,1.2563486E2,6.578223E3,2.9723294E2,1.03477455E2,2.2157404E1,6.4552695E3,1.2295337E2,1.1508354E1,2.8572458E2,8.677989E1,1.6697565E1,9.809604E0,1.2347799E1,7.400593E2,5.7152104E3,9.261291E1,3.0340464E1,1.0257721E1,1.2506338E0,2.2559451E2,6.0130054E1,4.2198486E1,4.45814E1,6.723445E0,9.974121E0,8.339647E0,1.469957E0,3.2240913E0,9.123709E0,2.1758415E1,7.183009E2,5.710957E3,4.253245E0,3.5829132E1,5.6783775E1,5.5020137E0,2.483845E1,6.2615056E0,3.996215E0,1.0497457E2,1.2061995E2,3.2487054E0,5.6881348E1,3.0594074E1,1.160441E1,1.0721327E1,3.3860077E1,1.0009116E0,5.722533E0,3.231961E0,6.7421603E0,1.7382784E0,1.4858129E0,7.3831105E0,1.7405977E0,1.6261147E1,5.49727E0,7.128027E2,5.4982867E0,5.673765E3,3.7191994E1,3.0047297E0,1.2485152E0,1.7185186E1,1.8643946E1,1.2682892E1,4.4100883E1,4.0049987E0,1.4970149E0,3.2385578E0,2.1599892E1,1.750015E0,2.2462E0,9.023117E1,1.4743398E1,1.15371E2,5.248953E0,1.7501528E0,1.4985526E0,3.4701027E1,2.2180319E1,2.1658287E1,8.935788E0,2.7260299E0,8.878381E0,5.483414E0,5.237912E0,7.4648747E0,2.6395203E1,1.7414608E0,1.4905001E0,1.9953152E0,4.7468452E0,2.9618254E0,4.421285E0],"tree_param":{"num_deleted":"0","num_feature":"32","num_nodes":"97","size_leaf_vector":"1"}},{"base_weights":[-1.7192878E-3,-7.213368E-3,3.6040735E-1,-8.360154E-3,7.3202527E-1,2.6185596E-1,6.7139703E-1,-4.2199697E-3,-1.9347385E-1,1E0,2.5141878E-2,7.046066E-1,1.5476154E-1,1E0,2.9372203E-1,-8.567863E-3,1.5721883E-1,-2.8874823E-1,3.3854544E-1,1.3052429E-3,1E0,-6.408631E-2,8.135054E-2,9.7295326E-1,2.5653097E-1,2.7655208E-1,-6.8902934E-1,1.7980477E-2,1E-1,5.309654E-1,-9.808825E-2,-2.7141258E-2,3.2009352E-2,1E-1,1.269212E-1,-1E-1,-2.2765382E-1,6.947726E-1,-1.4921853E-1,1E-1,3.8284715E-2,2.3496774E-1,1E-1,-7.582255E-2,5.933665E-1,3.4955955E-1,-5.8653426E-1,-1E0,1.9782667E-1,-6.485892E-2,7.5994E-1,-1.1094296E-3,-1.6647264E-2,8.932686E-3,-6.4782673E-3,-4.595057E-2,2.0790044E-2,-1.5986E-2,-8.958086E-2,-4.3892004E-2,8.6944126E-2,-6.306643E-2,1E-1,-1.19787995E-2,6.0141977E-2,1.1281035E-2,1E-1,3.8815204E-2,-7.383376E-2,-1.0054695E-2,-1E-1,-2.5046406E-2,-1E-1,-7.047504E-2,8.613762E-2,-3.149463E-2,9.1661006E-2],"categories":[],"categories_nodes":[],"categories_segments":[],"categories_sizes":[],"default_left":[0,0,0,0,0,0,0,0,0,0,0,0,0,0,0,0,0,0,0,0,0,0,0,0,0,0,0,0,0,0,0,0,0,0,0,0,0,0,0,0,0,0,0,0,0,0,0,0,0,0,0,0,0,0,0,0,0,0,0,0,0,0,0,0,0,0,0,0,0,0,0,0,0,0,0,0,0],"id":5,"left_children":[1,3,5,7,9,11,13,15,17,19,21,23,25,27,29,31,33,35,37,-1,39,-1,-1,41,43,45,47,-1,-1,49,-1,51,53,-1,55,-1,57,59,61,-1,-1,63,-1,-1,65,67,69,71,73,-1,75,-1,-1,-1,-1,-1,-1,-1,-1,-1,-1,-1,-1,-1,-1,-1,-1,-1,-1,-1,-1,-1,-1,-1,-1,-1,-1],"loss_changes":[1.400351E1,5.883582E0,3.0481205E0,5.3052144E0,2.4992661E0,3.756177E0,3.933982E0,4.7553315E0,7.7735977E0,9.489126E-1,2.8811345E0,1.625637E0,7.0677676E0,9.959488E-1,5.126885E0,4.9721136E0,5.5667777E0,7.5681534E0,4.1800137E0,0E0,1.423111E-1,0E0,0E0,1.4688177E0,2.9108076E0,3.9349442E0,3.8825269E0,0E0,0E0,4.1365585E0,0E0,1.011647E1,1.1499139E1,0E0,8.366703E0,0E0,5.4618106E0,3.1014495E0,8.028576E0,0E0,0E0,6.219424E-1,0E0,0E0,1.3519249E0,2.6043038E0,1.1742941E0,2.63587E-1,2.9973843E0,0E0,2.2687693E0,0E0,0E0,0E0,0E0,0E0,0E0,0E0,0E0,0E0,0E0,0E0,0E0,0E0,0E0,0E0,0E0,0E0,0E0,0E0,0E0,0E0,0E0,0E0,0E0,0E0,0E0],"parents":[2147483647,0,0,1,1,2,2,3,3,4,4,5,5,6,6,7,7,8,8,9,9,10,10,11,11,12,12,13,13,14,14,15,15,16,16,17,17,18,18,20,20,23,23,24,24,25,25,26,26,29,29,31,31,32,32,34,34,36,36,37,37,38,38,41,41,44,44,45,45,46,46,47,47,48,48,50,50],"right_children":[2,4,6,8,10,12,14,16,18,20,22,24,26,28,30,32,34,36,38,-1,40,-1,-1,42,44,46,48,-1,-1,50,-1,52,54,-1,56,-1,58,60,62,-1,-1,64,-1,-1,66,68,70,72,74,-1,76,-1,-1,-1,-1,-1,-1,-1,-1,-1,-1,-1,-1,-1,-1,-1,-1,-1,-1,-1,-1,-1,-1,-1,-1,-1,-1],"split_conditions":[7.368164E-1,7.4316406E-1,1.2041016E0,3.696289E-1,3.2836914E-1,2.4749756E-2,2.1911621E-1,3.0004883E-1,2.9882812E-1,1.6418457E-1,5.1171875E-1,3.5308838E-2,4.909668E-1,9.094238E-2,1.9006348E-1,1.6015625E-1,1.0276794E-2,6.9677734E-1,4.9926758E-1,1.3052429E-3,3.479004E-1,-6.408631E-2,8.135054E-2,6.713867E-4,4.043579E-2,3.0004883E-1,3.095703E-1,1.7980477E-2,1E-1,2.3254395E-1,-9.808825E-2,1.5197754E-1,2.4230957E-1,1E-1,1.1993408E-1,-1E-1,7.006836E-1,3.8330078E-1,6.689453E-1,1E-1,3.8284715E-2,1.2487793E-1,1E-1,-7.582255E-2,3.5205078E-1,7.3928833E-3,1.7834473E-1,3.540039E-1,3.2470703E-2,-6.485892E-2,3.0249023E-1,-1.1094296E-3,-1.6647264E-2,8.932686E-3,-6.4782673E-3,-4.595057E-2,2.0790044E-2,-1.5986E-2,-8.958086E-2,-4.3892004E-2,8.6944126E-2,-6.306643E-2,1E-1,-1.19787995E-2,6.0141977E-2,1.1281035E-2,1E-1,3.8815204E-2,-7.383376E-2,-1.0054695E-2,-1E-1,-2.5046406E-2,-1E-1,-7.047504E-2,8.613762E-2,-3.149463E-2,9.1661006E-2],"split_indices":[4,21,17,28,9,9,23,1,17,4,4,2,25,23,5,11,30,2,4,0,28,0,0,2,2,23,29,0,0,23,0,11,23,0,30,0,21,4,4,0,0,23,0,0,7,3,30,5,9,0,1,0,0,0,0,0,0,0,0,0,0,0,0,0,0,0,0,0,0,0,0,0,0,0,0,0,0],"split_type":[0,0,0,0,0,0,0,0,0,0,0,0,0,0,0,0,0,0,0,0,0,0,0,0,0,0,0,0,0,0,0,0,0,0,0,0,0,0,0,0,0,0,0,0,0,0,0,0,0,0,0,0,0,0,0,0,0,0,0,0,0,0,0,0,0,0,0,0,0,0,0,0,0,0,0,0,0],"sum_hessian":[7.0362153E3,6.932025E3,1.0419059E2,6.922275E3,9.749885E0,8.051706E1,2.3673527E1,6.7718413E3,1.5043372E2,6.255511E0,3.4943736E0,1.45957775E1,6.592128E1,9.441384E0,1.4232143E1,6.595166E3,1.7667505E2,1.27973404E2,2.2460308E1,1.0008023E0,5.2547083E0,1.9955995E0,1.498774E0,8.396074E0,6.1997037E0,5.819397E1,7.7273126E0,1.9669837E0,7.474401E0,1.249067E1,1.741473E0,4.5244995E3,2.0706665E3,3.502606E0,1.7317244E2,5.233595E0,1.22739815E2,1.273511E1,9.725197E0,3.2555544E0,1.9991539E0,3.2299662E0,5.1661077E0,1.2332795E0,4.9664245E0,5.420391E1,3.9900575E0,4.736145E0,2.9911678E0,1.73261E0,1.075806E1,4.0581924E3,4.6630722E2,1.300578E3,7.7008844E2,2.0444588E1,1.5272786E2,1.1255841E2,1.0181401E1,1.4981892E0,1.1236921E1,7.722378E0,2.0028198E0,1.9831893E0,1.2467768E0,3.2414625E0,1.7249616E0,5.296811E1,1.235802E0,2.7420332E0,1.2480242E0,1.2491592E0,3.4869857E0,1.2410153E0,1.7501525E0,1.2400482E0,9.518012E0],"tree_param":{"num_deleted":"0","num_feature":"32","num_nodes":"77","size_leaf_vector":"1"}},{"base_weights":[4.9286275E-3,-7.802512E-3,1.6553168E-1,-1.0805384E-2,3.156255E-1,1.0458367E-1,5.144004E-1,3.44428E-3,-7.81764E-2,4.499165E-1,-8.525339E-1,1.2012722E-1,-8.382451E-1,1E0,3.148281E-1,-4.276673E-3,2.4076413E-1,-4.9567454E-2,-2.4034245E-1,-5.2220136E-1,5.5392194E-1,3.429559E-2,-1E-1,3.555291E-1,7.228968E-2,-1E0,3.3572968E-2,1E0,-6.102145E-3,-2.8267285E-1,3.858351E-1,1.334278E-2,-7.550413E-2,2.800251E-1,-1E0,4.9537208E-2,-1.1233239E-1,-3.9454553E-1,4.400201E-2,-1E-1,1.8155107E-1,8.280292E-1,1.4261244E-1,6.5368205E-1,2.0162724E-1,-4.882236E-1,9.875405E-2,-1E-1,-2.8835028E-2,1.0522789E-2,1E0,4.247334E-1,-7.3269695E-1,-5.050239E-1,4.5998976E-1,4.203578E-4,3.8874473E-2,-1.2778285E-2,9.663501E-3,9.7788334E-2,2.240094E-2,-1.6913466E-2,-1E-1,7.7069774E-2,1.9478971E-3,-3.0497706E-2,-4.209299E-3,-1E-1,-3.055559E-2,-4.32457E-2,3.539035E-2,1E-1,-5.9687585E-2,-4.1268716E-4,9.682437E-2,-4.948593E-2,5.5063654E-2,2.238077E-2,1E-1,-2.0312897E-3,9.111586E-2,-1E-1,7.309502E-2,1.3227631E-2,-2.7916092E-2,1E-1,1.3497377E-2,6.1605323E-2,-2.6609394E-4,-1E-1,7.777004E-3,3.584123E-2,-1E-1,1E-1,3.736001E-2],"categories":[],"categories_nodes":[],"categories_segments":[],"categories_sizes":[],"default_left":[0,0,0,0,0,0,0,0,0,0,0,0,0,0,0,0,0,0,0,0,0,0,0,0,0,0,0,0,0,0,0,0,0,0,0,0,0,0,0,0,0,0,0,0,0,0,0,0,0,0,0,0,0,0,0,0,0,0,0,0,0,0,0,0,0,0,0,0,0,0,0,0,0,0,0,0,0,0,0,0,0,0,0,0,0,0,0,0,0,0,0,0,0,0,0],"id":6,"left_children":[1,3,5,7,9,11,13,15,17,19,21,23,25,27,29,31,33,35,37,39,41,-1,-1,43,45,47,-1,49,-1,51,53,55,57,59,61,63,65,67,69,-1,71,73,75,77,79,81,83,-1,-1,-1,85,87,89,91,93,-1,-1,-1,-1,-1,-1,-1,-1,-1,-1,-1,-1,-1,-1,-1,-1,-1,-1,-1,-1,-1,-1,-1,-1,-1,-1,-1,-1,-1,-1,-1,-1,-1,-1,-1,-1,-1,-1,-1,-1],"loss_changes":[1.4259237E1,6.2794266E0,1.0837477E1,6.1477804E0,9.714094E0,6.509262E0,8.269808E0,9.68778E0,5.1749415E0,5.7489653E0,3.3624673E0,4.8287163E0,3.247301E0,1.8085423E0,2.5647664E0,6.427766E0,8.531682E0,5.9248257E0,7.357212E0,3.2670999E0,5.4363384E0,0E0,0E0,3.1973352E0,5.381329E0,1.361723E-1,0E0,7.907562E-1,0E0,2.452139E0,3.6777925E0,1.4086449E1,9.152868E0,6.127201E0,8.983717E-1,7.9984374E0,7.8748713E0,6.7552547E0,8.976989E0,0E0,3.323781E0,3.429266E0,5.711342E0,4.063773E0,7.7815785E0,1.3150246E1,4.396824E0,0E0,0E0,0E0,6.643429E-1,2.6721275E-1,1.85303E0,2.499381E0,2.5387526E0,0E0,0E0,0E0,0E0,0E0,0E0,0E0,0E0,0E0,0E0,0E0,0E0,0E0,0E0,0E0,0E0,0E0,0E0,0E0,0E0,0E0,0E0,0E0,0E0,0E0,0E0,0E0,0E0,0E0,0E0,0E0,0E0,0E0,0E0,0E0,0E0,0E0,0E0,0E0,0E0],"parents":[2147483647,0,0,1,1,2,2,3,3,4,4,5,5,6,6,7,7,8,8,9,9,10,10,11,11,12,12,13,13,14,14,15,15,16,16,17,17,18,18,19,19,20,20,23,23,24,24,25,25,27,27,29,29,30,30,31,31,32,32,33,33,34,34,35,35,36,36,37,37,38,38,40,40,41,41,42,42,43,43,44,44,45,45,46,46,50,50,51,51,52,52,53,53,54,54],"right_children":[2,4,6,8,10,12,14,16,18,20,22,24,26,28,30,32,34,36,38,40,42,-1,-1,44,46,48,-1,50,-1,52,54,56,58,60,62,64,66,68,70,-1,72,74,76,78,80,82,84,-1,-1,-1,86,88,90,92,94,-1,-1,-1,-1,-1,-1,-1,-1,-1,-1,-1,-1,-1,-1,-1,-1,-1,-1,-1,-1,-1,-1,-1,-1,-1,-1,-1,-1,-1,-1,-1,-1,-1,-1,-1,-1,-1,-1,-1,-1],"split_conditions":[6.0595703E-1,3.5424805E-1,4.6435547E-1,3.6938477E-1,4.440918E-1,6.2347412E-2,6.0302734E-1,3.3520508E-1,2.4377441E-1,1.159668E-1,3.190918E-1,6.1865234E-1,1.4931641E0,3.7036133E-1,3.2641602E-1,2.5439453E-1,2.5048828E-1,8.068848E-2,1.6647339E-2,1.0510254E-1,2.927246E-1,3.429559E-2,-1E-1,3.2080078E-1,3.7451172E-1,2.932129E-1,3.3572968E-2,5.6640625E-1,-6.102145E-3,7.458496E-2,7.34375E-1,4.350586E-1,8.929443E-2,3.3740234E-1,3.0566406E-1,8.618164E-2,6.2353516E-1,2.4139404E-2,2.9760742E-1,-1E-1,2.2338867E-1,4.373169E-2,7.7978516E-1,1.3879395E-1,3.0810547E-1,7.890625E-1,2.0922852E-1,-1E-1,-2.8835028E-2,1.0522789E-2,2.4255371E-1,3.7036133E-1,7.109375E-1,6.508789E-1,1.1601562E0,4.203578E-4,3.8874473E-2,-1.2778285E-2,9.663501E-3,9.7788334E-2,2.240094E-2,-1.6913466E-2,-1E-1,7.7069774E-2,1.9478971E-3,-3.0497706E-2,-4.209299E-3,-1E-1,-3.055559E-2,-4.32457E-2,3.539035E-2,1E-1,-5.9687585E-2,-4.1268716E-4,9.682437E-2,-4.948593E-2,5.5063654E-2,2.238077E-2,1E-1,-2.0312897E-3,9.111586E-2,-1E-1,7.309502E-2,1.3227631E-2,-2.7916092E-2,1E-1,1.3497377E-2,6.1605323E-2,-2.6609394E-4,-1E-1,7.777004E-3,3.584123E-2,-1E-1,1E-1,3.736001E-2],"split_indices":[4,1,27,22,1,30,27,22,29,30,30,4,14,1,10,18,18,2,2,18,9,0,0,29,10,1,0,17,0,8,17,10,24,22,4,14,2,14,29,0,9,18,31,11,18,17,23,0,0,0,8,1,27,17,31,0,0,0,0,0,0,0,0,0,0,0,0,0,0,0,0,0,0,0,0,0,0,0,0,0,0,0,0,0,0,0,0,0,0,0,0,0,0,0,0],"split_type":[0,0,0,0,0,0,0,0,0,0,0,0,0,0,0,0,0,0,0,0,0,0,0,0,0,0,0,0,0,0,0,0,0,0,0,0,0,0,0,0,0,0,0,0,0,0,0,0,0,0,0,0,0,0,0,0,0,0,0,0,0,0,0,0,0,0,0,0,0,0,0,0,0,0,0,0,0,0,0,0,0,0,0,0,0,0,0,0,0,0,0,0,0,0,0],"sum_hessian":[6.9722603E3,6.4610396E3,5.1122064E2,6.4025615E3,5.847809E1,4.362983E2,7.492234E1,5.28556E3,1.1170016E3,5.3000076E1,5.478013E0,4.3008057E2,6.217754E0,1.8041378E1,5.688096E1,5.119969E3,1.6559085E2,9.5060394E2,1.663976E2,4.7337513E0,4.8266323E1,1.4969573E0,3.9810557E0,7.155185E1,3.585287E2,4.7313647E0,1.486389E0,1.6546595E1,1.4947829E0,5.7251105E0,5.115585E1,4.1052666E3,1.0147023E3,1.6134566E2,4.245185E0,3.686784E2,5.8192554E2,1.07637215E2,5.876039E1,1.7396142E0,2.994137E0,2.8356E1,1.9910322E1,2.325422E1,4.8297634E1,1.5377884E1,3.4315082E2,3.487939E0,1.243426E0,1.2367191E0,1.53098755E1,2.2478487E0,3.4772618E0,3.4844837E0,4.7671364E1,4.008686E3,9.65807E1,7.7852246E2,2.3617986E2,1.0765755E1,1.5057991E2,1.7499199E0,2.495265E0,1.3765876E1,3.549125E2,1.5459044E2,4.2733508E2,9.977397E0,9.765982E1,2.300138E1,3.575901E1,1.2493316E0,1.7448055E0,4.2288494E0,2.4127151E1,7.6873155E0,1.2223007E1,1.2233305E1,1.1020914E1,3.7529762E1,1.076787E1,1.0223446E1,5.1544385E0,3.1578928E2,2.7361526E1,1.408562E1,1.2242551E0,1.2478445E0,1.0000044E0,1.7457138E0,1.7315478E0,1.4918039E0,1.9926798E0,3.4804747E0,4.419089E1],"tree_param":{"num_deleted":"0","num_feature":"32","num_nodes":"95","size_leaf_vector":"1"}},{"base_weights":[7.932427E-3,3.7386036E-4,2.247769E-1,5.208241E-3,-2.060999E-1,1.7617287E-1,6.7696714E-1,2.9726073E-3,4.0596488E-1,-2.9166242E-1,2.6980498E-1,2.50967E-1,-2.0201275E-1,7.9943717E-1,-8.017604E-2,8.165155E-2,-8.84748E-3,5.16895E-1,-7.1311146E-1,-1E0,-2.4728175E-1,-1E-1,3.915998E-1,1.6163854E-1,6.511074E-1,-8.708778E-1,1.883266E-2,4.1012615E-2,9.308586E-1,5.509468E-2,5.0829625E-1,-1.566703E-2,1.6617808E-1,6.749527E-1,-2.6156232E-1,-8.687261E-2,-2.2253757E-2,-1E-1,-1.1925053E-2,1.7516156E-1,-3.683765E-1,-7.8676626E-2,5.106646E-1,2.7108148E-1,-2.26457E-1,7.669722E-1,-7.497231E-2,-1E0,1.4434777E-1,-5.0270647E-1,5.646243E-1,5.7138134E-2,-3.702713E-2,9.924246E-1,2.8415618E-2,3.339469E-2,2.1308893E-3,5.6939792E-2,-6.460954E-2,5.463668E-3,-3.1408647E-3,1E-1,1.3369672E-2,-2.7092022E-3,8.717691E-2,-1E-1,3.361469E-2,-3.425849E-2,5.213628E-2,-4.4808745E-2,1.7623149E-2,9.488849E-2,1.6546933E-2,-5.94013E-2,3.174231E-2,3.216319E-2,-4.8556533E-2,1.4744339E-2,9.432048E-2,-1E-1,-2.7227703E-2,-2.1079782E-2,4.703376E-2,-5.793257E-4,-7.535649E-2,1.0181951E-2,1E-1,1E-1,1.2497149E-2],"categories":[],"categories_nodes":[],"categories_segments":[],"categories_sizes":[],"default_left":[0,0,0,0,0,0,0,0,0,0,0,0,0,0,0,0,0,0,0,0,0,0,0,0,0,0,0,0,0,0,0,0,0,0,0,0,0,0,0,0,0,0,0,0,0,0,0,0,0,0,0,0,0,0,0,0,0,0,0,0,0,0,0,0,0,0,0,0,0,0,0,0,0,0,0,0,0,0,0,0,0,0,0,0,0,0,0,0,0],"id":7,"left_children":[1,3,5,7,9,11,13,15,17,19,21,23,25,27,-1,29,31,33,35,37,39,-1,41,43,45,47,49,51,53,55,57,59,61,63,65,-1,-1,-1,-1,67,69,-1,71,73,75,77,-1,79,81,83,85,-1,-1,87,-1,-1,-1,-1,-1,-1,-1,-1,-1,-1,-1,-1,-1,-1,-1,-1,-1,-1,-1,-1,-1,-1,-1,-1,-1,-1,-1,-1,-1,-1,-1,-1,-1,-1,-1],"loss_changes":[1.1493363E1,6.765827E0,5.071891E0,5.932694E0,6.39326E0,6.1215324E0,4.72871E0,6.126885E0,4.928811E0,4.7489223E0,4.4113E0,6.3154793E0,5.3329377E0,2.0894594E0,0E0,9.7214155E0,6.839352E0,4.360117E0,9.1670275E-2,7.3662186E-1,6.5598464E0,0E0,3.6151316E0,6.355174E0,5.8422956E0,3.0982141E0,8.264503E0,1.1274375E0,4.4052887E-1,7.635103E0,3.915844E0,6.1039906E0,5.9852133E0,3.9674053E0,3.457649E0,0E0,0E0,0E0,0E0,5.3705573E0,4.376934E0,0E0,3.0813713E0,4.8405447E0,4.8624616E0,3.187439E0,0E0,1.8323421E-1,4.7466296E-1,1.8487327E0,4.352273E0,0E0,0E0,7.0446396E-1,0E0,0E0,0E0,0E0,0E0,0E0,0E0,0E0,0E0,0E0,0E0,0E0,0E0,0E0,0E0,0E0,0E0,0E0,0E0,0E0,0E0,0E0,0E0,0E0,0E0,0E0,0E0,0E0,0E0,0E0,0E0,0E0,0E0,0E0,0E0],"parents":[2147483647,0,0,1,1,2,2,3,3,4,4,5,5,6,6,7,7,8,8,9,9,10,10,11,11,12,12,13,13,15,15,16,16,17,17,18,18,19,19,20,20,22,22,23,23,24,24,25,25,26,26,27,27,28,28,29,29,30,30,31,31,32,32,33,33,34,34,39,39,40,40,42,42,43,43,44,44,45,45,47,47,48,48,49,49,50,50,53,53],"right_children":[2,4,6,8,10,12,14,16,18,20,22,24,26,28,-1,30,32,34,36,38,40,-1,42,44,46,48,50,52,54,56,58,60,62,64,66,-1,-1,-1,-1,68,70,-1,72,74,76,78,-1,80,82,84,86,-1,-1,88,-1,-1,-1,-1,-1,-1,-1,-1,-1,-1,-1,-1,-1,-1,-1,-1,-1,-1,-1,-1,-1,-1,-1,-1,-1,-1,-1,-1,-1,-1,-1,-1,-1,-1,-1],"split_conditions":[2.4084473E-1,3.696289E-1,2.1154785E-1,3.5083008E-1,2.944336E-1,1.586914E-1,1.5068359E0,6.126404E-3,2.0092773E-1,6.9677734E-1,2.824707E-1,7.611084E-2,4.5288086E-2,3.0639648E-1,-8.017604E-2,3.1640625E-1,3.178711E-1,3.071289E-1,1.5930176E-1,3.3813477E-1,9.788513E-3,-1E-1,3.8330078E-1,8.093262E-2,7.763672E-1,7.661133E-1,1.0003662E-1,3.671875E-1,1.5930176E-1,1.5576172E-1,4.1210938E-1,9.698486E-2,6.555176E-2,4.831543E-1,7.0458984E-1,-8.687261E-2,-2.2253757E-2,-1E-1,-1.1925053E-2,4.5092773E-1,7.128906E-1,-7.8676626E-2,4.7558594E-1,3.7139893E-2,3.7353516E-1,3.7329102E-1,-7.497231E-2,4.116211E-1,2.5527954E-2,1.0722656E0,7.890625E-1,5.7138134E-2,-3.702713E-2,6.425781E-1,2.8415618E-2,3.339469E-2,2.1308893E-3,5.6939792E-2,-6.460954E-2,5.463668E-3,-3.1408647E-3,1E-1,1.3369672E-2,-2.7092022E-3,8.717691E-2,-1E-1,3.361469E-2,-3.425849E-2,5.213628E-2,-4.4808745E-2,1.7623149E-2,9.488849E-2,1.6546933E-2,-5.94013E-2,3.174231E-2,3.216319E-2,-4.8556533E-2,1.4744339E-2,9.432048E-2,-1E-1,-2.7227703E-2,-2.1079782E-2,4.703376E-2,-5.793257E-4,-7.535649E-2,1.0181951E-2,1E-1,1E-1,1.2497149E-2],"split_indices":[27,28,2,1,17,5,27,17,23,2,23,7,23,10,0,4,5,17,18,9,31,0,4,18,22,31,7,22,18,23,4,4,24,22,24,0,0,0,0,10,10,0,4,10,10,4,0,27,1,31,17,0,0,10,0,0,0,0,0,0,0,0,0,0,0,0,0,0,0,0,0,0,0,0,0,0,0,0,0,0,0,0,0,0,0,0,0,0,0],"split_type":[0,0,0,0,0,0,0,0,0,0,0,0,0,0,0,0,0,0,0,0,0,0,0,0,0,0,0,0,0,0,0,0,0,0,0,0,0,0,0,0,0,0,0,0,0,0,0,0,0,0,0,0,0,0,0,0,0,0,0,0,0,0,0,0,0,0,0,0,0,0,0,0,0,0,0,0,0,0,0,0,0,0,0,0,0,0,0,0,0],"sum_hessian":[7.011332E3,6.7761377E3,2.3519472E2,6.622063E3,1.5407433E2,2.1362288E2,2.1571829E1,6.5863286E3,3.573462E1,1.3092294E2,2.3151382E1,1.7863121E2,3.499167E1,2.0346113E1,1.2257147E0,8.5946936E2,5.7268594E3,3.300141E1,2.7332077E0,4.951269E0,1.2597167E2,1.2482283E0,2.1903154E1,1.4717862E2,3.14526E1,7.955079E0,2.7036589E1,3.1986995E0,1.7147413E1,8.101688E2,4.930053E1,5.512967E3,2.1389221E2,2.7542212E1,5.459201E0,1.4897946E0,1.2434131E0,3.7125468E0,1.2387223E0,2.7965736E1,9.8005936E1,1.495412E0,2.0407743E1,1.150391E2,3.2139515E1,2.9467766E1,1.9848353E0,5.7115407E0,2.2435381E0,1.3865832E1,1.3170756E1,1.2270728E0,1.9716266E0,1.5168757E1,1.9786571E0,8.659226E1,7.2357654E2,4.730352E1,1.9970093E0,1.00812103E3,4.5048457E3,6.5046787E0,2.0738753E2,6.2195177E0,2.1322693E1,1.9894538E0,3.469747E0,1.1210619E1,1.6755117E1,8.564747E1,1.2358469E1,8.221647E0,1.2186095E1,5.248229E0,1.0979087E2,1.0239248E1,2.1900267E1,6.932804E0,2.2534962E1,4.477253E0,1.2342877E0,1.2428697E0,1.0006683E0,4.9948573E0,8.870975E0,8.964161E0,4.206596E0,1.3941459E1,1.2272981E0],"tree_param":{"num_deleted":"0","num_feature":"32","num_nodes":"89","size_leaf_vector":"1"}},{"base_weights":[5.352624E-3,6.0783565E-4,2.649985E-1,7.208542E-3,-1.720328E-1,1.9127212E-1,7.0859003E-1,1.0742705E-3,2.1049342E-1,-4.4563845E-2,-3.532599E-1,3.910255E-1,-8.729698E-2,5.1426243E-2,8.820255E-1,9.946152E-3,-1.3777767E-1,1E0,1.6175944E-1,1.732934E-2,-4.6109486E-1,-3.0729294E-1,-1E0,5.1451135E-1,-6.560882E-2,3.392407E-2,-8.777162E-1,6.0032517E-2,-5.6524426E-2,-9.292549E-3,1E0,1.3069823E-2,-2.6393294E-1,-4.0390056E-1,-5.4211564E-2,1E0,4.0776934E-3,1.2883195E-1,9.529801E-1,-1.7894545E-1,2.2403191E-1,5.9850085E-1,-7.298316E-1,-4.2120743E-1,1.5257578E-1,-1E-1,-3.5356335E-2,6.5954053E-1,-4.8437856E-2,-7.736914E-2,1.0891077E-1,-4.0234277E-1,2.3713607E-1,-1E-1,1.0632666E-2,1E-1,1.6717626E-2,7.4064694E-3,-4.5334804E-4,-4.4499647E-2,3.0872962E-2,-2.3675688E-2,-9.34503E-2,-1.586027E-2,1.8354438E-2,1.1069024E-2,1E-1,1.7148295E-2,-9.0406075E-2,1.3837396E-2,1E-1,-2.9940251E-2,4.1005842E-2,8.002575E-3,1E-1,-2.1102387E-2,9.7522706E-2,-9.610646E-2,5.926009E-2,-8.430427E-2,-3.2103743E-2,5.3370427E-2,-4.6082776E-2,-2.372942E-2,7.3612675E-2,-6.5430455E-2,4.46741E-2,-7.843336E-2,3.01983E-2,-6.849432E-2,4.3852743E-2,6.170053E-2,-3.0757948E-3],"categories":[],"categories_nodes":[],"categories_segments":[],"categories_sizes":[],"default_left":[0,0,0,0,0,0,0,0,0,0,0,0,0,0,0,0,0,0,0,0,0,0,0,0,0,0,0,0,0,0,0,0,0,0,0,0,0,0,0,0,0,0,0,0,0,0,0,0,0,0,0,0,0,0,0,0,0,0,0,0,0,0,0,0,0,0,0,0,0,0,0,0,0,0,0,0,0,0,0,0,0,0,0,0,0,0,0,0,0,0,0,0,0],"id":8,"left_children":[1,3,5,7,9,11,13,15,17,19,21,23,25,27,29,31,33,35,37,39,41,43,45,47,49,51,53,-1,-1,-1,55,57,59,61,63,65,-1,67,69,71,73,75,77,79,81,-1,-1,83,85,-1,87,89,91,-1,-1,-1,-1,-1,-1,-1,-1,-1,-1,-1,-1,-1,-1,-1,-1,-1,-1,-1,-1,-1,-1,-1,-1,-1,-1,-1,-1,-1,-1,-1,-1,-1,-1,-1,-1,-1,-1,-1,-1],"loss_changes":[8.627253E0,7.839404E0,3.974554E0,8.262374E0,5.836597E0,6.106856E0,1.9538717E0,7.9258885E0,7.9121094E0,3.8717766E0,3.4006796E0,3.6279335E0,4.4749227E0,1.9385535E0,1.7821903E0,5.1771092E0,8.571376E0,1.2995052E0,4.693205E0,5.3729906E0,5.9681454E0,5.315037E0,4.349184E-2,4.1374493E0,1.8705059E0,3.7468054E0,1.6386328E0,0E0,0E0,0E0,5.575409E-1,6.421371E0,7.213339E0,7.9544296E0,7.356407E0,1.1694279E0,0E0,8.024142E0,1.0243073E0,4.945968E0,9.675911E0,1.5718602E0,5.4455767E0,3.1350927E0,5.069771E0,0E0,0E0,2.9257183E0,3.6622045E0,0E0,2.3879955E0,3.498642E0,2.9424412E0,0E0,0E0,0E0,0E0,0E0,0E0,0E0,0E0,0E0,0E0,0E0,0E0,0E0,0E0,0E0,0E0,0E0,0E0,0E0,0E0,0E0,0E0,0E0,0E0,0E0,0E0,0E0,0E0,0E0,0E0,0E0,0E0,0E0,0E0,0E0,0E0,0E0,0E0,0E0,0E0],"parents":[2147483647,0,0,1,1,2,2,3,3,4,4,5,5,6,6,7,7,8,8,9,9,10,10,11,11,12,12,13,13,14,14,15,15,16,16,17,17,18,18,19,19,20,20,21,21,22,22,23,23,24,24,25,25,26,26,30,30,31,31,32,32,33,33,34,34,35,35,37,37,38,38,39,39,40,40,41,41,42,42,43,43,44,44,47,47,48,48,50,50,51,51,52,52],"right_children":[2,4,6,8,10,12,14,16,18,20,22,24,26,28,30,32,34,36,38,40,42,44,46,48,50,52,54,-1,-1,-1,56,58,60,62,64,66,-1,68,70,72,74,76,78,80,82,-1,-1,84,86,-1,88,90,92,-1,-1,-1,-1,-1,-1,-1,-1,-1,-1,-1,-1,-1,-1,-1,-1,-1,-1,-1,-1,-1,-1,-1,-1,-1,-1,-1,-1,-1,-1,-1,-1,-1,-1,-1,-1,-1,-1,-1,-1],"split_conditions":[7.158203E-1,3.7817383E-1,3.1274414E-1,2.7270508E-1,2.9586792E-2,2.6635742E-1,3.413086E-1,1.4587402E-1,1.9363403E-2,8.5839844E-1,2.9296875E-3,2.824707E-1,6.508789E-1,3.3398438E-1,5.230713E-2,3.5742188E-1,3.1347656E-1,1.6601562E-1,5.0048828E-2,4.885254E-1,5.6396484E-2,2.1508789E-1,6.2890625E-1,3.7670898E-1,6.549072E-2,7.368164E-1,5.621338E-2,6.0032517E-2,-5.6524426E-2,-9.292549E-3,1.2915039E-1,1.8725586E-1,1.2988281E-1,8.117676E-2,3.6987305E-2,3.4277344E-1,4.0776934E-3,1.8753052E-2,4.230957E-1,7.34375E-1,1.9470215E-2,4.9243164E-1,2.7905273E-1,4.5074463E-2,1.3452148E-1,-1E-1,-3.5356335E-2,5.332031E-1,1.0292969E0,-7.736914E-2,5.058594E-1,1.2133789E-1,4.794922E-1,-1E-1,1.0632666E-2,1E-1,1.6717626E-2,7.4064694E-3,-4.5334804E-4,-4.4499647E-2,3.0872962E-2,-2.3675688E-2,-9.34503E-2,-1.586027E-2,1.8354438E-2,1.1069024E-2,1E-1,1.7148295E-2,-9.0406075E-2,1.3837396E-2,1E-1,-2.9940251E-2,4.1005842E-2,8.002575E-3,1E-1,-2.1102387E-2,9.7522706E-2,-9.610646E-2,5.926009E-2,-8.430427E-2,-3.2103743E-2,5.3370427E-2,-4.6082776E-2,-2.372942E-2,7.3612675E-2,-6.5430455E-2,4.46741E-2,-7.843336E-2,3.01983E-2,-6.849432E-2,4.3852743E-2,6.170053E-2,-3.0757948E-3],"split_indices":[4,9,29,1,16,18,7,1,30,17,7,23,17,7,11,18,6,8,3,9,23,1,6,1,2,4,1,0,0,0,11,23,9,16,3,17,0,3,6,17,3,22,23,31,29,0,0,31,22,0,6,11,25,0,0,0,0,0,0,0,0,0,0,0,0,0,0,0,0,0,0,0,0,0,0,0,0,0,0,0,0,0,0,0,0,0,0,0,0,0,0,0,0],"split_type":[0,0,0,0,0,0,0,0,0,0,0,0,0,0,0,0,0,0,0,0,0,0,0,0,0,0,0,0,0,0,0,0,0,0,0,0,0,0,0,0,0,0,0,0,0,0,0,0,0,0,0,0,0,0,0,0,0,0,0,0,0,0,0,0,0,0,0,0,0,0,0,0,0,0,0,0,0,0,0,0,0,0,0,0,0,0,0,0,0,0,0,0,0],"sum_hessian":[7.00197E3,6.8772964E3,1.24673904E2,6.6249575E3,2.52339E2,1.0813303E2,1.6540876E1,6.431876E3,1.9308134E2,1.4887283E2,1.0346618E2,6.274023E1,4.53928E1,3.7245836E0,1.2816292E1,6.0464683E3,3.8540796E2,9.227532E0,1.8385382E2,1.3044774E2,1.8425097E1,9.923284E1,4.233335E0,4.928542E1,1.345481E1,4.0186726E1,5.206075E0,1.9845974E0,1.7399862E0,1.4901798E0,1.1326113E1,5.9792256E3,6.7242546E1,9.1185905E1,2.9422205E2,7.728367E0,1.4991652E0,1.776246E2,6.2292094E0,6.698054E1,6.34672E1,3.4793515E0,1.49457445E1,7.95993E1,1.9633545E1,2.7362287E0,1.4971062E0,3.9052887E1,1.0232535E1,1.9815906E0,1.1473219E1,1.2459043E1,2.7727682E1,3.9744356E0,1.2316396E0,1.008051E1,1.2456026E0,1.3384237E3,4.640802E3,5.1258617E1,1.5983933E1,7.044227E1,2.0743633E1,2.0468448E2,8.953757E1,1.7430835E0,5.9852834E0,1.7138176E2,6.242849E0,1.7482378E0,4.4809713E0,5.6016327E1,1.0964206E1,5.747837E1,5.9888325E0,1.2446483E0,2.2347033E0,1.2953951E1,1.9917941E0,1.3851561E1,6.5747734E1,1.2189637E1,7.4439073E0,2.9074836E0,3.61454E1,4.457408E0,5.775128E0,1.4948668E0,9.978353E0,9.463857E0,2.995186E0,1.0928328E1,1.6799355E1],"tree_param":{"num_deleted":"0","num_feature":"32","num_nodes":"93","size_leaf_vector":"1"}},{"base_weights":[7.3903915E-3,-1.1207062E-3,1.4653128E-1,1.3041057E-2,-8.764196E-2,1.6438593E-1,-4.7954437E-1,4.2508715E-3,1.6850613E-1,-1.2893061E-1,8.993853E-2,8.5036255E-2,3.2563078E-1,-7.6546705E-1,1E-1,-9.132173E-3,1.0323989E-1,2.9424822E-1,-2.6913937E-2,3.4438053E-1,-1.5019321E-1,2.9411498E-1,-9.504961E-2,3.7434474E-2,4.2495343E-1,3.7940043E-1,-7.118195E-1,1.0716947E-1,-1E0,1.3354377E-2,-7.363779E-2,1.2687235E-1,-6.266872E-1,4.8767734E-1,1.5506105E-1,1.5441687E-1,-3.3139315E-1,7.870671E-1,-3.85597E-2,-1.6587089E-1,3.2835108E-1,-4.560047E-1,4.1980425E-1,4.0724325E-1,-2.1300904E-1,5.659515E-3,7.2746617E-1,9.457301E-1,1.22889996E-1,1E0,3.311923E-1,4.0432964E-2,-1E0,-6.824171E-2,6.6339076E-2,-1E-1,-1.3588393E-2,2.0233253E-3,-3.9953027E-2,-2.3457354E-2,-3.937353E-3,2.4423322E-2,-4.4337483E-3,1.8555073E-2,-9.6077755E-2,3.1082604E-2,8.159591E-2,-9.56176E-2,2.1485653E-2,6.0745563E-2,-1.6557844E-3,-9.15321E-2,-1.3295087E-2,1E-1,-3.1096244E-2,-6.715733E-2,5.35988E-2,-6.082631E-2,-1.4604135E-2,-2.3726976E-2,7.314269E-2,-6.973517E-2,4.4414688E-2,7.199226E-2,1.0553318E-2,1E-1,-8.81306E-3,-1E-1,-1.32101625E-2,-4.139162E-3,5.08112E-2,-4.1833844E-2,9.713046E-2,1E-1,-8.437388E-3,-3.192477E-2,6.2802136E-2,1E-1,1.3387755E-2,2.6045183E-2,7.665142E-2,-1E-1,-3.5363674E-2],"categories":[],"categories_nodes":[],"categories_segments":[],"categories_sizes":[],"default_left":[0,0,0,0,0,0,0,0,0,0,0,0,0,0,0,0,0,0,0,0,0,0,0,0,0,0,0,0,0,0,0,0,0,0,0,0,0,0,0,0,0,0,0,0,0,0,0,0,0,0,0,0,0,0,0,0,0,0,0,0,0,0,0,0,0,0,0,0,0,0,0,0,0,0,0,0,0,0,0,0,0,0,0,0,0,0,0,0,0,0,0,0,0,0,0,0,0,0,0,0,0,0,0],"id":9,"left_children":[1,3,5,7,9,11,13,15,17,19,21,23,25,27,-1,29,31,33,35,37,39,41,43,45,47,49,51,53,55,57,59,61,63,65,67,69,71,73,75,77,79,81,83,85,87,89,91,93,95,97,99,-1,101,-1,-1,-1,-1,-1,-1,-1,-1,-1,-1,-1,-1,-1,-1,-1,-1,-1,-1,-1,-1,-1,-1,-1,-1,-1,-1,-1,-1,-1,-1,-1,-1,-1,-1,-1,-1,-1,-1,-1,-1,-1,-1,-1,-1,-1,-1,-1,-1,-1,-1],"loss_changes":[8.286285E0,8.081524E0,4.587447E0,7.7448983E0,6.813639E0,4.999303E0,5.7338448E0,7.1092076E0,7.4606686E0,7.6309423E0,6.660322E0,4.2666197E0,7.478731E0,3.6403408E0,0E0,6.8583136E0,1.1104082E1,4.8952217E0,6.657959E0,5.5705843E0,5.4669914E0,8.084162E0,5.5901217E0,5.110165E0,4.9828577E0,4.219839E0,3.3772857E0,2.3161368E0,6.732693E-1,9.966798E0,6.7302375E0,1.2466594E1,5.662871E0,4.2049007E0,7.437337E0,5.872137E0,5.0907273E0,4.706912E0,7.0797935E0,6.044964E0,5.4676313E0,3.0238874E0,6.735779E0,5.702324E0,5.7774706E0,5.316477E0,3.272993E0,4.071518E0,5.0390267E0,6.76795E-1,3.4346704E0,0E0,2.4907017E-1,0E0,0E0,0E0,0E0,0E0,0E0,0E0,0E0,0E0,0E0,0E0,0E0,0E0,0E0,0E0,0E0,0E0,0E0,0E0,0E0,0E0,0E0,0E0,0E0,0E0,0E0,0E0,0E0,0E0,0E0,0E0,0E0,0E0,0E0,0E0,0E0,0E0,0E0,0E0,0E0,0E0,0E0,0E0,0E0,0E0,0E0,0E0,0E0,0E0,0E0],"parents":[2147483647,0,0,1,1,2,2,3,3,4,4,5,5,6,6,7,7,8,8,9,9,10,10,11,11,12,12,13,13,15,15,16,16,17,17,18,18,19,19,20,20,21,21,22,22,23,23,24,24,25,25,26,26,27,27,28,28,29,29,30,30,31,31,32,32,33,33,34,34,35,35,36,36,37,37,38,38,39,39,40,40,41,41,42,42,43,43,44,44,45,45,46,46,47,47,48,48,49,49,50,50,52,52],"right_children":[2,4,6,8,10,12,14,16,18,20,22,24,26,28,-1,30,32,34,36,38,40,42,44,46,48,50,52,54,56,58,60,62,64,66,68,70,72,74,76,78,80,82,84,86,88,90,92,94,96,98,100,-1,102,-1,-1,-1,-1,-1,-1,-1,-1,-1,-1,-1,-1,-1,-1,-1,-1,-1,-1,-1,-1,-1,-1,-1,-1,-1,-1,-1,-1,-1,-1,-1,-1,-1,-1,-1,-1,-1,-1,-1,-1,-1,-1,-1,-1,-1,-1,-1,-1,-1,-1],"split_conditions":[1.4489746E-1,3.8256836E-1,2.932129E-1,3.59375E-1,6.328125E-1,6.329346E-2,3.4960938E-1,4.3676758E-1,2.2079468E-2,2.775879E-1,1.3342285E-1,1.5246582E-1,4.0795898E-1,5.932617E-1,1E-1,2.9736328E-1,4.5996094E-1,1.307373E-1,1.8920898E-1,1.2121582E-1,3.5083008E-1,5.4248047E-1,8.6816406E-1,1.18652344E-1,1.6589355E-1,1.5368652E-1,3.0566406E-1,5.209961E-1,1.5405273E-1,2.0166016E-1,2.878418E-1,3.4985352E-1,3.3050537E-2,1.0864258E-1,2.5683594E-1,3.256836E-1,2.4353027E-1,1.3452148E-1,4.0112305E-1,3.1982422E-1,3.878784E-2,3.8427734E-1,5.878906E-1,6.7333984E-1,6.142578E-1,1.9130859E0,5.0964355E-2,6.748047E-1,1.3885498E-3,4.4091797E-1,4.5385742E-1,4.0432964E-2,4.8583984E-1,-6.824171E-2,6.6339076E-2,-1E-1,-1.3588393E-2,2.0233253E-3,-3.9953027E-2,-2.3457354E-2,-3.937353E-3,2.4423322E-2,-4.4337483E-3,1.8555073E-2,-9.6077755E-2,3.1082604E-2,8.159591E-2,-9.56176E-2,2.1485653E-2,6.0745563E-2,-1.6557844E-3,-9.15321E-2,-1.3295087E-2,1E-1,-3.1096244E-2,-6.715733E-2,5.35988E-2,-6.082631E-2,-1.4604135E-2,-2.3726976E-2,7.314269E-2,-6.973517E-2,4.4414688E-2,7.199226E-2,1.0553318E-2,1E-1,-8.81306E-3,-1E-1,-1.32101625E-2,-4.139162E-3,5.08112E-2,-4.1833844E-2,9.713046E-2,1E-1,-8.437388E-3,-3.192477E-2,6.2802136E-2,1E-1,1.3387755E-2,2.6045183E-2,7.665142E-2,-1E-1,-3.5363674E-2],"split_indices":[27,22,7,23,21,7,27,10,27,6,31,8,2,17,0,7,24,29,6,17,1,6,2,29,1,27,4,17,8,26,29,7,1,17,10,21,6,8,4,6,31,13,6,21,22,31,23,22,2,22,27,0,2,0,0,0,0,0,0,0,0,0,0,0,0,0,0,0,0,0,0,0,0,0,0,0,0,0,0,0,0,0,0,0,0,0,0,0,0,0,0,0,0,0,0,0,0,0,0,0,0,0,0],"split_type":[0,0,0,0,0,0,0,0,0,0,0,0,0,0,0,0,0,0,0,0,0,0,0,0,0,0,0,0,0,0,0,0,0,0,0,0,0,0,0,0,0,0,0,0,0,0,0,0,0,0,0,0,0,0,0,0,0,0,0,0,0,0,0,0,0,0,0,0,0,0,0,0,0,0,0,0,0,0,0,0,0,0,0,0,0,0,0,0,0,0,0,0,0,0,0,0,0,0,0,0,0,0,0],"sum_hessian":[6.9959844E3,6.59365E3,4.023345E2,5.6669375E3,9.2671265E2,3.9189572E2,1.0438785E1,5.364641E3,3.0229602E2,7.5211487E2,1.7459776E2,2.6366956E2,1.2822617E2,9.194167E0,1.2446171E0,4.7265347E3,6.3810675E2,1.8363272E2,1.18663315E2,3.1681421E1,7.204335E2,8.271407E1,9.188368E1,2.3225485E2,3.1414694E1,1.2251089E2,5.7152786E0,3.242924E0,5.9512434E0,3.5053638E3,1.2211709E3,6.188953E2,1.9211454E1,7.579554E1,1.0783719E2,7.468058E1,4.3982735E1,1.4204921E1,1.7476501E1,6.982125E2,2.2220888E1,1.1493325E1,7.122075E1,1.700802E1,7.487566E1,2.2299448E2,9.26037E0,1.0750039E1,2.0664654E1,5.494218E0,1.1701667E2,1.5023439E0,4.212935E0,1.2465283E0,1.9963957E0,4.7103486E0,1.240895E0,3.448855E3,5.650876E1,2.1333101E2,1.00783984E3,3.6693933E2,2.5195598E2,5.7286386E0,1.3482816E1,5.0524117E1,2.5271421E1,4.740939E0,1.03096245E2,1.9762411E1,5.4918167E1,1.0239596E1,3.3743137E1,1.1483156E1,2.721765E0,8.234826E0,9.241674E0,2.8680605E1,6.695319E2,9.417302E0,1.2803586E1,9.2409525E0,2.2523723E0,3.5770424E1,3.545033E1,7.0035257E0,1.0004495E1,4.4895415E0,7.038612E1,2.0473967E2,1.8254807E1,1.4993303E0,7.76104E0,7.407605E0,3.342434E0,1.1215661E1,9.448994E0,4.2589927E0,1.2352251E0,1.0203423E2,1.4982434E1,2.2231936E0,1.9897413E0],"tree_param":{"num_deleted":"0","num_feature":"32","num_nodes":"103","size_leaf_vector":"1"}},{"base_weights":[8.3114505E-3,1.2491375E-3,1.4928636E-1,6.3190255E-3,-2.1566418E-1,5.6444854E-1,1.1092936E-1,3.1669722E-3,2.810266E-1,-5.6208E-2,-5.227866E-1,1.4729452E-1,8.4743136E-1,-1.1666079E-1,1.8473715E-1,-1.7998599E-2,4.830143E-2,7.031689E-1,4.037653E-2,1E-1,-1.0785962E-1,-6.642371E-1,1.639401E-1,4.803073E-1,-1E-1,9.6090233E-1,-3.039218E-2,-2.4386993E-1,4.8007056E-1,2.1714173E-1,-9.329288E-1,-1.097107E-2,-3.2602155E-1,5.1056508E-2,-1E0,1E0,4.1850066E-1,-5.737041E-1,1.5012445E-1,-2.0419326E-1,6.551209E-1,-7.5348026E-1,2.690738E-1,9.9586004E-1,-1E0,9.176672E-1,-3.804403E-1,1E0,2.6514363E-1,2.4596602E-1,-4.089698E-1,8.3772254E-1,-5.206598E-1,-1E-1,2.3756494E-1,-1.3705871E-2,-1E0,1.7155237E-4,-7.904959E-3,-3.5613596E-2,1E-1,2.7194268E-3,1.8418595E-2,-1E-1,-9.6292184E-5,1.760107E-2,1E-1,-1E-1,6.044918E-2,-9.3505405E-2,2.7917905E-2,4.670803E-2,-1.4220185E-2,-1E-1,-1.2781726E-2,1E-1,-5.655776E-3,-8.684421E-2,-6.375325E-3,-6.284386E-2,8.067443E-2,1E-1,-2.1048343E-2,-1E-1,5.9141894E-3,1E-1,-4.333885E-4,4.9565908E-2,-1E-1,1E-1,1.9800633E-2,-3.48082E-2,1E-1,-2.9575353E-2,7.013076E-2,-8.8336594E-2,-1.7916221E-2,1E-1,-5.2928247E-2,6.362889E-2,-1E-1,2.0948935E-2,1E-1,-2.7561862E-2,-1E-1],"categories":[],"categories_nodes":[],"categories_segments":[],"categories_sizes":[],"default_left":[0,0,0,0,0,0,0,0,0,0,0,0,0,0,0,0,0,0,0,0,0,0,0,0,0,0,0,0,0,0,0,0,0,0,0,0,0,0,0,0,0,0,0,0,0,0,0,0,0,0,0,0,0,0,0,0,0,0,0,0,0,0,0,0,0,0,0,0,0,0,0,0,0,0,0,0,0,0,0,0,0,0,0,0,0,0,0,0,0,0,0,0,0,0,0,0,0,0,0,0,0,0,0,0,0],"id":10,"left_children":[1,3,5,7,9,11,13,15,17,19,21,23,25,27,29,31,33,35,37,-1,39,41,43,45,-1,47,-1,49,51,53,55,57,59,61,63,65,67,69,71,73,75,77,79,81,83,85,87,89,91,93,95,97,99,-1,101,-1,103,-1,-1,-1,-1,-1,-1,-1,-1,-1,-1,-1,-1,-1,-1,-1,-1,-1,-1,-1,-1,-1,-1,-1,-1,-1,-1,-1,-1,-1,-1,-1,-1,-1,-1,-1,-1,-1,-1,-1,-1,-1,-1,-1,-1,-1,-1,-1,-1],"loss_changes":[6.9478006E0,7.310928E0,5.2388725E0,5.623846E0,7.406279E0,3.170146E0,5.161786E0,6.1369324E0,7.456472E0,6.608345E0,5.1376657E0,5.5680857E0,2.4372663E0,5.8519545E0,8.5853195E0,9.463244E0,6.1689076E0,2.8021421E0,3.320211E0,0E0,7.3411474E0,3.7947254E0,1.0700937E1,4.3023195E0,0E0,2.3483162E0,0E0,5.1903896E0,5.308122E0,7.2715235E0,1.0036268E0,3.694006E0,4.571494E0,6.496443E0,1.4961848E0,5.2655697E-1,6.0285892E0,2.5673385E0,3.9119818E0,5.4374433E0,3.5154724E0,3.0865688E0,2.6788325E0,2.2746162E0,1.4714241E0,1.4729142E0,3.5179777E0,4.4598007E-1,3.3503282E0,4.274924E0,5.0143714E0,5.127488E0,4.6323037E0,0E0,5.9636097E0,0E0,1.7632008E-1,0E0,0E0,0E0,0E0,0E0,0E0,0E0,0E0,0E0,0E0,0E0,0E0,0E0,0E0,0E0,0E0,0E0,0E0,0E0,0E0,0E0,0E0,0E0,0E0,0E0,0E0,0E0,0E0,0E0,0E0,0E0,0E0,0E0,0E0,0E0,0E0,0E0,0E0,0E0,0E0,0E0,0E0,0E0,0E0,0E0,0E0,0E0,0E0],"parents":[2147483647,0,0,1,1,2,2,3,3,4,4,5,5,6,6,7,7,8,8,9,9,10,10,11,11,12,12,13,13,14,14,15,15,16,16,17,17,18,18,20,20,21,21,22,22,23,23,25,25,27,27,28,28,29,29,30,30,31,31,32,32,33,33,34,34,35,35,36,36,37,37,38,38,39,39,40,40,41,41,42,42,43,43,44,44,45,45,46,46,47,47,48,48,49,49,50,50,51,51,52,52,54,54,56,56],"right_children":[2,4,6,8,10,12,14,16,18,20,22,24,26,28,30,32,34,36,38,-1,40,42,44,46,-1,48,-1,50,52,54,56,58,60,62,64,66,68,70,72,74,76,78,80,82,84,86,88,90,92,94,96,98,100,-1,102,-1,104,-1,-1,-1,-1,-1,-1,-1,-1,-1,-1,-1,-1,-1,-1,-1,-1,-1,-1,-1,-1,-1,-1,-1,-1,-1,-1,-1,-1,-1,-1,-1,-1,-1,-1,-1,-1,-1,-1,-1,-1,-1,-1,-1,-1,-1,-1,-1,-1],"split_conditions":[2.607422E-1,2.1508789E-1,7.6049805E-2,3.4277344E-1,1.8920898E-1,1.10961914E-1,1.5661621E-1,1.6015625E-1,3.4985352E-1,6.2042236E-2,5.3027344E-1,3.3081055E-1,1.550293E-1,3.466797E-1,4.9291992E-1,1.5844727E-1,3.6010742E-1,1.274414E-1,3.5546875E-1,1E-1,2.5341797E-1,3.852539E-1,1.3153076E-2,8.728027E-2,-1E-1,2.3278809E-1,-3.039218E-2,3.3740234E-1,4.2236328E-1,8.886719E-2,3.1396484E-1,1.517334E-1,1.0064697E-1,4.2749023E-1,2.4914551E-1,9.472656E-2,6.689453E-1,1.7590332E-1,3.6328125E-1,1.4208984E-1,1.862793E-1,9.9487305E-3,5.908203E-2,3.9990234E-1,4.584961E-1,9.216309E-3,1.5576172E-1,2.232666E-1,2.602539E-1,1.607666E-1,3.1640625E-1,2.0092773E-1,2.708435E-2,-1E-1,4.6704102E-1,-1.3705871E-2,6.713867E-4,1.7155237E-4,-7.904959E-3,-3.5613596E-2,1E-1,2.7194268E-3,1.8418595E-2,-1E-1,-9.6292184E-5,1.760107E-2,1E-1,-1E-1,6.044918E-2,-9.3505405E-2,2.7917905E-2,4.670803E-2,-1.4220185E-2,-1E-1,-1.2781726E-2,1E-1,-5.655776E-3,-8.684421E-2,-6.375325E-3,-6.284386E-2,8.067443E-2,1E-1,-2.1048343E-2,-1E-1,5.9141894E-3,1E-1,-4.333885E-4,4.9565908E-2,-1E-1,1E-1,1.9800633E-2,-3.48082E-2,1E-1,-2.9575353E-2,7.013076E-2,-8.8336594E-2,-1.7916221E-2,1E-1,-5.2928247E-2,6.362889E-2,-1E-1,2.0948935E-2,1E-1,-2.7561862E-2,-1E-1],"split_indices":[1,1,17,5,23,18,4,11,7,14,9,1,27,1,30,11,7,24,7,0,18,29,2,18,0,29,0,22,10,17,10,16,24,10,17,24,4,23,7,14,5,2,11,30,10,27,9,18,9,30,10,23,16,0,30,0,2,0,0,0,0,0,0,0,0,0,0,0,0,0,0,0,0,0,0,0,0,0,0,0,0,0,0,0,0,0,0,0,0,0,0,0,0,0,0,0,0,0,0,0,0,0,0,0,0],"split_type":[0,0,0,0,0,0,0,0,0,0,0,0,0,0,0,0,0,0,0,0,0,0,0,0,0,0,0,0,0,0,0,0,0,0,0,0,0,0,0,0,0,0,0,0,0,0,0,0,0,0,0,0,0,0,0,0,0,0,0,0,0,0,0,0,0,0,0,0,0,0,0,0,0,0,0,0,0,0,0,0,0,0,0,0,0,0,0,0,0,0,0,0,0,0,0,0,0,0,0,0,0,0,0,0,0],"sum_hessian":[6.977631E3,6.6457144E3,3.3191644E2,6.494881E3,1.5083318E2,2.6912256E1,3.0500418E2,6.4222026E3,7.26782E1,1.00063705E2,5.076947E1,1.1492016E1,1.5420241E1,7.454871E1,2.3045547E2,4.372393E3,2.0498098E3,2.569054E1,4.698766E1,3.005096E0,9.705861E1,4.2125336E1,8.6441345E0,9.501087E0,1.9909282E0,1.4187422E1,1.2328187E0,6.1936604E1,1.261211E1,2.2474513E2,5.710339E0,4.2758745E3,9.651826E1,2.045562E3,4.2479167E0,8.491617E0,1.7198923E1,6.483361E0,4.05043E1,8.68281E1,1.023051E1,3.862472E1,3.5006154E0,5.2173104E0,3.426824E0,6.2561216E0,3.2449656E0,8.944E0,5.243422E0,1.548985E1,4.6446754E1,9.411436E0,3.2006733E0,1.9886494E0,2.2275648E2,1.7311693E0,3.9791696E0,3.6050415E3,6.7083325E2,9.526482E1,1.2534424E0,1.7356643E3,3.098977E2,2.7469182E0,1.5009986E0,1.2483792E0,7.2432375E0,1.2444671E0,1.5954455E1,4.486271E0,1.9970897E0,1.9146658E1,2.135764E1,6.246017E0,8.0582085E1,5.9889326E0,4.241577E0,3.288451E1,5.74021E0,1.24821E0,2.2524054E0,3.9824169E0,1.2348938E0,2.2236998E0,1.2031244E0,4.7557406E0,1.5003809E0,1.7480717E0,1.4968939E0,7.695876E0,1.2481239E0,3.2490268E0,1.9943953E0,7.2340207E0,8.25583E0,1.4229202E1,3.2217552E1,7.6741676E0,1.7372687E0,1.4640987E0,1.7365746E0,2.182884E2,4.468088E0,1.2417688E0,2.7374008E0],"tree_param":{"num_deleted":"0","num_feature":"32","num_nodes":"105","size_leaf_vector":"1"}},{"base_weights":[6.110657E-3,2.4452964E-3,2.0719814E-1,3.8121701E-3,-6.987302E-1,9.7530997E-1,1.6391322E-1,7.5190184E-3,-1.8770184E-1,-2.9588413E-1,-1E-1,1E-1,1.6056346E-2,-1.5136314E-4,3.5074195E-1,8.058176E-3,-9.58303E-1,-2.7142113E-1,2.7409542E-1,2.556565E-1,-8.3967096E-1,1.0796797E-1,-7.261594E-1,1E-1,2.6583973E-1,2.1135092E-2,-3.0313754E-2,-1E-1,-2.3149885E-2,-1E0,-2.2025771E-1,-8.612138E-2,4.2616287E-1,9.5238745E-1,-7.3654786E-2,-1E-1,-1.298933E-2,8.9019483E-1,3.270618E-2,1.2626563E-2,-9.933533E-1,1.9362819E-1,1E-1,5.341823E-4,1.1525959E-2,-2.2533877E-2,-3.3083683E-4,-4.8260354E-3,-1E-1,-3.633768E-2,-4.303734E-3,8.082851E-2,8.361618E-3,3.1502392E-2,1E-1,1E-1,2.1283297E-2,2.4188181E-2,-2.5080428E-2,-1.698503E-2,-1E-1,2.618106E-2,-1E-1],"categories":[],"categories_nodes":[],"categories_segments":[],"categories_sizes":[],"default_left":[0,0,0,0,0,0,0,0,0,0,0,0,0,0,0,0,0,0,0,0,0,0,0,0,0,0,0,0,0,0,0,0,0,0,0,0,0,0,0,0,0,0,0,0,0,0,0,0,0,0,0,0,0,0,0,0,0,0,0,0,0,0,0],"id":11,"left_children":[1,3,5,7,9,11,13,15,17,19,-1,-1,-1,21,23,25,27,29,31,33,35,37,39,-1,41,43,45,-1,-1,47,49,-1,51,53,-1,-1,-1,55,57,-1,59,61,-1,-1,-1,-1,-1,-1,-1,-1,-1,-1,-1,-1,-1,-1,-1,-1,-1,-1,-1,-1,-1],"loss_changes":[5.1255436E0,6.549863E0,3.9790545E0,4.842281E0,2.2108693E0,5.7871294E-1,3.649131E0,3.4916418E0,5.0816865E0,2.8871436E0,0E0,0E0,0E0,5.1323776E0,3.4928646E0,3.3564384E0,3.1916332E-1,4.402665E0,3.8844929E0,4.289573E0,5.722394E-1,3.3213067E0,2.0557332E0,0E0,3.0978296E0,7.4148912E0,8.953977E0,0E0,0E0,1.0070992E0,2.6487727E0,0E0,2.3718383E0,4.242897E-2,0E0,0E0,0E0,3.2585144E-1,3.2009964E0,0E0,1.013761E0,4.8845963E0,0E0,0E0,0E0,0E0,0E0,0E0,0E0,0E0,0E0,0E0,0E0,0E0,0E0,0E0,0E0,0E0,0E0,0E0,0E0,0E0,0E0],"parents":[2147483647,0,0,1,1,2,2,3,3,4,4,5,5,6,6,7,7,8,8,9,9,13,13,14,14,15,15,16,16,17,17,18,18,19,19,20,20,21,21,22,22,24,24,25,25,26,26,29,29,30,30,32,32,33,33,37,37,38,38,40,40,41,41],"right_children":[2,4,6,8,10,12,14,16,18,20,-1,-1,-1,22,24,26,28,30,32,34,36,38,40,-1,42,44,46,-1,-1,48,50,-1,52,54,-1,-1,-1,56,58,-1,60,62,-1,-1,-1,-1,-1,-1,-1,-1,-1,-1,-1,-1,-1,-1,-1,-1,-1,-1,-1,-1,-1],"split_conditions":[7.158203E-1,2.8393555E-1,3.071289E-1,3.7695312E-1,2.0532227E-1,3.5888672E-1,5.786133E-1,7.109375E-1,2.9882812E-1,7.91626E-2,-1E-1,1E-1,1.6056346E-2,6.1035156E-2,3.5205078E-1,2.9736328E-1,2.8930664E-1,2.2239685E-3,4.7680664E-1,5.102539E-1,3.0078125E-1,4.609375E-1,5.932617E-1,1E-1,3.3398438E-1,2.0812988E-1,4.711914E-1,-1E-1,-2.3149885E-2,6.6589355E-2,4.111328E-1,-8.612138E-2,6.5527344E-1,1.517334E-1,-7.3654786E-2,-1E-1,-1.298933E-2,3.9404297E-1,3.024292E-2,1.2626563E-2,1.6723633E-1,2.607422E-1,1E-1,5.341823E-4,1.1525959E-2,-2.2533877E-2,-3.3083683E-4,-4.8260354E-3,-1E-1,-3.633768E-2,-4.303734E-3,8.082851E-2,8.361618E-3,3.1502392E-2,1E-1,1E-1,2.1283297E-2,2.4188181E-2,-2.5080428E-2,-1.698503E-2,-1E-1,2.618106E-2,-1E-1],"split_indices":[4,8,17,28,14,7,31,27,17,2,0,0,0,27,9,7,30,13,2,22,8,10,17,0,5,5,4,0,0,31,28,0,2,14,0,0,0,28,9,0,18,18,0,0,0,0,0,0,0,0,0,0,0,0,0,0,0,0,0,0,0,0,0],"split_type":[0,0,0,0,0,0,0,0,0,0,0,0,0,0,0,0,0,0,0,0,0,0,0,0,0,0,0,0,0,0,0,0,0,0,0,0,0,0,0,0,0,0,0,0,0,0,0,0,0,0,0,0,0,0,0,0,0,0,0,0,0,0,0],"sum_hessian":[6.9537427E3,6.830255E3,1.2348761E2,6.8179585E3,1.2296387E1,5.4389257E0,1.1804868E2,6.689442E3,1.2851671E2,7.910614E0,4.385773E0,4.1929455E0,1.2459798E0,6.3385544E1,5.4663143E1,6.6867007E3,2.7411115E0,1.09142494E2,1.9374208E1,4.1903615E0,3.7202525E0,5.591047E1,7.475073E0,3.7942457E0,5.0868896E1,4.987456E3,1.6992448E3,1.4964765E0,1.2446351E0,5.0939703E0,1.0404853E2,1.7376732E0,1.7636536E1,2.4853003E0,1.705061E0,2.4832852E0,1.2369673E0,3.9568906E0,5.195358E1,1.9097768E0,5.5652957E0,4.8297085E1,2.5718114E0,4.2717505E3,7.157056E2,2.0578456E2,1.4934602E3,1.21581E0,3.8781602E0,5.6981316E1,4.706721E1,7.6939936E0,9.942542E0,1.2385933E0,1.2467071E0,2.7206967E0,1.2361941E0,2.9980574E1,2.1973005E1,1.9225227E0,3.6427732E0,4.680942E1,1.487664E0],"tree_param":{"num_deleted":"0","num_feature":"32","num_nodes":"63","size_leaf_vector":"1"}},{"base_weights":[-2.2136294E-3,-8.490318E-3,1.293711E-1,-6.067481E-3,-4.0414935E-1,7.6881695E-1,9.709546E-2,-2.1309849E-2,3.6297616E-2,-1.17636085E-1,-7.045733E-1,1E0,-2.3748302E-1,6.319773E-2,6.898905E-1,-3.6903407E-2,6.0802512E-2,1.03648946E-1,-5.592278E-2,-7.0283276E-1,2.6447308E-1,-2.2783E-2,-9.0277576E-1,-4.1972775E-2,1E0,3.0103022E-1,-1E-1,-8.146243E-1,8.068752E-2,-5.3220904E-1,9.706219E-1,-2.520496E-2,-2.4818167E-1,-6.91814E-3,1.9193979E-1,8.3353266E-2,4.5015606E-1,-4.7986847E-1,-3.272196E-2,-9.703199E-1,2.5768697E-2,5.340006E-1,-7.144289E-1,-8.7790094E-2,7.147388E-1,-1E0,-1.3629062E-3,1E-1,2.1743579E-2,-4.5763895E-2,1E-1,-1E0,2.0927317E-2,1E0,5.639719E-2,2.7561158E-2,-1E-1,-4.3918427E-2,1E0,-7.6016696E-4,-1.0805962E-2,-3.679925E-2,1.7465884E-3,5.898198E-3,-3.8615312E-2,4.4904727E-2,1.2798423E-2,9.560693E-3,-4.207806E-2,5.053411E-2,-1E-1,7.673099E-2,-5.7861585E-2,-5.286775E-3,3.2999005E-2,-1E-1,-1.5474466E-2,-2.0094825E-2,8.379882E-2,-1E-1,-6.496794E-3,1E-1,-1.0246404E-2,-1.1226831E-2,-1E-1,3.1359177E-4,-1E-1,1E-1,7.60137E-3,-1.7658088E-2,1.0679227E-2,1E-1,2.0396871E-2],"categories":[],"categories_nodes":[],"categories_segments":[],"categories_sizes":[],"default_left":[0,0,0,0,0,0,0,0,0,0,0,0,0,0,0,0,0,0,0,0,0,0,0,0,0,0,0,0,0,0,0,0,0,0,0,0,0,0,0,0,0,0,0,0,0,0,0,0,0,0,0,0,0,0,0,0,0,0,0,0,0,0,0,0,0,0,0,0,0,0,0,0,0,0,0,0,0,0,0,0,0,0,0,0,0,0,0,0,0,0,0,0,0],"id":12,"left_children":[1,3,5,7,9,11,13,15,17,19,21,23,25,27,29,31,33,35,37,39,41,43,45,-1,47,49,-1,51,53,55,57,59,61,63,65,67,69,71,73,75,-1,77,79,-1,81,83,-1,-1,-1,-1,-1,85,-1,87,89,-1,-1,-1,91,-1,-1,-1,-1,-1,-1,-1,-1,-1,-1,-1,-1,-1,-1,-1,-1,-1,-1,-1,-1,-1,-1,-1,-1,-1,-1,-1,-1,-1,-1,-1,-1,-1,-1],"loss_changes":[5.784801E0,6.4057918E0,6.5067825E0,4.2918797E0,3.4178724E0,5.781575E0,6.0794187E0,6.2604213E0,1.092892E1,5.1092553E0,2.6351957E0,4.0365973E0,2.4144788E0,4.5078154E0,6.136603E0,1.0147589E1,6.932007E0,7.112545E0,7.291605E0,2.5549216E0,4.087631E0,4.066111E0,1.4952831E0,0E0,3.7593842E-1,2.4629817E0,0E0,2.0915751E0,7.0187464E0,2.199388E0,3.5044327E0,5.6782537E0,6.8627396E0,1.2908839E1,4.3132896E0,5.980966E0,5.309577E0,5.1823187E0,5.1722426E0,9.557514E-1,0E0,2.7569869E0,6.5923667E-1,0E0,1.43352E0,1.5477695E0,0E0,0E0,0E0,0E0,0E0,1.012651E0,0E0,8.969631E-1,3.2961328E0,0E0,0E0,0E0,5.118685E-1,0E0,0E0,0E0,0E0,0E0,0E0,0E0,0E0,0E0,0E0,0E0,0E0,0E0,0E0,0E0,0E0,0E0,0E0,0E0,0E0,0E0,0E0,0E0,0E0,0E0,0E0,0E0,0E0,0E0,0E0,0E0,0E0,0E0,0E0],"parents":[2147483647,0,0,1,1,2,2,3,3,4,4,5,5,6,6,7,7,8,8,9,9,10,10,11,11,12,12,13,13,14,14,15,15,16,16,17,17,18,18,19,19,20,20,21,21,22,22,24,24,25,25,27,27,28,28,29,29,30,30,31,31,32,32,33,33,34,34,35,35,36,36,37,37,38,38,39,39,41,41,42,42,44,44,45,45,51,51,53,53,54,54,58,58],"right_children":[2,4,6,8,10,12,14,16,18,20,22,24,26,28,30,32,34,36,38,40,42,44,46,-1,48,50,-1,52,54,56,58,60,62,64,66,68,70,72,74,76,-1,78,80,-1,82,84,-1,-1,-1,-1,-1,86,-1,88,90,-1,-1,-1,92,-1,-1,-1,-1,-1,-1,-1,-1,-1,-1,-1,-1,-1,-1,-1,-1,-1,-1,-1,-1,-1,-1,-1,-1,-1,-1,-1,-1,-1,-1,-1,-1,-1,-1],"split_conditions":[6.333008E-1,2.3291016E-1,1.2243652E-1,3.4484863E-2,3.213501E-2,1.6772461E-1,2.3571777E-1,2.8198242E-1,1.3598633E-1,2.836914E-1,3.3520508E-1,2.3303223E-1,2.1069336E-1,1.7919922E-1,2.524414E-1,3.3251953E-1,1.6015625E-1,3.3496094E-1,1.5637207E-1,2.2009277E-1,1.1352539E-1,1.496582E-1,6.357422E-1,-4.1972775E-2,7.0251465E-2,6.0839844E-1,-1E-1,1.8847656E-1,2.0300293E-1,2.9467773E-1,2.2491455E-2,2.4291992E-1,3.3154297E-1,1.5588379E-1,2.861328E-1,1.7480469E-1,1.4172363E-1,9.100342E-2,5.130768E-3,4.321289E-1,2.5768697E-2,4.385376E-2,1.3684082E-1,-8.7790094E-2,2.565918E-1,1.042366E-3,-1.3629062E-3,1E-1,2.1743579E-2,-4.5763895E-2,1E-1,7.1191406E-1,2.0927317E-2,3.2080078E-1,1.2780762E-1,2.7561158E-2,-1E-1,-4.3918427E-2,2.3059082E-1,-7.6016696E-4,-1.0805962E-2,-3.679925E-2,1.7465884E-3,5.898198E-3,-3.8615312E-2,4.4904727E-2,1.2798423E-2,9.560693E-3,-4.207806E-2,5.053411E-2,-1E-1,7.673099E-2,-5.7861585E-2,-5.286775E-3,3.2999005E-2,-1E-1,-1.5474466E-2,-2.0094825E-2,8.379882E-2,-1E-1,-6.496794E-3,1E-1,-1.0246404E-2,-1.1226831E-2,-1E-1,3.1359177E-4,-1E-1,1E-1,7.60137E-3,-1.7658088E-2,1.0679227E-2,1E-1,2.0396871E-2],"split_indices":[14,8,4,3,4,27,2,5,28,9,22,22,23,9,9,7,11,21,28,14,2,30,22,0,7,6,0,18,9,22,23,23,17,11,5,7,17,3,5,22,0,14,2,0,8,30,0,0,0,0,0,14,0,1,27,0,0,0,30,0,0,0,0,0,0,0,0,0,0,0,0,0,0,0,0,0,0,0,0,0,0,0,0,0,0,0,0,0,0,0,0,0,0],"split_type":[0,0,0,0,0,0,0,0,0,0,0,0,0,0,0,0,0,0,0,0,0,0,0,0,0,0,0,0,0,0,0,0,0,0,0,0,0,0,0,0,0,0,0,0,0,0,0,0,0,0,0,0,0,0,0,0,0,0,0,0,0,0,0,0,0,0,0,0,0,0,0,0,0,0,0,0,0,0,0,0,0,0,0,0,0,0,0,0,0,0,0,0,0],"sum_hessian":[7.00177E3,6.6838794E3,3.1789053E2,6.6442085E3,3.9670807E1,1.4177868E1,3.0371265E2,4.886582E3,1.7576267E3,2.1017784E1,1.8653023E1,1.0219697E1,3.958171E0,2.8833163E2,1.5381022E1,4.107161E3,7.7942053E2,1.01570374E3,7.419229E2,7.9709682E0,1.3046816E1,4.4523783E0,1.42006445E1,1.4987757E0,8.7209215E0,2.7203252E0,1.2378457E0,4.7421737E0,2.8358948E2,2.7058651E0,1.2675158E1,3.8927402E3,2.144212E2,5.146151E2,2.648054E2,9.606755E2,5.5028297E1,3.747442E1,7.0444855E2,6.2267337E0,1.7442346E0,1.0586466E1,2.4603508E0,1.973671E0,2.4787073E0,1.2488245E1,1.7123994E0,7.4741526E0,1.2467694E0,1.485316E0,1.2350092E0,3.4931097E0,1.2490641E0,5.457366E0,2.781321E2,1.4645857E0,1.2412795E0,1.1804382E0,1.14947195E1,3.211514E3,6.812262E2,1.4750781E2,6.691338E1,4.391483E2,7.546686E1,5.1549633E1,2.1325574E2,9.3867017E2,2.2005304E1,5.3780052E1,1.2482466E0,2.2526789E0,3.5221737E1,6.6819006E2,3.6258442E1,4.480425E0,1.7463089E0,3.1967251E0,7.3897405E0,1.2397577E0,1.2205931E0,1.2436115E0,1.2350959E0,2.2329311E0,1.0255314E1,1.0000869E0,2.493023E0,4.2354503E0,1.221916E0,4.901771E1,2.2911438E2,1.0108809E1,1.3859093E0],"tree_param":{"num_deleted":"0","num_feature":"32","num_nodes":"93","size_leaf_vector":"1"}},{"base_weights":[4.308464E-3,-2.748027E-3,1.3531956E-1,-1.1331129E-3,-8.497124E-1,-1E-1,1.438471E-1,2.3385105E-3,-1.8291488E-1,-1E0,4.9240717E-1,3.956946E-2,2.4053557E-1,1.5503267E-3,1E0,3.5857696E-2,-2.9274574E-1,-1E-1,-1.9226963E-2,1E-1,-4.2855013E-2,1.405901E-1,-2.764279E-1,3.3387553E-2,3.696917E-1,-4.8206053E-3,1.2832485E-1,1E-1,-1.5281454E-2,2.3865667E-1,-6.285543E-1,-6.547951E-1,-1.132704E-1,2.3763566E-1,-2.7182534E-1,2.2493033E-1,-5.824165E-1,-2.8870925E-1,1.7078818E-1,7.3999476E-1,1.4807206E-1,-5.95455E-4,7.150524E-2,1.1177405E-2,1E-1,5.8629703E-2,-1.3465109E-2,-1.9231461E-2,-1E-1,-8.584281E-3,-1E-1,-5.709017E-2,3.1843627E-4,2.9884879E-2,-7.2482765E-2,-4.739961E-2,5.670763E-2,8.0285355E-2,-2.4489524E-2,-8.614644E-2,6.763241E-4,1.9954002E-2,-6.108885E-2,6.8633333E-3,9.7639054E-2,2.9230574E-2,1E-1,-3.5485506E-2,3.555064E-2],"categories":[],"categories_nodes":[],"categories_segments":[],"categories_sizes":[],"default_left":[0,0,0,0,0,0,0,0,0,0,0,0,0,0,0,0,0,0,0,0,0,0,0,0,0,0,0,0,0,0,0,0,0,0,0,0,0,0,0,0,0,0,0,0,0,0,0,0,0,0,0,0,0,0,0,0,0,0,0,0,0,0,0,0,0,0,0,0,0],"id":13,"left_children":[1,3,5,7,9,-1,11,13,15,17,19,21,23,25,27,29,31,-1,-1,-1,-1,33,35,37,39,41,43,-1,-1,45,47,49,51,53,55,57,59,61,63,65,67,-1,-1,-1,-1,-1,-1,-1,-1,-1,-1,-1,-1,-1,-1,-1,-1,-1,-1,-1,-1,-1,-1,-1,-1,-1,-1,-1,-1],"loss_changes":[6.46171E0,9.071406E0,3.9892464E0,4.178994E0,7.5104656E0,0E0,3.5771718E0,5.2412696E0,2.9922562E0,6.023493E-1,2.9952943E0,5.540598E0,4.9208508E0,5.245825E0,1.983738E0,5.858745E0,5.3013654E0,0E0,0E0,0E0,0E0,5.3180394E0,6.5876584E0,3.231896E0,9.20294E0,5.052596E0,5.877529E0,0E0,0E0,4.3855734E0,2.619532E0,5.4123936E0,3.0138788E0,6.5082164E0,4.588505E0,4.7236695E0,4.348667E0,3.5629597E0,4.133169E0,4.7225323E0,7.662498E0,0E0,0E0,0E0,0E0,0E0,0E0,0E0,0E0,0E0,0E0,0E0,0E0,0E0,0E0,0E0,0E0,0E0,0E0,0E0,0E0,0E0,0E0,0E0,0E0,0E0,0E0,0E0,0E0],"parents":[2147483647,0,0,1,1,2,2,3,3,4,4,6,6,7,7,8,8,9,9,10,10,11,11,12,12,13,13,14,14,15,15,16,16,21,21,22,22,23,23,24,24,25,25,26,26,29,29,30,30,31,31,32,32,33,33,34,34,35,35,36,36,37,37,38,38,39,39,40,40],"right_children":[2,4,6,8,10,-1,12,14,16,18,20,22,24,26,28,30,32,-1,-1,-1,-1,34,36,38,40,42,44,-1,-1,46,48,50,52,54,56,58,60,62,64,66,68,-1,-1,-1,-1,-1,-1,-1,-1,-1,-1,-1,-1,-1,-1,-1,-1,-1,-1,-1,-1,-1,-1,-1,-1,-1,-1,-1,-1],"split_conditions":[6.098633E-1,5.859375E-1,7.3791504E-2,3.6914062E-1,1.7089844E-1,-1E-1,1.5823364E-2,1.1386719E0,1.060791E-1,3.6010742E-1,7.122803E-2,6.567383E-2,8.4472656E-2,1.171875E-1,3.2836914E-1,7.897949E-2,2.1179199E-1,-1E-1,-1.9226963E-2,1E-1,-4.2855013E-2,4.7973633E-1,2.6885986E-2,1.850586E-1,9.951172E-1,6.7871094E-1,1.8225098E-1,1E-1,-1.5281454E-2,4.099121E-1,1.7834473E-1,1.2426758E-1,5.947876E-2,3.578186E-3,2.6054382E-3,2.0581055E-1,2.397461E-1,2.2814941E-1,1.4831543E-2,2.3303223E-1,5.4541016E-1,-5.95455E-4,7.150524E-2,1.1177405E-2,1E-1,5.8629703E-2,-1.3465109E-2,-1.9231461E-2,-1E-1,-8.584281E-3,-1E-1,-5.709017E-2,3.1843627E-4,2.9884879E-2,-7.2482765E-2,-4.739961E-2,5.670763E-2,8.0285355E-2,-2.4489524E-2,-8.614644E-2,6.763241E-4,1.9954002E-2,-6.108885E-2,6.8633333E-3,9.7639054E-2,2.9230574E-2,1E-1,-3.5485506E-2,3.555064E-2],"split_indices":[24,24,9,9,23,0,2,3,16,1,8,5,23,15,9,25,16,0,0,0,0,4,30,27,24,31,5,0,0,6,3,10,31,2,5,18,18,31,3,1,4,0,0,0,0,0,0,0,0,0,0,0,0,0,0,0,0,0,0,0,0,0,0,0,0,0,0,0,0],"split_type":[0,0,0,0,0,0,0,0,0,0,0,0,0,0,0,0,0,0,0,0,0,0,0,0,0,0,0,0,0,0,0,0,0,0,0,0,0,0,0,0,0,0,0,0,0,0,0,0,0,0,0,0,0,0,0,0,0,0,0,0,0,0,0,0,0,0,0,0,0],"sum_hessian":[6.9881694E3,6.6319404E3,3.562291E2,6.620319E3,1.162168E1,1.4932445E0,3.5473587E2,6.4972236E3,1.2309524E2,8.672671E0,2.9490087E0,1.7134795E2,1.8338792E2,6.4932285E3,3.9947774E0,4.1367886E1,8.172735E1,7.216694E0,1.4559776E0,1.4926838E0,1.4563248E0,1.3026033E2,4.108761E1,7.091266E1,1.1247527E2,6.1834473E3,3.0978122E2,2.7496457E0,1.2451317E0,3.218487E1,9.183013E0,2.620882E1,5.551853E1,1.05790535E2,2.4469795E1,1.5672816E1,2.5414793E1,2.0875275E1,5.003738E1,4.123571E1,7.1239555E1,6.174713E3,8.734683E0,3.070246E2,2.7566404E0,1.6369934E1,1.5814939E1,6.7020893E0,2.480924E0,1.0553145E1,1.5655675E1,1.047047E1,4.504806E1,1.0011281E2,5.677724E0,2.00684E1,4.4013953E0,6.7100644E0,8.962751E0,1.6932882E1,8.481912E0,8.450122E0,1.2425154E1,4.5369476E1,4.6679063E0,1.612709E1,2.5108622E1,2.0595303E1,5.0644257E1],"tree_param":{"num_deleted":"0","num_feature":"32","num_nodes":"69","size_leaf_vector":"1"}},{"base_weights":[6.254905E-3,7.6135814E-2,-3.950386E-3,3.7145153E-2,4.113613E-1,8.319192E-6,-2.3052295E-1,-2.6134455E-1,6.7720465E-2,2.4812303E-1,7.323364E-1,-1.2852061E-2,7.762582E-2,5.738559E-1,-2.8280947E-1,2.352728E-1,-5.5711085E-1,5.3072876E-1,3.5596542E-2,-7.463341E-1,3.8565773E-1,1E0,7.8670844E-2,3.7966963E-2,-4.3421846E-2,1.7729907E-1,1.43502075E-2,-6.7552075E-2,1E0,-4.9136937E-1,2.5496792E-2,3.939947E-1,-7.0009226E-1,-1.6913569E-1,-1E-1,6.21208E-1,-4.6348146E-1,4.25166E-2,-8.749996E-1,-1.0259683E-1,-1E-1,1.5994696E-1,7.146481E-1,-2.874383E-3,1E0,7.2495866E-1,-4.7376707E-1,4.0568974E-2,-1E-1,-9.621483E-2,-1.5763446E-3,1.0092506E-1,4.7760913E-1,-1.5727039E-1,9.413919E-2,2.3750396E-2,1E-1,-5.438439E-1,9.247632E-2,8.788467E-1,-1.0269763E-1,8.365576E-2,2.9596877E-3,-1E-1,2.0341905E-2,-2.8642727E-2,1E-1,5.002425E-2,1E-1,3.1550515E-2,-1E-1,5.6247044E-2,2.684578E-3,-1E-1,3.6369972E-2,-9.1094285E-2,6.714107E-2,-7.997379E-3,5.5053037E-2,8.478067E-2,1.4879298E-2,1E-1,2.1575984E-2,-3.170104E-3,1E-1,5.2640665E-2,-8.5369855E-2,9.507148E-3,-1.9663885E-4,-1.1338368E-2,1.3909045E-2,1.3822587E-2,-3.7963327E-3,1.5858641E-3,3.5174996E-2,3.908734E-2,9.618687E-2,-2.1335732E-2,1.8518679E-2,7.884331E-3,9.7912304E-2,-7.316942E-2,-1.5040484E-2,1.6736608E-2,1E-1,-6.3137166E-2,9.029612E-3],"categories":[],"categories_nodes":[],"categories_segments":[],"categories_sizes":[],"default_left":[0,0,0,0,0,0,0,0,0,0,0,0,0,0,0,0,0,0,0,0,0,0,0,0,0,0,0,0,0,0,0,0,0,0,0,0,0,0,0,0,0,0,0,0,0,0,0,0,0,0,0,0,0,0,0,0,0,0,0,0,0,0,0,0,0,0,0,0,0,0,0,0,0,0,0,0,0,0,0,0,0,0,0,0,0,0,0,0,0,0,0,0,0,0,0,0,0,0,0,0,0,0,0,0,0,0,0],"id":14,"left_children":[1,3,5,7,9,11,13,15,17,19,21,23,25,27,29,31,33,35,37,39,41,43,45,47,49,51,53,-1,55,57,59,61,63,65,-1,67,69,71,73,75,-1,77,79,-1,81,83,85,87,-1,89,91,93,95,97,99,-1,-1,101,-1,103,105,-1,-1,-1,-1,-1,-1,-1,-1,-1,-1,-1,-1,-1,-1,-1,-1,-1,-1,-1,-1,-1,-1,-1,-1,-1,-1,-1,-1,-1,-1,-1,-1,-1,-1,-1,-1,-1,-1,-1,-1,-1,-1,-1,-1,-1,-1],"loss_changes":[4.991093E0,1.1641399E1,5.4779058E0,7.3188133E0,4.681739E0,5.993624E0,4.5731997E0,1.1079445E1,1.0786213E1,8.910265E0,8.045134E0,8.003899E0,5.380185E0,4.7449584E0,6.3875895E0,4.5107846E0,1.2746572E1,4.5212593E0,4.3246555E0,2.3129249E0,4.0471926E0,2.1752205E0,5.0754576E0,6.0096183E0,7.106141E0,7.5510817E0,7.178404E0,0E0,3.0812836E-1,4.9012823E0,4.570685E0,4.0113134E0,1.8554976E0,5.68167E0,0E0,2.7529755E0,2.897535E0,5.494822E0,3.056883E0,3.5853782E0,0E0,3.279484E0,1.5703564E0,0E0,3.8451767E-1,2.7659984E0,3.3945308E0,4.4792824E0,0E0,5.7617817E0,9.138648E0,5.6575727E0,2.434414E0,3.2356548E0,4.765378E0,0E0,0E0,4.154669E0,0E0,1.3172174E0,3.7814202E0,0E0,0E0,0E0,0E0,0E0,0E0,0E0,0E0,0E0,0E0,0E0,0E0,0E0,0E0,0E0,0E0,0E0,0E0,0E0,0E0,0E0,0E0,0E0,0E0,0E0,0E0,0E0,0E0,0E0,0E0,0E0,0E0,0E0,0E0,0E0,0E0,0E0,0E0,0E0,0E0,0E0,0E0,0E0,0E0,0E0,0E0],"parents":[2147483647,0,0,1,1,2,2,3,3,4,4,5,5,6,6,7,7,8,8,9,9,10,10,11,11,12,12,13,13,14,14,15,15,16,16,17,17,18,18,19,19,20,20,21,21,22,22,23,23,24,24,25,25,26,26,28,28,29,29,30,30,31,31,32,32,33,33,35,35,36,36,37,37,38,38,39,39,41,41,42,42,44,44,45,45,46,46,47,47,49,49,50,50,51,51,52,52,53,53,54,54,57,57,59,59,60,60],"right_children":[2,4,6,8,10,12,14,16,18,20,22,24,26,28,30,32,34,36,38,40,42,44,46,48,50,52,54,-1,56,58,60,62,64,66,-1,68,70,72,74,76,-1,78,80,-1,82,84,86,88,-1,90,92,94,96,98,100,-1,-1,102,-1,104,106,-1,-1,-1,-1,-1,-1,-1,-1,-1,-1,-1,-1,-1,-1,-1,-1,-1,-1,-1,-1,-1,-1,-1,-1,-1,-1,-1,-1,-1,-1,-1,-1,-1,-1,-1,-1,-1,-1,-1,-1,-1,-1,-1,-1,-1,-1],"split_conditions":[6.126404E-3,1.430664E-1,8.105469E-1,8.92334E-2,1.685791E-1,4.3676758E-1,5.6518555E-2,6.958008E-2,1.0229492E-1,2.0812988E-1,2.0349121E-1,6.640625E-2,1.574707E-1,4.4384766E-1,1.0107422E0,6.713867E-4,1.694336E-1,7.8552246E-2,4.0698242E-1,2.7124023E-1,2.3962402E-1,3.955078E-2,3.6254883E-2,4.440918E-1,6.585693E-2,3.2592773E-1,2.3547363E-1,-6.7552075E-2,3.6450195E-1,4.0234375E-1,3.9208984E-1,1.071167E-1,1.3989258E-1,3.262329E-2,-1E-1,2.4072266E-1,2.8515625E-1,2.3303223E-1,7.69043E-2,2.0239258E-1,-1E-1,1.8112183E-2,1.315918E-1,-2.874383E-3,1.19506836E-1,2.2583008E-1,6.1462402E-2,7.489014E-2,-1E-1,2.355957E-1,4.3920898E-1,3.3666992E-1,5.8203125E-1,6.1865234E-1,3.5083008E-1,2.3750396E-2,1E-1,3.7841797E-3,9.247632E-2,9.550781E-1,5.6610107E-2,8.365576E-2,2.9596877E-3,-1E-1,2.0341905E-2,-2.8642727E-2,1E-1,5.002425E-2,1E-1,3.1550515E-2,-1E-1,5.6247044E-2,2.684578E-3,-1E-1,3.6369972E-2,-9.1094285E-2,6.714107E-2,-7.997379E-3,5.5053037E-2,8.478067E-2,1.4879298E-2,1E-1,2.1575984E-2,-3.170104E-3,1E-1,5.2640665E-2,-8.5369855E-2,9.507148E-3,-1.9663885E-4,-1.1338368E-2,1.3909045E-2,1.3822587E-2,-3.7963327E-3,1.5858641E-3,3.5174996E-2,3.908734E-2,9.618687E-2,-2.1335732E-2,1.8518679E-2,7.884331E-3,9.7912304E-2,-7.316942E-2,-1.5040484E-2,1.6736608E-2,1E-1,-6.3137166E-2,9.029612E-3],"split_indices":[17,5,2,6,18,10,16,6,6,23,18,18,26,10,3,2,29,16,9,4,7,6,15,1,26,29,17,0,26,16,16,18,2,30,0,23,10,10,18,7,0,16,15,0,15,18,6,16,0,5,4,31,4,4,29,0,0,27,0,2,17,0,0,0,0,0,0,0,0,0,0,0,0,0,0,0,0,0,0,0,0,0,0,0,0,0,0,0,0,0,0,0,0,0,0,0,0,0,0,0,0,0,0,0,0,0,0],"split_type":[0,0,0,0,0,0,0,0,0,0,0,0,0,0,0,0,0,0,0,0,0,0,0,0,0,0,0,0,0,0,0,0,0,0,0,0,0,0,0,0,0,0,0,0,0,0,0,0,0,0,0,0,0,0,0,0,0,0,0,0,0,0,0,0,0,0,0,0,0,0,0,0,0,0,0,0,0,0,0,0,0,0,0,0,0,0,0,0,0,0,0,0,0,0,0,0,0,0,0,0,0,0,0,0,0,0,0],"sum_hessian":[6.997187E3,8.9082007E2,6.106367E3,7.9899805E2,9.182205E1,6.0024907E3,1.0387633E2,7.353819E1,7.2545984E2,6.204226E1,2.9779795E1,5.1500225E3,8.524685E2,5.7312493E0,9.814508E1,2.7525318E1,4.601287E1,4.606045E1,6.793994E2,7.0001945E0,5.5042065E1,1.7526161E1,1.22536335E1,1.934267E3,3.2157554E3,3.303272E2,5.221413E2,1.4818053E0,4.249444E0,5.8188526E1,3.9956554E1,2.4026966E1,3.498351E0,3.227105E1,1.3741824E1,4.2562202E1,3.498248E0,6.752214E2,4.178023E0,3.7529545E0,3.24724E0,3.3526608E1,2.1515457E1,2.0002627E0,1.5525898E1,5.5032196E0,6.750414E0,1.9310742E3,3.19272E0,1.421309E3,1.7944464E3,2.644174E2,6.590982E1,1.6540198E2,3.5673932E2,1.2499623E0,2.9994817E0,5.6703358E1,1.485169E0,4.4537525E0,3.5502804E1,1.0264707E1,1.37622595E1,2.2472389E0,1.2511123E0,3.0518097E1,1.752952E0,3.9052544E1,3.5096605E0,2.0004067E0,1.4978412E0,1.873415E1,6.5648724E2,2.953018E0,1.2250049E0,1.749217E0,2.0037374E0,2.1261633E1,1.2264977E1,1.7013515E1,4.5019417E0,1.4274767E1,1.2511308E0,3.0003042E0,2.5029154E0,1.7521992E0,4.9982147E0,8.4592145E2,1.0851527E3,1.3251394E3,9.616953E1,3.7001505E2,1.4244314E3,1.9824612E2,6.617127E1,5.7430588E1,8.479234E0,1.4244896E2,2.2953016E1,3.5174884E2,4.9904633E0,3.779712E1,1.8906237E1,2.4578671E0,1.9958854E0,8.886972E0,2.6615831E1],"tree_param":{"num_deleted":"0","num_feature":"32","num_nodes":"107","size_leaf_vector":"1"}},{"base_weights":[8.7148976E-4,-2.965801E-4,8.178011E-1,-6.8908837E-3,8.90345E-2,1E-1,7.2724275E-2,-1.0356816E-3,-2.4128251E-1,-2.5326973E-1,1.1608349E-1,-6.9489025E-2,8.15877E-2,-3.3124017E-3,3.0185413E-1,-5.249738E-1,-8.931642E-2,-6.8811613E-1,1.8724413E-1,2.0585515E-1,4.521171E-3,1.3586747E-3,-1.2896383E-1,6.577066E-1,-2.6427168E-1,7.8267284E-2,-7.4161965E-1,3.7637445E-1,-1.8719342E-1,-1E-1,-2.155106E-1,3.4490275E-1,-6.7671485E-2,1.6458532E-1,7.3004067E-1,5.437278E-2,-5.529926E-1,-6.0174585E-5,4.3661963E-2,-6.1083775E-2,-6.4751976E-3,3.7246317E-2,1E-1,-4.3292996E-2,6.0575347E-2,6.72996E-2,-2.458912E-2,-8.521453E-2,-6.043798E-3,6.5102026E-2,-7.813371E-2,-6.0898513E-2,-5.6319474E-3,1E-1,-6.703579E-2,1E-1,1.3154733E-2,1.936195E-2,-2.6920384E-2,8.675731E-2,-4.569357E-2,1.3440723E-2,-2.3216669E-2,-7.8050815E-2,2.8879484E-2],"categories":[],"categories_nodes":[],"categories_segments":[],"categories_sizes":[],"default_left":[0,0,0,0,0,0,0,0,0,0,0,0,0,0,0,0,0,0,0,0,0,0,0,0,0,0,0,0,0,0,0,0,0,0,0,0,0,0,0,0,0,0,0,0,0,0,0,0,0,0,0,0,0,0,0,0,0,0,0,0,0,0,0,0,0],"id":15,"left_children":[1,3,5,7,9,-1,11,13,15,17,19,-1,-1,21,23,25,27,29,31,33,35,37,39,41,43,45,47,49,51,-1,53,55,-1,57,59,61,63,-1,-1,-1,-1,-1,-1,-1,-1,-1,-1,-1,-1,-1,-1,-1,-1,-1,-1,-1,-1,-1,-1,-1,-1,-1,-1,-1,-1],"loss_changes":[6.671801E0,4.1138816E0,3.384851E0,8.925207E0,4.4744787E0,0E0,3.6959038E0,4.377168E0,6.7861147E0,6.9237857E0,4.461915E0,0E0,0E0,3.6976066E0,9.713957E0,7.256651E0,4.8297153E0,4.2635136E0,2.7406893E0,5.2209806E0,5.5806837E0,5.1838856E0,6.9473057E0,2.8151608E0,3.0489378E0,3.1458156E0,3.0068798E0,6.380203E0,4.7653847E0,0E0,7.066958E0,2.5188332E0,0E0,2.9510274E0,3.2906036E0,4.2561865E0,3.381968E0,0E0,0E0,0E0,0E0,0E0,0E0,0E0,0E0,0E0,0E0,0E0,0E0,0E0,0E0,0E0,0E0,0E0,0E0,0E0,0E0,0E0,0E0,0E0,0E0,0E0,0E0,0E0,0E0],"parents":[2147483647,0,0,1,1,2,2,3,3,4,4,6,6,7,7,8,8,9,9,10,10,13,13,14,14,15,15,16,16,17,17,18,18,19,19,20,20,21,21,22,22,23,23,24,24,25,25,26,26,27,27,28,28,30,30,31,31,33,33,34,34,35,35,36,36],"right_children":[2,4,6,8,10,-1,12,14,16,18,20,-1,-1,22,24,26,28,30,32,34,36,38,40,42,44,46,48,50,52,-1,54,56,-1,58,60,62,64,-1,-1,-1,-1,-1,-1,-1,-1,-1,-1,-1,-1,-1,-1,-1,-1,-1,-1,-1,-1,-1,-1,-1,-1,-1,-1,-1,-1],"split_conditions":[7.4316406E-1,6.1035156E-1,3.479004E-1,5.883789E-1,3.137207E-2,1E-1,3.696289E-1,3.0297852E-1,1.7797852E-1,1.5319824E-1,3.2080078E-1,-6.9489025E-2,8.15877E-2,6.245117E-1,1.7114258E-1,2.0214844E-1,2.2009277E-1,2.8955078E-1,5.942383E-1,1.4172363E-1,2.0922852E-1,4.091797E-1,6.0455322E-2,3.3740234E-1,3.5546875E-1,3.3251953E-1,2.2290039E-1,3.2226562E-1,2.3754883E-1,-1E-1,3.1274414E-1,2.0043945E-1,-6.7671485E-2,3.635254E-1,1.5197754E-1,3.3154297E-1,3.330078E-1,-6.0174585E-5,4.3661963E-2,-6.1083775E-2,-6.4751976E-3,3.7246317E-2,1E-1,-4.3292996E-2,6.0575347E-2,6.72996E-2,-2.458912E-2,-8.521453E-2,-6.043798E-3,6.5102026E-2,-7.813371E-2,-6.0898513E-2,-5.6319474E-3,1E-1,-6.703579E-2,1E-1,1.3154733E-2,1.936195E-2,-2.6920384E-2,8.675731E-2,-4.569357E-2,1.3440723E-2,-2.3216669E-2,-7.8050815E-2,2.8879484E-2],"split_indices":[21,4,28,4,23,0,28,5,26,2,29,0,0,22,26,17,17,7,22,11,23,28,31,29,7,7,23,5,17,0,7,7,0,18,11,17,29,0,0,0,0,0,0,0,0,0,0,0,0,0,0,0,0,0,0,0,0,0,0,0,0,0,0,0,0],"split_type":[0,0,0,0,0,0,0,0,0,0,0,0,0,0,0,0,0,0,0,0,0,0,0,0,0,0,0,0,0,0,0,0,0,0,0,0,0,0,0,0,0,0,0,0,0,0,0,0,0,0,0,0,0,0,0,0,0,0,0,0,0,0,0,0,0],"sum_hessian":[6.9905566E3,6.9815737E3,8.982821E0,6.502491E3,4.7908255E2,4.4977965E0,4.4850254E0,6.344995E3,1.5749625E2,3.4472363E1,4.4461017E2,2.2381485E0,2.246877E0,6.298639E3,4.6355675E1,5.4081673E1,1.03414566E2,1.7064919E1,1.7407444E1,2.4589716E2,1.9871303E2,6.0738345E3,2.2480487E2,2.8364618E1,1.7991056E1,1.4459248E1,3.9622425E1,1.7466238E1,8.5948326E1,6.6569767E0,1.0407942E1,1.52291565E1,2.1782885E0,2.2916841E2,1.6728745E1,1.8323137E2,1.5481659E1,6.0475947E3,2.6239824E1,2.5432837E1,1.9937204E2,1.7424612E1,1.0940006E1,1.549054E1,2.500517E0,4.7212E0,9.738047E0,3.3875027E1,5.747399E0,1.447094E1,2.9952984E0,1.9487888E1,6.646044E1,2.4757006E0,7.9322414E0,2.3290298E0,1.2900126E1,2.1531097E2,1.3857441E1,1.5232839E1,1.495906E0,1.436413E2,3.9590073E1,1.2244935E1,3.236724E0],"tree_param":{"num_deleted":"0","num_feature":"32","num_nodes":"65","size_leaf_vector":"1"}},{"base_weights":[-4.137946E-4,-1.09859E-2,9.267091E-2,-7.706594E-3,-2.8037792E-1,3.2076883E-1,3.7650526E-2,-9.332407E-3,5.169716E-1,-1.6340135E-1,-9.615378E-1,4.2652938E-1,-2.7823454E-1,2.7591363E-2,1E0,1.8865821E-3,-7.258229E-2,2.1100814E-2,1E0,3.8477728E-1,-2.9283273E-1,-1E0,6.002158E-2,5.3195035E-1,-1.0509511E-1,-5.5343705E-1,7.3994875E-1,-2.0165728E-2,2.0535319E-1,1E-1,1.4105483E-2,-7.760683E-4,6.3080925E-1,-8.278956E-2,9.2992485E-1,-4.6967524E-1,1E0,3.5265725E-2,1E-1,6.0960525E-1,-8.047962E-2,-4.0715137E-1,2.5029442E-1,-1E-1,-1.4281181E-2,5.5982906E-1,-7.680408E-2,3.469854E-1,-6.399746E-1,1.7959663E-1,-9.77936E-1,1E-1,-2.8352786E-2,-9.778965E-2,1.3172662E-1,-3.0555682E-2,4.058013E-1,9.152875E-5,-6.900143E-2,1E-1,3.7090335E-2,-7.27841E-3,-7.684075E-2,3.8586777E-2,1E-1,-1E-1,1.4244518E-2,1E-1,2.1682605E-2,8.621677E-3,1E-1,-9.761803E-2,-2.5720034E-2,1E-1,-2.5115443E-2,3.0621057E-2,7.71739E-2,9.528523E-2,-2.4194064E-2,-1E-1,-4.6670862E-4,-6.2050767E-2,9.86554E-2,-1E-1,-4.954908E-3,1E-1,-1.1778387E-2,2.8481409E-2,-4.0328247E-3,5.0732703E-3,-6.537309E-2,5.1040918E-2,-4.0861048E-2],"categories":[],"categories_nodes":[],"categories_segments":[],"categories_sizes":[],"default_left":[0,0,0,0,0,0,0,0,0,0,0,0,0,0,0,0,0,0,0,0,0,0,0,0,0,0,0,0,0,0,0,0,0,0,0,0,0,0,0,0,0,0,0,0,0,0,0,0,0,0,0,0,0,0,0,0,0,0,0,0,0,0,0,0,0,0,0,0,0,0,0,0,0,0,0,0,0,0,0,0,0,0,0,0,0,0,0,0,0,0,0,0,0],"id":16,"left_children":[1,3,5,7,9,11,13,15,17,19,21,23,25,27,29,31,33,35,37,39,41,43,-1,45,47,49,51,53,55,-1,-1,57,59,61,63,65,67,-1,-1,69,-1,71,73,-1,-1,75,-1,77,79,81,83,-1,-1,85,87,89,91,-1,-1,-1,-1,-1,-1,-1,-1,-1,-1,-1,-1,-1,-1,-1,-1,-1,-1,-1,-1,-1,-1,-1,-1,-1,-1,-1,-1,-1,-1,-1,-1,-1,-1,-1,-1],"loss_changes":[6.891745E0,5.553479E0,8.95185E0,5.305709E0,5.86703E0,8.903752E0,5.632435E0,4.3968015E0,6.4802647E0,4.77621E0,4.738595E0,6.683605E0,6.410207E0,4.857767E0,1.1282282E0,8.814762E0,9.629058E0,6.9747834E0,4.3626785E-2,3.9639888E0,3.4386883E0,1.3838453E0,0E0,4.0126076E0,5.1561337E0,5.5995746E0,2.3553014E0,5.3370724E0,5.7418337E0,0E0,0E0,6.111845E0,2.8792696E0,6.28937E0,1.3072948E0,4.8890543E0,3.8031864E-1,0E0,0E0,3.7113614E0,0E0,3.5696235E0,4.315275E0,0E0,0E0,4.9960213E0,0E0,4.4076366E0,3.1772404E0,5.2848334E0,1.4518642E0,0E0,0E0,6.9549317E0,4.0453453E0,2.8997245E0,5.795067E0,0E0,0E0,0E0,0E0,0E0,0E0,0E0,0E0,0E0,0E0,0E0,0E0,0E0,0E0,0E0,0E0,0E0,0E0,0E0,0E0,0E0,0E0,0E0,0E0,0E0,0E0,0E0,0E0,0E0,0E0,0E0,0E0,0E0,0E0,0E0,0E0],"parents":[2147483647,0,0,1,1,2,2,3,3,4,4,5,5,6,6,7,7,8,8,9,9,10,10,11,11,12,12,13,13,14,14,15,15,16,16,17,17,18,18,19,19,20,20,21,21,23,23,24,24,25,25,26,26,27,27,28,28,31,31,32,32,33,33,34,34,35,35,36,36,39,39,41,41,42,42,45,45,47,47,48,48,49,49,50,50,53,53,54,54,55,55,56,56],"right_children":[2,4,6,8,10,12,14,16,18,20,22,24,26,28,30,32,34,36,38,40,42,44,-1,46,48,50,52,54,56,-1,-1,58,60,62,64,66,68,-1,-1,70,-1,72,74,-1,-1,76,-1,78,80,82,84,-1,-1,86,88,90,92,-1,-1,-1,-1,-1,-1,-1,-1,-1,-1,-1,-1,-1,-1,-1,-1,-1,-1,-1,-1,-1,-1,-1,-1,-1,-1,-1,-1,-1,-1,-1,-1,-1,-1,-1,-1],"split_conditions":[2.0922852E-1,3.1982422E-1,3.0737305E-1,2.998047E-1,3.0566406E-1,5.065918E-2,3.5003662E-2,3.5766602E-1,1.4538574E-1,7.727051E-2,6.220703E-1,3.5229492E-1,3.779297E-1,1.0917969E0,2.788086E-1,8.510742E-1,3.0517578E-1,7.513428E-2,1.2365723E-1,3.7817383E-1,2.6293945E-1,4.272461E-1,6.002158E-2,3.8378906E-1,7.110596E-2,2.619934E-2,1.2609863E-1,4.4384766E-1,9.484863E-2,1E-1,1.4105483E-2,4.1259766E-1,2.861328E-1,1.4880371E-1,9.539795E-2,2.5610352E-1,2.524414E-1,3.5265725E-2,1E-1,4.0893555E-2,-8.047962E-2,3.3374023E-1,3.4838867E-1,-1E-1,-1.4281181E-2,1.8493652E-1,-7.680408E-2,7.763672E-2,3.7939453E-1,3.5986328E-1,5.102539E-1,1E-1,-2.8352786E-2,1.2841797E-1,5.263672E-1,8.843994E-2,3.7670898E-1,9.152875E-5,-6.900143E-2,1E-1,3.7090335E-2,-7.27841E-3,-7.684075E-2,3.8586777E-2,1E-1,-1E-1,1.4244518E-2,1E-1,2.1682605E-2,8.621677E-3,1E-1,-9.761803E-2,-2.5720034E-2,1E-1,-2.5115443E-2,3.0621057E-2,7.71739E-2,9.528523E-2,-2.4194064E-2,-1E-1,-4.6670862E-4,-6.2050767E-2,9.86554E-2,-1E-1,-4.954908E-3,1E-1,-1.1778387E-2,2.8481409E-2,-4.0328247E-3,5.0732703E-3,-6.537309E-2,5.1040918E-2,-4.0861048E-2],"split_indices":[24,14,24,14,23,16,28,6,16,1,17,18,10,14,22,23,31,24,8,4,1,3,0,7,9,29,17,10,8,0,0,9,6,24,21,22,31,0,0,3,0,14,22,0,0,18,0,23,18,22,22,0,0,6,10,8,1,0,0,0,0,0,0,0,0,0,0,0,0,0,0,0,0,0,0,0,0,0,0,0,0,0,0,0,0,0,0,0,0,0,0,0,0],"split_type":[0,0,0,0,0,0,0,0,0,0,0,0,0,0,0,0,0,0,0,0,0,0,0,0,0,0,0,0,0,0,0,0,0,0,0,0,0,0,0,0,0,0,0,0,0,0,0,0,0,0,0,0,0,0,0,0,0,0,0,0,0,0,0,0,0,0,0,0,0,0,0,0,0,0,0,0,0,0,0,0,0,0,0,0,0,0,0,0,0,0,0,0,0],"sum_hessian":[7.0010503E3,6.2877954E3,7.1325507E2,6.213191E3,7.460449E1,1.3767326E2,5.7558185E2,6.1949766E3,1.821408E1,6.472847E1,9.876027E0,1.1725802E2,2.0415243E1,5.707287E2,4.853143E0,5.2625063E3,9.3247034E2,1.1484536E1,6.729545E0,1.1987057E1,5.274141E1,8.62871E0,1.2473174E0,9.785315E1,1.9404863E1,1.643068E1,3.9845653E0,4.5056696E2,1.2016174E2,2.9685318E0,1.8846112E0,5.241315E3,2.1191227E1,9.2398004E2,8.490311E0,8.230794E0,3.2537417E0,1.4904374E0,5.2391076E0,1.0491684E1,1.4953729E0,4.37774E1,8.96401E0,6.384375E0,2.2443342E0,9.6356125E1,1.4970242E0,1.0706774E1,8.69809E0,6.2371535E0,1.0193524E1,2.7432804E0,1.2412846E0,2.9841794E2,1.52149E2,5.558771E1,6.457403E1,5.229481E3,1.1834209E1,4.746497E0,1.644473E1,9.117803E2,1.219978E1,5.241132E0,3.2491786E0,2.729655E0,5.5011396E0,2.0033252E0,1.2504166E0,6.7398663E0,3.7518177E0,7.9810824E0,3.5796318E1,2.9908912E0,5.973119E0,4.497458E1,5.1381546E1,4.9728885E0,5.733886E0,4.212718E0,4.4853716E0,3.2478948E0,2.989259E0,8.473322E0,1.7202026E0,4.249006E0,2.9416895E2,8.016556E1,7.198344E1,4.998601E1,5.601698E0,5.7554646E1,7.019384E0],"tree_param":{"num_deleted":"0","num_feature":"32","num_nodes":"93","size_leaf_vector":"1"}},{"base_weights":[-7.698336E-3,-1.1718506E-2,2.4439456E-1,-7.880186E-3,-2.1421377E-1,4.3030494E-1,-7.0777657E-3,-1.3457998E-2,1.7096932E-1,-6.4150953E-1,-4.039361E-2,5.161225E-1,-3.962336E-1,-4.3957293E-1,2.7839896E-1,-1.6231697E-2,1.7128497E-1,1.442497E-1,1E0,-9.5197254E-1,-2.7157623E-1,2.1670812E-1,-2.4470854E-1,7.0628804E-1,8.452524E-2,-1E-1,2.1312043E-1,3.6443028E-1,-5.9584165E-1,1.3118802E-1,8.770375E-1,-6.56687E-3,-8.7224066E-2,6.691086E-1,-1.3708947E-3,-1E0,1.6691421E-1,1E-1,2.1646664E-2,-1E0,4.2388104E-2,6.2187284E-1,-6.5783864E-1,5.873634E-1,-5.555136E-2,-1E-1,-1.1219428E-1,1.3384622E-1,8.320918E-1,3.0191544E-1,-6.7740107E-1,6.570216E-2,-4.469752E-2,-2.1061841E-2,9.7210936E-2,-7.6364124E-1,6.717372E-2,-7.3915295E-2,2.090882E-1,1E-1,2.0659748E-2,-1.4723387E-3,8.756542E-3,-1.17825E-2,6.4170375E-3,8.043373E-2,-8.987979E-2,1.6329862E-2,-6.537801E-2,-1E-1,-2.7193774E-2,2.5897754E-2,-8.696668E-3,-1E-1,-3.9337017E-2,1E-1,-4.321157E-2,-8.407309E-2,4.6107795E-2,-1.1711366E-2,9.644449E-2,-7.113751E-2,2.4354624E-2,3.5446584E-3,-7.7518106E-2,7.046364E-2,-7.586085E-2,9.068569E-2,-5.3526275E-3,-1.401662E-2,8.008737E-2,-1E-1,1.0295816E-2,-9.297954E-2,-3.5619847E-3,-8.530592E-2,8.773375E-2,1.9546568E-3,1E-1],"categories":[],"categories_nodes":[],"categories_segments":[],"categories_sizes":[],"default_left":[0,0,0,0,0,0,0,0,0,0,0,0,0,0,0,0,0,0,0,0,0,0,0,0,0,0,0,0,0,0,0,0,0,0,0,0,0,0,0,0,0,0,0,0,0,0,0,0,0,0,0,0,0,0,0,0,0,0,0,0,0,0,0,0,0,0,0,0,0,0,0,0,0,0,0,0,0,0,0,0,0,0,0,0,0,0,0,0,0,0,0,0,0,0,0,0,0,0,0],"id":17,"left_children":[1,3,5,7,9,11,13,15,17,19,21,23,25,27,29,31,33,35,37,39,41,43,45,47,49,-1,51,53,55,57,59,61,63,65,67,69,71,-1,-1,73,-1,75,77,79,81,-1,83,85,87,89,91,-1,-1,-1,-1,93,95,-1,97,-1,-1,-1,-1,-1,-1,-1,-1,-1,-1,-1,-1,-1,-1,-1,-1,-1,-1,-1,-1,-1,-1,-1,-1,-1,-1,-1,-1,-1,-1,-1,-1,-1,-1,-1,-1,-1,-1,-1,-1],"loss_changes":[7.0512967E0,5.3197985E0,5.108989E0,6.7064047E0,9.430941E0,4.6596565E0,5.9754515E0,3.3427358E0,4.8624535E0,3.9623165E0,4.863465E0,4.6461077E0,3.599653E0,2.634097E0,2.4554768E0,4.40608E0,8.295212E0,5.3647137E0,3.805046E-1,4.418066E0,6.679121E0,4.1781816E0,6.5363264E0,2.7450085E0,3.2972517E0,0E0,1.6793554E0,1.5155169E0,1.8854308E0,1.821577E0,4.6031237E-1,4.342372E0,3.572505E0,5.992116E0,7.9114065E0,1.8277216E-1,4.6002436E0,0E0,0E0,9.834862E-2,0E0,3.2648494E0,3.0828695E0,4.7571692E0,4.9981055E0,0E0,4.6115575E0,4.7819147E0,2.1889267E0,3.4692287E0,1.2555213E0,0E0,0E0,0E0,0E0,1.5681047E0,3.9160926E0,0E0,3.806161E0,0E0,0E0,0E0,0E0,0E0,0E0,0E0,0E0,0E0,0E0,0E0,0E0,0E0,0E0,0E0,0E0,0E0,0E0,0E0,0E0,0E0,0E0,0E0,0E0,0E0,0E0,0E0,0E0,0E0,0E0,0E0,0E0,0E0,0E0,0E0,0E0,0E0,0E0,0E0,0E0],"parents":[2147483647,0,0,1,1,2,2,3,3,4,4,5,5,6,6,7,7,8,8,9,9,10,10,11,11,12,12,13,13,14,14,15,15,16,16,17,17,18,18,19,19,20,20,21,21,22,22,23,23,24,24,26,26,27,27,28,28,29,29,30,30,31,31,32,32,33,33,34,34,35,35,36,36,39,39,41,41,42,42,43,43,44,44,46,46,47,47,48,48,49,49,50,50,55,55,56,56,58,58],"right_children":[2,4,6,8,10,12,14,16,18,20,22,24,26,28,30,32,34,36,38,40,42,44,46,48,50,-1,52,54,56,58,60,62,64,66,68,70,72,-1,-1,74,-1,76,78,80,82,-1,84,86,88,90,92,-1,-1,-1,-1,94,96,-1,98,-1,-1,-1,-1,-1,-1,-1,-1,-1,-1,-1,-1,-1,-1,-1,-1,-1,-1,-1,-1,-1,-1,-1,-1,-1,-1,-1,-1,-1,-1,-1,-1,-1,-1,-1,-1,-1,-1,-1,-1],"split_conditions":[3.3398438E-1,1.9897461E-1,4.765625E-1,2.9785156E-1,2.1069336E-1,1.574707E-1,7.158203E-1,1.7089844E-1,