{"learner":{"attributes":{"best_iteration":"0","best_score":"0.0048210096157093"},"feature_names":[],"feature_types":[],"gradient_booster":{"model":{"cats":{"enc":[],"feature_segments":[],"sorted_idx":[]},"gbtree_model_param":{"num_parallel_tree":"1","num_trees":"11"},"iteration_indptr":[0,1,2,3,4,5,6,7,8,9,10,11],"tree_info":[0,0,0,0,0,0,0,0,0,0,0],"trees":[{"base_weights":[-2.527257E-4,-2.689663E-3,1.910349E-2,-3.4625821E-3,2.2900937E-2,1.8798914E-2,3.3030656E-1,-1.7827862E-3,-4.5398247E-4,-4.5296966E-4,6.3271865E-2,1.5326636E-2,3.8853664E-2,4.9772993E-2,-2.2700666E-4,-4.5391274E-4,7.464168E-4,9.486695E-2,2.5123127E-2,2.5331156E-2,-1.520495E-3,7.882022E-2,1.5883472E-2,7.5718586E-4,-4.127394E-4,1.1314031E-1,-4.3655126E-4,4.93666E-3,9.56112E-2,1.3201395E-2,3.4742817E-2,2.4659489E-1,-2.5194276E-3,6.338912E-2,4.246799E-2,-2.6549448E-4,7.8868866E-2,7.582652E-5,-2.2700666E-4,6.1309077E-3,1.7586216E-2,2.4161013E-3,-4.4770757E-4,3.2954987E-2,3.5641473E-3,4.1182406E-4,4.677102E-3,2.8875235E-3,1.0218707E-2,4.9772993E-2,-3.0267556E-4,2.336376E-3,-3.490457E-4,1.100905E-2,-4.4723702E-4,3.9135525E-3,-4.5188182E-4,2.8149843E-2,1.6833062E-3],"categories":[],"categories_nodes":[],"categories_segments":[],"categories_sizes":[],"default_left":[0,0,0,0,0,0,0,0,0,0,0,0,0,0,0,0,0,0,0,0,0,0,0,0,0,0,0,0,0,0,0,0,0,0,0,0,0,0,0,0,0,0,0,0,0,0,0,0,0,0,0,0,0,0,0,0,0,0,0],"id":0,"left_children":[1,3,5,7,9,11,13,15,-1,-1,17,19,21,-1,-1,-1,23,25,27,29,31,33,35,37,-1,39,-1,41,43,45,47,49,51,53,-1,55,57,-1,-1,-1,-1,-1,-1,-1,-1,-1,-1,-1,-1,-1,-1,-1,-1,-1,-1,-1,-1,-1,-1],"loss_changes":[1.3203365E0,4.9181655E-1,2.9046726E-1,4.3661684E-2,8.075814E-1,2.1722496E-1,1.6817316E-1,6.5750144E-2,0E0,0E0,3.5318375E-1,4.4972318E-1,4.2196423E-1,0E0,0E0,0E0,2.613063E-4,2.9243696E-1,1.9162023E-1,1.9064724E-1,2.4723256E-1,8.6969495E-1,2.990628E-1,1.776102E-5,0E0,4.3134737E-1,0E0,1.9291306E-2,4.091316E-1,2.2331235E-1,3.6983144E-1,2.5226146E-1,2.5013823E-2,5.139068E-1,0E0,3.9559387E-2,7.494788E-1,0E0,0E0,0E0,0E0,0E0,0E0,0E0,0E0,0E0,0E0,0E0,0E0,0E0,0E0,0E0,0E0,0E0,0E0,0E0,0E0,0E0,0E0],"parents":[2147483647,0,0,1,1,2,2,3,3,4,4,5,5,6,6,7,7,10,10,11,11,12,12,16,16,17,17,18,18,19,19,20,20,21,21,22,22,23,23,25,25,27,27,28,28,29,29,30,30,31,31,32,32,33,33,35,35,36,36],"right_children":[2,4,6,8,10,12,14,16,-1,-1,18,20,22,-1,-1,-1,24,26,28,30,32,34,36,38,-1,40,-1,42,44,46,48,50,52,54,-1,56,58,-1,-1,-1,-1,-1,-1,-1,-1,-1,-1,-1,-1,-1,-1,-1,-1,-1,-1,-1,-1,-1,-1],"split_conditions":[1.0467529E-2,8.331299E-3,1.6662598E-2,1.3389587E-3,3.9024353E-3,5.7525635E-3,1.0665894E-2,1.3198853E-3,-4.5398247E-4,-4.5296966E-4,1.001358E-3,3.65448E-3,2.0019531E-2,4.9772993E-2,-2.2700666E-4,-4.5391274E-4,2.4795532E-5,5.5503845E-3,2.204895E-3,1.2680054E-2,1.0574341E-2,6.9732666E-3,4.8065186E-2,5.340576E-5,-4.127394E-4,4.4441223E-3,-4.3655126E-4,1.2931824E-3,8.026123E-3,8.895874E-3,5.0735474E-3,2.7694702E-3,1.133728E-2,1.7684937E-2,4.246799E-2,2.06604E-2,1.5716553E-2,7.582652E-5,-2.2700666E-4,6.1309077E-3,1.7586216E-2,2.4161013E-3,-4.4770757E-4,3.2954987E-2,3.5641473E-3,4.1182406E-4,4.677102E-3,2.8875235E-3,1.0218707E-2,4.9772993E-2,-3.0267556E-4,2.336376E-3,-3.490457E-4,1.100905E-2,-4.4723702E-4,3.9135525E-3,-4.5188182E-4,2.8149843E-2,1.6833062E-3],"split_indices":[3,22,9,22,3,30,3,22,0,0,12,26,3,0,0,0,12,3,8,3,3,7,14,14,0,3,0,12,3,12,22,17,3,12,0,3,26,0,0,0,0,0,0,0,0,0,0,0,0,0,0,0,0,0,0,0,0,0,0],"split_type":[0,0,0,0,0,0,0,0,0,0,0,0,0,0,0,0,0,0,0,0,0,0,0,0,0,0,0,0,0,0,0,0,0,0,0,0,0,0,0,0,0,0,0,0,0,0,0,0,0,0,0,0,0,0,0,0,0,0,0],"sum_hessian":[2.7989E4,2.486E4,3.129E3,2.4132E4,7.28E2,3.127E3,2E0,9.43E3,1.4702E4,4.34E2,2.94E2,2.667E3,4.6E2,1E0,1E0,4.512E3,4.918E3,1.6E2,1.34E2,1.673E3,9.94E2,1.67E2,2.93E2,4.908E3,1E1,1.35E2,2.5E1,1.05E2,2.9E1,7.32E2,9.41E2,3E0,9.91E2,1.61E2,6E0,2.34E2,5.9E1,4.907E3,1E0,7.5E1,6E1,3.4E1,7.1E1,5E0,2.4E1,5.77E2,1.55E2,8.67E2,7.4E1,1E0,2E0,3.5E1,9.56E2,9.5E1,6.6E1,2.2E1,2.12E2,1.3E1,4.6E1],"tree_param":{"num_deleted":"0","num_feature":"32","num_nodes":"59","size_leaf_vector":"1"}},{"base_weights":[2.4925126E-4,-1.9042268E-3,1.7610028E-2,-2.4645377E-3,1.8245809E-2,1.52900955E-2,1.1522152E-1,-2.742912E-3,1.0569296E-2,2.4067057E-2,-5.1305383E-3,1.39169125E-2,1.1529351E-1,2.504165E-1,1.8219873E-2,-7.1527547E-4,-4.1095503E-3,6.537585E-2,-4.1445424E-3,1.3190188E-2,7.86674E-2,-4.1753246E-4,-7.873375E-3,4.2951427E-2,8.622014E-3,7.149291E-2,6.4627014E-2,-7.029272E-3,3.99834E-1,-5.1070186E-3,2.4693382E-1,-1.2132813E-3,7.769919E-3,-4.0957667E-3,-5.0826827E-3,5.6778975E-2,4.9262058E-2,-4.101591E-4,-7.403539E-4,1.9971091E-2,-6.511821E-3,-3.9357875E-4,1.1228644E-1,-1.1612547E-3,-5.3059834E-4,3.0307371E-2,1.00322396E-1,2.081047E-3,2.2307646E-2,-4.181312E-4,1.6967021E-1,-4.357157E-4,-1.12842135E-2,2.430091E-1,5.470829E-1,-3.8730804E-4,-5.940556E-4,3.3060783E-1,-2.0441257E-4,-3.922741E-4,1.0896478E-4,1.9405788E-2,5.994475E-4,-4.0883073E-4,-4.4210633E-4,-4.4860682E-4,-6.381895E-4,3.8566228E-3,1.21618295E-2,2.2750262E-3,-3.9749994E-4,-1.0781088E-3,-4.9157394E-4,4.8340525E-2,8.611002E-3,8.8102324E-4,5.4912507E-3,3.96198E-3,2.6683325E-2,7.515933E-4,-5.036776E-4,7.0871646E-3,1.5309874E-3,4.1789368E-2,-3.7147463E-4,-1.6344989E-3,-4.1489597E-4,-2.7241649E-3,4.7275838E-2,6.570694E-2,2.4533242E-2,-2.0441257E-4,4.979559E-2],"categories":[],"categories_nodes":[],"categories_segments":[],"categories_sizes":[],"default_left":[0,0,0,0,0,0,0,0,0,0,0,0,0,0,0,0,0,0,0,0,0,0,0,0,0,0,0,0,0,0,0,0,0,0,0,0,0,0,0,0,0,0,0,0,0,0,0,0,0,0,0,0,0,0,0,0,0,0,0,0,0,0,0,0,0,0,0,0,0,0,0,0,0,0,0,0,0,0,0,0,0,0,0,0,0,0,0,0,0,0,0,0,0],"id":1,"left_children":[1,3,5,7,9,11,13,15,17,19,21,23,25,27,29,31,33,35,37,39,41,-1,43,45,47,49,-1,51,53,55,57,59,61,63,65,67,-1,-1,-1,69,71,-1,73,-1,-1,75,77,79,81,-1,83,-1,85,87,89,-1,-1,91,-1,-1,-1,-1,-1,-1,-1,-1,-1,-1,-1,-1,-1,-1,-1,-1,-1,-1,-1,-1,-1,-1,-1,-1,-1,-1,-1,-1,-1,-1,-1,-1,-1,-1,-1],"loss_changes":[1.052937E0,2.8293437E-1,7.0205146E-1,8.848289E-2,9.23854E-2,4.154455E-1,9.3965524E-1,6.614193E-2,4.1154245E-1,3.2143956E-1,3.2344507E-4,4.6037287E-1,9.07337E-1,1.1568178E0,2.3067406E-1,4.0626634E-2,1.7042458E-4,3.687101E-1,2.6044901E-5,6.0783274E-2,2.5037557E-1,0E0,2.647813E-4,3.3209515E-1,2.2696936E-1,2.9045963E-1,0E0,8.726923E-5,3.0580735E-1,1.81332E-5,8.400774E-2,5.666069E-2,1.7512316E-1,1.6063452E-5,1.225206E-4,1.2166613E-1,0E0,0E0,0E0,2.2584409E-2,7.4425247E-4,0E0,5.801058E-1,0E0,0E0,2.0051342E-1,8.283622E-1,6.645923E-2,2.7758354E-1,0E0,7.3320186E-1,0E0,7.662503E-5,6.958677E-1,1.3749576E-1,0E0,0E0,1.6802382E-1,0E0,0E0,0E0,0E0,0E0,0E0,0E0,0E0,0E0,0E0,0E0,0E0,0E0,0E0,0E0,0E0,0E0,0E0,0E0,0E0,0E0,0E0,0E0,0E0,0E0,0E0,0E0,0E0,0E0,0E0,0E0,0E0,0E0,0E0,0E0],"parents":[2147483647,0,0,1,1,2,2,3,3,4,4,5,5,6,6,7,7,8,8,9,9,10,10,11,11,12,12,13,13,14,14,15,15,16,16,17,17,18,18,19,19,20,20,22,22,23,23,24,24,25,25,27,27,28,28,29,29,30,30,31,31,32,32,33,33,34,34,35,35,39,39,40,40,42,42,45,45,46,46,47,47,48,48,50,50,52,52,53,53,54,54,57,57],"right_children":[2,4,6,8,10,12,14,16,18,20,22,24,26,28,30,32,34,36,38,40,42,-1,44,46,48,50,-1,52,54,56,58,60,62,64,66,68,-1,-1,-1,70,72,-1,74,-1,-1,76,78,80,82,-1,84,-1,86,88,90,-1,-1,92,-1,-1,-1,-1,-1,-1,-1,-1,-1,-1,-1,-1,-1,-1,-1,-1,-1,-1,-1,-1,-1,-1,-1,-1,-1,-1,-1,-1,-1,-1,-1,-1,-1,-1,-1],"split_conditions":[2.2888184E-5,8.331299E-3,3.353882E-2,1.2390137E-2,9.857178E-3,4.886627E-3,8.636475E-3,1.3389587E-3,1.0772705E-2,9.57489E-3,2.3841858E-4,7.8582764E-4,2.1148682E-2,8.346558E-3,1.4968872E-2,4.043579E-4,3.540039E-3,5.4016113E-3,1.0070801E-2,2.4795532E-5,2.4795532E-5,-4.1753246E-4,1.001358E-3,6.637573E-4,1.6036987E-2,2.4795532E-5,6.4627014E-2,8.31604E-3,1.4144897E-2,4.8065186E-2,3.756714E-2,1.3198853E-3,4.6539307E-4,8.132935E-3,4.2304993E-3,1.0147095E-2,4.9262058E-2,-4.101591E-4,-7.403539E-4,5.340576E-5,5.3215027E-4,-3.9357875E-4,1.6975403E-4,-1.1612547E-3,-5.3059834E-4,7.0343018E-3,1.2145996E-2,6.580353E-3,9.002686E-3,-4.181312E-4,3.5209656E-3,-4.357157E-4,5.0445557E-2,8.453369E-3,8.4991455E-3,-3.8730804E-4,-5.940556E-4,1.54800415E-2,-2.0441257E-4,-3.922741E-4,1.0896478E-4,1.9405788E-2,5.994475E-4,-4.0883073E-4,-4.4210633E-4,-4.4860682E-4,-6.381895E-4,3.8566228E-3,1.21618295E-2,2.2750262E-3,-3.9749994E-4,-1.0781088E-3,-4.9157394E-4,4.8340525E-2,8.611002E-3,8.8102324E-4,5.4912507E-3,3.96198E-3,2.6683325E-2,7.515933E-4,-5.036776E-4,7.0871646E-3,1.5309874E-3,4.1789368E-2,-3.7147463E-4,-1.6344989E-3,-4.1489597E-4,-2.7241649E-3,4.7275838E-2,6.570694E-2,2.4533242E-2,-2.0441257E-4,4.979559E-2],"split_indices":[17,22,8,8,22,9,7,22,12,22,12,17,14,7,7,8,14,22,0,12,12,0,12,17,8,12,0,7,23,14,8,22,8,8,12,12,0,0,0,14,12,0,12,0,0,8,14,12,12,0,12,0,14,7,7,0,0,30,0,0,0,0,0,0,0,0,0,0,0,0,0,0,0,0,0,0,0,0,0,0,0,0,0,0,0,0,0,0,0,0,0,0,0],"split_type":[0,0,0,0,0,0,0,0,0,0,0,0,0,0,0,0,0,0,0,0,0,0,0,0,0,0,0,0,0,0,0,0,0,0,0,0,0,0,0,0,0,0,0,0,0,0,0,0,0,0,0,0,0,0,0,0,0,0,0,0,0,0,0,0,0,0,0,0,0,0,0,0,0,0,0,0,0,0,0,0,0,0,0,0,0,0,0,0,0,0,0,0,0],"sum_hessian":[2.8162E4,2.5055E4,3.107E3,2.4378E4,6.77E2,3.036E3,7.1E1,2.3869E4,5.09E2,5.42E2,1.35E2,2.996E3,4E1,2.9E1,4.2E1,9.611E3,1.4258E4,1.07E2,4.02E2,4.53E2,8.9E1,1.02E2,3.3E1,4.61E2,2.535E3,3.8E1,2E0,1.1E1,1.8E1,3.9E1,3E0,9.079E3,5.32E2,1.4064E4,1.94E2,1.06E2,1E0,3.99E2,3E0,3.37E2,1.16E2,2.6E1,6.3E1,1.2E1,2.1E1,3.79E2,8.2E1,1.716E3,8.19E2,2.2E1,1.6E1,8E0,3E0,1E1,8E0,1.8E1,2.1E1,2E0,1E0,4.171E3,4.908E3,4E0,5.28E2,1.3762E4,3.02E2,1.36E2,5.8E1,8.4E1,2.2E1,3.02E2,3.5E1,3E1,8.6E1,3E0,6E1,2.03E2,1.76E2,6.1E1,2.1E1,9.73E2,7.43E2,1.02E2,7.17E2,6E0,1E1,1E0,2E0,5E0,5E0,5E0,3E0,1E0,1E0],"tree_param":{"num_deleted":"0","num_feature":"32","num_nodes":"93","size_leaf_vector":"1"}},{"base_weights":[-1.2783057E-4,-2.5542509E-3,1.8623399E-2,-2.9616859E-3,1.1508234E-2,1.7846104E-2,2.660393E-1,-1.7663573E-3,-3.722068E-3,-3.6679013E-3,4.3146912E-2,1.5544298E-2,6.2166765E-2,3.8207423E-2,-3.5315828E-4,-3.8843688E-3,1.848266E-4,-3.6764026E-4,-5.124436E-3,-5.068652E-3,9.165908E-3,7.774488E-2,8.775461E-3,2.1154216E-2,-6.2560285E-3,1.07406616E-1,6.638511E-3,-3.8750435E-3,-2.2937793E-3,1.9609339E-5,-4.0570364E-4,-7.0762653E-3,-4.4666003E-3,-5.845662E-3,-4.3743313E-3,5.987018E-2,-1.1981907E-2,1.0245739E-1,-8.887645E-3,4.9185933E-4,1.5917891E-1,1.7655754E-2,9.195059E-2,-4.840291E-3,-6.8267374E-3,5.235171E-2,4.4713718E-1,-6.687595E-3,1.8654585E-1,-3.7491208E-4,-4.7219728E-4,-5.2265415E-4,-9.216766E-4,-4.2696964E-4,-5.5091165E-4,-6.058416E-4,-3.2115742E-4,-4.2365488E-4,-6.5243355E-4,-1.0170714E-3,1.13672195E-2,-1.2326735E-3,-4.309774E-4,5.8880425E-3,2.1620927E-2,-1.1611612E-3,-5.270478E-4,-6.7544245E-4,2.8195388E-3,3.2734316E-2,-6.7389774E-4,4.3817046E-3,1.1777425E-3,1.9959768E-2,3.970837E-3,-4.059157E-4,-5.1792245E-4,-8.6165883E-4,-5.6698214E-4,3.4325827E-2,1.7864695E-3,-1.7110482E-3,4.90897E-2,-1.0108509E-3,-5.253896E-4,-3.1676926E-4,3.1407744E-2],"categories":[],"categories_nodes":[],"categories_segments":[],"categories_sizes":[],"default_left":[0,0,0,0,0,0,0,0,0,0,0,0,0,0,0,0,0,0,0,0,0,0,0,0,0,0,0,0,0,0,0,0,0,0,0,0,0,0,0,0,0,0,0,0,0,0,0,0,0,0,0,0,0,0,0,0,0,0,0,0,0,0,0,0,0,0,0,0,0,0,0,0,0,0,0,0,0,0,0,0,0,0,0,0,0,0,0],"id":2,"left_children":[1,3,5,7,9,11,13,15,17,19,21,23,25,-1,-1,27,29,-1,31,33,35,37,39,41,43,45,47,49,-1,-1,-1,51,53,55,57,59,61,63,65,67,69,71,73,75,77,79,81,83,85,-1,-1,-1,-1,-1,-1,-1,-1,-1,-1,-1,-1,-1,-1,-1,-1,-1,-1,-1,-1,-1,-1,-1,-1,-1,-1,-1,-1,-1,-1,-1,-1,-1,-1,-1,-1,-1,-1],"loss_changes":[1.2770957E0,1.4243057E-1,6.137371E-1,2.1947145E-2,3.3626527E-1,3.2620406E-1,3.1414562E-1,3.8818512E-2,9.265244E-4,8.56754E-3,2.692622E-1,3.7314123E-1,3.961972E-1,0E0,0E0,7.1136653E-4,2.3449928E-4,0E0,5.628774E-4,2.0533148E-4,5.1114734E-2,2.4283302E-1,1.4319818E-1,5.9924424E-1,4.7194026E-4,1.6038251E0,1.7386496E-1,4.6253204E-4,0E0,0E0,0E0,4.0715234E-4,4.811911E-5,9.206496E-5,4.049344E-5,5.3912904E-2,3.682403E-5,4.2348218E-1,1.949803E-4,2.2272682E-2,1.6961466E-1,3.5518795E-1,6.3317865E-1,2.7426053E-5,8.684676E-4,7.5633764E-1,2.521844E-1,2.8040074E-4,1.2196724E-1,0E0,0E0,0E0,0E0,0E0,0E0,0E0,0E0,0E0,0E0,0E0,0E0,0E0,0E0,0E0,0E0,0E0,0E0,0E0,0E0,0E0,0E0,0E0,0E0,0E0,0E0,0E0,0E0,0E0,0E0,0E0,0E0,0E0,0E0,0E0,0E0,0E0,0E0],"parents":[2147483647,0,0,1,1,2,2,3,3,4,4,5,5,6,6,7,7,8,8,9,9,10,10,11,11,12,12,15,15,16,16,18,18,19,19,20,20,21,21,22,22,23,23,24,24,25,25,26,26,27,27,31,31,32,32,33,33,34,34,35,35,36,36,37,37,38,38,39,39,40,40,41,41,42,42,43,43,44,44,45,45,46,46,47,47,48,48],"right_children":[2,4,6,8,10,12,14,16,18,20,22,24,26,-1,-1,28,30,-1,32,34,36,38,40,42,44,46,48,50,-1,-1,-1,52,54,56,58,60,62,64,66,68,70,72,74,76,78,80,82,84,86,-1,-1,-1,-1,-1,-1,-1,-1,-1,-1,-1,-1,-1,-1,-1,-1,-1,-1,-1,-1,-1,-1,-1,-1,-1,-1,-1,-1,-1,-1,-1,-1,-1,-1,-1,-1,-1,-1],"split_conditions":[1.0238647E-2,8.331299E-3,1.3427734E-2,1.3389587E-3,4.1160583E-3,2.9907227E-2,1.0665894E-2,1.3198853E-3,2.2888184E-5,3.9024353E-3,5.5503845E-3,1.838684E-2,2.4475098E-2,3.8207423E-2,-3.5315828E-4,2.1469116E-2,2.4795532E-5,-3.6764026E-4,7.8582764E-4,9.262085E-3,3.9405823E-3,9.857178E-3,4.0512085E-3,5.7525635E-3,9.1552734E-5,8.392334E-3,1.4968872E-2,1.9073486E-4,-2.2937793E-3,1.9609339E-5,-4.0570364E-4,7.0343018E-3,1.6036987E-2,2.4795532E-5,4.6348572E-4,9.262085E-3,4.386902E-4,9.57489E-3,1.001358E-3,2.204895E-3,4.211426E-3,2.4719238E-3,2.281189E-2,1.9378662E-2,2.06604E-2,3.6254883E-2,4.8339844E-2,2.5939941E-2,1.1383057E-2,-3.7491208E-4,-4.7219728E-4,-5.2265415E-4,-9.216766E-4,-4.2696964E-4,-5.5091165E-4,-6.058416E-4,-3.2115742E-4,-4.2365488E-4,-6.5243355E-4,-1.0170714E-3,1.13672195E-2,-1.2326735E-3,-4.309774E-4,5.8880425E-3,2.1620927E-2,-1.1611612E-3,-5.270478E-4,-6.7544245E-4,2.8195388E-3,3.2734316E-2,-6.7389774E-4,4.3817046E-3,1.1777425E-3,1.9959768E-2,3.970837E-3,-4.059157E-4,-5.1792245E-4,-8.6165883E-4,-5.6698214E-4,3.4325827E-2,1.7864695E-3,-1.7110482E-3,4.90897E-2,-1.0108509E-3,-5.253896E-4,-3.1676926E-4,3.1407744E-2],"split_indices":[3,22,9,22,3,8,3,22,17,3,3,3,3,0,0,9,12,0,17,22,3,22,8,30,8,7,7,8,0,0,0,8,8,12,12,22,12,22,12,8,8,12,17,3,3,24,24,3,12,0,0,0,0,0,0,0,0,0,0,0,0,0,0,0,0,0,0,0,0,0,0,0,0,0,0,0,0,0,0,0,0,0,0,0,0,0,0],"split_type":[0,0,0,0,0,0,0,0,0,0,0,0,0,0,0,0,0,0,0,0,0,0,0,0,0,0,0,0,0,0,0,0,0,0,0,0,0,0,0,0,0,0,0,0,0,0,0,0,0,0,0,0,0,0,0,0,0,0,0,0,0,0,0,0,0,0,0,0,0,0,0,0,0,0,0,0,0,0,0,0,0,0,0,0,0,0,0],"sum_hessian":[2.8067E4,2.4852E4,3.215E3,2.4153E4,6.99E2,3.206E3,9E0,9.392E3,1.4761E4,4.73E2,2.26E2,3.049E3,1.57E2,6E0,3E0,4.503E3,4.889E3,1.4299E4,4.62E2,4.27E2,4.6E1,1.12E2,1.14E2,2.425E3,6.24E2,8.6E1,7.1E1,4.502E3,1E0,4.877E3,1.2E1,1.14E2,3.48E2,1.98E2,2.29E2,1.3E1,3.3E1,8.7E1,2.5E1,1.09E2,5E0,2.312E3,1.13E2,1.82E2,4.42E2,7.5E1,1.1E1,6.7E1,4E0,3.924E3,5.78E2,6.3E1,5.1E1,2.97E2,5.1E1,1.82E2,1.6E1,2.18E2,1.1E1,6E0,7E0,3.1E1,2E0,6.4E1,2.3E1,1.3E1,1.2E1,8.7E1,2.2E1,2E0,3E0,4.23E2,1.889E3,3.6E1,7.7E1,5.9E1,1.23E2,1.71E2,2.71E2,7E0,6.8E1,1E0,1E1,1.8E1,4.9E1,2E0,2E0],"tree_param":{"num_deleted":"0","num_feature":"32","num_nodes":"87","size_leaf_vector":"1"}},{"base_weights":[-1.2139362E-4,-1.1978814E-3,1.3683946E-2,-1.2927488E-3,6.724535E-2,1.0868519E-2,4.785554E-2,-1.6104601E-3,1.1588572E-2,1.367029E-1,3.121592E-2,2.9594358E-2,5.2211336E-3,2.7482903E-1,2.1384811E-2,-2.0626544E-3,2.9875245E-3,1.02613075E-2,1.2730111E-1,-1.2999652E-2,3.4888637E-1,-3.730581E-4,6.37612E-2,-8.7270397E-4,4.618629E-2,-3.147438E-3,1.4591178E-2,4.0180176E-1,-3.759175E-4,6.2781036E-2,-5.652568E-3,-2.4160456E-3,4.9435627E-3,5.73795E-2,2.600098E-3,1.6436975E-2,-4.428108E-3,3.0552028E-2,-5.0906034E-4,-4.2041503E-3,-2.844887E-4,4.3693777E-2,-1.6595173E-4,2.1475782E-1,-3.0135713E-4,7.6492145E-3,-7.6999096E-3,1.164561E-1,3.2293927E-2,4.9633684E-4,-5.5803647E-3,4.9215373E-2,1.3163025E-2,6.2315255E-2,2.8337353E-1,-9.976211E-3,2.9861033E-1,-7.355589E-3,-4.7774133E-3,-1.0410349E-4,-3.2878964E-4,8.823453E-3,9.2391914E-5,1.1820067E-2,-3.059264E-4,-2.5180876E-4,5.5680436E-4,5.458715E-4,6.170652E-3,-4.89529E-4,-3.928729E-4,2.8745702E-2,-1.6699171E-4,-6.9928996E-4,1.2016945E-2,-9.036746E-4,-4.760723E-4,8.402071E-3,3.186886E-2,8.530291E-4,6.135754E-3,-2.6479326E-4,5.4104677E-3,-1.1481763E-3,-4.2205816E-4,2.3445587E-3,-7.0122606E-4,-5.5243294E-3,3.880131E-2,-8.0238696E-4,-2.7005577E-3,1.8878829E-2,6.0175437E-2,-5.597518E-4,-1.3971599E-3,-4.285556E-4,-1.0469061E-3],"categories":[],"categories_nodes":[],"categories_segments":[],"categories_sizes":[],"default_left":[0,0,0,0,0,0,0,0,0,0,0,0,0,0,0,0,0,0,0,0,0,0,0,0,0,0,0,0,0,0,0,0,0,0,0,0,0,0,0,0,0,0,0,0,0,0,0,0,0,0,0,0,0,0,0,0,0,0,0,0,0,0,0,0,0,0,0,0,0,0,0,0,0,0,0,0,0,0,0,0,0,0,0,0,0,0,0,0,0,0,0,0,0,0,0,0,0],"id":3,"left_children":[1,3,5,7,9,11,13,15,17,19,21,23,25,27,29,31,33,35,37,39,41,-1,43,45,47,49,51,53,-1,55,57,59,61,63,65,67,69,-1,-1,-1,-1,-1,-1,71,-1,73,75,77,79,81,83,-1,85,-1,87,89,91,93,95,-1,-1,-1,-1,-1,-1,-1,-1,-1,-1,-1,-1,-1,-1,-1,-1,-1,-1,-1,-1,-1,-1,-1,-1,-1,-1,-1,-1,-1,-1,-1,-1,-1,-1,-1,-1,-1,-1],"loss_changes":[4.164443E-1,1.6887334E-1,1.9449273E-1,1.06261015E-1,8.582325E-2,1.9802475E-1,9.193784E-1,5.2684322E-2,9.468188E-2,3.8570833E-1,2.8671453E-2,2.1943054E-1,1.1304033E-1,5.674801E-1,1.5593001E-1,5.712685E-2,4.7665186E-2,5.622659E-2,1.6671847E-1,2.2397023E-3,1.5505528E-1,0E0,1.317231E-1,9.0187555E-3,2.705552E-1,6.7579285E-3,4.5730394E-1,1.1177111E-1,0E0,9.466849E-1,9.154389E-5,2.6323497E-2,3.708769E-1,5.9176903E-2,3.4253392E-2,2.163468E-1,2.3695175E-5,0E0,0E0,0E0,0E0,0E0,0E0,6.341654E-2,0E0,1.14520185E-1,2.9489072E-4,2.7496016E-1,1.6247168E-1,5.172233E-2,3.6187917E-3,0E0,1.410254E-1,0E0,3.4032953E-1,1.2129378E-3,3.191905E-1,2.3584196E-4,1.2030348E-4,0E0,0E0,0E0,0E0,0E0,0E0,0E0,0E0,0E0,0E0,0E0,0E0,0E0,0E0,0E0,0E0,0E0,0E0,0E0,0E0,0E0,0E0,0E0,0E0,0E0,0E0,0E0,0E0,0E0,0E0,0E0,0E0,0E0,0E0,0E0,0E0,0E0,0E0],"parents":[2147483647,0,0,1,1,2,2,3,3,4,4,5,5,6,6,7,7,8,8,9,9,10,10,11,11,12,12,13,13,14,14,15,15,16,16,17,17,18,18,19,19,20,20,22,22,23,23,24,24,25,25,26,26,27,27,29,29,30,30,31,31,32,32,33,33,34,34,35,35,36,36,43,43,45,45,46,46,47,47,48,48,49,49,50,50,52,52,54,54,55,55,56,56,57,57,58,58],"right_children":[2,4,6,8,10,12,14,16,18,20,22,24,26,28,30,32,34,36,38,40,42,-1,44,46,48,50,52,54,-1,56,58,60,62,64,66,68,70,-1,-1,-1,-1,-1,-1,72,-1,74,76,78,80,82,84,-1,86,-1,88,90,92,94,96,-1,-1,-1,-1,-1,-1,-1,-1,-1,-1,-1,-1,-1,-1,-1,-1,-1,-1,-1,-1,-1,-1,-1,-1,-1,-1,-1,-1,-1,-1,-1,-1,-1,-1,-1,-1,-1,-1],"split_conditions":[1.1810303E-2,1.3427734E-2,7.019043E-3,8.529663E-3,9.025574E-3,1.3656616E-2,1.1695862E-2,9.0026855E-4,4.0512085E-3,8.010864E-3,1.777649E-2,9.765625E-4,5.302429E-4,7.4768066E-3,1.6296387E-2,1.8539429E-3,9.689331E-4,9.857178E-3,4.211426E-3,1.4007568E-2,5.340576E-5,-3.730581E-4,1.876831E-2,1.26953125E-2,2.5405884E-3,1.5533447E-2,2.861023E-4,3.0822754E-3,-3.759175E-4,9.750366E-3,8.880615E-3,1.3389587E-3,2.2125244E-3,9.536743E-5,9.536743E-5,9.57489E-3,1.071167E-2,3.0552028E-2,-5.0906034E-4,-4.2041503E-3,-2.844887E-4,4.3693777E-2,-1.6595173E-4,1.1192322E-2,-3.0135713E-4,1.2573242E-2,2.6245117E-3,1.2939453E-2,1.3290405E-2,1.54418945E-2,4.7302246E-4,4.9215373E-2,7.6293945E-5,6.2315255E-2,7.1411133E-3,3.2928467E-2,1.5335083E-2,3.540039E-2,1.4968872E-2,-1.0410349E-4,-3.2878964E-4,8.823453E-3,9.2391914E-5,1.1820067E-2,-3.059264E-4,-2.5180876E-4,5.5680436E-4,5.458715E-4,6.170652E-3,-4.89529E-4,-3.928729E-4,2.8745702E-2,-1.6699171E-4,-6.9928996E-4,1.2016945E-2,-9.036746E-4,-4.760723E-4,8.402071E-3,3.186886E-2,8.530291E-4,6.135754E-3,-2.6479326E-4,5.4104677E-3,-1.1481763E-3,-4.2205816E-4,2.3445587E-3,-7.0122606E-4,-5.5243294E-3,3.880131E-2,-8.0238696E-4,-2.7005577E-3,1.8878829E-2,6.0175437E-2,-5.597518E-4,-1.3971599E-3,-4.285556E-4,-1.0469061E-3],"split_indices":[8,9,7,22,26,8,26,8,8,26,9,22,30,7,26,26,8,22,8,9,7,0,9,8,22,8,26,23,0,23,7,22,26,22,22,22,22,0,0,0,0,0,0,26,0,8,24,8,8,8,22,0,23,0,7,8,23,8,7,0,0,0,0,0,0,0,0,0,0,0,0,0,0,0,0,0,0,0,0,0,0,0,0,0,0,0,0,0,0,0,0,0,0,0,0,0,0],"split_type":[0,0,0,0,0,0,0,0,0,0,0,0,0,0,0,0,0,0,0,0,0,0,0,0,0,0,0,0,0,0,0,0,0,0,0,0,0,0,0,0,0,0,0,0,0,0,0,0,0,0,0,0,0,0,0,0,0,0,0,0,0,0,0,0,0,0,0,0,0,0,0,0,0,0,0,0,0,0,0,0,0,0,0,0,0,0,0,0,0,0,0,0,0,0,0,0,0],"sum_hessian":[2.802E4,2.5994E4,2.026E3,2.5959E4,3.5E1,1.873E3,1.53E2,2.5335E4,6.24E2,1.1E1,2.4E1,4.33E2,1.44E3,1.5E1,1.38E2,2.3067E4,2.268E3,6.18E2,6E0,7E0,4E0,1.2E1,1.2E1,1.53E2,2.8E2,7.61E2,6.79E2,1E1,5E0,5.4E1,8.4E1,2.196E4,1.107E3,1.5E1,2.253E3,4.35E2,1.83E2,2E0,4E0,1E0,6E0,3E0,1E0,3E0,9E0,6.8E1,8.5E1,4.5E1,2.35E2,3.05E2,4.56E2,1E0,6.78E2,2E0,8E0,4.2E1,1.2E1,2.6E1,5.8E1,8.522E3,1.3438E4,5E1,1.057E3,7E0,8E0,8.27E2,1.426E3,3.51E2,8.4E1,9E1,9.3E1,2E0,1E0,6.1E1,7E0,5.7E1,2.8E1,4E1,5E0,1.3E2,1.05E2,2.89E2,1.6E1,8.4E1,3.72E2,4.49E2,2.29E2,2E0,6E0,3.9E1,3E0,1E1,2E0,2.2E1,4E0,5.5E1,3E0],"tree_param":{"num_deleted":"0","num_feature":"32","num_nodes":"97","size_leaf_vector":"1"}},{"base_weights":[3.7297615E-4,-1.821456E-3,1.7588578E-2,-2.2367279E-3,2.3613258E-3,1.4675257E-2,7.0133E-2,-2.0628197E-3,-3.3538996E-3,1.55268E-2,-1.1186568E-3,1.9840071E-2,-6.410826E-3,1.2765108E-1,6.7054234E-3,-1.9805185E-3,-3.5021503E-3,-3.344974E-3,-1.5243514E-3,3.348582E-2,-4.777827E-3,1.439864E-3,-3.9746943E-3,1.8853463E-2,1.6628268E-1,-5.623751E-3,-7.887483E-3,4.4748355E-2,2.7596733E-1,-4.4616456E-3,1.7510378E-1,-1.9284536E-3,-3.1829015E-3,-3.2733881E-3,-4.883521E-3,-3.209659E-3,-3.8434302E-3,2.429033E-2,2.5082898E-1,-3.0009687E-2,-4.2929403E-3,5.4462184E-4,1.2030139E-1,-4.1513275E-3,-2.8817708E-4,2.4722846E-2,-1.2106585E-3,4.8830222E-2,1.1226123E-1,-7.859753E-3,-4.3349955E-3,-1.3224497E-2,-6.5376777E-3,2.4285664E-1,7.4478886E-3,-2.0667057E-2,3.9825717E-1,-8.176273E-3,-4.026445E-3,-1.0059103E-2,4.5787767E-2,-1.9043694E-4,-4.2271015E-4,-3.1653987E-4,-5.7258486E-4,-3.2293968E-4,-4.3432982E-4,-4.974878E-4,-3.1253076E-4,-3.144688E-4,-4.1355347E-4,-3.9446508E-4,-3.1500444E-4,3.2927103E-3,1.5524188E-3,-5.3370016E-4,3.6137685E-2,-1.490445E-4,-3.9019287E-3,-7.0275704E-4,-3.580845E-4,-5.01489E-4,6.575536E-4,-2.6694004E-4,2.8515223E-2,-4.3458902E-4,-3.2348835E-4,2.3773322E-3,6.023387E-2,-2.7561767E-4,2.7790133E-2,-2.0053342E-3,2.026991E-2,-7.2091917E-4,-8.934092E-4,-3.6588724E-4,-6.154263E-4,-7.394298E-4,-1.4450975E-3,-7.076206E-4,-4.497969E-4,8.439715E-3,4.1983172E-2,6.5292655E-3,-9.058273E-4,-3.1723166E-4,-4.611609E-3,-1.6653439E-3,4.1880786E-2,-3.0114336E-4,-9.6399226E-4,-4.717238E-4,-3.5110392E-4,-1.9972464E-4,-1.7122338E-3],"categories":[],"categories_nodes":[],"categories_segments":[],"categories_sizes":[],"default_left":[0,0,0,0,0,0,0,0,0,0,0,0,0,0,0,0,0,0,0,0,0,0,0,0,0,0,0,0,0,0,0,0,0,0,0,0,0,0,0,0,0,0,0,0,0,0,0,0,0,0,0,0,0,0,0,0,0,0,0,0,0,0,0,0,0,0,0,0,0,0,0,0,0,0,0,0,0,0,0,0,0,0,0,0,0,0,0,0,0,0,0,0,0,0,0,0,0,0,0,0,0,0,0,0,0,0,0,0,0,0,0,0,0,0,0],"id":4,"left_children":[1,3,5,7,9,11,13,15,17,19,21,23,25,27,29,31,33,35,-1,37,39,41,43,45,47,49,51,53,55,57,59,61,63,65,67,69,71,73,75,77,79,81,83,85,-1,87,89,-1,91,93,95,97,99,101,103,105,107,109,111,113,-1,-1,-1,-1,-1,-1,-1,-1,-1,-1,-1,-1,-1,-1,-1,-1,-1,-1,-1,-1,-1,-1,-1,-1,-1,-1,-1,-1,-1,-1,-1,-1,-1,-1,-1,-1,-1,-1,-1,-1,-1,-1,-1,-1,-1,-1,-1,-1,-1,-1,-1,-1,-1,-1,-1],"loss_changes":[1.0576025E0,4.313477E-2,4.8346502E-1,4.381597E-3,1.027818E-1,3.2684416E-1,6.0475063E-1,2.3086965E-3,2.7171895E-4,1.7118141E-1,1.297606E-2,3.450647E-1,6.4252876E-4,1.0573876E0,1.5122253E-1,1.1515617E-3,3.1771697E-4,1.9270554E-4,0E0,4.9155292E-1,2.5750147E-3,9.964052E-2,1.5000347E-4,2.820748E-1,2.2351804E-1,1.0868944E-3,1.3759397E-3,4.1939452E-1,1.132767E0,8.9940964E-5,2.66402E-1,9.7338855E-4,1.5969388E-5,2.8757378E-5,8.2247425E-6,1.3118796E-4,3.277324E-5,1.7659515E-2,2.851147E-1,9.696316E-4,3.993502E-4,3.1248419E-2,1.4266405E-1,1.1432171E-4,0E0,1.0019777E0,2.3500125E-1,0E0,1.835585E-1,3.4140423E-5,2.837642E-4,1.7916923E-4,1.4831545E-4,2.1695781E-1,4.7376394E-2,4.3059476E-3,1.9456196E-1,2.388662E-5,8.360366E-6,1.9357359E-4,0E0,0E0,0E0,0E0,0E0,0E0,0E0,0E0,0E0,0E0,0E0,0E0,0E0,0E0,0E0,0E0,0E0,0E0,0E0,0E0,0E0,0E0,0E0,0E0,0E0,0E0,0E0,0E0,0E0,0E0,0E0,0E0,0E0,0E0,0E0,0E0,0E0,0E0,0E0,0E0,0E0,0E0,0E0,0E0,0E0,0E0,0E0,0E0,0E0,0E0,0E0,0E0,0E0,0E0,0E0],"parents":[2147483647,0,0,1,1,2,2,3,3,4,4,5,5,6,6,7,7,8,8,9,9,10,10,11,11,12,12,13,13,14,14,15,15,16,16,17,17,19,19,20,20,21,21,22,22,23,23,24,24,25,25,26,26,27,27,28,28,29,29,30,30,31,31,32,32,33,33,34,34,35,35,36,36,37,37,38,38,39,39,40,40,41,41,42,42,43,43,45,45,46,46,48,48,49,49,50,50,51,51,52,52,53,53,54,54,55,55,56,56,57,57,58,58,59,59],"right_children":[2,4,6,8,10,12,14,16,18,20,22,24,26,28,30,32,34,36,-1,38,40,42,44,46,48,50,52,54,56,58,60,62,64,66,68,70,72,74,76,78,80,82,84,86,-1,88,90,-1,92,94,96,98,100,102,104,106,108,110,112,114,-1,-1,-1,-1,-1,-1,-1,-1,-1,-1,-1,-1,-1,-1,-1,-1,-1,-1,-1,-1,-1,-1,-1,-1,-1,-1,-1,-1,-1,-1,-1,-1,-1,-1,-1,-1,-1,-1,-1,-1,-1,-1,-1,-1,-1,-1,-1,-1,-1,-1,-1,-1,-1,-1,-1],"split_conditions":[1.0238647E-2,3.9024353E-3,7.0648193E-3,2.4795532E-5,4.787445E-3,1.838684E-2,8.636475E-3,6.484985E-5,2.5634766E-3,3.5476685E-4,3.578186E-3,8.239746E-3,4.501343E-3,4.1809082E-2,1.4968872E-2,3.0517578E-5,3.5591125E-3,7.4272156E-3,-1.5243514E-3,1.18255615E-4,3.9100647E-4,3.5209656E-3,1.4984131E-2,5.5389404E-3,2.519226E-2,3.7078857E-3,8.346558E-3,7.171631E-3,8.346558E-3,3.440857E-3,1.54800415E-2,2.2888184E-5,1.739502E-3,2.2888184E-5,2.2888184E-5,2.2888184E-5,1.5426636E-2,4.2915344E-3,4.2915344E-3,4.627228E-3,1.6403198E-3,7.6293945E-4,9.017944E-3,7.446289E-3,-2.8817708E-4,4.306793E-3,1.6662598E-2,4.8830222E-2,1.7974854E-2,3.025055E-3,1.7700195E-3,9.2315674E-4,1.4701843E-2,2.0645142E-2,7.4768066E-3,8.239746E-3,9.750366E-3,1.2054443E-3,9.262085E-3,2.6947021E-2,4.5787767E-2,-1.9043694E-4,-4.2271015E-4,-3.1653987E-4,-5.7258486E-4,-3.2293968E-4,-4.3432982E-4,-4.974878E-4,-3.1253076E-4,-3.144688E-4,-4.1355347E-4,-3.9446508E-4,-3.1500444E-4,3.2927103E-3,1.5524188E-3,-5.3370016E-4,3.6137685E-2,-1.490445E-4,-3.9019287E-3,-7.0275704E-4,-3.580845E-4,-5.01489E-4,6.575536E-4,-2.6694004E-4,2.8515223E-2,-4.3458902E-4,-3.2348835E-4,2.3773322E-3,6.023387E-2,-2.7561767E-4,2.7790133E-2,-2.0053342E-3,2.026991E-2,-7.2091917E-4,-8.934092E-4,-3.6588724E-4,-6.154263E-4,-7.394298E-4,-1.4450975E-3,-7.076206E-4,-4.497969E-4,8.439715E-3,4.1983172E-2,6.5292655E-3,-9.058273E-4,-3.1723166E-4,-4.611609E-3,-1.6653439E-3,4.1880786E-2,-3.0114336E-4,-9.6399226E-4,-4.717238E-4,-3.5110392E-4,-1.9972464E-4,-1.7122338E-3],"split_indices":[3,3,7,12,3,3,7,3,26,12,12,30,30,17,7,10,3,12,0,12,12,12,12,26,24,26,26,7,7,30,30,17,29,17,26,17,12,3,3,3,12,12,3,17,0,9,9,0,3,12,30,7,26,12,7,7,23,30,7,3,0,0,0,0,0,0,0,0,0,0,0,0,0,0,0,0,0,0,0,0,0,0,0,0,0,0,0,0,0,0,0,0,0,0,0,0,0,0,0,0,0,0,0,0,0,0,0,0,0,0,0,0,0,0,0],"split_type":[0,0,0,0,0,0,0,0,0,0,0,0,0,0,0,0,0,0,0,0,0,0,0,0,0,0,0,0,0,0,0,0,0,0,0,0,0,0,0,0,0,0,0,0,0,0,0,0,0,0,0,0,0,0,0,0,0,0,0,0,0,0,0,0,0,0,0,0,0,0,0,0,0,0,0,0,0,0,0,0,0,0,0,0,0,0,0,0,0,0,0,0,0,0,0,0,0,0,0,0,0,0,0,0,0,0,0,0,0,0,0,0,0,0,0],"sum_hessian":[2.7993E4,2.4829E4,3.164E3,2.2587E4,2.242E3,2.999E3,1.65E2,1.9547E4,3.04E3,4.68E2,1.774E3,2.409E3,5.9E2,8.6E1,7.9E1,1.8492E4,1.055E3,3.039E3,1E0,2.48E2,2.2E2,9.36E2,8.38E2,2.394E3,1.5E1,3.88E2,2.02E2,5.6E1,3E1,7.5E1,4E0,1.7727E4,7.65E2,9.08E2,1.47E2,2.396E3,6.43E2,2.39E2,9E0,3E0,2.17E2,9.3E2,6E0,7.19E2,1.19E2,1.852E3,5.42E2,1E0,1.4E1,1.4E2,2.48E2,3.9E1,1.63E2,8E0,4.8E1,9E0,2.1E1,6E0,6.9E1,3E0,1E0,1.7545E4,1.82E2,7.62E2,3E0,8.76E2,3.2E1,1.38E2,9E0,2.243E3,1.53E2,5.57E2,8.6E1,1.19E2,1.2E2,3E0,6E0,1E0,2E0,4.3E1,1.74E2,4.84E2,4.46E2,4E0,2E0,5.9E2,1.29E2,1.85E3,2E0,5.4E2,2E0,6E0,8E0,9.2E1,4.8E1,1.83E2,6.5E1,8E0,3.1E1,1.27E2,3.6E1,5E0,3E0,1E1,3.8E1,6E0,3E0,1E0,2E1,2E0,4E0,2.6E1,4.3E1,2E0,1E0],"tree_param":{"num_deleted":"0","num_feature":"32","num_nodes":"115","size_leaf_vector":"1"}},{"base_weights":[-6.6459164E-5,-1.9131015E-3,1.4245614E-2,-2.2426993E-3,1.4030259E-3,1.3491796E-2,2.8135714E-1,-2.122643E-3,-3.0184903E-3,9.946985E-3,-2.428115E-3,1.2144139E-2,7.373186E-2,6.38538E-2,-3.6562895E-4,-2.062421E-3,-3.1626218E-3,-2.888744E-3,-3.477631E-3,2.044065E-2,1.1623867E-3,2.052267E-3,-3.3780888E-3,1.607246E-2,-1.4659952E-3,3.4597087E-1,1.1441531E-2,-2.0188428E-3,-3.1952437E-3,-2.93602E-3,-4.5267977E-3,-2.828663E-3,-3.7020622E-3,-3.439192E-3,-1.4481338E-3,2.894953E-2,-4.8131123E-3,7.1487906E-3,-4.2341384E-3,-4.4022193E-3,6.920099E-2,-3.9786696E-3,-1.5736363E-4,1.4794996E-2,1.868564E-1,-5.6534694E-3,2.2211013E-2,-2.5069434E-3,5.136632E-1,-1.689618E-2,1.3405687E-1,-1.9918778E-4,-2.8401855E-4,-2.9747392E-4,-3.890118E-4,-2.910955E-4,-3.688809E-4,-4.7636926E-4,-2.9212012E-4,-2.8035123E-4,-3.499303E-4,-3.7859316E-4,-2.22184E-4,-3.5317696E-4,-2.7101143E-4,2.5097113E-3,4.709863E-2,-6.932225E-4,-2.7791932E-4,-5.6396675E-4,3.3032843E-3,-6.8986486E-4,-3.630786E-4,-5.2934414E-4,-3.141565E-4,-3.504485E-4,1.30990585E-2,-4.6524504E-4,-3.355E-4,3.8633842E-3,-4.1404748E-4,1.7893667E-3,-7.576087E-4,2.3143329E-2,-2.7020962E-3,-4.696908E-4,-6.733766E-4,3.9476793E-2,-8.1189506E-4,5.9534796E-2,-6.9907564E-3,-5.558929E-4,-6.540661E-3,2.4933431E-2,-3.5634052E-4],"categories":[],"categories_nodes":[],"categories_segments":[],"categories_sizes":[],"default_left":[0,0,0,0,0,0,0,0,0,0,0,0,0,0,0,0,0,0,0,0,0,0,0,0,0,0,0,0,0,0,0,0,0,0,0,0,0,0,0,0,0,0,0,0,0,0,0,0,0,0,0,0,0,0,0,0,0,0,0,0,0,0,0,0,0,0,0,0,0,0,0,0,0,0,0,0,0,0,0,0,0,0,0,0,0,0,0,0,0,0,0,0,0,0,0],"id":5,"left_children":[1,3,5,7,9,11,13,15,17,19,21,23,25,-1,-1,27,29,31,33,35,37,39,41,43,45,47,49,51,53,55,57,59,61,63,-1,65,67,69,71,73,75,77,79,81,83,85,87,-1,89,91,93,-1,-1,-1,-1,-1,-1,-1,-1,-1,-1,-1,-1,-1,-1,-1,-1,-1,-1,-1,-1,-1,-1,-1,-1,-1,-1,-1,-1,-1,-1,-1,-1,-1,-1,-1,-1,-1,-1,-1,-1,-1,-1,-1,-1],"loss_changes":[7.4374723E-1,2.7245864E-2,6.4375705E-1,2.1052286E-3,7.3804595E-2,2.5953954E-1,9.185467E-1,1.2233332E-3,1.7081387E-4,6.4319715E-2,6.6339066E-3,1.6785014E-1,1.1830916E0,0E0,0E0,9.100437E-4,3.1840056E-4,1.0548532E-4,2.3104902E-4,6.8471566E-2,1.2338771E-2,1.18625715E-1,2.4849558E-3,5.28698E-1,6.992496E-2,8.217449E-1,2.0379403E-1,3.9033592E-4,9.3538314E-5,6.678514E-6,4.3518143E-5,2.7531758E-5,1.1451775E-5,3.5177916E-5,0E0,3.934722E-1,3.2985245E-4,6.010039E-2,2.9808795E-4,2.6425114E-4,1.08277656E-1,4.394874E-4,3.152543E-2,1.6782212E-1,1.778652E-1,5.8735907E-4,1.2009667E0,0E0,4.7063923E-1,2.6035205E-2,1.7539811E-1,0E0,0E0,0E0,0E0,0E0,0E0,0E0,0E0,0E0,0E0,0E0,0E0,0E0,0E0,0E0,0E0,0E0,0E0,0E0,0E0,0E0,0E0,0E0,0E0,0E0,0E0,0E0,0E0,0E0,0E0,0E0,0E0,0E0,0E0,0E0,0E0,0E0,0E0,0E0,0E0,0E0,0E0,0E0,0E0],"parents":[2147483647,0,0,1,1,2,2,3,3,4,4,5,5,6,6,7,7,8,8,9,9,10,10,11,11,12,12,15,15,16,16,17,17,18,18,19,19,20,20,21,21,22,22,23,23,24,24,25,25,26,26,27,27,28,28,29,29,30,30,31,31,32,32,33,33,35,35,36,36,37,37,38,38,39,39,40,40,41,41,42,42,43,43,44,44,45,45,46,46,48,48,49,49,50,50],"right_children":[2,4,6,8,10,12,14,16,18,20,22,24,26,-1,-1,28,30,32,34,36,38,40,42,44,46,48,50,52,54,56,58,60,62,64,-1,66,68,70,72,74,76,78,80,82,84,86,88,-1,90,92,94,-1,-1,-1,-1,-1,-1,-1,-1,-1,-1,-1,-1,-1,-1,-1,-1,-1,-1,-1,-1,-1,-1,-1,-1,-1,-1,-1,-1,-1,-1,-1,-1,-1,-1,-1,-1,-1,-1,-1,-1,-1,-1,-1,-1],"split_conditions":[1.0238647E-2,3.9024353E-3,1.3427734E-2,2.4795532E-5,5.340576E-5,4.8065186E-2,1.0665894E-2,6.484985E-5,7.3432922E-3,4.9552917E-3,1.1672974E-3,1.838684E-2,2.3727417E-2,6.38538E-2,-3.6562895E-4,5.340576E-5,3.5591125E-3,2.2888184E-5,5.340576E-5,5.3215027E-4,6.0157776E-3,1.0604858E-3,9.521484E-3,8.239746E-3,7.019043E-3,9.750366E-3,4.925537E-2,3.0517578E-5,2.2888184E-5,2.2888184E-5,5.340576E-5,5.340576E-5,6.580353E-3,1.5426636E-2,-1.4481338E-3,4.9209595E-4,1.6403198E-3,7.286072E-4,6.427765E-3,4.0664673E-3,1.7700195E-3,7.0991516E-3,9.613037E-3,1.5426636E-2,2.8060913E-2,1.2512207E-3,2.0019531E-2,-2.5069434E-3,2.5238037E-2,4.5898438E-2,2.5939941E-2,-1.9918778E-4,-2.8401855E-4,-2.9747392E-4,-3.890118E-4,-2.910955E-4,-3.688809E-4,-4.7636926E-4,-2.9212012E-4,-2.8035123E-4,-3.499303E-4,-3.7859316E-4,-2.22184E-4,-3.5317696E-4,-2.7101143E-4,2.5097113E-3,4.709863E-2,-6.932225E-4,-2.7791932E-4,-5.6396675E-4,3.3032843E-3,-6.8986486E-4,-3.630786E-4,-5.2934414E-4,-3.141565E-4,-3.504485E-4,1.30990585E-2,-4.6524504E-4,-3.355E-4,3.8633842E-3,-4.1404748E-4,1.7893667E-3,-7.576087E-4,2.3143329E-2,-2.7020962E-3,-4.696908E-4,-6.733766E-4,3.9476793E-2,-8.1189506E-4,5.9534796E-2,-6.9907564E-3,-5.558929E-4,-6.540661E-3,2.4933431E-2,-3.5634052E-4],"split_indices":[3,3,9,12,14,14,3,3,12,3,14,3,3,0,0,14,3,17,7,12,3,14,3,30,7,23,17,10,17,17,14,14,12,12,0,12,12,12,3,12,12,12,3,12,24,30,3,0,12,17,3,0,0,0,0,0,0,0,0,0,0,0,0,0,0,0,0,0,0,0,0,0,0,0,0,0,0,0,0,0,0,0,0,0,0,0,0,0,0,0,0,0,0,0,0],"split_type":[0,0,0,0,0,0,0,0,0,0,0,0,0,0,0,0,0,0,0,0,0,0,0,0,0,0,0,0,0,0,0,0,0,0,0,0,0,0,0,0,0,0,0,0,0,0,0,0,0,0,0,0,0,0,0,0,0,0,0,0,0,0,0,0,0,0,0,0,0,0,0,0,0,0,0,0,0,0,0,0,0,0,0,0,0,0,0,0,0,0,0,0,0,0,0],"sum_hessian":[2.8139E4,2.4924E4,3.215E3,2.2671E4,2.253E3,3.207E3,8E0,1.9636E4,3.035E3,6.97E2,1.556E3,3.138E3,6.9E1,3E0,5E0,1.8564E4,1.072E3,2.372E3,6.63E2,3.17E2,3.8E2,2.72E2,1.284E3,2.435E3,7.03E2,1.2E1,5.7E1,1.7879E4,6.85E2,9.22E2,1.5E2,2.213E3,1.59E2,6.62E2,1E0,2.37E2,8E1,1.8E2,2E2,2.49E2,2.3E1,1.082E3,2.02E2,2.418E3,1.7E1,5.98E2,1.05E2,4E0,8E0,4.7E1,1E1,1.7314E4,5.65E2,5.24E2,1.61E2,8.97E2,2.5E1,1.29E2,2.1E1,2.138E3,7.5E1,1.49E2,1E1,5.84E2,7.8E1,2.36E2,1E0,3.8E1,4.2E1,1.21E2,5.9E1,3.5E1,1.65E2,1.44E2,1.05E2,1.1E1,1.2E1,5.17E2,5.65E2,1.8E1,1.84E2,2.124E3,2.94E2,1.4E1,3E0,3.2E2,2.78E2,7E0,9.8E1,7E0,1E0,3.9E1,8E0,5E0,5E0],"tree_param":{"num_deleted":"0","num_feature":"32","num_nodes":"95","size_leaf_vector":"1"}},{"base_weights":[-1.6040786E-4,-1.5693832E-3,1.10130925E-2,-1.8124715E-3,2.0912584E-2,1.025841E-2,7.0428036E-2,-7.2110887E-4,-2.4900853E-3,-4.273211E-3,7.817752E-2,1.4749464E-2,-2.394727E-3,2.0310523E-1,1.7673654E-2,-3.1058835E-3,1.456779E-3,-2.6799778E-3,4.0485812E-3,-9.3540904E-4,-3.229466E-3,3.380703E-1,6.0286067E-2,1.3744585E-2,1.6536891E-1,-6.1533838E-3,1.0053568E-2,8.14286E-2,5.004334E-2,-1.4387176E-2,3.0032992E-1,-3.0006282E-3,-2.2527628E-2,1.4631571E-4,-3.9968544E-4,-2.5897203E-3,-3.7073668E-3,-3.7663602E-3,2.1164583E-2,-2.5709034E-3,-8.424216E-4,5.7539612E-2,-1.1945617E-3,4.3627396E-2,1.8130411E-1,1.9313132E-2,-5.146048E-3,4.795509E-2,1.0867372E-1,-1.3346505E-2,-5.067044E-3,1.4733241E-1,2.3281926E-3,-1.2974465E-2,2.7631614E-1,-4.82304E-3,-4.705781E-2,4.524186E-2,-1.923687E-4,-2.969691E-4,-7.6230767E-4,-9.356867E-4,-1.11604E-2,-2.5600693E-4,-3.125323E-4,-5.1610876E-4,-3.2660642E-4,-2.0724778E-4,-1.6241878E-3,3.1654507E-2,1.4291053E-3,-2.3052421E-4,-3.1103977E-4,1.1339181E-2,1.4114377E-4,3.4491766E-2,-1.8570264E-3,1.8371355E-3,5.6098986E-2,4.0432252E-2,-6.726225E-4,-3.2718596E-3,1.6850252E-2,-1.0167519E-3,-2.7833974E-3,-4.131108E-4,-6.8956474E-4,4.665956E-2,6.0014776E-3,5.2195573E-3,-2.886983E-4,-7.6503755E-4,3.4922034E-2,-5.163992E-4,1.1684734E-4,-6.890518E-3,-2.2420478E-4],"categories":[],"categories_nodes":[],"categories_segments":[],"categories_sizes":[],"default_left":[0,0,0,0,0,0,0,0,0,0,0,0,0,0,0,0,0,0,0,0,0,0,0,0,0,0,0,0,0,0,0,0,0,0,0,0,0,0,0,0,0,0,0,0,0,0,0,0,0,0,0,0,0,0,0,0,0,0,0,0,0,0,0,0,0,0,0,0,0,0,0,0,0,0,0,0,0,0,0,0,0,0,0,0,0,0,0,0,0,0,0,0,0,0,0,0,0],"id":6,"left_children":[1,3,5,7,9,11,13,15,17,19,21,23,25,27,29,31,33,35,37,-1,39,41,43,45,47,49,51,53,-1,55,57,59,61,-1,-1,63,65,67,69,71,-1,-1,-1,73,75,77,79,-1,81,83,85,87,89,-1,91,93,95,-1,-1,-1,-1,-1,-1,-1,-1,-1,-1,-1,-1,-1,-1,-1,-1,-1,-1,-1,-1,-1,-1,-1,-1,-1,-1,-1,-1,-1,-1,-1,-1,-1,-1,-1,-1,-1,-1,-1,-1],"loss_changes":[4.3906325E-1,1.353867E-1,1.3931105E-1,1.8117972E-2,3.8253373E-1,1.753433E-1,2.6938325E-1,4.875846E-2,1.8779546E-2,9.5087243E-4,3.5625756E-1,3.4236085E-1,3.7914053E-2,3.5720712E-1,2.6712453E-1,9.092644E-3,1.765294E-4,1.3525859E-3,5.719547E-2,0E0,5.086077E-4,4.2221248E-1,1.4732218E-1,2.3815206E-1,2.1507457E-1,4.792791E-3,1.9903672E-1,4.0624586E-1,0E0,8.209631E-3,1.3877833E-1,6.148778E-4,2.7112622E-2,0E0,0E0,2.065152E-4,7.427167E-4,6.1791646E-3,2.6753733E-1,1.27516105E-5,0E0,0E0,0E0,2.0305677E-1,3.007247E-1,8.814166E-1,3.3658847E-1,0E0,1.23943806E-1,3.4474889E-3,8.991221E-4,2.5077045E-1,4.67027E-2,0E0,1.0618344E-1,5.097594E-5,5.7201507E-3,0E0,0E0,0E0,0E0,0E0,0E0,0E0,0E0,0E0,0E0,0E0,0E0,0E0,0E0,0E0,0E0,0E0,0E0,0E0,0E0,0E0,0E0,0E0,0E0,0E0,0E0,0E0,0E0,0E0,0E0,0E0,0E0,0E0,0E0,0E0,0E0,0E0,0E0,0E0,0E0],"parents":[2147483647,0,0,1,1,2,2,3,3,4,4,5,5,6,6,7,7,8,8,9,9,10,10,11,11,12,12,13,13,14,14,15,15,16,16,17,17,18,18,20,20,21,21,22,22,23,23,24,24,25,25,26,26,27,27,29,29,30,30,31,31,32,32,35,35,36,36,37,37,38,38,39,39,43,43,44,44,45,45,46,46,48,48,49,49,50,50,51,51,52,52,54,54,55,55,56,56],"right_children":[2,4,6,8,10,12,14,16,18,20,22,24,26,28,30,32,34,36,38,-1,40,42,44,46,48,50,52,54,-1,56,58,60,62,-1,-1,64,66,68,70,72,-1,-1,-1,74,76,78,80,-1,82,84,86,88,90,-1,92,94,96,-1,-1,-1,-1,-1,-1,-1,-1,-1,-1,-1,-1,-1,-1,-1,-1,-1,-1,-1,-1,-1,-1,-1,-1,-1,-1,-1,-1,-1,-1,-1,-1,-1,-1,-1,-1,-1,-1,-1,-1],"split_conditions":[1.0345459E-2,9.57489E-3,4.928589E-2,1.3389587E-3,4.4898987E-3,1.776123E-2,2.4475098E-2,1.3198853E-3,8.331299E-3,9.857178E-3,4.558563E-3,7.369995E-3,8.422852E-3,8.4991455E-3,2.0828247E-2,1.0238647E-2,6.484985E-5,3.9024353E-3,4.1160583E-3,-9.3540904E-4,3.8871765E-3,9.857178E-3,7.888794E-3,5.256653E-3,2.0065308E-2,1.838684E-2,1.838684E-2,4.7424316E-2,5.004334E-2,4.7424316E-2,2.5939941E-2,1.2390137E-2,1.3427734E-2,1.4631571E-4,-3.9968544E-4,9.689331E-4,4.787445E-3,3.9405823E-3,4.1770935E-3,2.2888184E-5,-8.424216E-4,5.7539612E-2,-1.1945617E-3,5.329132E-3,8.026123E-3,4.306793E-3,1.0406494E-2,4.795509E-2,1.7120361E-2,5.7525635E-3,1.6143799E-2,2.6794434E-2,2.0019531E-2,-1.2974465E-2,8.31604E-3,4.5898438E-2,2.5939941E-2,4.524186E-2,-1.923687E-4,-2.969691E-4,-7.6230767E-4,-9.356867E-4,-1.11604E-2,-2.5600693E-4,-3.125323E-4,-5.1610876E-4,-3.2660642E-4,-2.0724778E-4,-1.6241878E-3,3.1654507E-2,1.4291053E-3,-2.3052421E-4,-3.1103977E-4,1.1339181E-2,1.4114377E-4,3.4491766E-2,-1.8570264E-3,1.8371355E-3,5.6098986E-2,4.0432252E-2,-6.726225E-4,-3.2718596E-3,1.6850252E-2,-1.0167519E-3,-2.7833974E-3,-4.131108E-4,-6.8956474E-4,4.665956E-2,6.0014776E-3,5.2195573E-3,-2.886983E-4,-7.6503755E-4,3.4922034E-2,-5.163992E-4,1.1684734E-4,-6.890518E-3,-2.2420478E-4],"split_indices":[3,22,14,22,3,3,3,22,22,22,3,30,30,7,23,3,3,3,3,0,3,22,3,26,24,3,3,17,0,17,3,8,9,0,0,8,3,3,3,17,0,0,0,3,3,9,3,0,3,30,8,8,3,0,7,17,3,0,0,0,0,0,0,0,0,0,0,0,0,0,0,0,0,0,0,0,0,0,0,0,0,0,0,0,0,0,0,0,0,0,0,0,0,0,0,0,0],"split_type":[0,0,0,0,0,0,0,0,0,0,0,0,0,0,0,0,0,0,0,0,0,0,0,0,0,0,0,0,0,0,0,0,0,0,0,0,0,0,0,0,0,0,0,0,0,0,0,0,0,0,0,0,0,0,0,0,0,0,0,0,0,0,0,0,0,0,0,0,0,0,0,0,0,0,0,0,0,0,0,0,0,0,0,0,0,0,0,0,0,0,0,0,0,0,0,0,0],"sum_hessian":[2.7887E4,2.4765E4,3.122E3,2.4501E4,2.64E2,3.084E3,3.8E1,9.386E3,1.5115E4,1.84E2,8E1,2.276E3,8.08E2,1E1,2.8E1,4.48E3,4.906E3,1.4689E4,4.26E2,3E1,1.54E2,4E0,7.6E1,2.262E3,1.4E1,6.21E2,1.87E2,8E0,2E0,2.6E1,2E0,4.457E3,2.3E1,4.901E3,5E0,1.3506E4,1.183E3,2.93E2,1.33E2,1.38E2,1.6E1,2E0,2E0,6.8E1,8E0,1.747E3,5.15E2,1E0,1.3E1,8E1,5.41E2,9E0,1.78E2,4E0,4E0,2.1E1,5E0,1E0,1E0,4.429E3,2.8E1,2.1E1,2E0,1.2803E4,7.03E2,2.73E2,9.1E2,2.59E2,3.4E1,2E0,1.31E2,9.6E1,4.2E1,2.5E1,4.3E1,4E0,4E0,1.745E3,2E0,1E0,5.14E2,4E0,9E0,6.7E1,1.3E1,3.6E2,1.81E2,1E0,8E0,1.6E1,1.62E2,1E0,3E0,2E1,1E0,3E0,2E0],"tree_param":{"num_deleted":"0","num_feature":"32","num_nodes":"97","size_leaf_vector":"1"}},{"base_weights":[1.932957E-4,-3.6529958E-4,3.53271E-2,-1.0213001E-3,5.8794646E-3,1.614449E-1,2.5681673E-2,-1.2603686E-3,1.833014E-2,3.380115E-2,6.659375E-4,-2.3280427E-2,3.6003727E-1,-1.1002648E-2,3.727674E-2,-1.6062955E-3,7.0642265E-3,1.3497977E-2,1.108521E-1,2.484548E-2,1.0834197E-1,-1.4369156E-4,4.3560036E-2,-3.4943826E-3,-1.3741862E-3,2.3286015E-1,5.6781948E-2,-2.3775313E-2,-5.371468E-3,1.8180145E-1,3.236772E-2,-1.1053763E-3,-4.2341794E-3,9.077043E-2,5.4122284E-3,2.7152268E-2,-4.1020373E-3,4.389264E-2,-7.7436706E-3,-5.505832E-3,3.9616626E-2,-1.8121742E-2,2.7569538E-1,3.8011228E-3,-6.5064286E-3,4.0455207E-2,2.4421431E-2,2.9354587E-1,-2.6817082E-3,-1.2842185E-2,-2.716726E-2,-6.538554E-3,-2.8621132E-4,-1.8115573E-3,4.5767386E-2,-1.7587793E-4,4.5750957E-2,3.758116E-5,-2.1398766E-4,-4.1090316E-4,-1.391533E-3,-2.3682164E-4,1.7483203E-2,1.8622887E-3,-8.791397E-5,3.7536793E-3,-1.5208634E-3,-2.757218E-4,-1.3343447E-3,-1.2434059E-3,-9.809397E-5,-1.1589205E-3,1.5330816E-3,3.1505097E-2,3.2681287E-3,-1.6009437E-3,-3.5464682E-3,3.8892668E-2,-3.4460283E-3,1.8594078E-4,9.830098E-3,-1.382614E-3,-5.1188277E-4,-1.0873481E-3,7.281299E-3,-2.2694166E-3,3.3591267E-2,-2.6472224E-4,-1.3785653E-3,-3.5756107E-3,-1.970534E-3,-8.5593E-4,-5.421896E-4,-2.2836289E-4,-8.865965E-5,7.1320357E-3,-9.110709E-4,2.2067375E-2,3.3339665E-3],"categories":[],"categories_nodes":[],"categories_segments":[],"categories_sizes":[],"default_left":[0,0,0,0,0,0,0,0,0,0,0,0,0,0,0,0,0,0,0,0,0,0,0,0,0,0,0,0,0,0,0,0,0,0,0,0,0,0,0,0,0,0,0,0,0,0,0,0,0,0,0,0,0,0,0,0,0,0,0,0,0,0,0,0,0,0,0,0,0,0,0,0,0,0,0,0,0,0,0,0,0,0,0,0,0,0,0,0,0,0,0,0,0,0,0,0,0,0,0],"id":7,"left_children":[1,3,5,7,9,11,13,15,17,19,21,23,25,27,29,31,33,35,37,39,41,43,45,-1,-1,47,-1,49,51,53,55,57,59,61,63,65,67,-1,69,71,73,75,77,79,81,-1,83,85,-1,87,89,91,-1,93,-1,95,97,-1,-1,-1,-1,-1,-1,-1,-1,-1,-1,-1,-1,-1,-1,-1,-1,-1,-1,-1,-1,-1,-1,-1,-1,-1,-1,-1,-1,-1,-1,-1,-1,-1,-1,-1,-1,-1,-1,-1,-1,-1,-1],"loss_changes":[5.505103E-1,1.1312046E-1,5.2987975E-1,1.1562559E-1,3.8209996E-1,1.1456182E0,1.7438123E-1,7.109388E-2,1.3486351E-1,2.7301165E-1,7.686E-2,1.4110925E-3,2.6415455E-1,6.992885E-3,2.1476209E-1,3.1192988E-2,1.3571697E-1,7.004325E-2,5.8702224E-1,1.6609785E-1,9.362179E-1,5.4566633E-2,2.7338445E-1,0E0,0E0,1.8121773E-1,0E0,7.636491E-4,1.8629036E-4,5.0736666E-1,1.3154072E-1,3.0504089E-2,4.5395494E-3,1.491723E-1,8.038674E-2,7.271414E-2,1.5539967E-3,0E0,3.6844093E-4,1.5642034E-2,4.653511E-1,3.847042E-4,6.806699E-1,2.4606317E-1,8.37972E-3,0E0,6.9110766E-2,1.282059E-1,0E0,5.0073955E-5,7.0538E-4,5.9646787E-5,0E0,1.0318763E-6,0E0,5.7503585E-2,4.5724067E-1,0E0,0E0,0E0,0E0,0E0,0E0,0E0,0E0,0E0,0E0,0E0,0E0,0E0,0E0,0E0,0E0,0E0,0E0,0E0,0E0,0E0,0E0,0E0,0E0,0E0,0E0,0E0,0E0,0E0,0E0,0E0,0E0,0E0,0E0,0E0,0E0,0E0,0E0,0E0,0E0,0E0,0E0],"parents":[2147483647,0,0,1,1,2,2,3,3,4,4,5,5,6,6,7,7,8,8,9,9,10,10,11,11,12,12,13,13,14,14,15,15,16,16,17,17,18,18,19,19,20,20,21,21,22,22,25,25,27,27,28,28,29,29,30,30,31,31,32,32,33,33,34,34,35,35,36,36,38,38,39,39,40,40,41,41,42,42,43,43,44,44,46,46,47,47,49,49,50,50,51,51,53,53,55,55,56,56],"right_children":[2,4,6,8,10,12,14,16,18,20,22,24,26,28,30,32,34,36,38,40,42,44,46,-1,-1,48,-1,50,52,54,56,58,60,62,64,66,68,-1,70,72,74,76,78,80,82,-1,84,86,-1,88,90,92,-1,94,-1,96,98,-1,-1,-1,-1,-1,-1,-1,-1,-1,-1,-1,-1,-1,-1,-1,-1,-1,-1,-1,-1,-1,-1,-1,-1,-1,-1,-1,-1,-1,-1,-1,-1,-1,-1,-1,-1,-1,-1,-1,-1,-1,-1],"split_conditions":[5.7525635E-3,1.449585E-4,6.286621E-3,9.262085E-3,7.8582764E-4,2.6855469E-3,4.5776367E-3,7.9956055E-3,2.4719238E-3,1.8539429E-3,4.7721863E-3,4.5700073E-3,3.929138E-3,7.3394775E-3,2.0065308E-2,2.4795532E-5,8.056641E-3,9.857178E-3,2.7236938E-3,1.8043518E-3,6.4849854E-4,9.613037E-3,5.054474E-3,-3.4943826E-3,-1.3741862E-3,3.90625E-3,5.6781948E-2,3.501892E-3,7.6293945E-5,1.0284424E-2,8.239746E-3,1.3389587E-3,2.2888184E-5,4.7073364E-3,1.0284424E-2,1.2931824E-3,9.174347E-4,4.389264E-2,9.857178E-3,7.6293945E-5,2.1018982E-3,1.1444092E-5,1.3198853E-3,1.2298584E-2,1.0345459E-2,4.0455207E-2,2.4719238E-3,1.0528564E-2,-2.6817082E-3,4.348755E-4,1.3900757E-2,8.255005E-3,-2.8621132E-4,8.712769E-3,4.5767386E-2,2.2384644E-2,9.0789795E-3,3.758116E-5,-2.1398766E-4,-4.1090316E-4,-1.391533E-3,-2.3682164E-4,1.7483203E-2,1.8622887E-3,-8.791397E-5,3.7536793E-3,-1.5208634E-3,-2.757218E-4,-1.3343447E-3,-1.2434059E-3,-9.809397E-5,-1.1589205E-3,1.5330816E-3,3.1505097E-2,3.2681287E-3,-1.6009437E-3,-3.5464682E-3,3.8892668E-2,-3.4460283E-3,1.8594078E-4,9.830098E-3,-1.382614E-3,-5.1188277E-4,-1.0873481E-3,7.281299E-3,-2.2694166E-3,3.3591267E-2,-2.6472224E-4,-1.3785653E-3,-3.5756107E-3,-1.970534E-3,-8.5593E-4,-5.421896E-4,-2.2836289E-4,-8.865965E-5,7.1320357E-3,-9.110709E-4,2.2067375E-2,3.3339665E-3],"split_indices":[30,17,26,22,17,7,7,12,12,26,9,26,7,26,24,12,12,22,12,22,17,12,9,0,0,7,0,7,23,12,30,22,17,22,12,12,12,0,22,26,22,9,12,17,12,0,12,12,0,7,12,26,0,7,0,24,26,0,0,0,0,0,0,0,0,0,0,0,0,0,0,0,0,0,0,0,0,0,0,0,0,0,0,0,0,0,0,0,0,0,0,0,0,0,0,0,0,0,0],"split_type":[0,0,0,0,0,0,0,0,0,0,0,0,0,0,0,0,0,0,0,0,0,0,0,0,0,0,0,0,0,0,0,0,0,0,0,0,0,0,0,0,0,0,0,0,0,0,0,0,0,0,0,0,0,0,0,0,0,0,0,0,0,0,0,0,0,0,0,0,0,0,0,0,0,0,0,0,0,0,0,0,0,0,0,0,0,0,0,0,0,0,0,0,0,0,0,0,0,0,0],"sum_hessian":[2.8049E4,2.7611E4,4.38E2,2.4987E4,2.624E3,3E1,4.08E2,2.4683E4,3.04E2,4.12E2,2.212E3,1.6E1,1.4E1,9.8E1,3.1E2,2.3699E4,9.84E2,2.9E2,1.4E1,3.69E2,4.3E1,2.172E3,4E1,6E0,1E1,1E1,4E0,2.9E1,6.9E1,9E0,3.01E2,1.9906E4,3.793E3,1.8E1,9.66E2,1.63E2,1.27E2,3E0,1.1E1,1.21E2,2.48E2,2.5E1,1.8E1,1.341E3,8.31E2,1E0,3.9E1,8E0,2E0,8E0,2.1E1,4.6E1,2.3E1,6E0,3E0,8.8E1,2.13E2,8.186E3,1.172E4,3.746E3,4.7E1,9E0,9E0,3.11E2,6.55E2,1.31E2,3.2E1,1.12E2,1.5E1,6E0,5E0,9.4E1,2.7E1,5E0,2.43E2,2.4E1,1E0,1.3E1,5E0,1.315E3,2.6E1,1.31E2,7E2,2.3E1,1.6E1,1E0,7E0,1E0,7E0,8E0,1.3E1,1.4E1,3.2E1,3E0,3E0,9E0,7.9E1,1.3E1,2E2],"tree_param":{"num_deleted":"0","num_feature":"32","num_nodes":"99","size_leaf_vector":"1"}},{"base_weights":[2.412931E-4,-1.0217685E-3,1.4777672E-2,-1.377939E-3,1.1520168E-2,1.2142109E-2,9.512124E-2,-1.4526655E-3,5.3687762E-2,-4.6726665E-3,3.7117083E-2,9.855023E-3,7.770601E-2,4.746537E-2,7.139696E-2,-1.325768E-3,-6.3033295E-3,-5.2465447E-3,1.9565475E-1,-5.8295024E-3,-2.3269905E-3,6.2135812E-2,1.5505519E-3,3.043121E-2,4.344693E-3,1.7061941E-1,-7.670271E-3,1.0552376E-1,-2.2168137E-2,-1.3649958E-3,7.2364755E-2,-7.6358127E-3,1.554689E-2,-1.4765079E-4,-1.1784777E-2,3.322437E-1,-7.3829456E-3,-4.495968E-3,-9.307168E-3,-1.7992103E-4,-3.5095895E-3,7.456344E-2,-5.738084E-3,-5.279827E-3,1.9241352E-1,2.2310562E-2,4.6920255E-1,-9.034421E-3,9.909892E-3,-1.5911357E-2,2.686316E-1,-1.83943E-3,-6.9039995E-3,6.1804265E-2,7.1292914E-2,-2.464794E-3,-7.265366E-5,-1.5297401E-4,4.750179E-4,-2.8475138E-4,4.87456E-2,-3.6494562E-4,-1.3272497E-3,3.8432445E-2,-5.372611E-4,-7.990419E-4,-2.106982E-3,1.2136759E-2,5.0266396E-2,-1.4452507E-3,-2.0024288E-4,-4.6490002E-4,-2.1660079E-4,-7.4734323E-4,-1.1568299E-3,-5.523671E-4,-2.9792584E-4,3.4195264E-3,1.21437255E-2,-2.944443E-4,-6.4289547E-4,1.4032068E-3,-1.3179987E-3,2.6043503E-2,-5.825471E-4,1.513474E-3,1.18918875E-2,6.485804E-2,3.013132E-2,-6.354904E-4,-1.8722238E-3,9.073547E-4,4.937987E-2,-2.6613388E-3,-5.8959174E-4,6.1638176E-2,1.629799E-2,-8.1745296E-4,-5.486213E-4,5.395885E-3,3.1331763E-2],"categories":[],"categories_nodes":[],"categories_segments":[],"categories_sizes":[],"default_left":[0,0,0,0,0,0,0,0,0,0,0,0,0,0,0,0,0,0,0,0,0,0,0,0,0,0,0,0,0,0,0,0,0,0,0,0,0,0,0,0,0,0,0,0,0,0,0,0,0,0,0,0,0,0,0,0,0,0,0,0,0,0,0,0,0,0,0,0,0,0,0,0,0,0,0,0,0,0,0,0,0,0,0,0,0,0,0,0,0,0,0,0,0,0,0,0,0,0,0,0,0],"id":8,"left_children":[1,3,5,7,9,11,13,15,17,19,21,23,25,-1,27,29,31,33,35,37,39,41,43,45,47,49,51,53,55,57,59,61,63,-1,65,67,69,71,73,-1,75,77,79,81,83,85,87,89,91,93,95,-1,97,-1,99,-1,-1,-1,-1,-1,-1,-1,-1,-1,-1,-1,-1,-1,-1,-1,-1,-1,-1,-1,-1,-1,-1,-1,-1,-1,-1,-1,-1,-1,-1,-1,-1,-1,-1,-1,-1,-1,-1,-1,-1,-1,-1,-1,-1,-1,-1],"loss_changes":[5.1445353E-1,1.1517687E-1,4.731662E-1,1.0323378E-1,2.9528788E-1,3.246263E-1,6.0540473E-1,1.5402254E-2,2.8549522E-1,1.1722604E-3,2.4549657E-1,2.377423E-1,5.803886E-1,0E0,2.1946853E-1,7.062958E-2,1.8694116E-2,5.9883407E-4,2.7978E-1,1.3123313E-3,8.4811705E-5,1.3707674E-1,1.5093756E-1,1.5679883E0,1.2339106E-1,6.4415455E-1,1.9348902E-4,8.331356E-1,9.9234E-4,2.4575703E-2,4.0724745E-1,1.3478398E-2,2.875066E-1,0E0,1.4872034E-4,1.5461826E-1,1.6124934E-4,6.58771E-5,2.452503E-4,0E0,3.054127E-5,2.5508028E-1,3.125146E-5,1.7272452E-2,5.5455193E-2,3.0045465E-1,4.5499325E-2,1.2522895E-2,4.6901625E-1,1.2365018E-3,7.445713E-1,0E0,2.3603672E-5,0E0,1.8446682E-1,0E0,0E0,0E0,0E0,0E0,0E0,0E0,0E0,0E0,0E0,0E0,0E0,0E0,0E0,0E0,0E0,0E0,0E0,0E0,0E0,0E0,0E0,0E0,0E0,0E0,0E0,0E0,0E0,0E0,0E0,0E0,0E0,0E0,0E0,0E0,0E0,0E0,0E0,0E0,0E0,0E0,0E0,0E0,0E0,0E0,0E0],"parents":[2147483647,0,0,1,1,2,2,3,3,4,4,5,5,6,6,7,7,8,8,9,9,10,10,11,11,12,12,14,14,15,15,16,16,17,17,18,18,19,19,20,20,21,21,22,22,23,23,24,24,25,25,26,26,27,27,28,28,29,29,30,30,31,31,32,32,34,34,35,35,36,36,37,37,38,38,40,40,41,41,42,42,43,43,44,44,45,45,46,46,47,47,48,48,49,49,50,50,52,52,54,54],"right_children":[2,4,6,8,10,12,14,16,18,20,22,24,26,-1,28,30,32,34,36,38,40,42,44,46,48,50,52,54,56,58,60,62,64,-1,66,68,70,72,74,-1,76,78,80,82,84,86,88,90,92,94,96,-1,98,-1,100,-1,-1,-1,-1,-1,-1,-1,-1,-1,-1,-1,-1,-1,-1,-1,-1,-1,-1,-1,-1,-1,-1,-1,-1,-1,-1,-1,-1,-1,-1,-1,-1,-1,-1,-1,-1,-1,-1,-1,-1,-1,-1,-1,-1,-1,-1],"split_conditions":[1.2680054E-2,8.331299E-3,5.0735474E-3,1.3427734E-2,3.9024353E-3,4.8065186E-2,3.189087E-3,8.926392E-3,1.0238647E-2,9.857178E-3,1.001358E-3,2.4719238E-3,1.158905E-2,4.746537E-2,8.056641E-3,8.773804E-3,4.886627E-3,9.32312E-3,1.0665894E-2,9.262085E-3,2.2888184E-5,5.5503845E-3,4.0512085E-3,1.7662048E-3,4.5776367E-4,9.750366E-3,4.562378E-3,1.3397217E-2,1.3656616E-2,1.0345459E-2,1.0406494E-2,1.0238647E-2,5.054474E-3,-1.4765079E-4,1.876831E-2,1.0345459E-2,1.0757446E-2,2.4795532E-5,9.57489E-3,-1.7992103E-4,5.41687E-4,4.4441223E-3,5.9165955E-3,1.2931824E-3,9.613037E-3,9.536743E-5,1.5823364E-2,8.277893E-4,5.378723E-4,2.305603E-2,2.305603E-2,-1.83943E-3,3.353882E-2,6.1804265E-2,1.4266968E-2,-2.464794E-3,-7.265366E-5,-1.5297401E-4,4.750179E-4,-2.8475138E-4,4.87456E-2,-3.6494562E-4,-1.3272497E-3,3.8432445E-2,-5.372611E-4,-7.990419E-4,-2.106982E-3,1.2136759E-2,5.0266396E-2,-1.4452507E-3,-2.0024288E-4,-4.6490002E-4,-2.1660079E-4,-7.4734323E-4,-1.1568299E-3,-5.523671E-4,-2.9792584E-4,3.4195264E-3,1.21437255E-2,-2.944443E-4,-6.4289547E-4,1.4032068E-3,-1.3179987E-3,2.6043503E-2,-5.825471E-4,1.513474E-3,1.18918875E-2,6.485804E-2,3.013132E-2,-6.354904E-4,-1.8722238E-3,9.073547E-4,4.937987E-2,-2.6613388E-3,-5.8959174E-4,6.1638176E-2,1.629799E-2,-8.1745296E-4,-5.486213E-4,5.395885E-3,3.1331763E-2],"split_indices":[3,22,22,9,3,14,14,14,3,22,12,12,30,0,12,14,9,3,3,22,17,3,8,22,17,23,23,3,3,3,3,3,9,0,9,3,3,12,22,0,17,3,3,12,3,22,3,22,9,3,3,0,8,0,3,0,0,0,0,0,0,0,0,0,0,0,0,0,0,0,0,0,0,0,0,0,0,0,0,0,0,0,0,0,0,0,0,0,0,0,0,0,0,0,0,0,0,0,0,0,0],"split_type":[0,0,0,0,0,0,0,0,0,0,0,0,0,0,0,0,0,0,0,0,0,0,0,0,0,0,0,0,0,0,0,0,0,0,0,0,0,0,0,0,0,0,0,0,0,0,0,0,0,0,0,0,0,0,0,0,0,0,0,0,0,0,0,0,0,0,0,0,0,0,0,0,0,0,0,0,0,0,0,0,0,0,0,0,0,0,0,0,0,0,0,0,0,0,0,0,0,0,0,0,0],"sum_hessian":[2.8018E4,2.5779E4,2.239E3,2.5068E4,7.11E2,2.169E3,7E1,2.5035E4,3.3E1,4.36E2,2.75E2,2.097E3,7.2E1,3E0,6.7E1,2.4398E4,6.37E2,2.4E1,9E0,2.91E2,1.45E2,1.61E2,1.14E2,4.42E2,1.655E3,3.4E1,3.8E1,4.9E1,1.8E1,2.4386E4,1.2E1,6.01E2,3.6E1,1.6E1,8E0,5E0,4E0,2.12E2,7.9E1,1.02E2,4.3E1,1.36E2,2.5E1,1.11E2,3E0,4.35E2,7E0,4.86E2,1.169E3,1.2E1,2.2E1,1E0,3.7E1,2E0,4.7E1,1.6E1,2E0,2.3747E4,6.39E2,1.1E1,1E0,3.53E2,2.48E2,1E0,3.5E1,7E0,1E0,3E0,2E0,1E0,3E0,1.98E2,1.4E1,4.6E1,3.3E1,7E0,3.6E1,7.4E1,6.2E1,6E0,1.9E1,3.2E1,7.9E1,2E0,1E0,4.06E2,2.9E1,2E0,5E0,3.82E2,1.04E2,1.168E3,1E0,5E0,7E0,4E0,1.8E1,1.7E1,2E1,4.5E1,2E0],"tree_param":{"num_deleted":"0","num_feature":"32","num_nodes":"101","size_leaf_vector":"1"}},{"base_weights":[-9.41905E-5,-1.1852261E-3,7.1669784E-3,-1.4790527E-3,1.74989E-2,6.2632873E-3,5.3398125E-2,-1.7138837E-3,6.5660854E-3,3.0400686E-2,-4.810641E-3,6.058392E-3,1.5192029E-1,2.6082182E-2,2.1468554E-1,-1.5429833E-3,-7.6546976E-3,1.11180075E-1,-1.0225911E-3,1.3066547E-2,6.2230743E-2,-4.2696977E-3,-3.9730403E-3,3.2614563E-3,1.6450606E-2,-2.680633E-2,4.334134E-2,1.8292621E-1,-1.6061788E-2,5.161194E-2,7.4812144E-2,-1.5833693E-3,4.6623025E-2,-3.0589812E-3,-1.1549756E-2,3.1116265E-1,7.920262E-2,9.080466E-2,-2.3390548E-3,2.984892E-2,-1.0270764E-2,1.03668585E-1,2.7403748E-2,-1.9848896E-3,-1.0452962E-2,-7.2619366E-3,5.4284944E-3,-4.9163783E-3,3.3576097E-2,-1.2963035E-4,-3.4877572E-3,-1.8197434E-2,4.2060336E-1,-1.0373433E-1,1.0201673E-3,-5.5554286E-2,1.6414286E-1,-1.5068093E-4,-6.0846814E-4,-5.6069717E-4,4.9338147E-2,-4.3642498E-4,-2.5562823E-4,-1.2753125E-3,-7.794728E-4,-1.8891763E-3,6.475144E-2,1.1319357E-2,-2.37903E-3,1.7263455E-2,-9.1861543E-4,1.6019385E-3,-3.7520748E-4,3.4024515E-3,-3.61216E-4,-1.9063223E-3,-4.4445516E-4,-1.0005526E-3,1.9616695E-2,1.3373062E-4,1.5431049E-2,-1.6525536E-4,-3.2648398E-4,-1.2654187E-3,-2.1986826E-4,-3.5953542E-4,-9.97573E-4,2.2691034E-3,3.665619E-4,-3.8741052E-4,-1.1154449E-3,2.3631593E-2,2.3958196E-3,-2.4070526E-3,-6.3067116E-4,5.246632E-2,1.4165579E-2,-1.7474585E-3,-1.1356078E-2,9.903598E-4,-1.1776563E-2,-7.1936212E-3,-3.2042572E-4,4.1998167E-2,-4.8122532E-4],"categories":[],"categories_nodes":[],"categories_segments":[],"categories_sizes":[],"default_left":[0,0,0,0,0,0,0,0,0,0,0,0,0,0,0,0,0,0,0,0,0,0,0,0,0,0,0,0,0,0,0,0,0,0,0,0,0,0,0,0,0,0,0,0,0,0,0,0,0,0,0,0,0,0,0,0,0,0,0,0,0,0,0,0,0,0,0,0,0,0,0,0,0,0,0,0,0,0,0,0,0,0,0,0,0,0,0,0,0,0,0,0,0,0,0,0,0,0,0,0,0,0,0,0,0],"id":9,"left_children":[1,3,5,7,9,11,13,15,17,19,21,23,25,27,29,31,33,35,37,39,41,43,-1,45,47,49,-1,51,53,-1,55,57,59,61,63,65,67,69,71,73,75,77,79,81,83,85,87,89,91,-1,-1,93,95,97,99,101,103,-1,-1,-1,-1,-1,-1,-1,-1,-1,-1,-1,-1,-1,-1,-1,-1,-1,-1,-1,-1,-1,-1,-1,-1,-1,-1,-1,-1,-1,-1,-1,-1,-1,-1,-1,-1,-1,-1,-1,-1,-1,-1,-1,-1,-1,-1,-1,-1],"loss_changes":[2.2184575E-1,1.3367733E-1,1.5249194E-1,4.5294654E-2,1.0865926E-1,1.06191084E-1,3.0280077E-1,2.3634225E-2,5.399533E-1,1.3105428E-1,2.4560187E-3,1.0414924E-1,2.6316977E-1,4.0614998E-1,3.8301384E-1,4.411384E-2,1.1617951E-2,2.69522E-1,7.6975785E-2,6.1404824E-2,1.1838415E-1,1.9288568E-3,0E0,6.448521E-2,2.7826434E-1,7.7837845E-4,0E0,6.290864E-1,7.348913E-2,0E0,1.02284655E-1,7.7868477E-3,4.4611603E-1,1.8569082E-4,1.4911704E-3,6.78319E-1,1.4622685E-1,7.522598E-2,1.6325017E-2,1.283741E-2,3.2962374E-3,4.0152013E-1,1.5526998E-1,3.799281E-5,6.444501E-4,4.7701504E-3,7.1248755E-2,2.1608882E-3,8.172095E-1,0E0,0E0,4.0687667E-4,9.984183E-2,4.7965944E-3,4.5485765E-2,3.1998744E-3,2.1814743E-1,0E0,0E0,0E0,0E0,0E0,0E0,0E0,0E0,0E0,0E0,0E0,0E0,0E0,0E0,0E0,0E0,0E0,0E0,0E0,0E0,0E0,0E0,0E0,0E0,0E0,0E0,0E0,0E0,0E0,0E0,0E0,0E0,0E0,0E0,0E0,0E0,0E0,0E0,0E0,0E0,0E0,0E0,0E0,0E0,0E0,0E0,0E0,0E0],"parents":[2147483647,0,0,1,1,2,2,3,3,4,4,5,5,6,6,7,7,8,8,9,9,10,10,11,11,12,12,13,13,14,14,15,15,16,16,17,17,18,18,19,19,20,20,21,21,23,23,24,24,25,25,27,27,28,28,30,30,31,31,32,32,33,33,34,34,35,35,36,36,37,37,38,38,39,39,40,40,41,41,42,42,43,43,44,44,45,45,46,46,47,47,48,48,51,51,52,52,53,53,54,54,55,55,56,56],"right_children":[2,4,6,8,10,12,14,16,18,20,22,24,26,28,30,32,34,36,38,40,42,44,-1,46,48,50,-1,52,54,-1,56,58,60,62,64,66,68,70,72,74,76,78,80,82,84,86,88,90,92,-1,-1,94,96,98,100,102,104,-1,-1,-1,-1,-1,-1,-1,-1,-1,-1,-1,-1,-1,-1,-1,-1,-1,-1,-1,-1,-1,-1,-1,-1,-1,-1,-1,-1,-1,-1,-1,-1,-1,-1,-1,-1,-1,-1,-1,-1,-1,-1,-1,-1,-1,-1,-1,-1],"split_conditions":[3.8452148E-3,8.872986E-3,4.8065186E-2,1.2390137E-2,9.857178E-3,1.4968872E-2,6.072998E-2,5.5999756E-3,9.002686E-3,9.57489E-3,2.4414062E-3,9.536743E-5,1.1383057E-2,1.4701843E-2,8.4991455E-3,5.4473877E-3,1.449585E-4,2.456665E-3,1.2481689E-2,2.4795532E-5,1.001358E-3,3.9100647E-4,-3.9730403E-3,7.7819824E-3,3.4561157E-3,2.1438599E-3,4.334134E-2,8.392334E-3,1.5716553E-2,5.161194E-2,2.0584106E-2,2.5939941E-3,9.613037E-4,1.0284424E-2,2.2888184E-5,2.4414062E-3,8.651733E-3,1.6899109E-3,1.0223389E-2,3.0517578E-5,5.3215027E-4,2.4795532E-5,2.6359558E-3,2.2888184E-5,1.4190674E-3,1.373291E-4,9.20105E-3,1.7776489E-3,1.18255615E-4,-1.2963035E-4,-3.4877572E-3,1.0070801E-2,1.1276245E-2,8.148193E-3,4.925537E-2,8.560181E-3,8.636475E-3,-1.5068093E-4,-6.0846814E-4,-5.6069717E-4,4.9338147E-2,-4.3642498E-4,-2.5562823E-4,-1.2753125E-3,-7.794728E-4,-1.8891763E-3,6.475144E-2,1.1319357E-2,-2.37903E-3,1.7263455E-2,-9.1861543E-4,1.6019385E-3,-3.7520748E-4,3.4024515E-3,-3.61216E-4,-1.9063223E-3,-4.4445516E-4,-1.0005526E-3,1.9616695E-2,1.3373062E-4,1.5431049E-2,-1.6525536E-4,-3.2648398E-4,-1.2654187E-3,-2.1986826E-4,-3.5953542E-4,-9.97573E-4,2.2691034E-3,3.665619E-4,-3.8741052E-4,-1.1154449E-3,2.3631593E-2,2.3958196E-3,-2.4070526E-3,-6.3067116E-4,5.246632E-2,1.4165579E-2,-1.7474585E-3,-1.1356078E-2,9.903598E-4,-1.1776563E-2,-7.1936212E-3,-3.2042572E-4,4.1998167E-2,-4.8122532E-4],"split_indices":[14,22,14,8,22,7,24,8,12,22,8,22,12,26,7,8,14,14,8,12,12,12,0,14,8,8,0,7,26,0,23,8,17,12,17,14,12,22,12,10,12,12,12,17,12,8,14,26,12,0,0,0,23,7,17,7,7,0,0,0,0,0,0,0,0,0,0,0,0,0,0,0,0,0,0,0,0,0,0,0,0,0,0,0,0,0,0,0,0,0,0,0,0,0,0,0,0,0,0,0,0,0,0,0,0],"split_type":[0,0,0,0,0,0,0,0,0,0,0,0,0,0,0,0,0,0,0,0,0,0,0,0,0,0,0,0,0,0,0,0,0,0,0,0,0,0,0,0,0,0,0,0,0,0,0,0,0,0,0,0,0,0,0,0,0,0,0,0,0,0,0,0,0,0,0,0,0,0,0,0,0,0,0,0,0,0,0,0,0,0,0,0,0,0,0,0,0,0,0,0,0,0,0,0,0,0,0,0,0,0,0,0,0],"sum_hessian":[2.8001E4,2.4344E4,3.657E3,2.3968E4,3.76E2,3.588E3,6.9E1,2.3289E4,6.79E2,2.38E2,1.38E2,3.584E3,4E0,6E1,9E0,2.2639E4,6.5E2,4.5E1,6.34E2,1.55E2,8.3E1,1.37E2,1E0,2.825E3,7.59E2,3E0,1E0,1.2E1,4.8E1,2E0,7E0,2.2621E4,1.8E1,2.99E2,3.51E2,5E0,4E1,8E0,6.26E2,9E1,6.5E1,3.7E1,4.6E1,1.01E2,3.6E1,4.82E2,2.343E3,3.38E2,4.21E2,1E0,2E0,7E0,5E0,7E0,4.1E1,3E0,4E0,2.2244E4,3.77E2,1.7E1,1E0,8.1E1,2.18E2,2.64E2,8.7E1,3E0,2E0,3E1,1E1,4E0,4E0,4.4E1,5.82E2,8E1,1E1,2.5E1,4E1,1.7E1,2E1,3.9E1,7E0,8.2E1,1.9E1,2.8E1,8E0,2.06E2,2.76E2,2.16E2,2.127E3,2.91E2,4.7E1,1.8E1,4.03E2,4E0,3E0,3E0,2E0,1E0,6E0,3.9E1,2E0,2E0,1E0,1E0,3E0],"tree_param":{"num_deleted":"0","num_feature":"32","num_nodes":"105","size_leaf_vector":"1"}},{"base_weights":[3.974389E-5,-2.3900853E-4,4.7243845E-2,-9.3744905E-4,7.710802E-3,4.05861E-2,3.1056732E-2,-1.2166095E-3,8.669913E-3,5.238711E-3,6.417128E-2,-2.6117E-3,7.802806E-2,-1.2603551E-3,4.2203207E-2,-5.5305036E-3,3.4485243E-2,1.061209E-2,-4.993007E-3,1.8676896E-1,3.062294E-2,9.656424E-2,-1.05613535E-2,3.5998458E-1,4.383266E-2,-1.0350773E-3,-4.618326E-3,-6.981365E-3,2.4033776E-1,-4.539923E-3,-2.6305195E-2,7.458332E-2,1.1149629E-2,3.3187773E-2,4.634994E-3,-7.0227827E-3,1.8161995E-2,2.321411E-1,-5.2754874E-3,7.035357E-2,-2.8038388E-2,-4.8487205E-3,3.0612856E-1,-9.572824E-3,-1.9126479E-2,-3.5199597E-3,5.2509822E-2,1.14013664E-1,1.1040476E-2,-1.258945E-4,1.8443641E-3,-2.757612E-4,-8.4927306E-4,-1.687503E-4,-1.2635862E-3,-4.4380277E-4,3.0264122E-2,-5.838424E-4,-2.1125008E-4,-1.6143419E-3,-3.1316795E-3,6.618131E-3,4.279852E-2,-2.989399E-3,2.7055196E-3,-1.7117087E-3,9.459007E-3,-8.4206295E-5,3.6893971E-3,-6.469869E-4,-5.9415265E-3,3.5895582E-2,-1.2590347E-3,5.6929357E-2,1.4923455E-2,1.122256E-2,-4.134878E-3,-4.728739E-3,-1.801437E-3,4.696955E-2,-1.0502655E-3,-4.0447337E-4,-1.02166E-3,-2.6373195E-3,-5.2864646E-4,-3.6683646E-3,2.269466E-2,-5.9694896E-4,1.7412752E-2],"categories":[],"categories_nodes":[],"categories_segments":[],"categories_sizes":[],"default_left":[0,0,0,0,0,0,0,0,0,0,0,0,0,0,0,0,0,0,0,0,0,0,0,0,0,0,0,0,0,0,0,0,0,0,0,0,0,0,0,0,0,0,0,0,0,0,0,0,0,0,0,0,0,0,0,0,0,0,0,0,0,0,0,0,0,0,0,0,0,0,0,0,0,0,0,0,0,0,0,0,0,0,0,0,0,0,0,0,0],"id":10,"left_children":[1,3,5,7,9,-1,11,13,15,17,19,21,23,25,27,29,31,33,35,37,39,41,43,45,47,49,51,53,55,57,59,61,63,65,67,69,71,73,-1,75,77,-1,79,81,83,-1,-1,85,87,-1,-1,-1,-1,-1,-1,-1,-1,-1,-1,-1,-1,-1,-1,-1,-1,-1,-1,-1,-1,-1,-1,-1,-1,-1,-1,-1,-1,-1,-1,-1,-1,-1,-1,-1,-1,-1,-1,-1,-1],"loss_changes":[3.6758718E-1,1.542104E-1,9.394114E-1,6.848189E-2,3.127315E-1,0E0,2.5007302E-1,4.717796E-2,2.6450095E-1,1.1825763E-1,3.8089773E-1,7.434239E-2,6.2056756E-1,1.8745244E-2,2.4530697E-1,9.470396E-3,2.38711E-1,1.9010739E-1,3.4954153E-2,2.2960079E-1,1.7677145E-1,2.2762659E-1,5.535232E-4,4.7523516E-1,1.3682455E-1,1.0131691E-1,1.1208449E-2,6.0729356E-4,7.7595025E-2,1.3934635E-3,5.6390185E-4,2.5078833E-1,1.0721878E-1,9.128251E-1,1.9721071E-1,1.9372143E-2,6.333319E-1,3.9022833E-1,0E0,2.1511455E-1,5.1296707E-3,0E0,1.6030422E-1,2.4338486E-4,6.6293613E-4,0E0,0E0,3.3168027E-1,1.1755186E-1,0E0,0E0,0E0,0E0,0E0,0E0,0E0,0E0,0E0,0E0,0E0,0E0,0E0,0E0,0E0,0E0,0E0,0E0,0E0,0E0,0E0,0E0,0E0,0E0,0E0,0E0,0E0,0E0,0E0,0E0,0E0,0E0,0E0,0E0,0E0,0E0,0E0,0E0,0E0,0E0],"parents":[2147483647,0,0,1,1,2,2,3,3,4,4,6,6,7,7,8,8,9,9,10,10,11,11,12,12,13,13,14,14,15,15,16,16,17,17,18,18,19,19,20,20,21,21,22,22,23,23,24,24,25,25,26,26,27,27,28,28,29,29,30,30,31,31,32,32,33,33,34,34,35,35,36,36,37,37,39,39,40,40,42,42,43,43,44,44,47,47,48,48],"right_children":[2,4,6,8,10,-1,12,14,16,18,20,22,24,26,28,30,32,34,36,38,40,42,44,46,48,50,52,54,56,58,60,62,64,66,68,70,72,74,-1,76,78,-1,80,82,84,-1,-1,86,88,-1,-1,-1,-1,-1,-1,-1,-1,-1,-1,-1,-1,-1,-1,-1,-1,-1,-1,-1,-1,-1,-1,-1,-1,-1,-1,-1,-1,-1,-1,-1,-1,-1,-1,-1,-1,-1,-1,-1,-1],"split_conditions":[9.651184E-3,1.2237549E-2,2.0019531E-2,8.331299E-3,4.924774E-3,4.05861E-2,4.1809082E-2,1.4831543E-2,3.9787292E-3,1.7623901E-2,3.4637451E-3,2.06604E-2,2.305603E-2,2.8839111E-3,1.8463135E-2,3.9024353E-3,3.5476685E-4,2.8572083E-3,8.621216E-3,1.3397217E-2,7.572174E-3,2.1484375E-2,4.7058105E-2,9.750366E-3,2.5939941E-2,1.0345459E-2,1.0238647E-2,1.6204834E-2,9.887695E-3,9.857178E-3,9.262085E-3,3.2615662E-4,5.268097E-3,1.5365601E-2,4.135132E-3,8.422852E-3,8.682251E-3,8.056641E-3,-5.2754874E-3,5.9928894E-3,8.056641E-3,-4.8487205E-3,4.4952393E-2,4.40979E-3,1.1100769E-2,-3.5199597E-3,5.2509822E-2,1.43585205E-2,1.4968872E-2,-1.258945E-4,1.8443641E-3,-2.757612E-4,-8.4927306E-4,-1.687503E-4,-1.2635862E-3,-4.4380277E-4,3.0264122E-2,-5.838424E-4,-2.1125008E-4,-1.6143419E-3,-3.1316795E-3,6.618131E-3,4.279852E-2,-2.989399E-3,2.7055196E-3,-1.7117087E-3,9.459007E-3,-8.4206295E-5,3.6893971E-3,-6.469869E-4,-5.9415265E-3,3.5895582E-2,-1.2590347E-3,5.6929357E-2,1.4923455E-2,1.122256E-2,-4.134878E-3,-4.728739E-3,-1.801437E-3,4.696955E-2,-1.0502655E-3,-4.0447337E-4,-1.02166E-3,-2.6373195E-3,-5.2864646E-4,-3.6683646E-3,2.269466E-2,-5.9694896E-4,1.7412752E-2],"split_indices":[30,3,3,22,22,0,17,9,3,3,14,3,3,14,14,3,12,12,30,3,12,12,24,23,3,3,3,14,3,22,22,12,3,3,30,30,30,12,0,22,12,0,14,7,30,0,0,23,7,0,0,0,0,0,0,0,0,0,0,0,0,0,0,0,0,0,0,0,0,0,0,0,0,0,0,0,0,0,0,0,0,0,0,0,0,0,0,0,0],"split_type":[0,0,0,0,0,0,0,0,0,0,0,0,0,0,0,0,0,0,0,0,0,0,0,0,0,0,0,0,0,0,0,0,0,0,0,0,0,0,0,0,0,0,0,0,0,0,0,0,0,0,0,0,0,0,0,0,0,0,0,0,0,0,0,0,0,0,0,0,0,0,0,0,0,0,0,0,0,0,0,0,0,0,0,0,0,0,0,0,0],"sum_hessian":[2.7934E4,2.7771E4,1.63E2,2.5529E4,2.242E3,6E0,1.57E2,2.4809E4,7.2E2,2.149E3,9.3E1,9.2E1,6.5E1,2.4785E4,2.4E1,4.65E2,2.55E2,1.409E3,7.4E2,1.9E1,7.4E1,6E0,8.6E1,6E0,5.9E1,2.3228E4,1.557E3,2E1,4E0,4.45E2,2E1,9.3E1,1.62E2,2.94E2,1.115E3,6.81E2,5.9E1,1.6E1,3E0,4.4E1,3E1,4E0,2E0,7.9E1,7E0,2E0,4E0,1.8E1,4.1E1,2.2965E4,2.63E2,1.053E3,5.04E2,1.1E1,9E0,1E0,3E0,2.89E2,1.56E2,8E0,1.2E1,9.2E1,1E0,4.5E1,1.17E2,1.62E2,1.32E2,9.54E2,1.61E2,6.75E2,6E0,4E0,5.5E1,2E0,1.4E1,3.2E1,1.2E1,9E0,2.1E1,1E0,1E0,9E0,7E1,4E0,3E0,8E0,1E1,3.8E1,3E0],"tree_param":{"num_deleted":"0","num_feature":"32","num_nodes":"89","size_leaf_vector":"1"}}]},"name":"gbtree"},"learner_model_param":{"base_score":"[4.5401333E-3]","boost_from_average":"1","num_class":"0","num_feature":"32","num_target":"1"},"objective":{"name":"reg:squarederror","reg_loss_param":{"scale_pos_weight":"1"}}},"version":[3,1,2]}