{"learner":{"attributes":{"best_iteration":"0","best_score":"0.00474967195269678"},"feature_names":[],"feature_types":[],"gradient_booster":{"model":{"cats":{"enc":[],"feature_segments":[],"sorted_idx":[]},"gbtree_model_param":{"num_parallel_tree":"1","num_trees":"11"},"iteration_indptr":[0,1,2,3,4,5,6,7,8,9,10,11],"tree_info":[0,0,0,0,0,0,0,0,0,0,0],"trees":[{"base_weights":[-2.527257E-4,-8.873998E-4,2.80937E-2,-9.92182E-4,7.452671E-2,5.304938E-2,-1.0030202E-3,4.9331103E-4,-4.539571E-4,6.636399E-2,2.336376E-2,4.2643953E-2,3.035014E-1,-4.5222588E-4,2.7864387E-2,-2.859739E-4,1.2528587E-2,-4.377986E-4,1.0707544E-1,1.3847916E-1,3.3276156E-2,-3.4051E-4,3.9591387E-1,4.9772993E-2,-4.3887956E-4,-1.5143106E-3,4.7334097E-3,8.308069E-3,6.7803726E-2,4.9772993E-2,-3.9726167E-4,7.564147E-2,4.965949E-2,2.2504423E-2,1.1680957E-1,5.963679E-2,1.6288322E-1,-4.5391015E-4,-2.0214635E-5,3.2396913E-3,1.9527694E-4,3.2861685E-4,3.1197316E-3,-4.4066E-4,1.1555067E-2,1.959139E-2,-4.2563753E-4,-4.493328E-4,3.8432505E-3,3.5950895E-2,-4.3427362E-4,-3.6321065E-4,4.9772993E-2],"categories":[],"categories_nodes":[],"categories_segments":[],"categories_sizes":[],"default_left":[0,0,0,0,0,0,0,0,0,0,0,0,0,0,0,0,0,0,0,0,0,0,0,0,0,0,0,0,0,0,0,0,0,0,0,0,0,0,0,0,0,0,0,0,0,0,0,0,0,0,0,0,0],"id":0,"left_children":[1,3,5,7,9,11,13,15,-1,-1,17,19,21,-1,23,25,27,-1,29,31,33,-1,35,-1,-1,37,39,41,43,-1,-1,45,-1,47,49,-1,51,-1,-1,-1,-1,-1,-1,-1,-1,-1,-1,-1,-1,-1,-1,-1,-1],"loss_changes":[5.035858E-1,2.1641636E-1,4.4517E-1,1.4407894E-1,1.1298442E0,8.4705746E-1,2.8977936E-2,1.8075393E-1,0E0,0E0,8.407186E-2,2.8088123E-1,3.700539E-1,0E0,4.7197884E-1,1.11608766E-1,2.7285224E-1,0E0,3.9241007E-1,5.925254E-1,2.592129E-1,0E0,3.6998093E-1,0E0,0E0,5.7720568E-2,2.7370304E-1,1.2519026E-1,2.8667846E-1,0E0,0E0,2.4107152E-1,0E0,1.1154848E-1,9.7187984E-1,0E0,3.3635044E-1,0E0,0E0,0E0,0E0,0E0,0E0,0E0,0E0,0E0,0E0,0E0,0E0,0E0,0E0,0E0,0E0],"parents":[2147483647,0,0,1,1,2,2,3,3,4,4,5,5,6,6,7,7,10,10,11,11,12,12,14,14,15,15,16,16,18,18,19,19,20,20,22,22,25,25,26,26,27,27,28,28,31,31,33,33,34,34,36,36],"right_children":[2,4,6,8,10,12,14,16,-1,-1,18,20,22,-1,24,26,28,-1,30,32,34,-1,36,-1,-1,38,40,42,44,-1,-1,46,-1,48,50,-1,52,-1,-1,-1,-1,-1,-1,-1,-1,-1,-1,-1,-1,-1,-1,-1,-1],"split_conditions":[9.963989E-3,3.7109375E-2,3.6743164E-2,7.6293945E-5,6.9885254E-2,2.2201538E-2,8.132935E-3,3.894043E-2,-4.539571E-4,6.636399E-2,1.550293E-2,1.663208E-2,3.45459E-2,-4.5222588E-4,8.377075E-3,1.1291504E-2,1.1116028E-2,-4.377986E-4,1.6723633E-2,1.1398315E-2,1.864624E-2,-3.4051E-4,4.196167E-3,4.9772993E-2,-4.3887956E-4,8.926392E-3,1.171875E-2,2.4673462E-2,2.3345947E-3,4.9772993E-2,-3.9726167E-4,2.6977539E-2,4.965949E-2,2.8411865E-2,1.0986328E-3,5.963679E-2,3.6010742E-2,-4.5391015E-4,-2.0214635E-5,3.2396913E-3,1.9527694E-4,3.2861685E-4,3.1197316E-3,-4.4066E-4,1.1555067E-2,1.959139E-2,-4.2563753E-4,-4.493328E-4,3.8432505E-3,3.5950895E-2,-4.3427362E-4,-3.6321065E-4,4.9772993E-2],"split_indices":[28,8,23,11,23,28,10,23,0,0,11,19,23,0,10,0,29,0,11,28,28,0,10,0,0,29,0,26,6,0,0,23,0,23,10,0,23,0,0,0,0,0,0,0,0,0,0,0,0,0,0,0,0],"split_type":[0,0,0,0,0,0,0,0,0,0,0,0,0,0,0,0,0,0,0,0,0,0,0,0,0,0,0,0,0,0,0,0,0,0,0,0,0,0,0,0,0,0,0,0,0,0,0,0,0,0,0,0,0],"sum_hessian":[2.7989E4,2.7377E4,6.12E2,2.734E4,3.7E1,3.29E2,2.83E2,1.9271E4,8.069E3,2E0,3.5E1,3.17E2,1.2E1,2.53E2,3E1,1.81E4,1.171E3,2.7E1,8E0,2.7E1,2.9E2,3E0,9E0,1E0,2.9E1,1.4542E4,3.558E3,1.089E3,8.2E1,1E0,7E0,2.4E1,3E0,2.58E2,3.2E1,4E0,5E0,4.399E3,1.0143E4,3.24E2,3.234E3,8.94E2,1.95E2,3.3E1,4.9E1,9E0,1.5E1,9.6E1,1.62E2,1E1,2.2E1,4E0,1E0],"tree_param":{"num_deleted":"0","num_feature":"32","num_nodes":"53","size_leaf_vector":"1"}},{"base_weights":[2.5065904E-4,-2.1703984E-4,6.98469E-2,-3.817438E-4,1.17775686E-1,-4.897062E-3,2.1473984E-1,2.8828403E-3,-3.3772034E-3,-3.9069858E-4,2.4606834E-1,-4.0218767E-4,-5.4084077E-3,2.505502E-1,-3.6911282E-4,3.7743017E-4,1.3098452E-2,-4.136978E-3,1.7077692E-2,4.3410566E-1,-1.1095965E-2,-7.50487E-3,-4.4714878E-4,1.5339096E-1,3.456268E-1,-1.2026635E-3,1.0169098E-2,5.2259937E-2,1.1223959E-2,-4.208297E-3,5.4977715E-2,1.259479E-1,-9.033145E-4,-2.0511674E-4,4.7792647E-2,-3.545206E-3,-3.6199458E-4,-7.942153E-4,-3.5515576E-4,3.4723905E-1,-3.8687978E-4,7.0186734E-2,2.7185225E-1,-4.230122E-4,4.5541987E-5,8.4404176E-4,1.1127046E-2,1.3059546E-2,-5.559659E-4,5.1495726E-3,9.130725E-4,-4.2784747E-4,5.712227E-4,3.306092E-2,-3.8137645E-4,-4.4189385E-4,1.6198734E-2,5.211962E-3,-5.234748E-4,4.6625745E-2,2.1457035E-2,6.821353E-3,3.8948793E-2],"categories":[],"categories_nodes":[],"categories_segments":[],"categories_sizes":[],"default_left":[0,0,0,0,0,0,0,0,0,0,0,0,0,0,0,0,0,0,0,0,0,0,0,0,0,0,0,0,0,0,0,0,0,0,0,0,0,0,0,0,0,0,0,0,0,0,0,0,0,0,0,0,0,0,0,0,0,0,0,0,0,0,0],"id":1,"left_children":[1,3,5,7,9,11,13,15,17,-1,19,-1,21,23,-1,25,27,29,31,33,35,37,-1,39,41,43,45,47,49,51,53,55,57,-1,-1,-1,-1,-1,-1,59,-1,-1,61,-1,-1,-1,-1,-1,-1,-1,-1,-1,-1,-1,-1,-1,-1,-1,-1,-1,-1,-1,-1],"loss_changes":[9.167232E-1,5.437269E-1,2.0370677E0,2.7321348E-1,6.097901E-1,3.4188386E-5,5.015385E-1,3.4216526E-1,2.2650474E-1,0E0,9.2359006E-1,0E0,1.1572265E-4,4.5505047E-1,0E0,1.6613242E-1,1.9269657E-1,5.946155E-2,1.0219787E0,2.112205E-1,1.5104451E-3,9.824755E-6,0E0,8.853939E-1,5.187955E-1,4.6414804E-2,2.5982064E-1,5.442455E-1,2.1145558E-1,9.7941905E-3,2.767422E-1,3.4839368E-1,1.0339256E-1,0E0,0E0,0E0,0E0,0E0,0E0,1.05225205E-1,0E0,0E0,5.483562E-1,0E0,0E0,0E0,0E0,0E0,0E0,0E0,0E0,0E0,0E0,0E0,0E0,0E0,0E0,0E0,0E0,0E0,0E0,0E0,0E0],"parents":[2147483647,0,0,1,1,2,2,3,3,4,4,5,5,6,6,7,7,8,8,10,10,12,12,13,13,15,15,16,16,17,17,18,18,19,19,20,20,21,21,23,23,24,24,25,25,26,26,27,27,28,28,29,29,30,30,31,31,32,32,39,39,42,42],"right_children":[2,4,6,8,10,12,14,16,18,-1,20,-1,22,24,-1,26,28,30,32,34,36,38,-1,40,42,44,46,48,50,52,54,56,58,-1,-1,-1,-1,-1,-1,60,-1,-1,62,-1,-1,-1,-1,-1,-1,-1,-1,-1,-1,-1,-1,-1,-1,-1,-1,-1,-1,-1,-1],"split_conditions":[1.5258789E-5,3.7109375E-2,9.69696E-3,1.5563965E-3,1.9226074E-3,2.8411865E-2,8.377075E-3,1.1100769E-2,7.637024E-3,-3.9069858E-4,3.414154E-3,-4.0218767E-4,3.0014038E-2,1.2031555E-2,-3.6911282E-4,1.1665344E-2,2.1743774E-4,3.265381E-2,8.033752E-3,4.272461E-2,6.9885254E-2,5.5770874E-3,-4.4714878E-4,1.0986328E-3,4.043579E-3,5.2490234E-3,3.894043E-2,8.560181E-3,6.919861E-3,6.843567E-3,3.326416E-2,2.6504517E-2,9.468079E-3,-2.0511674E-4,4.7792647E-2,-3.545206E-3,-3.6199458E-4,-7.942153E-4,-3.5515576E-4,2.4414062E-4,-3.8687978E-4,7.0186734E-2,1.8310547E-4,-4.230122E-4,4.5541987E-5,8.4404176E-4,1.1127046E-2,1.3059546E-2,-5.559659E-4,5.1495726E-3,9.130725E-4,-4.2784747E-4,5.712227E-4,3.306092E-2,-3.8137645E-4,-4.4189385E-4,1.6198734E-2,5.211962E-3,-5.234748E-4,4.6625745E-2,2.1457035E-2,6.821353E-3,3.8948793E-2],"split_indices":[10,8,27,27,11,23,10,0,28,0,29,0,23,27,0,29,19,8,27,0,23,18,0,10,10,19,23,18,18,28,8,23,27,0,0,0,0,0,0,10,0,0,8,0,0,0,0,0,0,0,0,0,0,0,0,0,0,0,0,0,0,0,0],"split_type":[0,0,0,0,0,0,0,0,0,0,0,0,0,0,0,0,0,0,0,0,0,0,0,0,0,0,0,0,0,0,0,0,0,0,0,0,0,0,0,0,0,0,0,0,0,0,0,0,0,0,0,0,0,0,0,0,0,0,0,0,0,0,0],"sum_hessian":[2.8162E4,2.7975E4,1.87E2,2.7937E4,3.8E1,1.24E2,6.3E1,1.3368E4,1.4569E4,2E1,1.8E1,4.9E1,7.5E1,5.4E1,9E0,1.0736E4,2.632E3,1.4048E4,5.21E2,1E1,8E0,2.1E1,5.4E1,2.8E1,2.6E1,9.245E3,1.491E3,1.19E2,2.513E3,1.4032E4,1.6E1,7.3E1,4.48E2,1E0,9E0,1E0,7E0,1.8E1,3E0,1.2E1,1.6E1,3E0,2.3E1,3.271E3,5.974E3,1.467E3,2.4E1,5E1,6.9E1,1.23E2,2.39E3,1.3934E4,9.8E1,2E0,1.4E1,1.6E1,5.7E1,3.3E1,4.15E2,5E0,7E0,9E0,1.4E1],"tree_param":{"num_deleted":"0","num_feature":"32","num_nodes":"63","size_leaf_vector":"1"}},{"base_weights":[-1.389442E-4,-8.0017955E-4,2.9979844E-2,-9.174041E-4,7.398041E-2,7.537389E-2,-5.355473E-3,1.9049393E-3,-3.6060505E-3,2.0290375E-2,1.963197E-1,8.171963E-4,1.6214629E-1,-4.9476675E-3,-4.951643E-3,6.7873986E-4,1.6393175E-2,-3.6724466E-3,4.5601524E-2,1.4440945E-1,-9.132889E-3,3.7691705E-2,-1.2323328E-2,-5.726534E-3,1.1195847E-1,1.3105421E-1,3.4647655E-1,-6.873352E-3,-3.756031E-3,3.127036E-4,1.8160438E-2,8.350492E-2,1.349677E-2,-3.7925073E-3,1.4755701E-2,3.085686E-1,-3.4868706E-4,-2.969309E-4,4.4065163E-2,-3.5356646E-4,-2.7201027E-2,-2.3713263E-2,-3.0247014E-4,-4.5075994E-3,-1.1519232E-2,3.1779963E-1,-9.6218595E-3,-4.3939558E-4,1.7973296E-1,6.9250904E-2,1.867351E-1,-4.083213E-3,-7.5445324E-3,-6.259583E-3,-3.546339E-4,-1.983547E-5,1.1303206E-3,-1.1389807E-4,1.797459E-2,-6.1427295E-4,1.8690687E-2,1.2583222E-3,1.9314166E-2,-3.8503166E-4,3.128432E-4,2.3385406E-2,-6.286471E-4,-1.8573549E-3,4.8142646E-2,-3.8921237E-3,-2.5070723E-4,-3.3679456E-3,-1.8904386E-4,-4.2281393E-4,-5.543867E-4,-6.0813467E-4,-2.987935E-3,-1.7822163E-4,4.7848165E-2,-2.151835E-3,-2.938891E-4,2.943548E-2,1.5006015E-2,6.6633658E-3,3.6557063E-2,-3.3970314E-4,-5.0781283E-4,-8.025644E-4,-3.2673965E-4,-8.77679E-4,-4.5463452E-4],"categories":[],"categories_nodes":[],"categories_segments":[],"categories_sizes":[],"default_left":[0,0,0,0,0,0,0,0,0,0,0,0,0,0,0,0,0,0,0,0,0,0,0,0,0,0,0,0,0,0,0,0,0,0,0,0,0,0,0,0,0,0,0,0,0,0,0,0,0,0,0,0,0,0,0,0,0,0,0,0,0,0,0,0,0,0,0,0,0,0,0,0,0,0,0,0,0,0,0,0,0,0,0,0,0,0,0,0,0,0,0],"id":2,"left_children":[1,3,5,7,9,11,13,15,17,19,21,23,25,27,-1,29,31,33,35,37,39,-1,41,43,45,47,49,51,53,55,57,59,61,63,65,67,-1,-1,-1,-1,69,71,-1,73,75,77,79,-1,81,-1,83,85,87,89,-1,-1,-1,-1,-1,-1,-1,-1,-1,-1,-1,-1,-1,-1,-1,-1,-1,-1,-1,-1,-1,-1,-1,-1,-1,-1,-1,-1,-1,-1,-1,-1,-1,-1,-1,-1,-1],"loss_changes":[5.590152E-1,2.4083807E-1,9.676235E-1,2.0810795E-1,2.7845782E-1,1.7078061E0,5.8781E-3,2.3769084E-1,4.6055153E-2,1.14530504E-1,4.944898E-1,1.0464196E-1,6.538005E-1,7.497966E-4,0E0,7.8937985E-2,2.018086E-1,3.1090707E-2,2.4633992E-1,2.6326728E-1,2.533243E-3,0E0,6.6964957E-4,9.083613E-4,2.0326772E-1,6.996952E-1,8.103719E-1,2.0889798E-4,8.857087E-5,6.7881115E-2,7.8918666E-1,3.9974692E-1,1.6201217E-1,5.588144E-3,4.2100787E-1,1.7858908E-1,0E0,0E0,0E0,0E0,1.6389317E-3,5.888025E-4,0E0,9.573763E-6,2.1146175E-3,1.5490592E-1,4.137832E-4,0E0,2.2111893E-1,0E0,2.5485992E-1,1.1821394E-6,1.8367032E-4,2.4786335E-5,0E0,0E0,0E0,0E0,0E0,0E0,0E0,0E0,0E0,0E0,0E0,0E0,0E0,0E0,0E0,0E0,0E0,0E0,0E0,0E0,0E0,0E0,0E0,0E0,0E0,0E0,0E0,0E0,0E0,0E0,0E0,0E0,0E0,0E0,0E0,0E0,0E0],"parents":[2147483647,0,0,1,1,2,2,3,3,4,4,5,5,6,6,7,7,8,8,9,9,10,10,11,11,12,12,13,13,15,15,16,16,17,17,18,18,19,19,20,20,22,22,23,23,24,24,25,25,26,26,27,27,28,28,29,29,30,30,31,31,32,32,33,33,34,34,35,35,40,40,41,41,43,43,44,44,45,45,46,46,48,48,50,50,51,51,52,52,53,53],"right_children":[2,4,6,8,10,12,14,16,18,20,22,24,26,28,-1,30,32,34,36,38,40,-1,42,44,46,48,50,52,54,56,58,60,62,64,66,68,-1,-1,-1,-1,70,72,-1,74,76,78,80,-1,82,-1,84,86,88,90,-1,-1,-1,-1,-1,-1,-1,-1,-1,-1,-1,-1,-1,-1,-1,-1,-1,-1,-1,-1,-1,-1,-1,-1,-1,-1,-1,-1,-1,-1,-1,-1,-1,-1,-1,-1,-1],"split_conditions":[9.963989E-3,3.7109375E-2,1.524353E-2,1.5563965E-3,2.2521973E-2,1.18255615E-2,1.5258789E-5,2.1972656E-2,3.265381E-2,4.0527344E-2,6.37207E-2,3.942871E-2,3.5247803E-3,1.8997192E-2,-4.951643E-3,3.019333E-3,9.979248E-3,7.850647E-3,3.326416E-2,5.0598145E-2,5.795288E-2,3.7691705E-2,4.0527344E-2,4.722595E-3,6.210327E-3,1.4038086E-2,4.043579E-3,1.687622E-2,8.598328E-3,1.3198853E-2,2.746582E-4,1.1665344E-2,5.0598145E-2,6.843567E-3,1.4457703E-2,3.8528442E-3,-3.4868706E-4,-2.969309E-4,4.4065163E-2,-3.5356646E-4,4.3273926E-2,4.260254E-2,-3.0247014E-4,3.0441284E-3,1.0726929E-2,6.1035156E-5,3.5247803E-3,-4.3939558E-4,1.7150879E-2,6.9250904E-2,3.5095215E-4,1.6189575E-2,2.5482178E-2,1.687622E-2,-3.546339E-4,-1.983547E-5,1.1303206E-3,-1.1389807E-4,1.797459E-2,-6.1427295E-4,1.8690687E-2,1.2583222E-3,1.9314166E-2,-3.8503166E-4,3.128432E-4,2.3385406E-2,-6.286471E-4,-1.8573549E-3,4.8142646E-2,-3.8921237E-3,-2.5070723E-4,-3.3679456E-3,-1.8904386E-4,-4.2281393E-4,-5.543867E-4,-6.0813467E-4,-2.987935E-3,-1.7822163E-4,4.7848165E-2,-2.151835E-3,-2.938891E-4,2.943548E-2,1.5006015E-2,6.6633658E-3,3.6557063E-2,-3.3970314E-4,-5.0781283E-4,-8.025644E-4,-3.2673965E-4,-8.77679E-4,-4.5463452E-4],"split_indices":[28,8,18,27,27,18,10,18,8,8,18,28,10,18,0,28,19,28,8,18,18,0,8,27,10,18,10,19,27,29,27,29,18,28,19,27,0,0,0,0,8,27,0,27,18,8,8,0,19,0,8,18,19,19,0,0,0,0,0,0,0,0,0,0,0,0,0,0,0,0,0,0,0,0,0,0,0,0,0,0,0,0,0,0,0,0,0,0,0,0,0],"split_type":[0,0,0,0,0,0,0,0,0,0,0,0,0,0,0,0,0,0,0,0,0,0,0,0,0,0,0,0,0,0,0,0,0,0,0,0,0,0,0,0,0,0,0,0,0,0,0,0,0,0,0,0,0,0,0,0,0,0,0,0,0,0,0,0,0,0,0,0,0,0,0,0,0,0,0,0,0,0,0,0,0,0,0,0,0,0,0,0,0,0,0],"sum_hessian":[2.8067E4,2.7465E4,6.02E2,2.7423E4,4.2E1,2.63E2,3.39E2,1.3379E4,1.4044E4,3E1,1.2E1,1.42E2,1.21E2,3.37E2,2E0,1.2336E4,1.043E3,1.4026E4,1.8E1,5E0,2.5E1,6E0,6E0,1.35E2,7E0,1.05E2,1.6E1,1.27E2,2.1E2,1.2084E4,2.52E2,4.2E1,1.001E3,1.3936E4,9E1,2E0,1.6E1,4E0,1E0,2E1,5E0,2E0,4E0,1.13E2,2.2E1,2E0,5E0,2.8E1,7.7E1,4E0,1.2E1,2.6E1,1.01E2,1.4E1,1.96E2,1.1548E4,5.36E2,2.26E2,2.6E1,2.3E1,1.9E1,9.97E2,4E0,1.3821E4,1.15E2,7E0,8.3E1,1E0,1E0,3E0,2E0,1E0,1E0,9.3E1,2E1,1.8E1,4E0,1E0,1E0,1E0,4E0,1.4E1,6.3E1,8E0,4E0,1.8E1,8E0,9E1,1.1E1,4E0,1E1],"tree_param":{"num_deleted":"0","num_feature":"32","num_nodes":"91","size_leaf_vector":"1"}},{"base_weights":[-1.2254708E-4,-3.8945634E-4,4.521697E-2,-5.2943145E-4,1.0210097E-1,-5.0802324E-3,1.7053299E-1,1.9617E-3,-2.7124116E-3,-3.2698968E-4,3.0498877E-1,-4.4773263E-3,-2.6699177E-3,5.183018E-2,1.2612888E-1,1.4607385E-3,5.152252E-2,-3.472205E-3,1.082943E-2,6.336697E-2,1.4301753E-1,-3.8577495E-3,-1.35739185E-2,4.70871E-2,2.864949E-1,-7.9736323E-4,7.0884335E-3,1.8302487E-1,1.8469345E-2,-3.5377708E-3,5.8072053E-2,6.253908E-2,-4.692787E-3,5.775133E-2,4.5520667E-2,-3.1950203E-4,-4.301452E-3,-2.7256578E-3,-2.6495405E-4,2.1975365E-1,-5.2359407E-3,1.8084303E-1,6.1360415E-2,-9.700138E-5,1.96306E-3,6.594075E-4,1.4618047E-2,-8.7343995E-4,3.4801386E-2,9.660732E-4,3.1474195E-2,-6.008059E-4,-3.465005E-4,4.5735516E-2,-3.1163907E-4,9.764219E-3,-6.977277E-4,-1.1401077E-3,-4.2872565E-4,1.5328094E-2,-4.9328553E-3,-6.416321E-4,-3.5662582E-4,-5.130272E-3,3.3843677E-2,-1.4043747E-3,-3.308933E-4,3.9329764E-2,-2.7095664E-3],"categories":[],"categories_nodes":[],"categories_segments":[],"categories_sizes":[],"default_left":[0,0,0,0,0,0,0,0,0,0,0,0,0,0,0,0,0,0,0,0,0,0,0,0,0,0,0,0,0,0,0,0,0,0,0,0,0,0,0,0,0,0,0,0,0,0,0,0,0,0,0,0,0,0,0,0,0,0,0,0,0,0,0,0,0,0,0,0,0],"id":3,"left_children":[1,3,5,7,9,11,13,15,17,-1,19,21,-1,-1,23,25,27,29,31,-1,33,35,37,39,41,43,45,47,49,51,53,55,57,59,-1,-1,61,-1,-1,63,65,67,-1,-1,-1,-1,-1,-1,-1,-1,-1,-1,-1,-1,-1,-1,-1,-1,-1,-1,-1,-1,-1,-1,-1,-1,-1,-1,-1],"loss_changes":[3.391148E-1,3.9970785E-1,1.0345658E0,1.5129842E-1,8.133788E-1,1.4184928E-3,6.604183E-1,3.2254052E-1,1.5260294E-1,0E0,6.014533E-1,6.0141576E-4,0E0,0E0,5.3156126E-1,1.6349289E-1,5.6167376E-1,5.686368E-2,6.327805E-1,0E0,2.39903E-1,1.860282E-5,9.741043E-4,2.7218378E-1,3.7286985E-1,3.2403026E-2,2.5235286E-1,8.2563204E-1,2.7098316E-1,2.500549E-3,3.6789796E-1,4.4480497E-1,1.602415E-3,9.962482E-2,0E0,0E0,7.5072516E-5,0E0,0E0,2.4255136E-1,3.6087522E-4,5.407871E-1,0E0,0E0,0E0,0E0,0E0,0E0,0E0,0E0,0E0,0E0,0E0,0E0,0E0,0E0,0E0,0E0,0E0,0E0,0E0,0E0,0E0,0E0,0E0,0E0,0E0,0E0,0E0],"parents":[2147483647,0,0,1,1,2,2,3,3,4,4,5,5,6,6,7,7,8,8,10,10,11,11,14,14,15,15,16,16,17,17,18,18,20,20,21,21,22,22,23,23,24,24,25,25,26,26,27,27,28,28,29,29,30,30,31,31,32,32,33,33,36,36,39,39,40,40,41,41],"right_children":[2,4,6,8,10,12,14,16,18,-1,20,22,-1,-1,24,26,28,30,32,-1,34,36,38,40,42,44,46,48,50,52,54,56,58,60,-1,-1,62,-1,-1,64,66,68,-1,-1,-1,-1,-1,-1,-1,-1,-1,-1,-1,-1,-1,-1,-1,-1,-1,-1,-1,-1,-1,-1,-1,-1,-1,-1,-1],"split_conditions":[1.5258789E-5,3.7109375E-2,1.1138916E-2,8.8500977E-4,3.253174E-2,1.0261536E-2,2.4414062E-4,2.4673462E-2,4.7836304E-3,-3.2698968E-4,3.527832E-2,5.8654785E-2,-2.6699177E-3,5.183018E-2,1.2031555E-2,4.6539307E-4,2.5161743E-2,3.265381E-2,9.468079E-3,6.336697E-2,4.711914E-2,2.8411865E-2,3.5247803E-3,1.0986328E-3,3.5095215E-4,5.645752E-4,3.019333E-3,2.444458E-2,3.125E-2,1.5563965E-3,3.326416E-2,1.5426636E-2,1.0383606E-2,2.3040771E-2,4.5520667E-2,-3.1950203E-4,2.986145E-2,-2.7256578E-3,-2.6495405E-4,2.89917E-4,1.449585E-3,5.1483154E-2,6.1360415E-2,-9.700138E-5,1.96306E-3,6.594075E-4,1.4618047E-2,-8.7343995E-4,3.4801386E-2,9.660732E-4,3.1474195E-2,-6.008059E-4,-3.465005E-4,4.5735516E-2,-3.1163907E-4,9.764219E-3,-6.977277E-4,-1.1401077E-3,-4.2872565E-4,1.5328094E-2,-4.9328553E-3,-6.416321E-4,-3.5662582E-4,-5.130272E-3,3.3843677E-2,-1.4043747E-3,-3.308933E-4,3.9329764E-2,-2.7095664E-3],"split_indices":[10,8,18,27,26,18,10,26,28,0,26,23,0,0,27,6,26,8,27,0,0,23,8,10,8,27,28,0,26,27,8,18,27,27,0,0,23,0,0,10,10,19,0,0,0,0,0,0,0,0,0,0,0,0,0,0,0,0,0,0,0,0,0,0,0,0,0,0,0],"split_type":[0,0,0,0,0,0,0,0,0,0,0,0,0,0,0,0,0,0,0,0,0,0,0,0,0,0,0,0,0,0,0,0,0,0,0,0,0,0,0,0,0,0,0,0,0,0,0,0,0,0,0,0,0,0,0,0,0,0,0,0,0,0,0,0,0,0,0,0,0],"sum_hessian":[2.802E4,2.7857E4,1.63E2,2.782E4,3.7E1,1.17E2,4.6E1,1.2993E4,1.4827E4,2.5E1,1.2E1,1.15E2,2E0,4E0,4.2E1,1.2864E4,1.29E2,1.404E4,7.87E2,3E0,9E0,1.09E2,6E0,2.9E1,1.3E1,9.181E3,3.683E3,2.5E1,1.04E2,1.4026E4,1.4E1,1.81E2,6.06E2,8E0,1E0,4.7E1,6.2E1,2E0,4E0,6E0,2.3E1,1.1E1,2E0,9.105E3,7.6E1,3.671E3,1.2E1,1.2E1,1.3E1,1.02E2,2E0,3.99E2,1.3627E4,1E0,1.3E1,1.2E2,6.1E1,3.3E1,5.73E2,4E0,4E0,1.4E1,4.8E1,2E0,4E0,3E0,2E1,5E0,6E0],"tree_param":{"num_deleted":"0","num_feature":"32","num_nodes":"69","size_leaf_vector":"1"}},{"base_weights":[3.8483654E-4,6.591295E-5,9.116674E-2,2.7130805E-3,-2.240021E-3,7.4975896E-3,3.4883425E-1,2.6456346E-3,2.9375914E-1,-2.4169972E-3,5.4998852E-2,-4.7583E-3,1.800317E-1,6.308797E-2,2.4140754E-1,2.0656874E-4,8.75081E-3,-2.968065E-3,4.7031935E-2,-2.6015455E-3,4.474178E-2,3.845353E-2,2.3065258E-2,-3.7901578E-3,-2.5439472E-3,4.5469005E-2,-2.3053876E-4,5.2115846E-2,4.0655848E-1,-3.5414065E-4,3.73541E-2,7.69646E-2,7.6834485E-3,-3.1214529E-3,7.0393765E-3,1.1450328E-1,-4.3730177E-3,1.23277E-1,6.635371E-3,-4.3797307E-3,-2.646644E-3,1.6225645E-1,-1.8266758E-2,2.3882186E-1,5.2653074E-2,7.4695905E-5,-3.4603546E-4,1.3879436E-2,1.585914E-3,1.850234E-3,1.7630456E-2,7.4345723E-4,3.0783925E-2,-3.1732087E-4,1.0106665E-3,4.797065E-3,-4.5190062E-4,-2.8174446E-4,2.5341118E-2,-8.3285494E-4,-2.6834663E-4,-2.9908044E-3,4.4460114E-2,2.390373E-3,-7.32536E-3,-2.7411056E-4,-5.0530524E-4,-2.706684E-4,-5.7282206E-5,-7.799428E-3,4.415043E-2,-3.254414E-3,-1.046317E-3,5.872767E-2,-8.222471E-3],"categories":[],"categories_nodes":[],"categories_segments":[],"categories_sizes":[],"default_left":[0,0,0,0,0,0,0,0,0,0,0,0,0,0,0,0,0,0,0,0,0,0,0,0,0,0,0,0,0,0,0,0,0,0,0,0,0,0,0,0,0,0,0,0,0,0,0,0,0,0,0,0,0,0,0,0,0,0,0,0,0,0,0,0,0,0,0,0,0,0,0,0,0,0,0],"id":4,"left_children":[1,3,5,7,9,11,13,15,17,19,21,23,25,-1,27,29,31,-1,-1,33,35,-1,37,39,-1,-1,-1,41,43,45,47,49,51,53,55,57,59,61,63,65,67,69,71,73,-1,-1,-1,-1,-1,-1,-1,-1,-1,-1,-1,-1,-1,-1,-1,-1,-1,-1,-1,-1,-1,-1,-1,-1,-1,-1,-1,-1,-1,-1,-1],"loss_changes":[8.104901E-1,1.7029476E-1,2.110149E0,2.5417516E-1,1.5116985E-1,1.5944856E-1,5.7488203E-1,1.9337174E-1,1.8527919E-1,1.294876E-1,4.752016E-1,1.3251647E-3,2.5145024E-1,0E0,5.727842E-1,1.9330607E-1,2.6931077E-1,0E0,0E0,7.4245386E-2,1.992274E-1,0E0,6.998012E-2,3.4927274E-5,0E0,0E0,0E0,8.048372E-2,7.5490355E-2,3.1273942E-2,2.9870158E-1,3.2777333E-1,2.7044743E-1,9.651825E-3,3.5882613E-1,3.9183655E-1,2.1155819E-4,3.0862948E-1,5.4173987E-2,3.4695142E-5,1.686858E-6,3.0279282E-1,4.3938868E-4,7.1950996E-1,0E0,0E0,0E0,0E0,0E0,0E0,0E0,0E0,0E0,0E0,0E0,0E0,0E0,0E0,0E0,0E0,0E0,0E0,0E0,0E0,0E0,0E0,0E0,0E0,0E0,0E0,0E0,0E0,0E0,0E0,0E0],"parents":[2147483647,0,0,1,1,2,2,3,3,4,4,5,5,6,6,7,7,8,8,9,9,10,10,11,11,12,12,14,14,15,15,16,16,19,19,20,20,22,22,23,23,27,27,28,28,29,29,30,30,31,31,32,32,33,33,34,34,35,35,36,36,37,37,38,38,39,39,40,40,41,41,42,42,43,43],"right_children":[2,4,6,8,10,12,14,16,18,20,22,24,26,-1,28,30,32,-1,-1,34,36,-1,38,40,-1,-1,-1,42,44,46,48,50,52,54,56,58,60,62,64,66,68,70,72,74,-1,-1,-1,-1,-1,-1,-1,-1,-1,-1,-1,-1,-1,-1,-1,-1,-1,-1,-1,-1,-1,-1,-1,-1,-1,-1,-1,-1,-1,-1,-1],"split_conditions":[3.5247803E-3,8.8500977E-4,8.94928E-3,3.125E-2,9.1552734E-5,6.707764E-2,4.043579E-3,4.6539307E-4,7.7056885E-4,8.3862305E-2,2.4414062E-4,5.8654785E-2,6.9885254E-2,6.308797E-2,5.5389404E-3,2.4673462E-2,1.4801025E-2,-2.968065E-3,4.7031935E-2,4.722595E-3,1.6723633E-2,3.845353E-2,4.4250488E-4,1.864624E-2,-2.5439472E-3,4.5469005E-2,-2.3053876E-4,4.196167E-3,6.30188E-3,1.43585205E-2,2.5161743E-2,1.1367798E-3,3.446579E-3,7.067871E-2,9.468079E-3,2.7923584E-3,8.69751E-3,3.8146973E-4,1.4205933E-2,2.8244019E-2,9.773254E-3,4.135132E-3,1.2397766E-2,6.0424805E-3,5.2653074E-2,7.4695905E-5,-3.4603546E-4,1.3879436E-2,1.585914E-3,1.850234E-3,1.7630456E-2,7.4345723E-4,3.0783925E-2,-3.1732087E-4,1.0106665E-3,4.797065E-3,-4.5190062E-4,-2.8174446E-4,2.5341118E-2,-8.3285494E-4,-2.6834663E-4,-2.9908044E-3,4.4460114E-2,2.390373E-3,-7.32536E-3,-2.7411056E-4,-5.0530524E-4,-2.706684E-4,-5.7282206E-5,-7.799428E-3,4.415043E-2,-3.254414E-3,-1.046317E-3,5.872767E-2,-8.222471E-3],"split_indices":[10,27,18,26,10,23,10,6,27,19,10,23,23,0,10,26,23,0,0,28,11,0,10,28,0,0,0,10,10,23,26,6,28,19,27,11,29,10,18,23,17,10,18,10,0,0,0,0,0,0,0,0,0,0,0,0,0,0,0,0,0,0,0,0,0,0,0,0,0,0,0,0,0,0,0],"split_type":[0,0,0,0,0,0,0,0,0,0,0,0,0,0,0,0,0,0,0,0,0,0,0,0,0,0,0,0,0,0,0,0,0,0,0,0,0,0,0,0,0,0,0,0,0,0,0,0,0,0,0,0,0,0,0,0,0,0,0,0,0,0,0,0,0,0,0,0,0,0,0,0,0,0,0],"sum_hessian":[2.7993E4,2.7896E4,9.7E1,1.2987E4,1.4909E4,7.4E1,2.3E1,1.2985E4,2E0,1.4864E4,4.5E1,7E1,4E0,5E0,1.8E1,9.279E3,3.706E3,1E0,1E0,1.4807E4,5.7E1,3E0,4.2E1,6.8E1,2E0,1E0,3E0,9E0,9E0,9.142E3,1.37E2,5.6E1,3.65E3,1.405E4,7.57E2,2.3E1,3.4E1,5E0,3.7E1,4.3E1,2.5E1,3E0,6E0,5E0,4E0,6.75E3,2.392E3,2.3E1,1.14E2,3.6E1,2E1,3.648E3,2E0,1.3996E4,5.4E1,1.66E2,5.91E2,1.3E1,1E1,9E0,2.5E1,4E0,1E0,3.1E1,6E0,1.4E1,2.9E1,2.4E1,1E0,2E0,1E0,1E0,5E0,2E0,3E0],"tree_param":{"num_deleted":"0","num_feature":"32","num_nodes":"75","size_leaf_vector":"1"}},{"base_weights":[-8.4536376E-5,-3.3947465E-4,3.951776E-2,-4.663918E-4,5.330932E-2,-4.2602215E-3,1.3653079E-1,1.6622328E-3,-2.2062866E-3,1.0502436E-1,-4.919918E-3,-3.772949E-3,-1.3295633E-2,6.154215E-2,9.781205E-2,1.1060033E-3,2.1569068E-2,-2.9222446E-3,8.949113E-3,3.7345704E-2,6.2019747E-2,-1.2129296E-2,-2.4161204E-3,-4.179584E-3,-2.4706885E-4,-2.3743506E-3,-2.13582E-4,3.612954E-5,2.3558557E-1,1.359856E-6,1.2259888E-2,8.464564E-2,6.6898405E-3,-2.9678075E-3,8.821701E-3,4.6490155E-2,-3.739997E-3,2.4812862E-1,-1.0878119E-2,-1.823403E-4,-2.8697983E-3,8.046844E-5,-2.583849E-4,-2.2904282E-3,-4.526876E-3,1.7676902E-1,-2.4342068E-2,5.249381E-2,6.5558515E-2,5.9152313E-4,-5.3325704E-5,7.52439E-4,6.8007233E-3,4.794139E-3,2.4276096E-2,9.594094E-3,-3.7317324E-4,-5.70262E-4,-2.7954485E-4,-5.6735956E-4,6.8636425E-3,3.8867705E-3,4.7506418E-2,-9.994729E-4,-3.4419025E-4,-2.0720472E-4,4.9902E-2,-4.6546033E-4,-5.911471E-3,-2.4460905E-4,2.2253837E-6,-5.587381E-4,-4.0109875E-4,-4.5888675E-3,4.2237107E-2,-7.127872E-3,-6.167736E-4,8.8310643E-4,4.2987145E-2],"categories":[],"categories_nodes":[],"categories_segments":[],"categories_sizes":[],"default_left":[0,0,0,0,0,0,0,0,0,0,0,0,0,0,0,0,0,0,0,0,0,0,0,0,0,0,0,0,0,0,0,0,0,0,0,0,0,0,0,0,0,0,0,0,0,0,0,0,0,0,0,0,0,0,0,0,0,0,0,0,0,0,0,0,0,0,0,0,0,0,0,0,0,0,0,0,0,0,0],"id":5,"left_children":[1,3,5,7,9,11,13,15,17,19,21,23,25,-1,27,29,31,33,35,37,-1,39,41,43,-1,-1,-1,45,47,49,51,53,55,57,59,61,63,65,67,-1,-1,-1,-1,69,71,73,75,-1,77,-1,-1,-1,-1,-1,-1,-1,-1,-1,-1,-1,-1,-1,-1,-1,-1,-1,-1,-1,-1,-1,-1,-1,-1,-1,-1,-1,-1,-1,-1],"loss_changes":[2.841188E-1,1.9040997E-1,7.6504797E-1,1.0331881E-1,1.9926432E-1,5.001747E-4,9.7815895E-1,1.3890615E-1,1.2262349E-1,1.1971561E0,5.483205E-4,5.32188E-5,6.4886594E-4,0E0,7.139508E-1,1.5040325E-1,3.1947267E-1,7.7448264E-3,4.412855E-1,3.2797146E-1,0E0,1.3137127E-3,1.5584723E-5,4.8679532E-5,0E0,0E0,0E0,1.4217266E-1,1.0479366E0,3.5122823E-2,2.898789E-1,3.6558944E-1,2.5800595E-1,6.757647E-3,4.8943214E-2,7.4596286E-1,1.257698E-3,3.7767312E-1,7.830275E-3,0E0,0E0,0E0,0E0,5.8143924E-6,1.8621795E-5,2.3812279E-1,2.4298599E-2,0E0,3.0620193E-1,0E0,0E0,0E0,0E0,0E0,0E0,0E0,0E0,0E0,0E0,0E0,0E0,0E0,0E0,0E0,0E0,0E0,0E0,0E0,0E0,0E0,0E0,0E0,0E0,0E0,0E0,0E0,0E0,0E0,0E0],"parents":[2147483647,0,0,1,1,2,2,3,3,4,4,5,5,6,6,7,7,8,8,9,9,10,10,11,11,12,12,14,14,15,15,16,16,17,17,18,18,19,19,21,21,22,22,23,23,27,27,28,28,29,29,30,30,31,31,32,32,33,33,34,34,35,35,36,36,37,37,38,38,43,43,44,44,45,45,46,46,48,48],"right_children":[2,4,6,8,10,12,14,16,18,20,22,24,26,-1,28,30,32,34,36,38,-1,40,42,44,-1,-1,-1,46,48,50,52,54,56,58,60,62,64,66,68,-1,-1,-1,-1,70,72,74,76,-1,78,-1,-1,-1,-1,-1,-1,-1,-1,-1,-1,-1,-1,-1,-1,-1,-1,-1,-1,-1,-1,-1,-1,-1,-1,-1,-1,-1,-1,-1,-1],"split_conditions":[1.5258789E-5,8.3862305E-2,1.0261536E-2,9.918213E-5,3.414154E-3,5.8654785E-2,2.4414062E-4,1.35269165E-2,3.8471222E-3,9.9487305E-3,8.69751E-3,1.864624E-2,7.797241E-3,6.154215E-2,3.5095215E-3,3.6254883E-2,2.1942139E-2,7.067871E-2,9.468079E-3,6.9885254E-2,6.2019747E-2,6.707764E-2,1.0505676E-2,2.6611328E-2,-2.4706885E-4,-2.3743506E-3,-2.13582E-4,3.4088135E-2,4.196167E-3,2.9144287E-3,1.1665344E-2,1.0856628E-2,1.360321E-2,1.5563965E-3,6.707764E-2,9.391785E-3,1.0322571E-2,2.7923584E-3,5.795288E-2,-1.823403E-4,-2.8697983E-3,8.046844E-5,-2.583849E-4,8.628845E-3,3.8604736E-2,2.89917E-4,1.0070801E-3,5.249381E-2,8.132935E-3,5.9152313E-4,-5.3325704E-5,7.52439E-4,6.8007233E-3,4.794139E-3,2.4276096E-2,9.594094E-3,-3.7317324E-4,-5.70262E-4,-2.7954485E-4,-5.6735956E-4,6.8636425E-3,3.8867705E-3,4.7506418E-2,-9.994729E-4,-3.4419025E-4,-2.0720472E-4,4.9902E-2,-4.6546033E-4,-5.911471E-3,-2.4460905E-4,2.2253837E-6,-5.587381E-4,-4.0109875E-4,-4.5888675E-3,4.2237107E-2,-7.127872E-3,-6.167736E-4,8.8310643E-4,4.2987145E-2],"split_indices":[10,19,18,27,29,23,10,29,28,11,29,28,10,0,10,23,23,19,27,23,0,23,29,23,0,0,0,19,10,29,29,18,29,27,23,27,27,11,18,0,0,0,0,18,19,10,10,0,10,0,0,0,0,0,0,0,0,0,0,0,0,0,0,0,0,0,0,0,0,0,0,0,0,0,0,0,0,0,0],"split_type":[0,0,0,0,0,0,0,0,0,0,0,0,0,0,0,0,0,0,0,0,0,0,0,0,0,0,0,0,0,0,0,0,0,0,0,0,0,0,0,0,0,0,0,0,0,0,0,0,0,0,0,0,0,0,0,0,0,0,0,0,0,0,0,0,0,0,0,0,0,0,0,0,0,0,0,0,0,0,0],"sum_hessian":[2.8139E4,2.796E4,1.79E2,2.7895E4,6.5E1,1.24E2,5.5E1,1.2546E4,1.5349E4,3.4E1,3.1E1,1.19E2,5E0,3E0,5.2E1,1.2206E4,3.4E2,1.4424E4,9.25E2,3.1E1,3E0,7E0,2.4E1,8.9E1,3E1,2E0,3E0,3.1E1,2.1E1,1.1107E4,1.099E3,6.4E1,2.76E2,1.4369E4,5.5E1,2.33E2,6.92E2,5E0,2.6E1,5E0,2E0,1E0,2.3E1,1.5E1,7.4E1,3E0,2.8E1,7E0,1.4E1,9.2E2,1.0187E4,1.014E3,8.5E1,5.3E1,1.1E1,2.8E1,2.48E2,8.5E2,1.3519E4,4.5E1,1E1,2.3E2,3E0,3E1,6.62E2,3E0,2E0,2.4E1,2E0,1.4E1,1E0,2.1E1,5.3E1,2E0,1E0,7E0,2.1E1,1.3E1,1E0],"tree_param":{"num_deleted":"0","num_feature":"32","num_nodes":"79","size_leaf_vector":"1"}},{"base_weights":[-1.6664188E-4,-2.910754E-4,3.9599646E-2,1.4646166E-3,-1.9153317E-3,-3.7497045E-3,2.0598048E-1,8.2982215E-4,1.8683841E-2,-2.0526818E-3,4.307596E-2,-2.9400738E-3,-9.6568335E-3,3.8152527E-2,1.2857302E-1,-2.486655E-4,5.231902E-3,1.1555768E-2,5.220974E-2,-2.5735928E-3,3.8393752E-3,1.4909992E-1,-6.1953766E-3,-3.7494479E-3,-2.228892E-3,-2.2160604E-3,-1.7954753E-3,3.59587E-2,2.8808707E-1,-7.644871E-4,1.7779088E-2,3.6759224E-2,3.4022399E-3,-4.138274E-3,3.2599207E-2,3.2742915E-1,3.0369656E-2,-2.8790913E-3,-2.3331107E-3,4.6029847E-2,-2.8414505E-3,-1.0578762E-2,2.3898572E-1,-4.164991E-2,3.4399454E-2,-2.0862673E-4,-4.866442E-4,-4.2064657E-5,-2.2685376E-4,-1.740507E-5,-2.08495E-4,1.5976138E-1,-7.320332E-2,1.559199E-1,4.0837787E-2,-3.1188616E-4,8.616385E-5,-8.299946E-4,4.579402E-3,9.607105E-3,-1.0857343E-3,3.2307466E-3,1.6229354E-4,3.2996657E-4,-9.364049E-4,3.2364722E-2,1.2130043E-3,6.61767E-2,-5.181485E-4,1.1199898E-2,-7.984095E-4,-2.773636E-4,-6.478439E-4,-2.3274073E-4,-3.0806722E-4,1.6548522E-2,2.875937E-3,-3.6443185E-4,2.7715063E-3,-1.6234229E-4,-2.7677729E-3,1.0765935E-2,4.65752E-2,-3.8761526E-4,-8.366087E-3,-1.8681424E-3,3.887659E-2,-1.1091648E-3,4.2158674E-2,-1.4037579E-4,-8.728248E-3,4.027548E-2,-6.061002E-3],"categories":[],"categories_nodes":[],"categories_segments":[],"categories_sizes":[],"default_left":[0,0,0,0,0,0,0,0,0,0,0,0,0,0,0,0,0,0,0,0,0,0,0,0,0,0,0,0,0,0,0,0,0,0,0,0,0,0,0,0,0,0,0,0,0,0,0,0,0,0,0,0,0,0,0,0,0,0,0,0,0,0,0,0,0,0,0,0,0,0,0,0,0,0,0,0,0,0,0,0,0,0,0,0,0,0,0,0,0,0,0,0,0],"id":6,"left_children":[1,3,5,7,9,11,13,15,17,19,21,23,25,-1,27,29,31,33,35,37,39,41,43,45,47,-1,49,51,53,55,57,59,61,63,65,67,69,71,73,75,77,79,81,83,85,-1,-1,-1,-1,-1,-1,87,89,91,-1,-1,-1,-1,-1,-1,-1,-1,-1,-1,-1,-1,-1,-1,-1,-1,-1,-1,-1,-1,-1,-1,-1,-1,-1,-1,-1,-1,-1,-1,-1,-1,-1,-1,-1,-1,-1,-1,-1],"loss_changes":[1.3800856E-1,7.92856E-2,6.282599E-1,1.4602914E-1,8.933349E-2,3.0638976E-4,1.955387E-1,6.1183475E-2,1.1290984E-1,4.4203836E-2,2.3077717E-1,2.790644E-5,7.465842E-4,0E0,1.9646676E-1,9.627792E-2,1.4616244E-1,1.2992574E-1,4.8895365E-1,9.6524507E-4,3.2991534E-1,2.03468E-1,4.6050128E-2,4.1864667E-5,1.6265549E-6,0E0,2.45328E-6,1.4684057E-1,1.5818208E-2,3.853662E-2,2.1079355E-1,3.936104E-1,1.2327959E-1,8.815291E-3,9.969357E-1,6.7065483E-1,2.4509585E-1,2.1922663E-3,2.4419278E-5,3.2532895E-1,2.4903711E-2,8.738296E-4,2.178809E-1,2.6653213E-2,2.894139E-1,0E0,0E0,0E0,0E0,0E0,0E0,2.2834438E-1,5.9427433E-3,2.3819953E-1,0E0,0E0,0E0,0E0,0E0,0E0,0E0,0E0,0E0,0E0,0E0,0E0,0E0,0E0,0E0,0E0,0E0,0E0,0E0,0E0,0E0,0E0,0E0,0E0,0E0,0E0,0E0,0E0,0E0,0E0,0E0,0E0,0E0,0E0,0E0,0E0,0E0,0E0,0E0],"parents":[2147483647,0,0,1,1,2,2,3,3,4,4,5,5,6,6,7,7,8,8,9,9,10,10,11,11,12,12,14,14,15,15,16,16,17,17,18,18,19,19,20,20,21,21,22,22,23,23,24,24,26,26,27,27,28,28,29,29,30,30,31,31,32,32,33,33,34,34,35,35,36,36,37,37,38,38,39,39,40,40,41,41,42,42,43,43,44,44,51,51,52,52,53,53],"right_children":[2,4,6,8,10,12,14,16,18,20,22,24,26,-1,28,30,32,34,36,38,40,42,44,46,48,-1,50,52,54,56,58,60,62,64,66,68,70,72,74,76,78,80,82,84,86,-1,-1,-1,-1,-1,-1,88,90,92,-1,-1,-1,-1,-1,-1,-1,-1,-1,-1,-1,-1,-1,-1,-1,-1,-1,-1,-1,-1,-1,-1,-1,-1,-1,-1,-1,-1,-1,-1,-1,-1,-1,-1,-1,-1,-1,-1,-1],"split_conditions":[3.8452148E-3,1.5563965E-3,8.94928E-3,1.8753052E-2,3.265381E-2,5.8654785E-2,4.196167E-3,1.0238647E-2,6.8588257E-3,3.2592773E-2,6.9885254E-2,3.1066895E-2,3.5247803E-3,3.8152527E-2,6.30188E-3,1.35269165E-2,2.1743774E-4,2.444458E-2,7.358551E-3,7.6293945E-5,3.149414E-2,4.0405273E-2,4.711914E-2,2.8244019E-2,6.1035156E-5,-2.2160604E-3,1.2161255E-2,2.1362305E-4,7.4768066E-4,7.4920654E-3,3.6697388E-3,1.5060425E-2,6.919861E-3,3.4088135E-2,1.1917114E-2,1.6571045E-2,1.5258789E-2,2.7664185E-2,7.067871E-2,1.4457703E-2,9.1552734E-5,3.7109375E-2,3.7109375E-2,4.473877E-2,3.527832E-2,-2.0862673E-4,-4.866442E-4,-4.2064657E-5,-2.2685376E-4,-1.740507E-5,-2.08495E-4,6.1035156E-5,5.5389404E-3,4.4250488E-4,4.0837787E-2,-3.1188616E-4,8.616385E-5,-8.299946E-4,4.579402E-3,9.607105E-3,-1.0857343E-3,3.2307466E-3,1.6229354E-4,3.2996657E-4,-9.364049E-4,3.2364722E-2,1.2130043E-3,6.61767E-2,-5.181485E-4,1.1199898E-2,-7.984095E-4,-2.773636E-4,-6.478439E-4,-2.3274073E-4,-3.0806722E-4,1.6548522E-2,2.875937E-3,-3.6443185E-4,2.7715063E-3,-1.6234229E-4,-2.7677729E-3,1.0765935E-2,4.65752E-2,-3.8761526E-4,-8.366087E-3,-1.8681424E-3,3.887659E-2,-1.1091648E-3,4.2158674E-2,-1.4037579E-4,-8.728248E-3,4.027548E-2,-6.061002E-3],"split_indices":[10,27,18,26,8,23,10,0,29,0,23,23,8,0,10,29,19,0,29,11,23,0,0,23,8,0,8,8,8,0,0,23,18,19,8,0,0,0,19,19,10,8,8,0,26,0,0,0,0,0,0,8,10,8,0,0,0,0,0,0,0,0,0,0,0,0,0,0,0,0,0,0,0,0,0,0,0,0,0,0,0,0,0,0,0,0,0,0,0,0,0,0,0],"split_type":[0,0,0,0,0,0,0,0,0,0,0,0,0,0,0,0,0,0,0,0,0,0,0,0,0,0,0,0,0,0,0,0,0,0,0,0,0,0,0,0,0,0,0,0,0,0,0,0,0,0,0,0,0,0,0,0,0,0,0,0,0,0,0,0,0,0,0,0,0,0,0,0,0,0,0,0,0,0,0,0,0,0,0,0,0,0,0,0,0,0,0,0,0],"sum_hessian":[2.7887E4,2.7801E4,8.6E1,1.336E4,1.4441E4,6.9E1,1.7E1,1.2886E4,4.74E2,1.4398E4,4.3E1,6.2E1,7E0,4E0,1.3E1,1.0351E4,2.535E3,3.92E2,8.2E1,1.3229E4,1.169E3,1.3E1,3E1,2.7E1,3.5E1,2E0,5E0,9E0,4E0,1.0064E4,2.87E2,1.38E2,2.397E3,2.25E2,1.67E2,5E0,7.7E1,5.822E3,7.407E3,1.59E2,1.01E3,5E0,8E0,1.6E1,1.4E1,1.2E1,1.5E1,1E0,3.4E1,1E0,4E0,4E0,5E0,3E0,1E0,4.111E3,5.953E3,1.49E2,1.38E2,6.1E1,7.7E1,1.38E2,2.259E3,9.3E1,1.32E2,1E1,1.57E2,2E0,3E0,2.4E1,5.3E1,5.658E3,1.64E2,7.355E3,5.2E1,1.9E1,1.4E2,9.85E2,2.5E1,4E0,1E0,6E0,2E0,9E0,7E0,1.3E1,1E0,3E0,1E0,1E0,4E0,1E0,2E0],"tree_param":{"num_deleted":"0","num_feature":"32","num_nodes":"93","size_leaf_vector":"1"}},{"base_weights":[2.0399143E-4,-3.120343E-4,2.430503E-2,1.6162804E-3,-2.1546483E-3,5.8275577E-2,-3.938576E-3,6.9553405E-4,1.2199929E-2,-2.2471142E-3,2.0181106E-2,-6.4943074E-3,1.1620111E-1,-3.619869E-3,-3.6621143E-3,2.1525686E-4,1.607025E-2,5.4325773E-3,1.24493286E-1,-2.3585996E-3,1.2374486E-2,7.218624E-2,-9.089654E-3,-4.128501E-3,-1.2844058E-2,3.1030536E-1,9.236044E-2,-2.5587582E-3,-3.3312547E-3,-1.4807773E-4,1.4958576E-2,2.6191112E-2,-1.3928817E-2,4.0473074E-2,1.2108921E-3,-6.8084267E-4,1.5351583E-1,-2.2794236E-3,-7.0483014E-3,1.8948084E-1,-1.0127102E-2,1.6968386E-2,2.4548969E-1,-1.1922319E-2,-2.8908234E-3,-6.0589956E-3,-2.9335709E-3,-7.2615957E-3,-2.1303296E-3,1.8991843E-1,5.1309552E-2,1.1375501E-1,-2.1048123E-2,-6.1908425E-3,-2.023353E-3,-4.807427E-5,9.51498E-4,-2.6687677E-4,1.6118104E-2,1.8922802E-3,8.61296E-3,-7.1111874E-4,-1.8155387E-3,1.5283391E-2,2.6301616E-3,1.1818784E-2,1.6859345E-5,2.7111158E-2,8.47207E-3,-2.2665097E-4,-6.314152E-4,-1.9753475E-3,-2.748022E-4,2.0901173E-2,-1.267943E-3,-2.3225907E-3,-1.7409507E-4,1.2241768E-2,-2.4894297E-3,4.0804524E-2,1.028395E-2,-6.220983E-4,-1.4270244E-4,-3.876839E-4,-7.501771E-4,-3.409738E-4,-1.8868914E-4,-8.6252176E-4,-4.3335618E-4,2.523647E-2,-6.0726483E-3,7.6552564E-3,2.540121E-2,-9.13728E-3,-4.2510778E-4,-2.2168369E-4,-6.874096E-4,-5.278749E-4,-1.6144098E-4],"categories":[],"categories_nodes":[],"categories_segments":[],"categories_sizes":[],"default_left":[0,0,0,0,0,0,0,0,0,0,0,0,0,0,0,0,0,0,0,0,0,0,0,0,0,0,0,0,0,0,0,0,0,0,0,0,0,0,0,0,0,0,0,0,0,0,0,0,0,0,0,0,0,0,0,0,0,0,0,0,0,0,0,0,0,0,0,0,0,0,0,0,0,0,0,0,0,0,0,0,0,0,0,0,0,0,0,0,0,0,0,0,0,0,0,0,0,0,0],"id":7,"left_children":[1,3,5,7,9,11,13,15,17,19,21,23,25,27,-1,29,31,33,35,37,39,41,43,45,47,49,51,-1,53,55,57,59,61,63,65,-1,67,69,71,73,75,77,79,-1,81,83,85,87,-1,89,-1,91,93,95,97,-1,-1,-1,-1,-1,-1,-1,-1,-1,-1,-1,-1,-1,-1,-1,-1,-1,-1,-1,-1,-1,-1,-1,-1,-1,-1,-1,-1,-1,-1,-1,-1,-1,-1,-1,-1,-1,-1,-1,-1,-1,-1,-1,-1],"loss_changes":[3.488586E-1,9.758336E-2,5.643865E-1,1.3076748E-1,2.9050335E-2,1.0024931E0,3.221441E-3,9.116835E-2,8.15487E-1,2.2829354E-2,8.894548E-2,1.8548025E-3,6.238283E-1,1.9436236E-3,0E0,6.414404E-2,1.1391731E-1,1.4995196E-1,2.3349845E-1,5.1384866E-3,4.2434734E-1,1.9679277E-1,2.5597915E-2,1.9906531E-4,1.4508986E-3,2.6875293E-1,3.1053782E-1,0E0,1.173073E-3,3.7573144E-2,7.427541E-1,1.2035264E-1,2.6083384E-3,1.6954277E-1,1.1044405E-1,0E0,3.8153195E-1,6.970763E-4,1.251195E-2,5.003062E-2,1.0395178E-2,7.8092135E-2,7.3979735E-2,0E0,1.7148582E-4,8.110958E-5,2.3469911E-5,5.04622E-5,0E0,1.8749538E-1,0E0,5.388708E-1,2.4417749E-2,2.5357073E-4,2.830265E-4,0E0,0E0,0E0,0E0,0E0,0E0,0E0,0E0,0E0,0E0,0E0,0E0,0E0,0E0,0E0,0E0,0E0,0E0,0E0,0E0,0E0,0E0,0E0,0E0,0E0,0E0,0E0,0E0,0E0,0E0,0E0,0E0,0E0,0E0,0E0,0E0,0E0,0E0,0E0,0E0,0E0,0E0,0E0,0E0],"parents":[2147483647,0,0,1,1,2,2,3,3,4,4,5,5,6,6,7,7,8,8,9,9,10,10,11,11,12,12,13,13,15,15,16,16,17,17,18,18,19,19,20,20,21,21,22,22,23,23,24,24,25,25,26,26,28,28,29,29,30,30,31,31,32,32,33,33,34,34,36,36,37,37,38,38,39,39,40,40,41,41,42,42,44,44,45,45,46,46,47,47,49,49,51,51,52,52,53,53,54,54],"right_children":[2,4,6,8,10,12,14,16,18,20,22,24,26,28,-1,30,32,34,36,38,40,42,44,46,48,50,52,-1,54,56,58,60,62,64,66,-1,68,70,72,74,76,78,80,-1,82,84,86,88,-1,90,-1,92,94,96,98,-1,-1,-1,-1,-1,-1,-1,-1,-1,-1,-1,-1,-1,-1,-1,-1,-1,-1,-1,-1,-1,-1,-1,-1,-1,-1,-1,-1,-1,-1,-1,-1,-1,-1,-1,-1,-1,-1,-1,-1,-1,-1,-1,-1],"split_conditions":[9.963989E-3,1.5563965E-3,1.524353E-2,6.000519E-3,8.3862305E-2,4.722595E-3,1.5258789E-5,2.027893E-2,1.2763977E-2,7.637024E-3,1.6078949E-3,1.0032654E-2,2.7755737E-2,1.5426636E-2,-3.6621143E-3,3.019333E-3,6.2286377E-2,6.919861E-3,6.0691833E-3,4.7836304E-3,1.4457703E-2,1.0192871E-2,2.0771027E-3,3.8452148E-3,2.4139404E-2,1.5930176E-2,1.360321E-2,-2.5587582E-3,1.889038E-2,1.35269165E-2,2.746582E-4,4.1870117E-2,2.4673462E-2,2.067566E-2,1.725769E-2,-6.8084267E-4,1.6174316E-3,7.067871E-2,9.178162E-3,7.6293945E-5,9.468079E-3,6.9885254E-2,1.0498047E-2,-1.1922319E-2,8.69751E-3,2.6611328E-2,1.864624E-2,1.2588501E-2,-2.1303296E-3,1.5716553E-2,5.1309552E-2,3.5095215E-3,3.894043E-2,2.8411865E-2,3.6743164E-2,-4.807427E-5,9.51498E-4,-2.6687677E-4,1.6118104E-2,1.8922802E-3,8.61296E-3,-7.1111874E-4,-1.8155387E-3,1.5283391E-2,2.6301616E-3,1.1818784E-2,1.6859345E-5,2.7111158E-2,8.47207E-3,-2.2665097E-4,-6.314152E-4,-1.9753475E-3,-2.748022E-4,2.0901173E-2,-1.267943E-3,-2.3225907E-3,-1.7409507E-4,1.2241768E-2,-2.4894297E-3,4.0804524E-2,1.028395E-2,-6.220983E-4,-1.4270244E-4,-3.876839E-4,-7.501771E-4,-3.409738E-4,-1.8868914E-4,-8.6252176E-4,-4.3335618E-4,2.523647E-2,-6.0726483E-3,7.6552564E-3,2.540121E-2,-9.13728E-3,-4.2510778E-4,-2.2168369E-4,-6.874096E-4,-5.278749E-4,-1.6144098E-4],"split_indices":[28,27,18,6,19,27,10,26,29,28,29,18,23,18,0,28,23,18,6,28,19,11,29,10,19,19,27,0,27,29,27,18,26,23,23,0,26,19,27,11,27,23,11,0,29,23,28,18,0,19,0,10,23,23,23,0,0,0,0,0,0,0,0,0,0,0,0,0,0,0,0,0,0,0,0,0,0,0,0,0,0,0,0,0,0,0,0,0,0,0,0,0,0,0,0,0,0,0,0],"split_type":[0,0,0,0,0,0,0,0,0,0,0,0,0,0,0,0,0,0,0,0,0,0,0,0,0,0,0,0,0,0,0,0,0,0,0,0,0,0,0,0,0,0,0,0,0,0,0,0,0,0,0,0,0,0,0,0,0,0,0,0,0,0,0,0,0,0,0,0,0,0,0,0,0,0,0,0,0,0,0,0,0,0,0,0,0,0,0,0,0,0,0,0,0,0,0,0,0,0,0],"sum_hessian":[2.8049E4,2.7462E4,5.87E2,1.3419E4,1.4043E4,2.66E2,3.21E2,1.2346E4,1.073E3,1.3986E4,5.7E1,1.26E2,1.4E2,3.19E2,2E0,1.1973E4,3.73E2,1.013E3,6E1,1.3881E4,1.05E2,2E1,3.7E1,9.3E1,3.3E1,1.4E1,1.26E2,3E0,3.16E2,1.1686E4,2.87E2,2.79E2,9.4E1,1.08E2,9.05E2,1.1E1,4.9E1,1.3652E4,2.29E2,1.1E1,9.4E1,1.6E1,4E0,1E0,3.6E1,3.4E1,5.9E1,2.1E1,1.2E1,1E1,4E0,1.06E2,2E1,9.8E1,2.18E2,1.1298E4,3.88E2,2.57E2,3E1,2.5E2,2.9E1,3.7E1,5.7E1,1.1E1,9.7E1,7E0,8.98E2,1.7E1,3.2E1,1.361E4,4.2E1,5.7E1,1.72E2,1E1,1E0,3.6E1,5.8E1,4E0,1.2E1,1E0,3E0,1E1,2.6E1,1.5E1,1.9E1,3.9E1,2E1,1.3E1,8E0,8E0,2E0,8.5E1,2.1E1,3E0,1.7E1,1.5E1,8.3E1,2.3E1,1.95E2],"tree_param":{"num_deleted":"0","num_feature":"32","num_nodes":"99","size_leaf_vector":"1"}},{"base_weights":[2.3159578E-4,5.077802E-5,4.876503E-2,-3.49791E-5,5.981579E-2,-4.7270143E-3,2.272688E-1,7.5569784E-4,-1.9469083E-3,-8.032445E-4,1.5079455E-1,-3.1312052E-3,-2.4152763E-2,4.933938E-2,1.312678E-1,6.8142766E-4,1.1330255E-1,-1.9408602E-3,-2.56348E-3,-2.7287644E-3,1.895487E-3,2.678275E-1,2.831343E-4,-9.098445E-3,-2.76134E-3,-3.5173993E-3,-1.4068687E-4,-9.232162E-2,3.0227116E-1,4.7783874E-4,2.252322E-2,5.183061E-2,4.2548295E-2,-2.5378056E-3,-1.8716913E-3,-2.897934E-4,-1.8019693E-5,-1.3607349E-4,2.3571825E-4,1.3858736E-1,4.8011206E-2,-5.0089613E-4,1.7547137E-3,-3.1499434E-4,-1.3471976E-3,-5.137996E-3,-2.3468416E-3,-1.5015969E-2,-5.4345075E-2,1.8908766E-1,3.6507615E-1,-3.04752E-6,7.682729E-4,4.9212542E-3,-1.136362E-3,2.0310655E-2,-2.1162105E-3,-1.9537476E-4,-4.0610062E-4,-1.8655047E-4,-2.1605448E-4,2.6359532E-2,-1.1595503E-2,2.7124883E-4,-4.2648153E-5,-2.7084156E-4,-1.350211E-3,-2.7831536E-4,-1.792601E-4,-8.685124E-3,-2.397236E-3,3.5877537E-2,-1.0019184E-2,5.2184917E-2,1.5622738E-2],"categories":[],"categories_nodes":[],"categories_segments":[],"categories_sizes":[],"default_left":[0,0,0,0,0,0,0,0,0,0,0,0,0,0,0,0,0,0,0,0,0,0,0,0,0,0,0,0,0,0,0,0,0,0,0,0,0,0,0,0,0,0,0,0,0,0,0,0,0,0,0,0,0,0,0,0,0,0,0,0,0,0,0,0,0,0,0,0,0,0,0,0,0,0,0],"id":8,"left_children":[1,3,5,7,9,11,13,15,17,19,21,23,25,-1,27,29,31,33,-1,35,37,39,41,43,45,-1,-1,47,49,51,53,55,-1,57,59,-1,-1,-1,-1,61,-1,-1,63,-1,-1,65,67,-1,69,71,73,-1,-1,-1,-1,-1,-1,-1,-1,-1,-1,-1,-1,-1,-1,-1,-1,-1,-1,-1,-1,-1,-1,-1,-1],"loss_changes":[2.4588405E-1,1.430793E-1,9.9412155E-1,4.2143643E-2,2.2072288E-1,2.435356E-3,5.483917E-1,1.647765E-1,1.1187401E-3,1.3508387E-4,2.8176096E-1,1.4261372E-4,1.4546411E-3,0E0,7.543624E-1,8.763461E-2,2.2742131E-1,3.319718E-4,0E0,5.9448867E-6,1.9744723E-5,1.8038374E-1,7.109121E-5,6.1627856E-5,5.9855753E-5,0E0,0E0,1.1607967E-2,9.162068E-3,7.152219E-2,1.6516307E-1,1.3680267E-1,0E0,7.4291974E-4,9.035692E-6,0E0,0E0,0E0,0E0,2.53304E-1,0E0,0E0,1.5780479E-5,0E0,0E0,1.6664356E-4,1.0487507E-5,0E0,4.8290733E-3,3.3046937E-1,1.14923954E-1,0E0,0E0,0E0,0E0,0E0,0E0,0E0,0E0,0E0,0E0,0E0,0E0,0E0,0E0,0E0,0E0,0E0,0E0,0E0,0E0,0E0,0E0,0E0,0E0],"parents":[2147483647,0,0,1,1,2,2,3,3,4,4,5,5,6,6,7,7,8,8,9,9,10,10,11,11,12,12,14,14,15,15,16,16,17,17,19,19,20,20,21,21,22,22,23,23,24,24,27,27,28,28,29,29,30,30,31,31,33,33,34,34,39,39,42,42,45,45,46,46,48,48,49,49,50,50],"right_children":[2,4,6,8,10,12,14,16,18,20,22,24,26,-1,28,30,32,34,-1,36,38,40,42,44,46,-1,-1,48,50,52,54,56,-1,58,60,-1,-1,-1,-1,62,-1,-1,64,-1,-1,66,68,-1,70,72,74,-1,-1,-1,-1,-1,-1,-1,-1,-1,-1,-1,-1,-1,-1,-1,-1,-1,-1,-1,-1,-1,-1,-1,-1],"split_conditions":[3.5247803E-3,3.7109375E-2,8.94928E-3,3.9672852E-4,2.166748E-3,5.8654785E-2,4.043579E-3,5.0598145E-2,1.5258789E-5,4.9804688E-2,3.414154E-3,9.1552734E-5,8.154297E-2,4.933938E-2,5.5389404E-3,3.8909912E-2,2.2888184E-4,2.456665E-3,-2.56348E-3,1.8539429E-3,4.611206E-2,1.1077881E-2,1.550293E-2,6.1035156E-5,4.714966E-3,-3.5173993E-3,-1.4068687E-4,4.135132E-3,3.9672852E-4,6.000519E-3,1.9821167E-2,2.9953003E-2,4.2548295E-2,2.0492554E-2,1.6159058E-2,-2.897934E-4,-1.8019693E-5,-1.3607349E-4,2.3571825E-4,1.0498047E-2,4.8011206E-2,-5.0089613E-4,5.5358887E-2,-3.1499434E-4,-1.3471976E-3,4.623413E-3,3.4362793E-2,-1.5015969E-2,1.2397766E-2,3.6621094E-4,6.2561035E-4,-3.04752E-6,7.682729E-4,4.9212542E-3,-1.136362E-3,2.0310655E-2,-2.1162105E-3,-1.9537476E-4,-4.0610062E-4,-1.8655047E-4,-2.1605448E-4,2.6359532E-2,-1.1595503E-2,2.7124883E-4,-4.2648153E-5,-2.7084156E-4,-1.350211E-3,-2.7831536E-4,-1.792601E-4,-8.685124E-3,-2.397236E-3,3.5877537E-2,-1.0019184E-2,5.2184917E-2,1.5622738E-2],"split_indices":[10,8,18,11,11,23,10,18,10,8,29,8,23,0,10,18,11,11,0,1,18,11,11,8,10,0,0,10,8,6,8,8,0,18,8,0,0,0,0,11,0,0,8,0,0,10,23,0,18,8,8,0,0,0,0,0,0,0,0,0,0,0,0,0,0,0,0,0,0,0,0,0,0,0,0],"split_type":[0,0,0,0,0,0,0,0,0,0,0,0,0,0,0,0,0,0,0,0,0,0,0,0,0,0,0,0,0,0,0,0,0,0,0,0,0,0,0,0,0,0,0,0,0,0,0,0,0,0,0,0,0,0,0,0,0,0,0,0,0,0,0,0,0,0,0,0,0,0,0,0,0,0,0],"sum_hessian":[2.8018E4,2.7915E4,1.03E2,2.7876E4,3.9E1,8E1,2.3E1,1.9721E4,8.155E3,2.4E1,1.5E1,7.5E1,5E0,5E0,1.8E1,1.9709E4,1.2E1,8.154E3,1E0,1.4E1,1E1,8E0,7E0,3E0,7.2E1,3E0,2E0,8E0,1E1,1.9528E4,1.81E2,1.1E1,1E0,8.43E2,7.311E3,1.3E1,1E0,1E0,9E0,6E0,2E0,1E0,6E0,2E0,1E0,9E0,6.3E1,2E0,6E0,5E0,5E0,1.8242E4,1.286E3,1.01E2,8E1,3E0,8E0,6.11E2,2.32E2,7.165E3,1.46E2,4E0,2E0,4E0,2E0,8E0,1E0,3.3E1,3E1,2E0,4E0,3E0,2E0,2E0,3E0],"tree_param":{"num_deleted":"0","num_feature":"32","num_nodes":"75","size_leaf_vector":"1"}},{"base_weights":[-9.256288E-5,-2.5479673E-4,4.301308E-2,-3.5569735E-4,2.927884E-2,-3.622479E-3,1.4050566E-1,-5.7031336E-4,1.1365196E-2,-5.4643885E-3,7.718739E-2,-2.3866303E-3,-3.1251458E-3,4.9310848E-2,7.705499E-2,1.0385633E-3,-1.905507E-3,3.8666226E-2,-3.846759E-3,-7.920314E-3,1.1704423E-3,1.37717E-1,-4.4441745E-3,-2.7563036E-3,-1.4547833E-3,-1.148066E-2,1.2189685E-1,2.4305403E-4,1.377512E-2,-2.159826E-3,4.7945823E-3,-8.161655E-3,8.2057185E-2,-2.838214E-3,-2.4299102E-2,-6.9417013E-3,-1.8002162E-2,-1.5467443E-3,1.9164657E-3,1.8000925E-1,5.1928002E-2,-1.301702E-3,-1.2354262E-2,-1.8351392E-3,-3.3816362E-3,-6.601404E-8,-1.5239957E-4,1.7166144E-1,-7.12524E-2,2.7839625E-1,-5.635778E-3,-7.4415664E-5,9.6521026E-4,6.752008E-4,1.6148152E-2,-5.409953E-4,-1.952641E-4,1.30250575E-2,-7.212235E-5,-5.081031E-4,-1.0923992E-3,2.3639737E-2,7.0601525E-3,-5.631795E-4,-1.6407591E-4,-1.50815E-3,-4.5877136E-3,-8.1558723E-4,-1.9882584E-4,-1.2158383E-4,-2.5787405E-3,-1.7118708E-5,-1.948201E-4,2.3734728E-4,-3.980494E-5,1.0944105E-2,4.2580172E-2,-9.068126E-3,1.3834618E-2,-4.7585132E-4,-6.69754E-5,-2.6118418E-3,-2.3836188E-4,-3.749849E-4,-1.3354563E-4,-3.8451617E-4,-1.4417515E-4,-1.0511178E-2,3.6260393E-2,-2.934694E-3,-9.890738E-3,1.1658686E-2,3.3986982E-2,-2.6454327E-3,-1.3382437E-4],"categories":[],"categories_nodes":[],"categories_segments":[],"categories_sizes":[],"default_left":[0,0,0,0,0,0,0,0,0,0,0,0,0,0,0,0,0,0,0,0,0,0,0,0,0,0,0,0,0,0,0,0,0,0,0,0,0,0,0,0,0,0,0,0,0,0,0,0,0,0,0,0,0,0,0,0,0,0,0,0,0,0,0,0,0,0,0,0,0,0,0,0,0,0,0,0,0,0,0,0,0,0,0,0,0,0,0,0,0,0,0,0,0,0,0],"id":9,"left_children":[1,3,5,7,9,11,13,15,17,19,21,23,-1,-1,25,27,29,31,33,35,37,39,41,43,45,47,49,51,53,55,57,59,61,63,65,67,69,71,73,75,77,79,81,83,85,-1,-1,87,89,91,93,-1,-1,-1,-1,-1,-1,-1,-1,-1,-1,-1,-1,-1,-1,-1,-1,-1,-1,-1,-1,-1,-1,-1,-1,-1,-1,-1,-1,-1,-1,-1,-1,-1,-1,-1,-1,-1,-1,-1,-1,-1,-1,-1,-1],"loss_changes":[1.958344E-1,8.3145395E-2,4.7790408E-1,6.994721E-2,1.5854907E-1,2.383872E-3,7.2268164E-1,5.8657542E-2,2.0779976E-1,9.2177023E-4,1.9825706E-1,2.0103704E-5,0E0,0E0,1.2050255E-1,1.2547195E-1,2.5436837E-2,3.6438102E-1,6.572965E-3,2.7954928E-4,3.5397636E-5,7.410136E-2,4.3134866E-4,2.20199E-5,2.2131499E-6,1.3264522E-1,4.0074462E-1,1.0828571E-1,7.5410664E-1,9.670585E-3,3.77921E-1,6.848406E-4,1.4774036E-1,1.0210772E-3,2.2915704E-3,2.1834276E-4,3.6070345E-4,1.8753981E-6,1.46955135E-5,2.135768E-1,1.2346169E-1,2.7396312E-5,6.239312E-4,1.6040693E-5,1.9633444E-5,0E0,0E0,1.9665724E-1,7.527426E-3,4.9898624E-2,1.0382188E-3,0E0,0E0,0E0,0E0,0E0,0E0,0E0,0E0,0E0,0E0,0E0,0E0,0E0,0E0,0E0,0E0,0E0,0E0,0E0,0E0,0E0,0E0,0E0,0E0,0E0,0E0,0E0,0E0,0E0,0E0,0E0,0E0,0E0,0E0,0E0,0E0,0E0,0E0,0E0,0E0,0E0,0E0,0E0,0E0],"parents":[2147483647,0,0,1,1,2,2,3,3,4,4,5,5,6,6,7,7,8,8,9,9,10,10,11,11,14,14,15,15,16,16,17,17,18,18,19,19,20,20,21,21,22,22,23,23,24,24,25,25,26,26,27,27,28,28,29,29,30,30,31,31,32,32,33,33,34,34,35,35,36,36,37,37,38,38,39,39,40,40,41,41,42,42,43,43,44,44,47,47,48,48,49,49,50,50],"right_children":[2,4,6,8,10,12,14,16,18,20,22,24,-1,-1,26,28,30,32,34,36,38,40,42,44,46,48,50,52,54,56,58,60,62,64,66,68,70,72,74,76,78,80,82,84,86,-1,-1,88,90,92,94,-1,-1,-1,-1,-1,-1,-1,-1,-1,-1,-1,-1,-1,-1,-1,-1,-1,-1,-1,-1,-1,-1,-1,-1,-1,-1,-1,-1,-1,-1,-1,-1,-1,-1,-1,-1,-1,-1,-1,-1,-1,-1,-1,-1],"split_conditions":[3.5247803E-3,2.9190063E-2,8.323669E-3,1.0154724E-2,3.125E-2,1.9821167E-2,1.2397766E-2,9.918213E-5,1.084137E-2,4.559326E-2,3.414154E-3,1.864624E-2,-3.1251458E-3,4.9310848E-2,3.5095215E-4,6.210327E-3,3.446579E-3,4.890442E-3,1.5258789E-5,4.3273926E-2,3.7384033E-4,3.4362793E-2,4.0802002E-2,2.8411865E-2,5.7922363E-2,4.196167E-3,7.067871E-2,3.6254883E-2,1.2763977E-2,1.5563965E-3,1.2664795E-3,5.645752E-4,1.5716553E-2,3.6743164E-2,1.1955261E-2,9.918213E-5,2.2903442E-2,1.6998291E-2,5.7922363E-2,3.7109375E-2,2.2521973E-2,2.1606445E-2,6.9885254E-2,3.8452148E-3,3.4362793E-2,-6.601404E-8,-1.5239957E-4,4.135132E-3,6.1035156E-5,3.9672852E-4,7.797241E-3,-7.4415664E-5,9.6521026E-4,6.752008E-4,1.6148152E-2,-5.409953E-4,-1.952641E-4,1.30250575E-2,-7.212235E-5,-5.081031E-4,-1.0923992E-3,2.3639737E-2,7.0601525E-3,-5.631795E-4,-1.6407591E-4,-1.50815E-3,-4.5877136E-3,-8.1558723E-4,-1.9882584E-4,-1.2158383E-4,-2.5787405E-3,-1.7118708E-5,-1.948201E-4,2.3734728E-4,-3.980494E-5,1.0944105E-2,4.2580172E-2,-9.068126E-3,1.3834618E-2,-4.7585132E-4,-6.69754E-5,-2.6118418E-3,-2.3836188E-4,-3.749849E-4,-1.3354563E-4,-3.8451617E-4,-1.4417515E-4,-1.0511178E-2,3.6260393E-2,-2.934694E-3,-9.890738E-3,1.1658686E-2,3.3986982E-2,-2.6454327E-3,-1.3382437E-4],"split_indices":[10,8,27,28,26,8,27,27,27,8,29,28,0,0,8,6,28,27,10,8,27,26,27,23,0,10,19,23,29,27,27,27,19,23,27,27,26,0,0,8,27,27,23,10,23,0,0,10,8,8,10,0,0,0,0,0,0,0,0,0,0,0,0,0,0,0,0,0,0,0,0,0,0,0,0,0,0,0,0,0,0,0,0,0,0,0,0,0,0,0,0,0,0,0,0],"split_type":[0,0,0,0,0,0,0,0,0,0,0,0,0,0,0,0,0,0,0,0,0,0,0,0,0,0,0,0,0,0,0,0,0,0,0,0,0,0,0,0,0,0,0,0,0,0,0,0,0,0,0,0,0,0,0,0,0,0,0,0,0,0,0,0,0,0,0,0,0,0,0,0,0,0,0,0,0,0,0,0,0,0,0,0,0,0,0,0,0,0,0,0,0,0,0],"sum_hessian":[2.8001E4,2.7897E4,1.04E2,2.7803E4,9.4E1,7.1E1,3.3E1,2.7304E4,4.99E2,5.5E1,3.9E1,6.9E1,2E0,4E0,2.9E1,1.2383E4,1.4921E4,1.78E2,3.21E2,4E1,1.5E1,2.2E1,1.7E1,4.8E1,2.1E1,1E1,1.9E1,1.1656E4,7.27E2,1.4376E4,5.45E2,8.6E1,9.2E1,3.07E2,1.4E1,3.8E1,2E0,3E0,1.2E1,1.4E1,8E0,1.3E1,4E0,2.1E1,2.7E1,1E0,2E1,2E0,8E0,8E0,1.1E1,1.055E4,1.106E3,6.95E2,3.2E1,8.6E2,1.3516E4,2.2E1,5.23E2,4.2E1,4.4E1,5E0,8.7E1,9.1E1,2.16E2,1.1E1,3E0,3E1,8E0,1E0,1E0,1E0,2E0,1E1,2E0,1.2E1,2E0,3E0,5E0,1E0,1.2E1,1E0,3E0,3E0,1.8E1,2.1E1,6E0,1E0,1E0,4E0,4E0,3E0,5E0,1E0,1E1],"tree_param":{"num_deleted":"0","num_feature":"32","num_nodes":"95","size_leaf_vector":"1"}},{"base_weights":[2.0951333E-5,-2.3123884E-4,4.096855E-2,1.1116882E-3,-1.3241284E-3,-4.1986518E-3,1.1846468E-1,5.08296E-4,1.0919033E-2,-1.8985586E-3,3.8052518E-3,-3.6236136E-3,-3.3151384E-3,3.859494E-1,8.353735E-2,-8.4119354E-4,5.9540872E-3,-5.694339E-3,2.7733373E-2,-3.4183806E-3,-1.7937545E-3,4.90693E-2,-2.9199463E-4,-3.1255472E-3,-1.0363494E-2,2.3761143E-1,5.0452955E-2,1.5121517E-3,1.3134338E-1,-5.0976207E-3,2.3180545E-4,2.7219478E-2,3.7138644E-3,-7.6290923E-3,7.846543E-3,5.3806E-2,9.190395E-4,-4.793069E-3,6.32148E-2,-2.1572977E-3,-1.4878268E-3,9.023311E-2,-1.0883883E-2,5.9170406E-2,-7.147059E-4,-5.03482E-3,-1.7051426E-3,-1.3175607E-2,3.2545932E-4,3.174463E-2,-4.086401E-3,-7.7650055E-2,3.605111E-2,3.0950007E-1,6.0494855E-2,-3.3820604E-4,-6.1778305E-4,-6.9175505E-5,3.4538321E-3,1.9649172E-3,1.7064542E-2,2.3756796E-3,1.2011764E-4,-6.608004E-4,-8.261471E-4,5.3666434E-3,-1.1829974E-3,6.3726157E-3,-1.4156982E-3,5.9589846E-3,-8.171401E-4,-4.201963E-4,-1.6063827E-3,2.3179354E-2,-4.0390696E-3,-2.1297042E-4,-8.805992E-4,-1.4853763E-4,-2.4643648E-4,3.7822995E-2,6.014438E-3,-1.3516477E-3,-3.313547E-4,-2.6673574E-3,2.6836423E-2,-4.2014206E-3,-3.5892906E-5,-2.9468656E-4,-6.162984E-4,-1.985047E-4,-4.201036E-5,-5.019214E-4,-1.5999001E-3,-9.106272E-3,-2.941227E-3,4.3497242E-2,-1.9541807E-3,3.552467E-2,-5.1109754E-3,-5.11997E-3,9.484567E-3],"categories":[],"categories_nodes":[],"categories_segments":[],"categories_sizes":[],"default_left":[0,0,0,0,0,0,0,0,0,0,0,0,0,0,0,0,0,0,0,0,0,0,0,0,0,0,0,0,0,0,0,0,0,0,0,0,0,0,0,0,0,0,0,0,0,0,0,0,0,0,0,0,0,0,0,0,0,0,0,0,0,0,0,0,0,0,0,0,0,0,0,0,0,0,0,0,0,0,0,0,0,0,0,0,0,0,0,0,0,0,0,0,0,0,0,0,0,0,0,0,0],"id":10,"left_children":[1,3,5,7,9,11,13,15,17,19,21,23,-1,25,27,29,31,33,35,37,39,41,43,45,47,49,-1,51,53,55,57,59,61,63,65,67,69,71,73,75,77,79,81,83,85,87,89,91,-1,-1,-1,93,95,97,99,-1,-1,-1,-1,-1,-1,-1,-1,-1,-1,-1,-1,-1,-1,-1,-1,-1,-1,-1,-1,-1,-1,-1,-1,-1,-1,-1,-1,-1,-1,-1,-1,-1,-1,-1,-1,-1,-1,-1,-1,-1,-1,-1,-1,-1,-1],"loss_changes":[2.8848255E-1,4.0751357E-2,5.990459E-1,7.371684E-2,4.5111798E-2,1.6946051E-3,5.56338E-1,8.626067E-2,2.0184347E-1,2.1867193E-3,2.859905E-1,3.3015443E-4,0E0,3.2474995E-3,2.2331548E-1,4.2964283E-2,1.1094593E-1,9.596029E-3,2.5093463E-1,8.1552066E-2,1.4293902E-3,3.1687346E-1,3.5608917E-2,2.6803277E-4,3.1095056E-4,1.24132365E-1,0E0,6.2951334E-2,4.3567383E-1,3.4890026E-3,2.3809852E-1,2.376897E-1,1.0623449E-1,1.5139207E-4,4.2107362E-2,1.2360728E-1,9.542207E-2,5.728623E-3,3.237446E-1,1.0607298E-3,1.30860135E-5,6.358265E-1,1.0114824E-3,1.8673854E-1,2.0643847E-2,8.312741E-5,2.0747364E-5,5.7869824E-5,0E0,0E0,0E0,1.8506162E-3,3.633353E-1,1.8312335E-1,1.0844962E-1,0E0,0E0,0E0,0E0,0E0,0E0,0E0,0E0,0E0,0E0,0E0,0E0,0E0,0E0,0E0,0E0,0E0,0E0,0E0,0E0,0E0,0E0,0E0,0E0,0E0,0E0,0E0,0E0,0E0,0E0,0E0,0E0,0E0,0E0,0E0,0E0,0E0,0E0,0E0,0E0,0E0,0E0,0E0,0E0,0E0,0E0],"parents":[2147483647,0,0,1,1,2,2,3,3,4,4,5,5,6,6,7,7,8,8,9,9,10,10,11,11,13,13,14,14,15,15,16,16,17,17,18,18,19,19,20,20,21,21,22,22,23,23,24,24,25,25,27,27,28,28,29,29,30,30,31,31,32,32,33,33,34,34,35,35,36,36,37,37,38,38,39,39,40,40,41,41,42,42,43,43,44,44,45,45,46,46,47,47,51,51,52,52,53,53,54,54],"right_children":[2,4,6,8,10,12,14,16,18,20,22,24,-1,26,28,30,32,34,36,38,40,42,44,46,48,50,-1,52,54,56,58,60,62,64,66,68,70,72,74,76,78,80,82,84,86,88,90,92,-1,-1,-1,94,96,98,100,-1,-1,-1,-1,-1,-1,-1,-1,-1,-1,-1,-1,-1,-1,-1,-1,-1,-1,-1,-1,-1,-1,-1,-1,-1,-1,-1,-1,-1,-1,-1,-1,-1,-1,-1,-1,-1,-1,-1,-1,-1,-1,-1,-1,-1,-1],"split_conditions":[1.5258789E-5,9.918213E-5,8.323669E-3,1.2763977E-2,3.0136108E-2,6.1569214E-3,4.4250488E-4,1.1100769E-2,4.0283203E-3,1.5563965E-3,2.7755737E-2,4.0664673E-3,-3.3151384E-3,3.250122E-2,3.5247803E-3,6.401062E-3,1.15356445E-2,3.6697388E-3,5.104065E-3,2.658081E-2,3.9672852E-4,1.5426636E-2,8.8500977E-4,3.8452148E-3,7.6293945E-5,5.7922363E-2,5.0452955E-2,1.0070801E-3,1.2550354E-2,2.067566E-2,1.1665344E-2,1.0932922E-2,1.43585205E-2,1.6059875E-3,2.5604248E-2,1.3534546E-2,1.2886047E-2,3.302002E-2,1.3534546E-2,3.8909912E-2,4.5166016E-2,3.137207E-2,9.468079E-3,7.7056885E-4,1.5563965E-3,2.6611328E-2,4.345703E-2,4.722595E-3,3.2545932E-4,3.174463E-2,-4.086401E-3,6.47583E-2,1.0986328E-3,6.210327E-3,5.5236816E-3,-3.3820604E-4,-6.1778305E-4,-6.9175505E-5,3.4538321E-3,1.9649172E-3,1.7064542E-2,2.3756796E-3,1.2011764E-4,-6.608004E-4,-8.261471E-4,5.3666434E-3,-1.1829974E-3,6.3726157E-3,-1.4156982E-3,5.9589846E-3,-8.171401E-4,-4.201963E-4,-1.6063827E-3,2.3179354E-2,-4.0390696E-3,-2.1297042E-4,-8.805992E-4,-1.4853763E-4,-2.4643648E-4,3.7822995E-2,6.014438E-3,-1.3516477E-3,-3.313547E-4,-2.6673574E-3,2.6836423E-2,-4.2014206E-3,-3.5892906E-5,-2.9468656E-4,-6.162984E-4,-1.985047E-4,-4.201036E-5,-5.019214E-4,-1.5999001E-3,-9.106272E-3,-2.941227E-3,4.3497242E-2,-1.9541807E-3,3.552467E-2,-5.1109754E-3,-5.11997E-3,9.484567E-3],"split_indices":[10,27,27,29,0,16,10,0,0,27,23,27,0,23,10,0,0,0,0,0,11,18,27,10,11,0,0,10,27,23,29,29,23,0,23,18,29,18,18,18,11,0,27,27,27,23,23,27,0,0,0,0,10,10,10,0,0,0,0,0,0,0,0,0,0,0,0,0,0,0,0,0,0,0,0,0,0,0,0,0,0,0,0,0,0,0,0,0,0,0,0,0,0,0,0,0,0,0,0,0,0],"split_type":[0,0,0,0,0,0,0,0,0,0,0,0,0,0,0,0,0,0,0,0,0,0,0,0,0,0,0,0,0,0,0,0,0,0,0,0,0,0,0,0,0,0,0,0,0,0,0,0,0,0,0,0,0,0,0,0,0,0,0,0,0,0,0,0,0,0,0,0,0,0,0,0,0,0,0,0,0,0,0,0,0,0,0,0,0,0,0,0,0,0,0,0,0,0,0,0,0,0,0,0,0],"sum_hessian":[2.7934E4,2.7764E4,1.7E2,1.2457E4,1.5307E4,1.08E2,6.2E1,1.1736E4,7.21E2,1.3766E4,1.541E3,1.07E2,1E0,6E0,5.6E1,9.406E3,2.33E3,3.63E2,3.58E2,8.86E2,1.288E4,1.27E2,1.414E3,1.01E2,6E0,4E0,2E0,2.1E1,3.5E1,1.893E3,7.513E3,2.21E2,2.109E3,3.18E2,4.5E1,1.81E2,1.77E2,8.69E2,1.7E1,5.883E3,6.997E3,7.5E1,5.2E1,9E0,1.405E3,4.2E1,5.9E1,5E0,1E0,3E0,1E0,6E0,1.5E1,9E0,2.6E1,7.33E2,1.16E3,7.317E3,1.96E2,2.11E2,1E1,2.34E2,1.875E3,1.26E2,1.92E2,1.3E1,3.2E1,1.58E2,2.3E1,2.3E1,1.54E2,8.27E2,4.2E1,6E0,1.1E1,5.86E3,2.3E1,6.982E3,1.5E1,6E0,6.9E1,3.8E1,1.4E1,7E0,2E0,1.1E1,1.394E3,1.6E1,2.6E1,4.8E1,1.1E1,2E0,3E0,4E0,2E0,1E0,1.4E1,8E0,1E0,6E0,2E1],"tree_param":{"num_deleted":"0","num_feature":"32","num_nodes":"101","size_leaf_vector":"1"}}]},"name":"gbtree"},"learner_model_param":{"base_score":"[4.5401333E-3]","boost_from_average":"1","num_class":"0","num_feature":"32","num_target":"1"},"objective":{"name":"reg:squarederror","reg_loss_param":{"scale_pos_weight":"1"}}},"version":[3,1,2]}