{"learner":{"attributes":{"best_iteration":"9","best_score":"0.6154204012708694"},"feature_names":[],"feature_types":[],"gradient_booster":{"model":{"cats":{"enc":[],"feature_segments":[],"sorted_idx":[]},"gbtree_model_param":{"num_parallel_tree":"1","num_trees":"20"},"iteration_indptr":[0,1,2,3,4,5,6,7,8,9,10,11,12,13,14,15,16,17,18,19,20],"tree_info":[0,0,0,0,0,0,0,0,0,0,0,0,0,0,0,0,0,0,0,0],"trees":[{"base_weights":[-5.7960656E-2,-3.5220957E-1,4.6583262E-1,-1.6914856E-1,-7.7975357E-1,3.6565045E-1,9.959803E-1,-6.1377827E-2,-3.3712733E-1,-6.24108E-1,-1E0,2.2130695E-1,5.28669E-1,7.0890254E-1,1E0,-1.76695E-1,1.0097122E-1,-2.2958317E-1,-4.1459522E-1,-6.420211E-1,2.349915E-1,-4.6329144E-3,-1E0,1.2513818E-1,3.1189343E-1,5.395507E-1,-4.024786E-1,8.415768E-1,1.612501E-1,1E-1,3.5363164E-2,-3.055943E-1,-2.7457468E-2,-8.989974E-3,2.4027584E-1,-3.873514E-1,-1.1986421E-1,-4.9716264E-1,-1.8113492E-1,-5.922941E-1,-7.877602E-1,4.840007E-2,9.5151985E-1,-2.631837E-2,-1E-1,1.8685082E-1,-1.7899317E-1,2.233424E-1,5.536373E-1,5.452337E-1,-1E-1,-1.6510203E-1,-1E-1,1E0,6.5746355E-1,-3.3037993E-1,5.315269E-1,-3.35281E-2,2.4336815E-2,6.0996093E-2,-6.128294E-3,-4.6292706E-3,5.2747786E-2,2.9658098E-2,-2.746856E-2,-3.4560822E-2,-1E-1,1.377654E-2,-2.3578322E-2,-4.736312E-2,-1E-1,8.880709E-2,-2.3619702E-2,-6.437607E-2,-3.67068E-2,-9.448893E-2,-5.3695153E-2,-8.713627E-2,3.4506124E-2,1E-1,1.7870072E-2,1E-1,1.6541498E-2,-3.497323E-2,1.9235339E-2,2.5260929E-2,-2.8623957E-2,5.9722435E-2,-6.663729E-2,5.5052496E-2,-5.3465057E-2,-5.0999403E-2,1E-1,1E-1,1.7870072E-2,3.8630627E-2,9.5769145E-2,-8.120398E-2,-1.2304707E-2,9.460183E-2,2.3089452E-2],"categories":[],"categories_nodes":[],"categories_segments":[],"categories_sizes":[],"default_left":[0,0,0,0,0,0,0,0,0,0,0,0,0,0,0,0,0,0,0,0,0,0,0,0,0,0,0,0,0,0,0,0,0,0,0,0,0,0,0,0,0,0,0,0,0,0,0,0,0,0,0,0,0,0,0,0,0,0,0,0,0,0,0,0,0,0,0,0,0,0,0,0,0,0,0,0,0,0,0,0,0,0,0,0,0,0,0,0,0,0,0,0,0,0,0,0,0,0,0,0,0],"id":0,"left_children":[1,3,5,7,9,11,13,15,17,19,21,23,25,27,29,31,33,35,37,39,41,-1,43,45,47,49,51,53,55,-1,-1,57,59,61,63,65,67,69,71,73,75,77,79,-1,-1,81,83,85,87,89,-1,91,-1,93,95,97,99,-1,-1,-1,-1,-1,-1,-1,-1,-1,-1,-1,-1,-1,-1,-1,-1,-1,-1,-1,-1,-1,-1,-1,-1,-1,-1,-1,-1,-1,-1,-1,-1,-1,-1,-1,-1,-1,-1,-1,-1,-1,-1,-1,-1],"loss_changes":[1.0647312E3,3.4605853E2,1.3161328E2,5.6070297E1,6.2353333E1,4.9098755E1,9.367157E0,3.537705E1,9.991577E0,1.4055664E1,1.2562866E0,9.639904E0,1.0162384E1,8.759148E0,3.112793E-2,2.1241516E1,1.2027207E1,8.767763E0,1.3452072E1,5.949829E0,2.5192313E0,0E0,2.1636963E-1,1.0179544E1,1.2109295E1,1.0000519E1,1.990947E0,2.8450623E0,4.7467065E0,0E0,0E0,9.739445E0,1.1099033E1,8.823192E0,1.0123615E1,6.580866E0,9.044817E0,7.3184814E0,1.1108309E1,7.462265E0,8.24971E0,4.7418537E0,4.934337E-1,0E0,0E0,1.0007097E1,5.88134E0,6.335022E0,8.50893E0,5.8259277E0,0E0,5.298241E0,0E0,5.026245E-1,4.009821E0,1.0389507E0,1.6141167E0,0E0,0E0,0E0,0E0,0E0,0E0,0E0,0E0,0E0,0E0,0E0,0E0,0E0,0E0,0E0,0E0,0E0,0E0,0E0,0E0,0E0,0E0,0E0,0E0,0E0,0E0,0E0,0E0,0E0,0E0,0E0,0E0,0E0,0E0,0E0,0E0,0E0,0E0,0E0,0E0,0E0,0E0,0E0,0E0],"parents":[2147483647,0,0,1,1,2,2,3,3,4,4,5,5,6,6,7,7,8,8,9,9,10,10,11,11,12,12,13,13,14,14,15,15,16,16,17,17,18,18,19,19,20,20,22,22,23,23,24,24,25,25,26,26,27,27,28,28,31,31,32,32,33,33,34,34,35,35,36,36,37,37,38,38,39,39,40,40,41,41,42,42,45,45,46,46,47,47,48,48,49,49,51,51,53,53,54,54,55,55,56,56],"right_children":[2,4,6,8,10,12,14,16,18,20,22,24,26,28,30,32,34,36,38,40,42,-1,44,46,48,50,52,54,56,-1,-1,58,60,62,64,66,68,70,72,74,76,78,80,-1,-1,82,84,86,88,90,-1,92,-1,94,96,98,100,-1,-1,-1,-1,-1,-1,-1,-1,-1,-1,-1,-1,-1,-1,-1,-1,-1,-1,-1,-1,-1,-1,-1,-1,-1,-1,-1,-1,-1,-1,-1,-1,-1,-1,-1,-1,-1,-1,-1,-1,-1,-1,-1,-1],"split_conditions":[5.3710938E-2,4.2211914E-1,1.7021484E0,1.7538071E-3,1.9375E0,4.423828E-1,2.1386719E0,2.067566E-2,1.6552734E-1,1.2792969E-1,2.1875E0,1.9555664E-1,2.4658203E-1,3.0605469E0,3.1204224E-2,1.6381836E-1,2.3910522E-2,4.8339844E-2,6.503906E-1,1.0449219E0,2.0581055E-1,-4.6329144E-3,1.4902344E0,1.6821289E-1,4.9743652E-2,4.63562E-2,9.881592E-2,1.9501953E0,9.003906E-1,1E-1,3.5363164E-2,3.1829834E-2,1.1053467E-1,6.777344E-1,3.0859375E-1,1.9616699E-1,3.35083E-2,3.935547E-1,3.9257812E-1,9.848633E-1,2.1113281E0,9.4433594E-1,1.4208984E-1,-2.631837E-2,-1E-1,7.9589844E-2,2.319336E-1,6.567383E-1,1.2557983E-2,3.9550781E0,-1E-1,4.6173096E-2,-1E-1,8.798828E-1,2.0859375E0,2.0175781E0,2.1660156E0,-3.35281E-2,2.4336815E-2,6.0996093E-2,-6.128294E-3,-4.6292706E-3,5.2747786E-2,2.9658098E-2,-2.746856E-2,-3.4560822E-2,-1E-1,1.377654E-2,-2.3578322E-2,-4.736312E-2,-1E-1,8.880709E-2,-2.3619702E-2,-6.437607E-2,-3.67068E-2,-9.448893E-2,-5.3695153E-2,-8.713627E-2,3.4506124E-2,1E-1,1.7870072E-2,1E-1,1.6541498E-2,-3.497323E-2,1.9235339E-2,2.5260929E-2,-2.8623957E-2,5.9722435E-2,-6.663729E-2,5.5052496E-2,-5.3465057E-2,-5.0999403E-2,1E-1,1E-1,1.7870072E-2,3.8630627E-2,9.5769145E-2,-8.120398E-2,-1.2304707E-2,9.460183E-2,2.3089452E-2],"split_indices":[5,10,0,26,26,0,0,7,10,28,8,9,14,12,19,28,28,11,25,10,17,0,11,10,28,8,30,9,5,0,0,29,10,7,0,30,1,30,6,11,1,14,4,0,0,17,28,12,8,7,0,30,0,5,9,9,9,0,0,0,0,0,0,0,0,0,0,0,0,0,0,0,0,0,0,0,0,0,0,0,0,0,0,0,0,0,0,0,0,0,0,0,0,0,0,0,0,0,0,0,0],"split_type":[0,0,0,0,0,0,0,0,0,0,0,0,0,0,0,0,0,0,0,0,0,0,0,0,0,0,0,0,0,0,0,0,0,0,0,0,0,0,0,0,0,0,0,0,0,0,0,0,0,0,0,0,0,0,0,0,0,0,0,0,0,0,0,0,0,0,0,0,0,0,0,0,0,0,0,0,0,0,0,0,0,0,0,0,0,0,0,0,0,0,0,0,0,0,0,0,0,0,0,0,0],"sum_hessian":[6.9061396E3,4.4222183E3,2.4839214E3,3.0974028E3,1.3248156E3,2.0905579E3,3.9336356E2,1.8876816E3,1.2097212E3,9.0254834E2,4.2226718E2,1.1100396E3,9.805183E2,1.2141848E2,2.719451E2,1.1036595E3,7.840221E2,5.081917E2,7.015295E2,8.8436115E2,1.818715E1,1.4808451E0,4.2078635E2,5.3958484E2,5.704547E2,9.696077E2,1.0910602E1,9.7307945E1,2.4110529E1,2.7047702E2,1.4680773E0,5.9161914E2,5.120404E2,4.3868115E2,3.4534094E2,2.0741417E2,3.0077753E2,5.1740894E2,1.8412056E2,6.6315326E2,2.212079E2,1.527653E1,2.910619E0,1.2404214E0,4.1954593E2,4.488852E2,9.0699646E1,4.1892572E2,1.5152899E2,9.6708856E2,2.519146E0,9.391453E0,1.5191483E0,4.4508236E1,5.2799713E1,1.0404219E1,1.370631E1,5.616363E2,2.9982838E1,2.4944546E1,4.870959E2,4.1101532E2,2.7665813E1,3.1168576E2,3.3655197E1,1.9937589E2,8.038285E0,9.3278305E1,2.0749922E2,5.021175E2,1.5291461E1,8.276546E0,1.7584402E2,5.3828986E2,1.2486339E2,1.343018E2,8.6906105E1,3.2531848E0,1.2023345E1,1.6829654E0,1.2276536E0,7.0105886E0,4.418746E2,6.217212E1,2.8527529E1,3.966492E2,2.2276514E1,1.4679497E2,4.73403E0,9.628609E2,4.227647E0,7.948911E0,1.4425418E0,4.3280582E1,1.2276536E0,2.8944538E1,2.3855175E1,2.253187E0,8.1510315E0,4.859544E0,8.846767E0],"tree_param":{"num_deleted":"0","num_feature":"32","num_nodes":"101","size_leaf_vector":"1"}},{"base_weights":[-5.068826E-2,-3.8865367E-1,3.4474015E-1,-2.7893004E-1,-9.2716706E-1,2.0468572E-1,6.9896084E-1,-1.5083757E-1,-4.3240985E-1,-7.26769E-1,-1E0,-1.595525E-1,2.5559875E-1,5.5707514E-1,1E0,-3.7249744E-1,-9.465501E-2,-3.2538578E-1,-4.8780373E-1,-7.612736E-1,4.4434938E-1,-2.3595567E-1,-1E0,1.4504312E-1,-2.7668822E-1,1.5824592E-1,3.320471E-1,5.3916097E-1,1E0,1.2393094E-2,1E0,-5.9718287E-1,-2.4047124E-1,-1.2929142E-1,1.8222727E-1,-3.360698E-1,1E-1,-7.5892085E-1,-4.495541E-1,-7.734218E-1,6.50117E-2,9.1527826E-1,-1.396974E-1,2.9936874E-1,-6.693924E-1,-8.9604336E-1,-1E0,2.2609478E-1,-4.4145307E-1,-5.774941E-1,-1.2844849E-1,-3.658333E-1,1.7871135E-1,3.5441437E-1,-8.473265E-2,-8.510119E-1,5.456296E-1,1E-1,-8.360752E-3,1E0,2.4266096E-2,-3.3172827E-2,-7.846508E-2,-1.8556591E-2,-8.497235E-2,-1.2077537E-2,-1E-1,7.5598257E-3,7.82045E-2,-5.4585434E-2,-2.8100703E-2,-8.086624E-2,4.425197E-2,-4.7249455E-2,-7.3032244E-3,-9.921998E-2,-6.6121064E-2,2.0075424E-2,1E-1,3.9948523E-2,-6.681523E-2,7.601892E-2,-4.100349E-2,-9.9817775E-2,2.2363534E-2,-9.560065E-2,-2.4246939E-2,-1E-1,-7.170636E-2,2.9725058E-2,-6.2432107E-2,-1E-1,7.162911E-2,-1E-1,-4.1889496E-2,-2.8255496E-2,3.881746E-2,2.7908206E-2,-6.151991E-2,7.8749815E-3,2.7174313E-2,-1.821917E-2,3.673966E-2,4.8262943E-2,-2.4231616E-2,-1E-1,-2.9388413E-2,5.6448903E-2,7.045953E-3,3.700338E-2,1E-1],"categories":[],"categories_nodes":[],"categories_segments":[],"categories_sizes":[],"default_left":[0,0,0,0,0,0,0,0,0,0,0,0,0,0,0,0,0,0,0,0,0,0,0,0,0,0,0,0,0,0,0,0,0,0,0,0,0,0,0,0,0,0,0,0,0,0,0,0,0,0,0,0,0,0,0,0,0,0,0,0,0,0,0,0,0,0,0,0,0,0,0,0,0,0,0,0,0,0,0,0,0,0,0,0,0,0,0,0,0,0,0,0,0,0,0,0,0,0,0,0,0,0,0,0,0,0,0,0,0,0,0],"id":1,"left_children":[1,3,5,7,9,11,13,15,17,19,21,23,25,27,29,31,33,35,37,39,41,43,45,47,49,51,53,55,57,-1,59,61,63,65,67,69,-1,71,73,75,-1,77,79,81,83,85,87,89,91,93,95,97,99,101,103,105,107,-1,-1,109,-1,-1,-1,-1,-1,-1,-1,-1,-1,-1,-1,-1,-1,-1,-1,-1,-1,-1,-1,-1,-1,-1,-1,-1,-1,-1,-1,-1,-1,-1,-1,-1,-1,-1,-1,-1,-1,-1,-1,-1,-1,-1,-1,-1,-1,-1,-1,-1,-1,-1,-1],"loss_changes":[9.283306E2,2.2104163E2,1.5866681E2,6.11306E1,1.0661133E1,4.2609818E1,4.040854E1,2.1113754E1,8.233246E0,8.4691925E0,4.20813E0,1.0106295E1,1.4939438E1,6.53067E0,7.061157E-1,1.0033138E1,1.3029674E1,8.068584E0,9.31073E0,3.8603973E0,1.8854432E0,2.270471E0,5.1535034E-1,3.856042E0,9.027507E0,9.589182E0,1.0540115E1,6.0157166E0,1.9098091E0,0E0,6.9659424E-1,6.0249367E0,7.126733E0,1.0376413E1,9.61155E0,5.4272804E0,0E0,7.1481094E0,7.032074E0,4.121521E0,0E0,3.9675117E-1,1.3268931E0,1.8424911E0,1.7614696E0,5.2635803E0,1.7242432E-2,4.426566E0,7.454468E0,5.196089E0,1.1097902E1,5.5913186E0,7.932148E0,7.5222473E0,5.323165E0,4.4025898E-2,5.472168E0,0E0,0E0,5.576477E-1,0E0,0E0,0E0,0E0,0E0,0E0,0E0,0E0,0E0,0E0,0E0,0E0,0E0,0E0,0E0,0E0,0E0,0E0,0E0,0E0,0E0,0E0,0E0,0E0,0E0,0E0,0E0,0E0,0E0,0E0,0E0,0E0,0E0,0E0,0E0,0E0,0E0,0E0,0E0,0E0,0E0,0E0,0E0,0E0,0E0,0E0,0E0,0E0,0E0,0E0,0E0],"parents":[2147483647,0,0,1,1,2,2,3,3,4,4,5,5,6,6,7,7,8,8,9,9,10,10,11,11,12,12,13,13,14,14,15,15,16,16,17,17,18,18,19,19,20,20,21,21,22,22,23,23,24,24,25,25,26,26,27,27,28,28,30,30,31,31,32,32,33,33,34,34,35,35,37,37,38,38,39,39,41,41,42,42,43,43,44,44,45,45,46,46,47,47,48,48,49,49,50,50,51,51,52,52,53,53,54,54,55,55,56,56,59,59],"right_children":[2,4,6,8,10,12,14,16,18,20,22,24,26,28,30,32,34,36,38,40,42,44,46,48,50,52,54,56,58,-1,60,62,64,66,68,70,-1,72,74,76,-1,78,80,82,84,86,88,90,92,94,96,98,100,102,104,106,108,-1,-1,110,-1,-1,-1,-1,-1,-1,-1,-1,-1,-1,-1,-1,-1,-1,-1,-1,-1,-1,-1,-1,-1,-1,-1,-1,-1,-1,-1,-1,-1,-1,-1,-1,-1,-1,-1,-1,-1,-1,-1,-1,-1,-1,-1,-1,-1,-1,-1,-1,-1,-1,-1],"split_conditions":[3.5888672E-2,1.3251953E0,1.0478516E0,2.0117188E-1,2.2832031E0,3.0288696E-2,2.1386719E0,1.0559082E-2,2.993164E-1,2.8857422E-1,1.5478516E0,5.9295654E-2,1.9555664E-1,6.0394287E-2,2.5625E0,1.026001E-1,2.1826172E-1,6.4160156E-1,2.3254395E-1,1.6113281E0,2.614746E-1,1.6552734E0,1.8273926E-1,1.295166E-1,2.0751953E-3,9.9365234E-2,2.4871826E-3,6.118164E-1,1.4814453E0,1.2393094E-2,2.670288E-3,1.6552734E-1,7.2631836E-3,3.449707E-1,1.6674805E-1,8.1604004E-2,1E-1,2.7026367E-1,1.027832E-1,9.649658E-2,6.50117E-2,1.3583984E0,3.0615234E-1,1.1035156E0,1.5009766E0,1.7468262E-1,7.4279785E-2,4.6289062E-1,4.033203E-1,4.7187805E-3,1.19018555E-2,6.982422E-2,5.9814453E-3,1.394043E-1,7.019043E-4,8.857422E-1,3.0605469E0,1E-1,-8.360752E-3,2.2578125E0,2.4266096E-2,-3.3172827E-2,-7.846508E-2,-1.8556591E-2,-8.497235E-2,-1.2077537E-2,-1E-1,7.5598257E-3,7.82045E-2,-5.4585434E-2,-2.8100703E-2,-8.086624E-2,4.425197E-2,-4.7249455E-2,-7.3032244E-3,-9.921998E-2,-6.6121064E-2,2.0075424E-2,1E-1,3.9948523E-2,-6.681523E-2,7.601892E-2,-4.100349E-2,-9.9817775E-2,2.2363534E-2,-9.560065E-2,-2.4246939E-2,-1E-1,-7.170636E-2,2.9725058E-2,-6.2432107E-2,-1E-1,7.162911E-2,-1E-1,-4.1889496E-2,-2.8255496E-2,3.881746E-2,2.7908206E-2,-6.151991E-2,7.8749815E-3,2.7174313E-2,-1.821917E-2,3.673966E-2,4.8262943E-2,-2.4231616E-2,-1E-1,-2.9388413E-2,5.6448903E-2,7.045953E-3,3.700338E-2,1E-1],"split_indices":[21,6,21,6,8,9,0,27,10,27,23,21,9,23,21,18,9,14,11,10,31,10,27,18,28,27,8,0,21,0,19,10,27,10,6,23,0,17,15,31,0,11,27,18,23,27,16,14,11,11,5,27,30,27,5,12,12,0,0,9,0,0,0,0,0,0,0,0,0,0,0,0,0,0,0,0,0,0,0,0,0,0,0,0,0,0,0,0,0,0,0,0,0,0,0,0,0,0,0,0,0,0,0,0,0,0,0,0,0,0,0],"split_type":[0,0,0,0,0,0,0,0,0,0,0,0,0,0,0,0,0,0,0,0,0,0,0,0,0,0,0,0,0,0,0,0,0,0,0,0,0,0,0,0,0,0,0,0,0,0,0,0,0,0,0,0,0,0,0,0,0,0,0,0,0,0,0,0,0,0,0,0,0,0,0,0,0,0,0,0,0,0,0,0,0,0,0,0,0,0,0,0,0,0,0,0,0,0,0,0,0,0,0,0,0,0,0,0,0,0,0,0,0,0,0],"sum_hessian":[6.9444424E3,3.7442864E3,3.2001558E3,3.1117717E3,6.325145E2,2.2945122E3,9.0564355E2,1.6972499E3,1.414522E3,2.0021535E2,4.3229916E2,2.8113104E2,2.0133812E3,6.2888635E2,2.7675717E2,3.4206265E2,1.3551873E3,4.8477777E2,9.2974414E2,1.9482518E2,5.39017E0,7.921615E0,4.2437753E2,7.801787E1,2.0311319E2,8.8695825E2,1.126423E3,6.163268E2,1.2559609E1,1.2230085E0,2.7553418E2,1.25300316E2,2.1676233E2,1.2049836E3,1.5020358E2,4.821199E2,2.657869E0,1.12622635E2,8.171215E2,1.9361073E2,1.2144454E0,2.6700902E0,2.7200801E0,3.6826282E0,4.238987E0,1.3922256E2,2.8515497E2,6.908506E1,8.932807E0,6.609616E1,1.3701703E2,3.2699993E1,8.5425824E2,1.0691924E3,5.723058E1,2.2498786E0,6.140769E2,1.1081496E1,1.478114E0,2.735762E2,1.95797E0,5.300904E1,7.229128E1,2.000395E2,1.6722824E1,1.1964514E3,8.532274E0,1.2848836E2,2.1715218E1,9.838147E1,3.8373843E2,1.08459175E2,4.163458E0,7.699553E2,4.7166187E1,6.2978832E1,1.306319E2,1.2277836E0,1.4423065E0,1.4671733E0,1.2529068E0,2.1890545E0,1.4935737E0,3.0122309E0,1.226756E0,1.27098946E2,1.2123625E1,2.7344785E2,1.1707119E1,6.435115E1,4.7339087E0,6.0106735E0,2.9221334E0,1.327794E1,5.281822E1,1.0588504E2,3.1131987E1,9.084999E0,2.3614996E1,4.1268234E2,4.415759E2,2.4948244E1,1.0442441E3,1.19920025E1,4.5238575E1,1.0112785E0,1.2386001E0,5.90454E2,2.3622921E1,2.9250448E0,2.7065115E2],"tree_param":{"num_deleted":"0","num_feature":"32","num_nodes":"111","size_leaf_vector":"1"}},{"base_weights":[-3.6173984E-2,-2.8431553E-1,4.008599E-1,-1.5172514E-1,-6.813014E-1,2.5547412E-1,7.367731E-1,-2.808684E-1,-2.032083E-2,-5.293466E-1,-9.096652E-1,1.8926677E-1,4.2253166E-1,5.890394E-1,9.857803E-1,-3.0508575E-1,4.3806475E-2,9.6307665E-2,-1.0890649E-1,-5.74307E-1,-1.5321521E-1,-8.099856E-1,-1E0,2.0565414E-1,-1.6359036E-1,4.3339247E-1,-5.866109E-1,6.1823565E-1,2.4438617E-3,9.104011E-1,1E-1,-2.1882688E-1,-3.7080303E-1,2.3748447E-1,-2.3071513E-1,-2.6253214E-2,2.382347E-1,-2.1337196E-1,-6.105407E-3,-5.8397925E-1,5.372239E-1,-5.4733264E-1,3.9628856E-2,-8.1918615E-1,4.739682E-2,-1.313663E-1,-1E0,1.3110916E-1,2.888684E-1,4.0924E-2,-8.6758995E-1,4.1812533E-1,1E0,2.0138645E-3,-9.748802E-1,1E0,5.967798E-1,-6.5315396E-1,5.0747776E-1,9.525872E-1,3.5843435E-1,-1.5828138E-2,-3.987768E-2,-3.3822916E-2,-6.1526645E-2,5.970955E-2,-4.100629E-3,-7.022267E-2,1.1958042E-2,-2.290472E-2,3.8618098E-3,5.8252525E-2,1.6267233E-2,-2.3895156E-2,2.5721235E-2,-1.8205481E-3,1E-1,-5.2117806E-2,-7.36677E-2,1E-1,-1.9910488E-2,-6.451634E-2,7.012837E-2,3.6441766E-2,-1.997128E-2,3.783018E-3,-8.310752E-2,-7.197204E-2,4.1124407E-2,-1.5474625E-2,-1E-1,4.8577562E-2,9.473088E-3,6.033808E-2,2.4390083E-2,-6.4835265E-2,2.9132847E-2,-1E-1,7.129271E-2,5.133284E-2,3.134964E-2,1E-1,-3.2562654E-2,-1E-1,-3.140876E-2,1.261949E-2,1E-1,-2.4690837E-2,6.2143154E-2,-1E-1,-3.954992E-2,7.1889065E-2,-6.4571635E-3,9.833301E-2,7.610026E-2,-3.1243196E-2,7.033085E-2],"categories":[],"categories_nodes":[],"categories_segments":[],"categories_sizes":[],"default_left":[0,0,0,0,0,0,0,0,0,0,0,0,0,0,0,0,0,0,0,0,0,0,0,0,0,0,0,0,0,0,0,0,0,0,0,0,0,0,0,0,0,0,0,0,0,0,0,0,0,0,0,0,0,0,0,0,0,0,0,0,0,0,0,0,0,0,0,0,0,0,0,0,0,0,0,0,0,0,0,0,0,0,0,0,0,0,0,0,0,0,0,0,0,0,0,0,0,0,0,0,0,0,0,0,0,0,0,0,0,0,0,0,0,0,0,0,0],"id":2,"left_children":[1,3,5,7,9,11,13,15,17,19,21,23,25,27,29,31,33,35,37,39,41,43,45,47,49,51,53,55,57,59,-1,61,63,65,67,69,71,73,75,77,79,81,83,85,-1,87,89,91,93,95,97,99,101,-1,103,105,107,109,111,113,115,-1,-1,-1,-1,-1,-1,-1,-1,-1,-1,-1,-1,-1,-1,-1,-1,-1,-1,-1,-1,-1,-1,-1,-1,-1,-1,-1,-1,-1,-1,-1,-1,-1,-1,-1,-1,-1,-1,-1,-1,-1,-1,-1,-1,-1,-1,-1,-1,-1,-1,-1,-1,-1,-1,-1,-1],"loss_changes":[7.49464E2,2.3191824E2,1.2204492E2,5.609111E1,3.7805664E1,1.9257713E1,2.7212158E1,1.3121292E1,1.694978E1,1.1156158E1,4.6695557E0,7.2844353E0,5.6841507E0,8.162079E0,7.3342896E-1,8.713852E0,6.25378E0,1.2326681E1,1.0010529E1,6.694931E0,5.520979E0,3.4164581E0,2.353241E0,7.3981133E0,8.128202E0,4.913368E0,1.3624731E0,4.888489E0,8.146735E0,4.85054E0,0E0,7.2729874E0,6.7927856E0,6.9200935E0,8.133749E0,5.0207615E0,8.446396E0,5.627102E0,6.008035E0,5.263397E0,2.4330862E0,3.3645506E0,3.9219441E0,2.6285706E0,0E0,1.7147704E0,5.943146E-1,8.135679E0,7.852005E0,7.871208E0,5.9706E0,4.6480255E0,2.9271736E0,0E0,4.9714804E-2,6.975708E-1,9.372177E0,9.7740984E-1,1.7269576E0,4.6818542E-1,4.253517E0,0E0,0E0,0E0,0E0,0E0,0E0,0E0,0E0,0E0,0E0,0E0,0E0,0E0,0E0,0E0,0E0,0E0,0E0,0E0,0E0,0E0,0E0,0E0,0E0,0E0,0E0,0E0,0E0,0E0,0E0,0E0,0E0,0E0,0E0,0E0,0E0,0E0,0E0,0E0,0E0,0E0,0E0,0E0,0E0,0E0,0E0,0E0,0E0,0E0,0E0,0E0,0E0,0E0,0E0,0E0,0E0],"parents":[2147483647,0,0,1,1,2,2,3,3,4,4,5,5,6,6,7,7,8,8,9,9,10,10,11,11,12,12,13,13,14,14,15,15,16,16,17,17,18,18,19,19,20,20,21,21,22,22,23,23,24,24,25,25,26,26,27,27,28,28,29,29,31,31,32,32,33,33,34,34,35,35,36,36,37,37,38,38,39,39,40,40,41,41,42,42,43,43,45,45,46,46,47,47,48,48,49,49,50,50,51,51,52,52,54,54,55,55,56,56,57,57,58,58,59,59,60,60],"right_children":[2,4,6,8,10,12,14,16,18,20,22,24,26,28,30,32,34,36,38,40,42,44,46,48,50,52,54,56,58,60,-1,62,64,66,68,70,72,74,76,78,80,82,84,86,-1,88,90,92,94,96,98,100,102,-1,104,106,108,110,112,114,116,-1,-1,-1,-1,-1,-1,-1,-1,-1,-1,-1,-1,-1,-1,-1,-1,-1,-1,-1,-1,-1,-1,-1,-1,-1,-1,-1,-1,-1,-1,-1,-1,-1,-1,-1,-1,-1,-1,-1,-1,-1,-1,-1,-1,-1,-1,-1,-1,-1,-1,-1,-1,-1,-1,-1,-1],"split_conditions":[5.3710938E-2,5.488281E-1,4.3603516E-1,7.93457E-2,2.2226562E0,5.5322266E-1,9.5751953E-1,2.5976562E-1,5.1956177E-3,2.7526855E-2,2.6171875E0,6.0302734E-2,1.1005859E0,3.0605469E0,1.875E0,8.2214355E-2,1.7138672E-1,2.4829102E-1,3.2806396E-2,1.6503906E-1,1.7700195E-3,3.9941406E0,1.7736816E-1,3.4716797E-1,1.272583E-2,1.0429688E0,2.3417969E0,1.0410156E0,9.003906E-1,5.703125E0,1E-1,3.2006836E-1,8.81958E-2,4.6020508E-1,2.1972656E-1,2.7526855E-2,1.4819336E-1,2.932129E-1,4.058838E-3,1.0449219E0,1.0253906E0,2.90625E0,1.5253906E0,2.4511719E0,4.739682E-2,7.4279785E-2,1.9052734E0,2.0477295E-2,7.4523926E-2,6.970215E-2,5.288086E-1,1.1162109E0,1.8808594E0,2.0138645E-3,1.7001953E0,6.8603516E-1,1.3496094E0,2.0175781E0,4.3320312E0,3.6386719E0,8.8203125E0,-1.5828138E-2,-3.987768E-2,-3.3822916E-2,-6.1526645E-2,5.970955E-2,-4.100629E-3,-7.022267E-2,1.1958042E-2,-2.290472E-2,3.8618098E-3,5.8252525E-2,1.6267233E-2,-2.3895156E-2,2.5721235E-2,-1.8205481E-3,1E-1,-5.2117806E-2,-7.36677E-2,1E-1,-1.9910488E-2,-6.451634E-2,7.012837E-2,3.6441766E-2,-1.997128E-2,3.783018E-3,-8.310752E-2,-7.197204E-2,4.1124407E-2,-1.5474625E-2,-1E-1,4.8577562E-2,9.473088E-3,6.033808E-2,2.4390083E-2,-6.4835265E-2,2.9132847E-2,-1E-1,7.129271E-2,5.133284E-2,3.134964E-2,1E-1,-3.2562654E-2,-1E-1,-3.140876E-2,1.261949E-2,1E-1,-2.4690837E-2,6.2143154E-2,-1E-1,-3.954992E-2,7.1889065E-2,-6.4571635E-3,9.833301E-2,7.610026E-2,-3.1243196E-2,7.033085E-2],"split_indices":[5,10,5,27,8,17,5,17,4,16,30,19,9,12,5,8,12,15,31,28,27,8,31,17,31,9,7,12,5,12,0,25,17,13,12,30,17,12,3,10,1,13,25,25,0,31,18,12,5,19,17,2,27,0,2,12,2,9,15,9,7,0,0,0,0,0,0,0,0,0,0,0,0,0,0,0,0,0,0,0,0,0,0,0,0,0,0,0,0,0,0,0,0,0,0,0,0,0,0,0,0,0,0,0,0,0,0,0,0,0,0,0,0,0,0,0,0],"split_type":[0,0,0,0,0,0,0,0,0,0,0,0,0,0,0,0,0,0,0,0,0,0,0,0,0,0,0,0,0,0,0,0,0,0,0,0,0,0,0,0,0,0,0,0,0,0,0,0,0,0,0,0,0,0,0,0,0,0,0,0,0,0,0,0,0,0,0,0,0,0,0,0,0,0,0,0,0,0,0,0,0,0,0,0,0,0,0,0,0,0,0,0,0,0,0,0,0,0,0,0,0,0,0,0,0,0,0,0,0,0,0,0,0,0,0,0,0],"sum_hessian":[6.908875E3,4.4069956E3,2.5018794E3,3.3046492E3,1.1023466E3,1.7473665E3,7.545128E2,1.66609E3,1.6385593E3,6.639006E2,4.3844595E2,1.2529407E3,4.944258E2,4.7566858E2,2.7884427E2,1.5504993E3,1.1559072E2,7.072862E2,9.3127313E2,5.9254456E2,7.135601E1,2.5534755E2,1.8309839E2,1.1977328E3,5.5207863E1,4.897257E2,4.70009E0,4.5306454E2,2.260403E1,2.21972E2,5.6872257E1,6.7233655E2,8.781627E2,6.7853935E1,4.7736782E1,3.7997464E2,3.2731152E2,4.6136395E2,4.6990918E2,5.8790344E2,4.6411605E0,2.283982E1,4.851619E1,2.5389021E2,1.4573438E0,3.444175E0,1.796542E2,6.3313416E2,5.645987E2,4.350994E1,1.1697922E1,4.817777E2,7.948001E0,2.2040098E0,2.4960802E0,1.0819563E1,4.42245E2,9.708232E0,1.2895799E1,2.0553726E2,1.643474E1,5.0448004E2,1.6785648E2,7.7701215E2,1.0115057E2,2.9114618E1,3.873932E1,1.9919579E1,2.7817202E1,9.147723E1,2.884974E2,5.7699898E1,2.6961163E2,4.3804532E2,2.3318647E1,4.6554303E2,4.3661375E0,4.1970236E2,1.6820107E2,2.4132864E0,2.2278738E0,2.1628496E1,1.2113246E0,2.036208E1,2.8154112E1,3.4440691E0,2.5044614E2,1.4958339E0,1.9483411E0,1.2315519E0,1.7842265E2,5.7750267E1,5.7538385E2,6.90726E1,4.9552612E2,1.1170954E1,3.2338985E1,1.0246342E1,1.4515796E0,2.5020612E2,2.315716E2,6.7132063E0,1.2347944E0,1.260214E0,1.2358663E0,1.2233026E0,9.59626E0,1.2299122E1,4.2994586E2,1.7716035E0,7.9366283E0,9.228515E0,3.6672843E0,1.7355487E2,3.1982386E1,5.612024E0,1.0822716E1],"tree_param":{"num_deleted":"0","num_feature":"32","num_nodes":"117","size_leaf_vector":"1"}},{"base_weights":[-4.0325105E-2,-3.0925202E-1,2.889829E-1,-1.7634863E-1,-6.3478684E-1,1.2068368E-1,5.527618E-1,-3.3714625E-1,-1.0651843E-1,-4.7992757E-1,-8.644032E-1,-2.1144776E-1,1.5537365E-1,4.5055616E-1,9.095551E-1,-1.120031E-1,-3.82729E-1,-2.0760535E-1,-2.7781622E-2,-5.053642E-1,1.4429228E-1,-7.713402E-1,-1E-1,-2.3499127E-1,1E-1,1.6153656E-1,-8.155854E-1,4.6125746E-1,-1.5776382E-1,8.226948E-1,1E-1,-1.434839E-1,1E-1,-4.2739087E-1,-1.380108E-1,-2.51188E-1,1.8526921E-2,6.910622E-2,-1.3609363E-1,-5.3093094E-1,4.4842515E-2,8.899502E-1,-1.5770552E-1,-7.779E-1,2.4976296E-2,1.2184537E-1,-3.2340068E-1,1.1084256E-1,2.7773556E-1,-1E0,4.7993496E-2,3.7989005E-1,5.446497E-1,-1E-1,1.9378027E-2,8.9531213E-1,1.7393208E-1,-1.7685106E-2,8.918315E-2,-6.0085196E-2,-3.452689E-2,-1.7213844E-2,1E-1,-8.485932E-3,-3.4670632E-2,1.1363346E-2,-4.1487485E-2,2.157892E-2,-4.388198E-3,-2.403803E-2,-3.0554773E-3,-5.5500507E-2,-2.9394427E-2,-9.8463865E-3,1E-1,-1.7063713E-2,1E-1,-9.62333E-2,2.6330808E-2,-9.9002175E-2,-7.364165E-2,3.9225988E-2,-5.990885E-2,-6.2301056E-3,-4.778101E-2,-1.0035761E-3,1.7392403E-2,5.833572E-2,2.0907778E-2,1.1728894E-2,-1E-1,5.309245E-2,3.133103E-2,9.996133E-2,5.2346684E-2,-3.530279E-2,2.7081138E-2,7.9745814E-2,1E-1,-2.9730538E-2,3.9612886E-2],"categories":[],"categories_nodes":[],"categories_segments":[],"categories_sizes":[],"default_left":[0,0,0,0,0,0,0,0,0,0,0,0,0,0,0,0,0,0,0,0,0,0,0,0,0,0,0,0,0,0,0,0,0,0,0,0,0,0,0,0,0,0,0,0,0,0,0,0,0,0,0,0,0,0,0,0,0,0,0,0,0,0,0,0,0,0,0,0,0,0,0,0,0,0,0,0,0,0,0,0,0,0,0,0,0,0,0,0,0,0,0,0,0,0,0,0,0,0,0,0,0],"id":3,"left_children":[1,3,5,7,9,11,13,15,17,19,21,23,25,27,29,31,33,35,37,39,41,43,-1,45,-1,47,49,51,53,55,-1,57,-1,59,61,63,65,67,69,71,73,75,77,79,-1,81,83,85,87,89,-1,91,93,-1,95,97,99,-1,-1,-1,-1,-1,-1,-1,-1,-1,-1,-1,-1,-1,-1,-1,-1,-1,-1,-1,-1,-1,-1,-1,-1,-1,-1,-1,-1,-1,-1,-1,-1,-1,-1,-1,-1,-1,-1,-1,-1,-1,-1,-1,-1],"loss_changes":[6.096077E2,1.6382239E2,1.3730826E2,3.0191376E1,3.863138E1,2.181351E1,4.3533813E1,8.317406E0,1.4944702E1,1.0521423E1,6.864685E0,6.3901587E0,1.0377537E1,6.183548E0,2.9682617E0,5.0356026E0,7.34095E0,8.108826E0,1.1102449E1,8.921356E0,6.1175222E0,2.2406769E0,0E0,5.6320753E0,0E0,9.996483E0,4.553867E0,6.0541687E0,3.0264058E0,9.068558E0,0E0,4.844378E0,0E0,7.941902E0,5.0444145E0,1.09249115E1,5.5625153E0,9.26781E0,5.489723E0,3.2856445E0,5.2236094E0,2.6482058E0,6.940924E0,1.9443207E0,0E0,7.238984E0,5.7092295E0,9.051724E0,1.0713768E1,2.3953133E0,0E0,4.5633087E0,3.8462524E0,0E0,1.5433246E0,1.4254608E0,2.311481E0,0E0,0E0,0E0,0E0,0E0,0E0,0E0,0E0,0E0,0E0,0E0,0E0,0E0,0E0,0E0,0E0,0E0,0E0,0E0,0E0,0E0,0E0,0E0,0E0,0E0,0E0,0E0,0E0,0E0,0E0,0E0,0E0,0E0,0E0,0E0,0E0,0E0,0E0,0E0,0E0,0E0,0E0,0E0,0E0],"parents":[2147483647,0,0,1,1,2,2,3,3,4,4,5,5,6,6,7,7,8,8,9,9,10,10,11,11,12,12,13,13,14,14,15,15,16,16,17,17,18,18,19,19,20,20,21,21,23,23,25,25,26,26,27,27,28,28,29,29,31,31,33,33,34,34,35,35,36,36,37,37,38,38,39,39,40,40,41,41,42,42,43,43,45,45,46,46,47,47,48,48,49,49,51,51,52,52,54,54,55,55,56,56],"right_children":[2,4,6,8,10,12,14,16,18,20,22,24,26,28,30,32,34,36,38,40,42,44,-1,46,-1,48,50,52,54,56,-1,58,-1,60,62,64,66,68,70,72,74,76,78,80,-1,82,84,86,88,90,-1,92,94,-1,96,98,100,-1,-1,-1,-1,-1,-1,-1,-1,-1,-1,-1,-1,-1,-1,-1,-1,-1,-1,-1,-1,-1,-1,-1,-1,-1,-1,-1,-1,-1,-1,-1,-1,-1,-1,-1,-1,-1,-1,-1,-1,-1,-1,-1,-1],"split_conditions":[4.208374E-2,3.059082E-1,4.9072266E-1,2.2506714E-2,2.2226562E0,2.3155212E-3,2.1386719E0,1.5612793E-1,9.655762E-2,4.7790527E-2,3.3554688E0,1.4025879E-1,3.4375E-1,3.4628906E0,5.109375E0,2.3498535E-1,7.287598E-2,1.1074219E0,1.7810059E-1,2.3803711E-1,4.6313477E-1,1.854248E-1,-1E-1,5.7739258E-2,1E-1,4.6295166E-2,1.3110352E-1,1.3007812E0,8.5498047E-1,5.6328125E0,1E-1,2.4328613E-1,1E-1,9.9731445E-2,2.680664E-1,9.376526E-3,1.4824219E0,9.941101E-3,7.086182E-2,2.9863281E0,3.6071777E-2,3.4301758E-1,7.0166016E-1,1.3671875E-1,2.4976296E-2,2.7526855E-2,9.259033E-2,2.783203E-1,8.0444336E-2,1.739502E-1,4.7993496E-2,8.0908203E-1,4.025879E-1,-1E-1,3.5585938E0,1.2460938E0,3.8671875E0,-1.7685106E-2,8.918315E-2,-6.0085196E-2,-3.452689E-2,-1.7213844E-2,1E-1,-8.485932E-3,-3.4670632E-2,1.1363346E-2,-4.1487485E-2,2.157892E-2,-4.388198E-3,-2.403803E-2,-3.0554773E-3,-5.5500507E-2,-2.9394427E-2,-9.8463865E-3,1E-1,-1.7063713E-2,1E-1,-9.62333E-2,2.6330808E-2,-9.9002175E-2,-7.364165E-2,3.9225988E-2,-5.990885E-2,-6.2301056E-3,-4.778101E-2,-1.0035761E-3,1.7392403E-2,5.833572E-2,2.0907778E-2,1.1728894E-2,-1E-1,5.309245E-2,3.133103E-2,9.996133E-2,5.2346684E-2,-3.530279E-2,2.7081138E-2,7.9745814E-2,1E-1,-2.9730538E-2,3.9612886E-2],"split_indices":[21,4,9,27,8,9,0,10,0,28,6,29,18,2,21,24,31,13,10,27,18,16,0,21,0,28,23,21,5,2,0,2,0,23,9,4,13,5,31,13,16,4,6,31,0,0,8,27,28,10,0,21,5,0,2,5,9,0,0,0,0,0,0,0,0,0,0,0,0,0,0,0,0,0,0,0,0,0,0,0,0,0,0,0,0,0,0,0,0,0,0,0,0,0,0,0,0,0,0,0,0],"split_type":[0,0,0,0,0,0,0,0,0,0,0,0,0,0,0,0,0,0,0,0,0,0,0,0,0,0,0,0,0,0,0,0,0,0,0,0,0,0,0,0,0,0,0,0,0,0,0,0,0,0,0,0,0,0,0,0,0,0,0,0,0,0,0,0,0,0,0,0,0,0,0,0,0,0,0,0,0,0,0,0,0,0,0,0,0,0,0,0,0,0,0,0,0,0,0,0,0,0,0,0,0],"sum_hessian":[6.881564E3,3.7881006E3,3.0934631E3,2.6910073E3,1.0970933E3,1.8894147E3,1.2040483E3,8.136323E2,1.877375E3,6.5705096E2,4.4004233E2,1.7819838E2,1.7112163E3,9.37701E2,2.663474E2,1.3757524E2,6.7605707E2,8.213024E2,1.0560726E3,6.315079E2,2.5543142E1,3.0451486E2,1.3552745E2,1.7627649E2,1.9218861E0,1.7012517E3,9.964619E0,9.217281E2,1.5972853E1,1.9479636E2,7.155106E1,1.3466609E2,2.909144E0,5.710856E2,1.0497152E2,6.8849695E2,1.3280544E2,5.5762494E2,4.9844772E2,6.034997E2,2.8008133E1,6.8018723E0,1.874127E1,3.0280774E2,1.7071315E0,3.4926907E1,1.4134958E2,1.1858544E3,5.153973E2,8.258592E0,1.7060273E0,4.6933984E2,4.5238824E2,1.5115775E0,1.4461275E1,1.748455E2,1.995085E1,1.3126474E2,3.4013457E0,1.8146727E2,3.896183E2,1.0328992E2,1.6816051E0,2.518434E2,4.3665356E2,1.09511765E2,2.3293667E1,2.4223807E2,3.1538687E2,2.5006854E2,2.4837917E2,5.466288E2,5.687095E1,2.6090881E1,1.9172503E0,1.7311131E0,5.070759E0,5.9960537E0,1.2745216E1,4.5791523E1,2.570162E2,2.5731281E1,9.195624E0,5.3049187E1,8.83004E1,4.0692844E2,7.7892596E2,9.316927E1,4.22228E2,1.7198732E0,6.538718E0,1.4146227E2,3.278776E2,1.8071016E1,4.3431723E2,5.665645E0,8.7956295E0,1.0510248E2,6.9743034E1,6.2845263E0,1.3666324E1],"tree_param":{"num_deleted":"0","num_feature":"32","num_nodes":"101","size_leaf_vector":"1"}},{"base_weights":[-3.8984243E-2,-2.815544E-1,2.5577742E-1,-1.496509E-1,-5.457914E-1,1.5524155E-1,5.7473344E-1,-2.2433391E-1,-3.3665348E-2,-4.345138E-1,-7.508093E-1,1.8044575E-1,-2.3362768E-1,4.407635E-1,8.38557E-1,-3.644254E-1,-1.6782752E-1,1.4261544E-1,-7.298822E-2,-4.4461748E-1,3.9771363E-1,8.9245744E-2,-7.5826204E-1,1.2611549E-1,2.983406E-1,-3.975601E-1,3.029828E-3,4.483265E-1,-9.840033E-2,7.5397503E-1,1E-1,-3.7978122E-1,9.4400036E-1,-1.9733846E-1,9.2180684E-2,1.8589821E-1,-8.129507E-1,-1.2542996E-1,1.0776608E-1,-5.124789E-1,-2.9706374E-1,7.696834E-1,-8.9968115E-2,-7.2722805E-1,-1E-1,2.529481E-2,1.8526779E-1,3.2208377E-1,-1.0536071E-1,-2.2445196E-1,-8.1787187E-1,-7.9847354E-1,1.06769614E-1,4.7086024E-1,1.458701E-1,7.908598E-1,4.2034905E-2,-4.4234306E-2,-1.1908056E-2,1E-1,2.3711214E-2,-2.0752903E-2,5.9348762E-2,4.902407E-2,-2.2157794E-3,3.4898154E-2,-2.5544956E-3,-1.6384134E-2,-1E-1,-1.3777639E-2,8.37102E-2,-1.3819004E-2,3.204597E-2,-5.3746372E-2,-1.5881767E-2,3.1713758E-2,-3.4869667E-2,1E-1,-6.032455E-2,-7.585454E-2,-4.3613095E-2,-4.4061776E-2,5.10291E-3,1.934684E-2,-9.2014566E-2,4.515451E-2,2.316116E-2,-9.437528E-2,3.6070343E-2,3.3628225E-2,-4.2377453E-2,2.586295E-2,-8.8582E-2,-1E-1,5.848257E-2,8.0633156E-2,-3.8030054E-3,4.453784E-2,7.815319E-2,-7.75892E-2,2.3871435E-2,2.010621E-2,8.066008E-2,-2.340318E-2,1E-1],"categories":[],"categories_nodes":[],"categories_segments":[],"categories_sizes":[],"default_left":[0,0,0,0,0,0,0,0,0,0,0,0,0,0,0,0,0,0,0,0,0,0,0,0,0,0,0,0,0,0,0,0,0,0,0,0,0,0,0,0,0,0,0,0,0,0,0,0,0,0,0,0,0,0,0,0,0,0,0,0,0,0,0,0,0,0,0,0,0,0,0,0,0,0,0,0,0,0,0,0,0,0,0,0,0,0,0,0,0,0,0,0,0,0,0,0,0,0,0,0,0,0,0,0,0],"id":4,"left_children":[1,3,5,7,9,11,13,15,17,19,21,23,25,27,29,31,33,35,37,39,41,-1,43,45,47,49,51,53,-1,55,-1,57,59,61,63,65,67,69,71,73,75,77,-1,79,-1,81,83,85,87,89,91,93,95,97,99,101,103,-1,-1,-1,-1,-1,-1,-1,-1,-1,-1,-1,-1,-1,-1,-1,-1,-1,-1,-1,-1,-1,-1,-1,-1,-1,-1,-1,-1,-1,-1,-1,-1,-1,-1,-1,-1,-1,-1,-1,-1,-1,-1,-1,-1,-1,-1,-1,-1],"loss_changes":[4.902845E2,1.310203E2,9.91758E1,2.1737885E1,2.823883E1,2.3124535E1,2.5839111E1,1.2026039E1,6.834653E0,7.021057E0,6.0547028E0,1.4132645E1,5.5795217E0,5.7631607E0,3.384903E0,9.1591E0,8.381134E0,7.5913725E0,7.6496863E0,7.9050903E0,5.6589193E0,0E0,3.6016846E0,9.037163E0,6.7162895E0,5.99753E0,5.0603023E0,3.2843857E0,0E0,4.6804657E0,0E0,7.020073E0,2.776804E-1,8.013931E0,5.098218E0,5.97136E0,2.35573E0,7.54134E0,9.549576E0,4.772705E0,8.225016E0,4.3173146E0,0E0,3.3668365E0,0E0,6.758048E0,8.838432E0,7.6102905E0,1.5766368E1,7.021669E0,2.0141258E0,4.269394E0,5.486384E0,3.2730713E0,3.2285426E0,1.4217148E0,2.853593E0,0E0,0E0,0E0,0E0,0E0,0E0,0E0,0E0,0E0,0E0,0E0,0E0,0E0,0E0,0E0,0E0,0E0,0E0,0E0,0E0,0E0,0E0,0E0,0E0,0E0,0E0,0E0,0E0,0E0,0E0,0E0,0E0,0E0,0E0,0E0,0E0,0E0,0E0,0E0,0E0,0E0,0E0,0E0,0E0,0E0,0E0,0E0,0E0],"parents":[2147483647,0,0,1,1,2,2,3,3,4,4,5,5,6,6,7,7,8,8,9,9,10,10,11,11,12,12,13,13,14,14,15,15,16,16,17,17,18,18,19,19,20,20,22,22,23,23,24,24,25,25,26,26,27,27,29,29,31,31,32,32,33,33,34,34,35,35,36,36,37,37,38,38,39,39,40,40,41,41,43,43,45,45,46,46,47,47,48,48,49,49,50,50,51,51,52,52,53,53,54,54,55,55,56,56],"right_children":[2,4,6,8,10,12,14,16,18,20,22,24,26,28,30,32,34,36,38,40,42,-1,44,46,48,50,52,54,-1,56,-1,58,60,62,64,66,68,70,72,74,76,78,-1,80,-1,82,84,86,88,90,92,94,96,98,100,102,104,-1,-1,-1,-1,-1,-1,-1,-1,-1,-1,-1,-1,-1,-1,-1,-1,-1,-1,-1,-1,-1,-1,-1,-1,-1,-1,-1,-1,-1,-1,-1,-1,-1,-1,-1,-1,-1,-1,-1,-1,-1,-1,-1,-1,-1,-1,-1,-1],"split_conditions":[4.208374E-2,4.4067383E-1,1.2705078E0,7.93457E-2,1.8037109E0,8.270264E-2,2.9980469E0,8.294678E-2,1.8966675E-2,2.2558594E-1,1.828125E0,3.5864258E-1,6.4208984E-2,4.2851562E0,5.109375E0,3.3691406E-2,2.626953E-1,3.842163E-2,7.330322E-2,1.0974121E-1,3.635254E-1,8.9245744E-2,4.7705078E-1,4.1999817E-3,6.665039E-2,1.4099121E-1,3.6834717E-2,3.0605469E0,-9.840033E-2,3.5136719E0,1E-1,4.7216797E-1,1.394043E-1,3.876953E-1,2.084961E-1,5.1956177E-3,2.6741028E-3,2.697754E-1,4.753418E-1,4.7027588E-2,7.558594E-1,3.1567383E-1,-8.9968115E-2,3.647461E-1,-1E-1,1.1462402E-1,7.705078E-1,7.5146484E-1,2.1331787E-2,1.159668E-1,1.6101074E-1,4.1931152E-2,2.5976562E-1,1.8730469E0,2.0175781E0,2.0175781E0,7.6757812E0,-4.4234306E-2,-1.1908056E-2,1E-1,2.3711214E-2,-2.0752903E-2,5.9348762E-2,4.902407E-2,-2.2157794E-3,3.4898154E-2,-2.5544956E-3,-1.6384134E-2,-1E-1,-1.3777639E-2,8.37102E-2,-1.3819004E-2,3.204597E-2,-5.3746372E-2,-1.5881767E-2,3.1713758E-2,-3.4869667E-2,1E-1,-6.032455E-2,-7.585454E-2,-4.3613095E-2,-4.4061776E-2,5.10291E-3,1.934684E-2,-9.2014566E-2,4.515451E-2,2.316116E-2,-9.437528E-2,3.6070343E-2,3.3628225E-2,-4.2377453E-2,2.586295E-2,-8.8582E-2,-1E-1,5.848257E-2,8.0633156E-2,-3.8030054E-3,4.453784E-2,7.815319E-2,-7.75892E-2,2.3871435E-2,2.010621E-2,8.066008E-2,-2.340318E-2,1E-1],"split_indices":[21,10,21,27,26,24,21,15,23,17,24,9,18,27,21,21,17,21,31,27,17,0,27,18,31,10,11,12,0,17,0,24,18,18,10,4,31,4,13,28,26,7,0,27,0,27,27,21,6,27,13,19,13,17,9,17,15,0,0,0,0,0,0,0,0,0,0,0,0,0,0,0,0,0,0,0,0,0,0,0,0,0,0,0,0,0,0,0,0,0,0,0,0,0,0,0,0,0,0,0,0,0,0,0,0],"split_type":[0,0,0,0,0,0,0,0,0,0,0,0,0,0,0,0,0,0,0,0,0,0,0,0,0,0,0,0,0,0,0,0,0,0,0,0,0,0,0,0,0,0,0,0,0,0,0,0,0,0,0,0,0,0,0,0,0,0,0,0,0,0,0,0,0,0,0,0,0,0,0,0,0,0,0,0,0,0,0,0,0,0,0,0,0,0,0,0,0,0,0,0,0,0,0,0,0,0,0,0,0,0,0,0,0],"sum_hessian":[6.855082E3,3.7604856E3,3.0945962E3,2.5093958E3,1.2510898E3,2.3540725E3,7.4052386E2,1.5259218E3,9.8347394E2,8.1295935E2,4.3813046E2,2.211286E3,1.4278648E2,4.9289954E2,2.4762433E2,4.3701593E2,1.0889059E3,1.7889182E2,8.0458215E2,8.0366815E2,9.291205E0,1.4419557E0,4.366885E2,1.5151288E3,6.961571E2,8.395267E1,5.883382E1,4.9097864E2,1.9208977E0,1.7850264E2,6.912169E1,4.3264807E2,4.367853E0,9.781292E2,1.10776665E2,1.719105E2,6.981302E0,6.238828E2,1.806993E2,5.487976E2,2.5487054E2,7.537043E0,1.7541623E0,4.0460696E2,3.208155E1,5.607685E2,9.5436035E2,6.576787E2,3.8478367E1,6.0549126E1,2.3403538E1,5.97483E0,5.285899E1,4.564176E2,3.456105E1,1.6960477E2,8.897871E0,3.4835464E2,8.4293434E1,3.1435947E0,1.2242587E0,9.664136E2,1.1715589E1,2.3985497E1,8.679117E1,9.66868E1,7.522372E1,4.1990523E0,2.7822495E0,6.1682764E2,7.055212E0,8.3959694E1,9.67396E1,5.121E2,3.6697655E1,1.9365503E1,2.3550504E2,6.292187E0,1.244856E0,3.6385614E2,4.0750835E1,2.8508461E1,5.3226E2,9.4815137E2,6.2089734E0,2.6890198E2,3.8877673E2,1.3381589E1,2.5096779E1,1.56986265E1,4.48505E1,1.2228973E0,2.2180641E1,4.7640877E0,1.2107428E0,8.281324E0,4.4577663E1,4.240683E2,3.2349316E1,2.4893866E0,3.2071663E1,4.766927E0,1.6483783E2,7.4952374E0,1.4026332E0],"tree_param":{"num_deleted":"0","num_feature":"32","num_nodes":"105","size_leaf_vector":"1"}},{"base_weights":[-3.4607437E-2,-2.5206655E-1,2.3313479E-1,-1.7641748E-1,-6.325697E-1,1.8010797E-1,8.0403256E-1,-6.753523E-2,-2.527837E-1,-5.4487425E-1,-8.551849E-1,9.0695255E-2,3.3781248E-1,7.0794284E-1,1E0,-1.14205025E-1,1.08121276E-1,-3.448196E-1,-1.9811109E-1,-5.714833E-1,-6.3531935E-2,6.8213097E-3,-8.670116E-1,-1.8358791E-1,1.2502329E-1,4.2676547E-1,2.3492613E-1,7.7640283E-1,1.1141567E-1,1E-1,-1.291233E-2,-5.293283E-2,-2.709945E-1,7.149304E-2,8.748108E-1,-3.617988E-1,2.473843E-1,-2.0226416E-1,1E-1,6.70146E-1,-5.8143705E-1,7.432775E-1,-2.7690667E-1,-9.907607E-1,-7.74658E-1,-2.279784E-1,5.5178875E-1,1.2985268E-1,-8.251787E-1,4.8873568E-1,1.8208627E-1,2.0799088E-1,7.7505124E-1,6.821539E-1,8.613795E-1,3.4725732E-1,-6.5969265E-1,-5.5373587E-2,4.873735E-2,-1.3355198E-2,1.594258E-2,-3.4292623E-2,2.5584549E-2,1.4042689E-2,-3.685194E-2,1E-1,-3.8476475E-2,-2.6117733E-2,-4.5182668E-2,8.248929E-2,-1.5291906E-2,-1.5621043E-2,-3.160615E-2,9.243835E-2,1.4427006E-2,-1E-1,-5.4360956E-2,-3.5277128E-3,9.6862085E-2,8.8094E-2,-3.928346E-2,-5.3359844E-2,-1E-1,-6.062899E-2,-1E-1,-2.663312E-2,6.6954516E-2,-8.400655E-2,9.7120695E-2,7.6920777E-3,2.1372937E-2,-1E-1,5.1889773E-2,4.9592968E-2,-9.609785E-2,2.4899757E-2,-5.8180463E-2,2.3062317E-2,-4.9646568E-2,8.583223E-2,-3.5631653E-2,9.2130706E-2,4.111367E-2,9.1964275E-2,4.805037E-2,-4.8204817E-2,4.6819605E-2,-1E-1,-2.6222823E-2],"categories":[],"categories_nodes":[],"categories_segments":[],"categories_sizes":[],"default_left":[0,0,0,0,0,0,0,0,0,0,0,0,0,0,0,0,0,0,0,0,0,0,0,0,0,0,0,0,0,0,0,0,0,0,0,0,0,0,0,0,0,0,0,0,0,0,0,0,0,0,0,0,0,0,0,0,0,0,0,0,0,0,0,0,0,0,0,0,0,0,0,0,0,0,0,0,0,0,0,0,0,0,0,0,0,0,0,0,0,0,0,0,0,0,0,0,0,0,0,0,0,0,0,0,0,0,0,0,0],"id":5,"left_children":[1,3,5,7,9,11,13,15,17,19,21,23,25,27,29,31,33,35,37,39,41,-1,43,45,47,49,51,53,55,-1,57,59,61,63,65,67,69,71,-1,73,75,77,79,81,83,85,87,89,91,93,95,97,99,101,103,105,107,-1,-1,-1,-1,-1,-1,-1,-1,-1,-1,-1,-1,-1,-1,-1,-1,-1,-1,-1,-1,-1,-1,-1,-1,-1,-1,-1,-1,-1,-1,-1,-1,-1,-1,-1,-1,-1,-1,-1,-1,-1,-1,-1,-1,-1,-1,-1,-1,-1,-1,-1,-1],"loss_changes":[3.9998398E2,1.0900629E2,9.306622E1,2.6287521E1,1.1799744E1,3.9714264E1,5.735016E0,1.0714568E1,9.286102E0,5.771988E0,1.9790344E0,1.6972466E1,9.230034E0,7.9441986E0,2.6094818E0,9.8992815E0,7.6476936E0,7.0420914E0,6.809742E0,5.6990967E0,4.489169E0,0E0,1.2171326E0,6.6755347E0,7.451702E0,8.182892E0,6.748434E0,8.2386017E-1,4.1230903E0,0E0,1.2217414E0,1.2745313E1,1.1066952E1,8.032853E0,3.5640526E0,5.9747086E0,4.718715E0,6.0611076E0,0E0,3.8554335E-1,6.635376E0,9.947827E-1,3.0850568E0,1.5099716E0,4.4105225E0,6.7161436E0,7.6544676E0,7.0573254E0,4.988242E0,5.010109E0,5.8613586E0,7.348814E0,2.3966217E0,5.34853E0,1.5302353E0,1.935955E0,4.9726462E-1,0E0,0E0,0E0,0E0,0E0,0E0,0E0,0E0,0E0,0E0,0E0,0E0,0E0,0E0,0E0,0E0,0E0,0E0,0E0,0E0,0E0,0E0,0E0,0E0,0E0,0E0,0E0,0E0,0E0,0E0,0E0,0E0,0E0,0E0,0E0,0E0,0E0,0E0,0E0,0E0,0E0,0E0,0E0,0E0,0E0,0E0,0E0,0E0,0E0,0E0,0E0,0E0],"parents":[2147483647,0,0,1,1,2,2,3,3,4,4,5,5,6,6,7,7,8,8,9,9,10,10,11,11,12,12,13,13,14,14,15,15,16,16,17,17,18,18,19,19,20,20,22,22,23,23,24,24,25,25,26,26,27,27,28,28,30,30,31,31,32,32,33,33,34,34,35,35,36,36,37,37,39,39,40,40,41,41,42,42,43,43,44,44,45,45,46,46,47,47,48,48,49,49,50,50,51,51,52,52,53,53,54,54,55,55,56,56],"right_children":[2,4,6,8,10,12,14,16,18,20,22,24,26,28,30,32,34,36,38,40,42,-1,44,46,48,50,52,54,56,-1,58,60,62,64,66,68,70,72,-1,74,76,78,80,82,84,86,88,90,92,94,96,98,100,102,104,106,108,-1,-1,-1,-1,-1,-1,-1,-1,-1,-1,-1,-1,-1,-1,-1,-1,-1,-1,-1,-1,-1,-1,-1,-1,-1,-1,-1,-1,-1,-1,-1,-1,-1,-1,-1,-1,-1,-1,-1,-1,-1,-1,-1,-1,-1,-1,-1,-1,-1,-1,-1,-1],"split_conditions":[4.208374E-2,1.0449219E0,9.5751953E-1,3.668213E-2,2.6171875E0,6.09375E-1,5.109375E0,2.3101807E-2,2.2506714E-2,2.6523438E0,3.6376953E-2,1.2214661E-2,1.184082E-2,5.6328125E0,6.748047E-1,1.84021E-2,1.3830566E-1,2.277832E-1,1.2954712E-2,7.7197266E-1,2.3144531E0,6.8213097E-3,5.4492188E0,4.7454834E-2,3.5083008E-1,1.8310547E-3,7.897949E-2,3.5429688E0,2.8100586E-1,1E-1,7.348633E-1,8.6242676E-2,1.5722656E-1,7.684326E-2,2.6513672E-1,3.2177734E-1,1.8164062E-1,3.059082E-1,1E-1,6.113281E-1,7.7783203E-1,2.3168945E-1,3.9648438E0,2.8417969E0,4.6191406E-1,3.7231445E-1,5.290985E-3,2.4993896E-2,1.2756348E-1,3.2617188E-1,7.8125E-2,7.788086E-2,1.7749023E-1,4.1900635E-2,3.6386719E0,3.0090332E-2,3.059082E-1,-5.5373587E-2,4.873735E-2,-1.3355198E-2,1.594258E-2,-3.4292623E-2,2.5584549E-2,1.4042689E-2,-3.685194E-2,1E-1,-3.8476475E-2,-2.6117733E-2,-4.5182668E-2,8.248929E-2,-1.5291906E-2,-1.5621043E-2,-3.160615E-2,9.243835E-2,1.4427006E-2,-1E-1,-5.4360956E-2,-3.5277128E-3,9.6862085E-2,8.8094E-2,-3.928346E-2,-5.3359844E-2,-1E-1,-6.062899E-2,-1E-1,-2.663312E-2,6.6954516E-2,-8.400655E-2,9.7120695E-2,7.6920777E-3,2.1372937E-2,-1E-1,5.1889773E-2,4.9592968E-2,-9.609785E-2,2.4899757E-2,-5.8180463E-2,2.3062317E-2,-4.9646568E-2,8.583223E-2,-3.5631653E-2,9.2130706E-2,4.111367E-2,9.1964275E-2,4.805037E-2,-4.8204817E-2,4.6819605E-2,-1E-1,-2.6222823E-2],"split_indices":[21,10,5,14,30,12,21,7,27,11,27,9,14,2,14,5,30,17,19,11,10,0,1,5,18,19,23,21,14,0,14,27,27,2,9,10,14,4,0,11,18,27,1,23,27,23,13,28,4,13,23,30,30,14,9,14,14,0,0,0,0,0,0,0,0,0,0,0,0,0,0,0,0,0,0,0,0,0,0,0,0,0,0,0,0,0,0,0,0,0,0,0,0,0,0,0,0,0,0,0,0,0,0,0,0,0,0,0,0],"split_type":[0,0,0,0,0,0,0,0,0,0,0,0,0,0,0,0,0,0,0,0,0,0,0,0,0,0,0,0,0,0,0,0,0,0,0,0,0,0,0,0,0,0,0,0,0,0,0,0,0,0,0,0,0,0,0,0,0,0,0,0,0,0,0,0,0,0,0,0,0,0,0,0,0,0,0,0,0,0,0,0,0,0,0,0,0,0,0,0,0,0,0,0,0,0,0,0,0,0,0,0,0,0,0,0,0,0,0,0,0],"sum_hessian":[6.8678535E3,3.7898289E3,3.078025E3,3.162538E3,6.2729095E2,2.8176296E3,2.6039508E2,1.3044907E3,1.8580472E3,4.524885E2,1.7480247E2,1.7991516E3,1.01847815E3,1.956466E2,6.4748474E1,1.030934E3,2.7355676E2,6.904447E2,1.1676025E3,4.286074E2,2.3881104E1,2.1502337E0,1.7265224E2,1.9964308E2,1.5995085E3,5.445371E2,4.7394104E2,1.7523442E2,2.0412178E1,6.223043E1,2.5180473E0,7.422181E2,2.8871582E2,2.62127E2,1.1429749E1,6.715788E2,1.886591E1,1.1649459E3,2.6566317E0,2.8811853E0,4.257262E2,4.4753895E0,1.9405714E1,6.962727E1,1.03024956E2,1.8892853E2,1.071455E1,1.5922792E3,7.22938E0,4.336967E2,1.108404E2,4.5274823E2,2.1192816E1,8.7364555E1,8.7869865E1,1.605229E1,4.35989E0,1.1586616E0,1.3593858E0,5.3824976E2,2.0396835E2,2.5433894E2,3.4376892E1,2.2721205E2,3.491496E1,9.948042E0,1.481707E0,3.1897302E2,3.5260574E2,7.2892313E0,1.1576678E1,8.3100934E2,3.339366E2,1.4313794E0,1.4498057E0,3.1148962E1,3.9457724E2,1.1939117E0,3.2814777E0,1.1655532E0,1.824016E1,1.0566246E1,5.906103E1,6.798246E1,3.50425E1,1.8186055E2,7.067972E0,2.248822E0,8.465728E0,9.773941E2,6.148851E2,5.524735E0,1.7046452E0,4.3220984E2,1.486855E0,1.0253327E2,8.307129E0,4.393071E2,1.3441127E1,1.9964712E1,1.2281038E0,4.513591E1,4.2228645E1,7.4984764E1,1.28850975E1,1.6629767E0,1.4389313E1,1.4687251E0,2.8911648E0],"tree_param":{"num_deleted":"0","num_feature":"32","num_nodes":"109","size_leaf_vector":"1"}},{"base_weights":[-2.519932E-2,-1.7791554E-1,3.01946E-1,-1.0917981E-1,-5.6322336E-1,2.4867061E-1,6.649236E-1,-2.009625E-1,1.7029048E-3,-4.450814E-1,-7.1770954E-1,1.5904522E-1,3.2736582E-1,5.9068906E-1,9.932183E-1,-8.799037E-2,-2.5796273E-1,9.791296E-2,-8.751407E-2,-5.869249E-1,-3.5342005E-1,1.2285406E-1,-7.28737E-1,1.9863172E-1,-1.1779934E-1,3.3657834E-1,-4.585424E-1,-3.182319E-2,5.9702915E-1,-1.48693165E-2,1E0,-1.1022586E-1,5.7091343E-1,-2.651015E-1,1E0,1.4148282E-1,-1.1317279E-1,-7.829529E-2,-8.316686E-1,-6.3470477E-1,3.068556E-1,2.495179E-2,-4.2614898E-1,-6.652276E-2,7.650888E-2,-1E-1,-6.955241E-1,2.7333215E-1,7.7062115E-2,-4.705933E-1,9.219574E-2,3.4232035E-1,-7.70956E-1,-6.8275505E-1,8.2631744E-2,9.342717E-2,5.615207E-1,1E-1,4.9771526E-1,-6.7553E-3,-3.8155887E-2,8.541088E-3,1E-1,-2.7166633E-2,4.380483E-2,1E-1,1.1221608E-2,9.024484E-3,3.2194488E-2,2.1276316E-2,-2.4062466E-2,-8.889123E-3,5.458817E-2,-1E-1,5.8282662E-2,1.5011214E-2,-6.7947134E-2,9.991657E-2,-3.3787947E-2,-1.383525E-2,6.661569E-2,-1E-1,-3.6982723E-2,8.270746E-2,-7.134926E-2,3.979429E-2,1.2313204E-2,-1.2790549E-3,3.4593266E-2,-8.109311E-2,-1.937869E-2,-1.8796379E-2,4.507965E-2,3.1334914E-2,5.6526005E-2,3.887732E-2,-1E-1,-1E-1,2.1640558E-3,1E-1,-7.335772E-2,-9.0065084E-2,5.7447236E-2,-1.48693165E-2,6.397834E-2],"categories":[],"categories_nodes":[],"categories_segments":[],"categories_sizes":[],"default_left":[0,0,0,0,0,0,0,0,0,0,0,0,0,0,0,0,0,0,0,0,0,0,0,0,0,0,0,0,0,0,0,0,0,0,0,0,0,0,0,0,0,0,0,0,0,0,0,0,0,0,0,0,0,0,0,0,0,0,0,0,0,0,0,0,0,0,0,0,0,0,0,0,0,0,0,0,0,0,0,0,0,0,0,0,0,0,0,0,0,0,0,0,0,0,0,0,0,0,0,0,0,0,0,0,0],"id":6,"left_children":[1,3,5,7,9,11,13,15,17,19,21,23,25,27,29,31,33,35,37,39,41,43,45,47,49,51,53,-1,55,-1,57,59,61,63,65,67,69,71,73,75,77,79,81,-1,-1,-1,83,85,87,89,91,93,95,97,99,-1,101,-1,103,-1,-1,-1,-1,-1,-1,-1,-1,-1,-1,-1,-1,-1,-1,-1,-1,-1,-1,-1,-1,-1,-1,-1,-1,-1,-1,-1,-1,-1,-1,-1,-1,-1,-1,-1,-1,-1,-1,-1,-1,-1,-1,-1,-1,-1,-1],"loss_changes":[3.389402E2,1.2242906E2,4.158676E1,3.9956554E1,1.2455017E1,1.3238449E1,6.133362E0,1.380957E1,1.527899E1,4.9833984E0,2.885788E0,9.69982E0,7.4120255E0,1.5001678E0,1.7885399E0,1.06390505E1,1.5049538E1,7.892665E0,6.2708883E0,6.822895E0,6.753706E0,2.9192524E0,3.5203247E0,6.9974575E0,8.273216E0,6.5685425E0,1.5170403E0,0E0,2.1832504E0,0E0,8.253517E-1,8.06927E0,5.7628045E0,6.6791077E0,9.3857574E-1,6.539239E0,6.1613445E0,6.0894523E0,4.2232223E0,5.2897606E0,4.1540494E0,4.327839E0,6.5792313E0,0E0,0E0,0E0,8.393463E0,8.90337E0,7.1443257E0,3.7631903E0,7.164788E0,6.1974564E0,3.9000545E0,2.4638534E0,4.284273E0,0E0,4.4392776E0,0E0,7.5956583E-1,0E0,0E0,0E0,0E0,0E0,0E0,0E0,0E0,0E0,0E0,0E0,0E0,0E0,0E0,0E0,0E0,0E0,0E0,0E0,0E0,0E0,0E0,0E0,0E0,0E0,0E0,0E0,0E0,0E0,0E0,0E0,0E0,0E0,0E0,0E0,0E0,0E0,0E0,0E0,0E0,0E0,0E0,0E0,0E0,0E0,0E0],"parents":[2147483647,0,0,1,1,2,2,3,3,4,4,5,5,6,6,7,7,8,8,9,9,10,10,11,11,12,12,13,13,14,14,15,15,16,16,17,17,18,18,19,19,20,20,21,21,22,22,23,23,24,24,25,25,26,26,28,28,30,30,31,31,32,32,33,33,34,34,35,35,36,36,37,37,38,38,39,39,40,40,41,41,42,42,46,46,47,47,48,48,49,49,50,50,51,51,52,52,53,53,54,54,56,56,58,58],"right_children":[2,4,6,8,10,12,14,16,18,20,22,24,26,28,30,32,34,36,38,40,42,44,46,48,50,52,54,-1,56,-1,58,60,62,64,66,68,70,72,74,76,78,80,82,-1,-1,-1,84,86,88,90,92,94,96,98,100,-1,102,-1,104,-1,-1,-1,-1,-1,-1,-1,-1,-1,-1,-1,-1,-1,-1,-1,-1,-1,-1,-1,-1,-1,-1,-1,-1,-1,-1,-1,-1,-1,-1,-1,-1,-1,-1,-1,-1,-1,-1,-1,-1,-1,-1,-1,-1,-1,-1],"split_conditions":[3.1713867E-1,9.433594E-1,2.0527344E0,9.448242E-2,1.8125E0,9.1015625E-1,4.6484375E0,1.9744873E-2,1.1367798E-3,8.569336E-1,2.6210938E0,4.189453E-1,2.6245117E-1,2.0859375E0,9.613037E-4,2.4841309E-2,1.2841797E-1,9.979248E-2,4.8046875E-1,2.3803711E-1,6.0577393E-2,3.5566406E0,2.0410156E0,1.274414E-1,4.423828E-1,1.4208984E-1,1.0757446E-3,-3.182319E-2,4.8945312E0,-1.48693165E-2,5.620117E-1,3.2495117E-1,8.807373E-2,1.4267578E0,4.4067383E-1,2.4169922E-1,5.517578E-2,3.0615234E-1,7.3779297E-1,1.3291016E0,9.189453E-1,3.7231445E-2,9.161377E-2,-6.652276E-2,7.650888E-2,-1E-1,1.3212891E0,4.6191406E-1,3.3447266E-1,3.5131836E-1,5.8935547E-1,5.670166E-2,8.334961E-1,1.8056641E0,4.013672E-1,9.342717E-2,4.1484375E0,1E-1,6.359375E0,-6.7553E-3,-3.8155887E-2,8.541088E-3,1E-1,-2.7166633E-2,4.380483E-2,1E-1,1.1221608E-2,9.024484E-3,3.2194488E-2,2.1276316E-2,-2.4062466E-2,-8.889123E-3,5.458817E-2,-1E-1,5.8282662E-2,1.5011214E-2,-6.7947134E-2,9.991657E-2,-3.3787947E-2,-1.383525E-2,6.661569E-2,-1E-1,-3.6982723E-2,8.270746E-2,-7.134926E-2,3.979429E-2,1.2313204E-2,-1.2790549E-3,3.4593266E-2,-8.109311E-2,-1.937869E-2,-1.8796379E-2,4.507965E-2,3.1334914E-2,5.6526005E-2,3.887732E-2,-1E-1,-1E-1,2.1640558E-3,1E-1,-7.335772E-2,-9.0065084E-2,5.7447236E-2,-1.48693165E-2,6.397834E-2],"split_indices":[17,30,0,27,10,15,9,14,4,18,24,0,14,9,14,24,31,8,2,27,31,13,11,10,0,4,30,0,7,0,14,0,15,8,10,13,24,27,7,8,10,31,31,0,0,0,4,27,0,9,2,23,7,17,14,0,15,0,9,0,0,0,0,0,0,0,0,0,0,0,0,0,0,0,0,0,0,0,0,0,0,0,0,0,0,0,0,0,0,0,0,0,0,0,0,0,0,0,0,0,0,0,0,0,0],"split_type":[0,0,0,0,0,0,0,0,0,0,0,0,0,0,0,0,0,0,0,0,0,0,0,0,0,0,0,0,0,0,0,0,0,0,0,0,0,0,0,0,0,0,0,0,0,0,0,0,0,0,0,0,0,0,0,0,0,0,0,0,0,0,0,0,0,0,0,0,0,0,0,0,0,0,0,0,0,0,0,0,0,0,0,0,0,0,0,0,0,0,0,0,0,0,0,0,0,0,0,0,0,0,0,0,0],"sum_hessian":[6.782101E3,4.6240044E3,2.1580967E3,3.9250852E3,6.989194E2,1.8833556E3,2.7474112E2,2.1470562E3,1.778029E3,3.9824557E2,3.006738E2,8.819408E2,1.00141486E3,2.2635632E2,4.83848E1,7.208681E2,1.426188E3,8.554399E2,9.225892E2,1.5420868E2,2.440369E2,3.7621715E0,2.9691165E2,7.7185443E2,1.1008633E2,9.9037726E2,1.1037628E1,1.2272172E0,2.251291E2,1.115052E0,4.7269745E1,6.9814124E2,2.2726881E1,1.4201545E3,6.033415E0,7.093533E2,1.4608665E2,9.123914E2,1.0197729E1,1.4665845E2,7.5502286E0,3.945088E1,2.0458601E2,1.6731993E0,2.088972E0,1.26892E1,2.8422244E2,4.773132E2,2.9454126E2,4.0613777E1,6.947255E1,9.859565E2,4.420763E0,7.6192827E0,3.418346E0,1.9034739E1,2.0609438E2,4.1034588E1,6.2351604E0,6.043443E2,9.379696E1,1.2307404E1,1.04194765E1,1.4076262E3,1.25283785E1,4.5737944E0,1.4596202E0,5.5365576E2,1.556975E2,4.087826E1,1.052084E2,8.9800464E2,1.43868E1,8.986247E0,1.2114817E0,7.7871003E0,1.3887135E2,3.3757021E0,4.1745267E0,3.2067936E1,7.3829393E0,1.602074E1,1.8856528E2,2.789855E0,2.814326E2,2.5997794E2,2.1733527E2,2.2147868E2,7.306256E1,1.7350935E1,2.3262842E1,3.9269108E1,3.0203444E1,8.7469464E2,1.1126182E2,1.6880583E0,2.7327049E0,4.4694977E0,3.149785E0,1.4227624E0,1.9955834E0,1.207744E0,2.0488663E2,1.115052E0,5.120108E0],"tree_param":{"num_deleted":"0","num_feature":"32","num_nodes":"105","size_leaf_vector":"1"}},{"base_weights":[-1.8232558E-2,-1.6721158E-1,2.517317E-1,-1.0464313E-1,-5.5308783E-1,2.0315795E-1,6.705048E-1,-4.423988E-2,-2.2157227E-1,-4.8419598E-1,-7.3652434E-1,1.3883063E-1,2.9219213E-1,6.086944E-1,9.172214E-2,-8.992365E-2,6.305851E-2,-7.4966085E-1,-2.047864E-1,-4.9463087E-1,7.633506E-1,3.146582E-1,-7.598244E-1,1.1082611E-1,3.8525462E-1,2.967262E-1,-1E-1,6.396159E-1,2.4823628E-1,-9.651999E-2,5.5498695E-1,-6.0886856E-2,1.5212065E-1,-9.281043E-1,2.4350693E-2,-2.0903805E-1,1E0,-5.0273556E-1,9.273733E-2,1.0397733E-2,1E-1,-5.476376E-2,9.327331E-2,-9.015936E-1,-6.450335E-1,1.1828389E-1,-6.0248506E-1,4.478918E-1,-2.1755953E-1,3.059776E-1,-3.7562504E-1,5.2961046E-1,7.651646E-1,-5.3876814E-2,3.5320783E-1,-1.7833412E-2,-3.5966735E-3,8.3420135E-2,-5.400909E-2,-9.664776E-3,5.6364805E-2,2.6835657E-3,3.284477E-2,-1E-1,-4.188932E-3,-3.2350194E-2,1E-1,-2.1526812E-2,4.3702137E-2,1E-1,2.8200021E-2,-6.1618518E-2,-4.264986E-2,-9.506989E-2,3.878538E-2,-4.4774774E-2,-9.489243E-2,1E-1,1.1166678E-2,-1E-1,7.0217187E-3,-4.37581E-3,5.5688586E-2,7.952293E-2,-8.8513225E-2,5.2615393E-2,2.857382E-2,4.018758E-2,-1E-1,7.565355E-2,3.351847E-2,9.950358E-2,6.6342406E-2,4.5990027E-2,-7.4355863E-3],"categories":[],"categories_nodes":[],"categories_segments":[],"categories_sizes":[],"default_left":[0,0,0,0,0,0,0,0,0,0,0,0,0,0,0,0,0,0,0,0,0,0,0,0,0,0,0,0,0,0,0,0,0,0,0,0,0,0,0,0,0,0,0,0,0,0,0,0,0,0,0,0,0,0,0,0,0,0,0,0,0,0,0,0,0,0,0,0,0,0,0,0,0,0,0,0,0,0,0,0,0,0,0,0,0,0,0,0,0,0,0,0,0,0,0],"id":7,"left_children":[1,3,5,7,9,11,13,15,17,19,21,23,25,27,-1,29,31,33,35,37,39,41,43,45,47,49,-1,51,53,55,57,59,61,63,65,67,69,71,-1,-1,-1,-1,-1,73,75,77,79,81,83,85,87,89,91,-1,93,-1,-1,-1,-1,-1,-1,-1,-1,-1,-1,-1,-1,-1,-1,-1,-1,-1,-1,-1,-1,-1,-1,-1,-1,-1,-1,-1,-1,-1,-1,-1,-1,-1,-1,-1,-1,-1,-1,-1,-1],"loss_changes":[2.734571E2,1.0572247E2,4.9046524E1,2.662601E1,7.3654633E0,1.2376305E1,3.2673264E0,1.2200926E1,1.1231152E1,6.198494E0,4.2782745E0,8.6562805E0,6.3361435E0,2.110321E0,0E0,7.4785137E0,8.217005E0,5.435383E0,7.204376E0,5.583725E0,7.4070835E-1,2.7936525E0,2.0488129E0,6.1001577E0,4.939228E0,5.7534256E0,0E0,2.1755295E0,1.6540736E0,8.557085E0,5.899125E0,7.01369E0,9.555206E0,4.6979084E0,3.5608654E0,5.0970764E0,1.4429808E-1,3.5615845E0,0E0,0E0,0E0,0E0,0E0,4.788597E0,5.1404724E0,6.631319E0,4.43666E0,6.266556E0,9.319573E0,3.8367844E0,7.8598924E0,4.2839355E0,1.3281937E0,0E0,7.7490616E-1,0E0,0E0,0E0,0E0,0E0,0E0,0E0,0E0,0E0,0E0,0E0,0E0,0E0,0E0,0E0,0E0,0E0,0E0,0E0,0E0,0E0,0E0,0E0,0E0,0E0,0E0,0E0,0E0,0E0,0E0,0E0,0E0,0E0,0E0,0E0,0E0,0E0,0E0,0E0,0E0],"parents":[2147483647,0,0,1,1,2,2,3,3,4,4,5,5,6,6,7,7,8,8,9,9,10,10,11,11,12,12,13,13,15,15,16,16,17,17,18,18,19,19,20,20,21,21,22,22,23,23,24,24,25,25,27,27,28,28,29,29,30,30,31,31,32,32,33,33,34,34,35,35,36,36,37,37,43,43,44,44,45,45,46,46,47,47,48,48,49,49,50,50,51,51,52,52,54,54],"right_children":[2,4,6,8,10,12,14,16,18,20,22,24,26,28,-1,30,32,34,36,38,40,42,44,46,48,50,-1,52,54,56,58,60,62,64,66,68,70,72,-1,-1,-1,-1,-1,74,76,78,80,82,84,86,88,90,92,-1,94,-1,-1,-1,-1,-1,-1,-1,-1,-1,-1,-1,-1,-1,-1,-1,-1,-1,-1,-1,-1,-1,-1,-1,-1,-1,-1,-1,-1,-1,-1,-1,-1,-1,-1,-1,-1,-1,-1,-1,-1],"split_conditions":[5.444336E-2,1.0449219E0,9.5751953E-1,1.6003418E-1,2.6171875E0,4.9072266E-1,1.875E0,8.69751E-2,1.11694336E-1,3.791809E-3,1.8811035E-1,1.8127441E-2,2.368164E-1,5.703125E0,9.172214E-2,2.3498535E-1,2.5756836E-2,3.4033203E-1,2.939453E-1,4.9921875E0,7.6171875E-1,2.4453125E0,3.1835938E-1,3.2177734E-1,2.3156738E-1,6.0943604E-2,-1E-1,1.2460938E0,1.6191406E0,3.189087E-2,5.1220703E-1,6.635742E-1,2.255249E-2,2.6831055E-1,3.7304688E-1,1.2939453E-1,1.15722656E-1,1.5710449E-1,9.273733E-2,1.0397733E-2,1E-1,-5.476376E-2,9.327331E-2,4.3710938E0,4.4970703E-1,8.251953E-2,3.9819336E-1,2.7319336E-1,1.8383789E-1,1.0917969E0,3.8476562E-1,2.28125E0,3.2441406E0,-5.3876814E-2,6.6328125E0,-1.7833412E-2,-3.5966735E-3,8.3420135E-2,-5.400909E-2,-9.664776E-3,5.6364805E-2,2.6835657E-3,3.284477E-2,-1E-1,-4.188932E-3,-3.2350194E-2,1E-1,-2.1526812E-2,4.3702137E-2,1E-1,2.8200021E-2,-6.1618518E-2,-4.264986E-2,-9.506989E-2,3.878538E-2,-4.4774774E-2,-9.489243E-2,1E-1,1.1166678E-2,-1E-1,7.0217187E-3,-4.37581E-3,5.5688586E-2,7.952293E-2,-8.8513225E-2,5.2615393E-2,2.857382E-2,4.018758E-2,-1E-1,7.565355E-2,3.351847E-2,9.950358E-2,6.6342406E-2,4.5990027E-2,-7.4355863E-3],"split_indices":[5,10,5,26,30,9,5,7,6,15,31,29,30,12,0,24,30,10,27,25,23,23,27,10,18,31,0,5,5,31,25,7,28,15,25,28,31,31,0,0,0,0,0,11,27,17,10,15,9,15,2,17,9,0,2,0,0,0,0,0,0,0,0,0,0,0,0,0,0,0,0,0,0,0,0,0,0,0,0,0,0,0,0,0,0,0,0,0,0,0,0,0,0,0,0],"split_type":[0,0,0,0,0,0,0,0,0,0,0,0,0,0,0,0,0,0,0,0,0,0,0,0,0,0,0,0,0,0,0,0,0,0,0,0,0,0,0,0,0,0,0,0,0,0,0,0,0,0,0,0,0,0,0,0,0,0,0,0,0,0,0,0,0,0,0,0,0,0,0,0,0,0,0,0,0,0,0,0,0,0,0,0,0,0,0,0,0,0,0,0,0,0,0],"sum_hessian":[6.7971533E3,4.3802856E3,2.4168677E3,3.770228E3,6.100576E2,2.167001E3,2.4986668E2,2.4869155E3,1.2833125E3,4.461427E2,1.6391492E2,1.2595406E3,9.074603E2,2.0258089E2,4.7285797E1,1.7443826E3,7.42533E2,3.8189766E1,1.2451228E3,4.430405E2,3.1022248E0,3.2833204E0,1.606316E2,1.1323105E3,1.2723014E2,9.054814E2,1.9789598E0,1.8586243E2,1.671846E1,1.7275629E3,1.6819706E1,3.1059824E2,4.3193478E2,3.0873089E1,7.316677E0,1.2419867E3,3.1360908E0,4.4117252E2,1.8679887E0,1.454292E0,1.6479326E0,1.4184119E0,1.8649085E0,6.8803535E1,9.1828064E1,1.1214202E3,1.0890448E1,1.15487114E2,1.1743027E1,8.9372876E2,1.1752611E1,1.018447E2,8.401772E1,1.4811677E0,1.5237292E1,7.339586E2,9.936042E2,1.3592279E1,3.2274268E0,2.9457605E2,1.6022192E1,2.5318933E2,1.7874547E2,2.5486582E1,5.3865075E0,6.1232195E0,1.1934574E0,1.2307848E3,1.12018585E1,1.91641E0,1.2196808E0,1.7446521E2,2.667073E2,6.6532524E1,2.2710123E0,5.7180134E1,3.4647934E1,6.988866E0,1.1144313E3,5.5033417E0,5.3871055E0,2.1065132E1,9.442198E1,4.589291E0,7.153736E0,7.313424E1,8.2059454E2,6.0379763E0,5.714635E0,4.5660576E1,5.6184128E1,2.308338E1,6.093434E1,1.2133836E1,3.1034563E0],"tree_param":{"num_deleted":"0","num_feature":"32","num_nodes":"95","size_leaf_vector":"1"}},{"base_weights":[-1.77507E-2,-1.6276999E-1,2.2225554E-1,-1.1887262E-1,-5.4740286E-1,1.6060506E-1,4.5969853E-1,-4.406199E-3,-1.8366295E-1,-5.1542807E-1,-1E-1,2.2734763E-1,7.328733E-2,3.4979936E-1,5.9661365E-1,8.705164E-2,-1.3993536E-1,-9.265693E-2,-2.3072575E-1,4.539619E-1,-5.233601E-1,2.9608512E-1,1.2560035E-1,-2.2493052E-1,1.13336414E-1,3.9653203E-1,-1.02352954E-1,6.091008E-1,-4.1933876E-2,5.987716E-2,4.280116E-1,-4.888085E-1,-6.8406776E-2,-7.707759E-2,-7.1353644E-1,-2.362507E-1,3.6559322E-1,-2.4048073E-2,9.702139E-2,-4.728795E-1,-7.020123E-1,2.642792E-1,6.6467905E-1,6.310949E-2,7.872607E-1,-9.091395E-1,-8.676128E-2,7.8658186E-2,4.7030887E-1,4.1540435E-1,-5.9338963E-1,-2.6756033E-1,2.3731339E-1,5.312406E-1,8.0782694E-1,2.4615935E-4,1.875936E-2,-3.268912E-2,5.4027647E-2,-5.3022295E-2,5.2871812E-2,2.7940662E-3,-2.2682171E-2,-6.771728E-3,-1E-1,-1E-1,-1.7921792E-2,-3.910504E-2,-2.1631053E-2,1E-1,2.0434356E-3,-4.2147458E-2,-6.144623E-2,-1E-1,-5.679461E-2,3.6648866E-2,1.2491099E-2,8.202594E-2,-7.912571E-2,-3.9600967E-3,2.9858831E-2,9.474847E-2,2.4694614E-2,6.908854E-2,-1E-1,-1.6453534E-2,7.975786E-2,9.477974E-3,-8.510702E-2,5.639868E-2,-7.721715E-2,-1.2532296E-2,4.3879654E-2,-1E-1,4.4194967E-3,1.2696901E-2,-4.919919E-2,5.0754603E-2,-5.018855E-2,5.9524685E-2,5.607718E-3,2.6461398E-4,8.63934E-2],"categories":[],"categories_nodes":[],"categories_segments":[],"categories_sizes":[],"default_left":[0,0,0,0,0,0,0,0,0,0,0,0,0,0,0,0,0,0,0,0,0,0,0,0,0,0,0,0,0,0,0,0,0,0,0,0,0,0,0,0,0,0,0,0,0,0,0,0,0,0,0,0,0,0,0,0,0,0,0,0,0,0,0,0,0,0,0,0,0,0,0,0,0,0,0,0,0,0,0,0,0,0,0,0,0,0,0,0,0,0,0,0,0,0,0,0,0,0,0,0,0,0,0],"id":8,"left_children":[1,3,5,7,9,11,13,15,17,19,-1,21,23,25,27,29,31,33,35,37,39,41,43,45,47,49,51,53,-1,55,57,59,61,63,65,67,69,-1,-1,71,73,75,77,79,81,83,85,87,89,91,93,95,97,99,101,-1,-1,-1,-1,-1,-1,-1,-1,-1,-1,-1,-1,-1,-1,-1,-1,-1,-1,-1,-1,-1,-1,-1,-1,-1,-1,-1,-1,-1,-1,-1,-1,-1,-1,-1,-1,-1,-1,-1,-1,-1,-1,-1,-1,-1,-1,-1,-1],"loss_changes":[2.3550746E2,7.114919E1,3.7233444E1,2.8084675E1,6.948517E0,1.1783443E1,7.6876984E0,1.6990973E1,1.0335747E1,3.3942337E0,0E0,7.9856377E0,1.0519669E1,6.243004E0,3.2019196E0,7.5579944E0,1.3748872E1,7.9343247E0,5.3355255E0,1.6197958E0,3.3444824E0,7.841816E0,1.914581E1,9.787367E0,9.560558E0,5.22044E0,1.651069E0,3.1271744E0,0E0,5.5669208E0,5.283204E0,4.233406E0,7.0195074E0,7.577572E0,4.322606E0,4.7900696E0,4.616413E0,0E0,0E0,2.0766296E0,3.6305885E0,8.945751E0,1.2804844E1,1.0297468E1,3.226719E0,7.966058E0,6.1793075E0,1.06904125E1,8.402244E0,3.3670502E0,1.8042401E0,1.7894171E0,2.20985E0,5.0779533E0,2.8339272E0,0E0,0E0,0E0,0E0,0E0,0E0,0E0,0E0,0E0,0E0,0E0,0E0,0E0,0E0,0E0,0E0,0E0,0E0,0E0,0E0,0E0,0E0,0E0,0E0,0E0,0E0,0E0,0E0,0E0,0E0,0E0,0E0,0E0,0E0,0E0,0E0,0E0,0E0,0E0,0E0,0E0,0E0,0E0,0E0,0E0,0E0,0E0,0E0],"parents":[2147483647,0,0,1,1,2,2,3,3,4,4,5,5,6,6,7,7,8,8,9,9,11,11,12,12,13,13,14,14,15,15,16,16,17,17,18,18,19,19,20,20,21,21,22,22,23,23,24,24,25,25,26,26,27,27,29,29,30,30,31,31,32,32,33,33,34,34,35,35,36,36,39,39,40,40,41,41,42,42,43,43,44,44,45,45,46,46,47,47,48,48,49,49,50,50,51,51,52,52,53,53,54,54],"right_children":[2,4,6,8,10,12,14,16,18,20,-1,22,24,26,28,30,32,34,36,38,40,42,44,46,48,50,52,54,-1,56,58,60,62,64,66,68,70,-1,-1,72,74,76,78,80,82,84,86,88,90,92,94,96,98,100,102,-1,-1,-1,-1,-1,-1,-1,-1,-1,-1,-1,-1,-1,-1,-1,-1,-1,-1,-1,-1,-1,-1,-1,-1,-1,-1,-1,-1,-1,-1,-1,-1,-1,-1,-1,-1,-1,-1,-1,-1,-1,-1,-1,-1,-1,-1,-1,-1],"split_conditions":[9.118652E-2,1.5371094E0,1.3310547E0,1.1306763E-2,8.9453125E-1,7.1792603E-3,2.9980469E0,2.6953125E-1,1.7272949E-1,1.4248047E0,-1E-1,4.5928955E-2,1.3330078E-1,3.4628906E0,6.6064453E-1,2.614746E-1,5.239868E-2,3.6621094E-3,9.9609375E-2,3.2519531E0,1.2741089E-3,3.4576416E-2,3.8598633E-1,1.5151978E-2,1.5655518E-2,2.6245117E-1,3.7519531E0,5.109375E0,-4.1933876E-2,2.0715332E-1,2.631836E-1,1.5063477E-1,1.1993408E-1,9.2529297E-1,8.013916E-2,9.9731445E-2,7.6953125E-1,-2.4048073E-2,9.702139E-2,3.3554688E0,1.4808655E-2,4.2266846E-2,5.026245E-2,7.2802734E-1,1.0949707E-1,1.0736084E-1,1.7175293E-1,1.1352539E-2,7.318115E-2,1.6142578E0,2.6308594E0,9.70459E-2,2.3886719E0,5.6328125E0,1.8829346E-2,2.4615935E-4,1.875936E-2,-3.268912E-2,5.4027647E-2,-5.3022295E-2,5.2871812E-2,2.7940662E-3,-2.2682171E-2,-6.771728E-3,-1E-1,-1E-1,-1.7921792E-2,-3.910504E-2,-2.1631053E-2,1E-1,2.0434356E-3,-4.2147458E-2,-6.144623E-2,-1E-1,-5.679461E-2,3.6648866E-2,1.2491099E-2,8.202594E-2,-7.912571E-2,-3.9600967E-3,2.9858831E-2,9.474847E-2,2.4694614E-2,6.908854E-2,-1E-1,-1.6453534E-2,7.975786E-2,9.477974E-3,-8.510702E-2,5.639868E-2,-7.721715E-2,-1.2532296E-2,4.3879654E-2,-1E-1,4.4194967E-3,1.2696901E-2,-4.919919E-2,5.0754603E-2,-5.018855E-2,5.9524685E-2,5.607718E-3,2.6461398E-4,8.63934E-2],"split_indices":[21,11,9,8,31,14,21,18,10,6,0,23,2,2,14,18,31,22,16,13,16,23,13,13,31,14,2,21,0,9,15,4,23,13,8,23,10,0,0,6,16,30,31,15,6,21,6,31,4,21,12,14,17,2,14,0,0,0,0,0,0,0,0,0,0,0,0,0,0,0,0,0,0,0,0,0,0,0,0,0,0,0,0,0,0,0,0,0,0,0,0,0,0,0,0,0,0,0,0,0,0,0,0],"split_type":[0,0,0,0,0,0,0,0,0,0,0,0,0,0,0,0,0,0,0,0,0,0,0,0,0,0,0,0,0,0,0,0,0,0,0,0,0,0,0,0,0,0,0,0,0,0,0,0,0,0,0,0,0,0,0,0,0,0,0,0,0,0,0,0,0,0,0,0,0,0,0,0,0,0,0,0,0,0,0,0,0,0,0,0,0,0,0,0,0,0,0,0,0,0,0,0,0,0,0,0,0,0,0],"sum_hessian":[6.764339E3,4.216761E3,2.5475776E3,3.785984E3,4.307777E2,2.0237904E3,5.2378723E2,1.3687872E3,2.4171965E3,4.095264E2,2.125131E1,1.1461276E3,8.776628E2,2.9253214E2,2.3125513E2,8.174877E2,5.5129956E2,8.2494916E2,1.5922474E3,2.8673627E0,4.0665903E2,6.8288226E2,4.6324533E2,1.0336424E2,7.742985E2,2.652409E2,2.7291231E1,2.2884285E2,2.412274E0,7.5823224E2,5.925542E1,9.280742E1,4.5849216E2,8.0585254E2,1.9096619E1,1.5782288E3,1.4018626E1,1.4504509E0,1.416912E0,3.199109E2,8.6748146E1,6.3021783E2,5.2664413E1,4.242703E2,3.897506E1,1.6428923E1,8.693532E1,7.068515E2,6.744701E1,2.6084833E2,4.392567E0,1.8503674E1,8.787557E0,1.670618E2,6.1781055E1,5.237825E2,2.3444977E2,7.423797E0,5.1831623E1,8.963797E1,3.1694539E0,2.856092E2,1.7288295E2,7.996009E2,6.2516856E0,9.747891E0,9.348728E0,1.7797353E2,1.4002552E3,2.8660522E0,1.1152574E1,2.3761583E2,8.2295044E1,2.1201357E1,6.554678E1,3.626379E2,2.6757996E2,4.79745E1,4.689913E0,2.9599564E2,1.2827466E2,2.9479637E1,9.495422E0,2.186305E0,1.4242617E1,8.065591E1,6.27941E0,6.9568634E2,1.1165192E1,6.32261E1,4.220908E0,1.0635828E1,2.5021251E2,2.002988E0,2.389579E0,6.8667846E0,1.1636889E1,6.664548E0,2.1230085E0,1.4700673E2,2.0055063E1,4.092831E0,5.7688225E1],"tree_param":{"num_deleted":"0","num_feature":"32","num_nodes":"103","size_leaf_vector":"1"}},{"base_weights":[-1.595358E-2,1.2199091E-1,-2.2906487E-1,6.2092315E-2,3.4291536E-1,-1.6955641E-1,-4.6299815E-1,1.22060314E-1,-4.4775642E-2,2.5807205E-1,6.206686E-1,-2.0941848E-1,4.078501E-3,-4.023661E-1,-6.6528755E-1,1.3069259E-1,-2.2962396E-1,-4.0058818E-2,-1E-1,2.3785923E-1,1E0,3.9362517E-1,6.763555E-1,-2.2409077E-1,7.464184E-2,-1.302499E-2,1E0,-6.8844503E-1,-3.5894674E-1,-1E0,-5.747181E-1,1.434344E-1,-1.05623685E-1,-4.6844247E-1,1.7680226E-1,-7.982302E-2,6.9339715E-2,2.539722E-1,-7.495924E-1,1E-1,-3.2918286E-2,4.525876E-1,-7.231608E-2,6.0071576E-1,8.0296844E-1,-2.1714678E-1,-8.02147E-1,-1.589544E-1,3.7527978E-1,2.706128E-1,-7.493777E-2,1E-1,-1.3408524E-2,-7.244427E-1,8.600904E-2,1.4604495E-2,-4.135062E-1,1.1528629E-2,-1E-1,-4.4717076E-1,-9.30007E-1,1.3506569E-2,6.76479E-2,-3.2301217E-2,6.720986E-3,-6.12394E-2,4.9875613E-2,-5.8304E-2,4.142709E-2,-5.29454E-2,-5.946783E-3,2.6482407E-2,-6.618289E-3,2.6529321E-2,-1E-1,-1E-1,-1.5795041E-3,9.284245E-3,5.281185E-2,6.943437E-2,1.3061725E-2,-7.558714E-3,8.240951E-2,-2.1958413E-2,1E-1,-1E-1,-7.97795E-3,-2.5978154E-2,9.9759005E-2,4.784787E-2,-8.833901E-2,3.9794814E-2,-4.1907486E-2,-7.636345E-2,-5.1586353E-3,-5.250605E-2,-1E-1,5.2018125E-2,-3.8601074E-2,-1.0782745E-2,1E-1,-3.5438135E-2,-6.658787E-2,-5.9639346E-2,-2.473533E-2,-1.5262398E-2,-9.94032E-2],"categories":[],"categories_nodes":[],"categories_segments":[],"categories_sizes":[],"default_left":[0,0,0,0,0,0,0,0,0,0,0,0,0,0,0,0,0,0,0,0,0,0,0,0,0,0,0,0,0,0,0,0,0,0,0,0,0,0,0,0,0,0,0,0,0,0,0,0,0,0,0,0,0,0,0,0,0,0,0,0,0,0,0,0,0,0,0,0,0,0,0,0,0,0,0,0,0,0,0,0,0,0,0,0,0,0,0,0,0,0,0,0,0,0,0,0,0,0,0,0,0,0,0,0,0,0,0],"id":9,"left_children":[1,3,5,7,9,11,13,15,17,19,21,23,25,27,29,31,33,35,-1,37,39,41,43,45,47,49,51,53,55,57,59,61,63,65,67,69,71,73,75,-1,-1,77,-1,79,81,83,85,87,89,91,93,-1,-1,95,97,99,101,-1,-1,103,105,-1,-1,-1,-1,-1,-1,-1,-1,-1,-1,-1,-1,-1,-1,-1,-1,-1,-1,-1,-1,-1,-1,-1,-1,-1,-1,-1,-1,-1,-1,-1,-1,-1,-1,-1,-1,-1,-1,-1,-1,-1,-1,-1,-1,-1,-1],"loss_changes":[1.9810725E2,5.4114986E1,3.678395E1,2.063887E1,2.0397705E1,1.4622803E1,6.311592E0,6.2917633E0,5.9981356E0,1.131908E1,2.3055954E0,7.1776123E0,6.975949E0,4.910797E0,4.419548E0,6.07901E0,4.9143496E0,5.02665E0,0E0,1.0629486E1,4.0913677E0,3.123003E0,1.0686951E0,6.38472E0,6.0386243E0,6.8681045E0,2.1735077E0,1.557415E0,7.396427E0,1.6175022E0,4.3713875E0,8.434441E0,3.9143167E0,4.708983E0,3.6968932E0,7.720579E0,8.183476E0,9.724518E0,2.9941607E0,0E0,0E0,1.0634546E0,0E0,4.54652E0,1.1313858E0,5.3720856E0,2.8276415E0,5.9279423E0,5.296794E0,6.3217154E0,5.1207685E0,0E0,0E0,2.6686268E0,8.721543E-1,6.999183E0,4.485733E0,0E0,0E0,2.2277536E0,1.1911507E0,0E0,0E0,0E0,0E0,0E0,0E0,0E0,0E0,0E0,0E0,0E0,0E0,0E0,0E0,0E0,0E0,0E0,0E0,0E0,0E0,0E0,0E0,0E0,0E0,0E0,0E0,0E0,0E0,0E0,0E0,0E0,0E0,0E0,0E0,0E0,0E0,0E0,0E0,0E0,0E0,0E0,0E0,0E0,0E0,0E0,0E0],"parents":[2147483647,0,0,1,1,2,2,3,3,4,4,5,5,6,6,7,7,8,8,9,9,10,10,11,11,12,12,13,13,14,14,15,15,16,16,17,17,19,19,20,20,21,21,22,22,23,23,24,24,25,25,26,26,27,27,28,28,29,29,30,30,31,31,32,32,33,33,34,34,35,35,36,36,37,37,38,38,41,41,43,43,44,44,45,45,46,46,47,47,48,48,49,49,50,50,53,53,54,54,55,55,56,56,59,59,60,60],"right_children":[2,4,6,8,10,12,14,16,18,20,22,24,26,28,30,32,34,36,-1,38,40,42,44,46,48,50,52,54,56,58,60,62,64,66,68,70,72,74,76,-1,-1,78,-1,80,82,84,86,88,90,92,94,-1,-1,96,98,100,102,-1,-1,104,106,-1,-1,-1,-1,-1,-1,-1,-1,-1,-1,-1,-1,-1,-1,-1,-1,-1,-1,-1,-1,-1,-1,-1,-1,-1,-1,-1,-1,-1,-1,-1,-1,-1,-1,-1,-1,-1,-1,-1,-1,-1,-1,-1,-1,-1,-1],"split_conditions":[1.7919922E-1,1.0107422E0,1.4248047E0,1.0131836E-2,3.484375E0,3.6132812E-1,3.3554688E0,1.9909668E-1,1.7004395E-1,6.0394287E-2,1.0772705E-2,2.6763916E-2,5.8447266E-1,6.8603516E-2,2.5585938E-1,1.0986328E0,2.1936035E-1,1.4746094E-1,-1E-1,2.5146484E-1,1.8808594E0,8.7890625E-3,5.109375E0,6.512451E-2,4.0496826E-2,2.4804688E-1,2.4975586E-1,2.5664062E0,1.07177734E-1,1.2768555E-1,6.5625E0,6.923828E-1,4.3907166E-3,3.5473633E-1,3.8256836E-1,5.3710938E-3,6.976318E-2,5.117798E-2,2.8242188E0,1E-1,-3.2918286E-2,2.5429688E0,-7.231608E-2,5.6328125E0,4.6020508E-2,7.9956055E-3,3.9819336E-1,2.3027344E0,2.0546875E0,2.3352051E-1,2.5219727E-1,1E-1,-1.3408524E-2,1.9667969E0,1.7700195E-3,2.3554688E0,4.753113E-3,1.1528629E-2,-1E-1,6.4921875E0,4.272461E-1,1.3506569E-2,6.76479E-2,-3.2301217E-2,6.720986E-3,-6.12394E-2,4.9875613E-2,-5.8304E-2,4.142709E-2,-5.29454E-2,-5.946783E-3,2.6482407E-2,-6.618289E-3,2.6529321E-2,-1E-1,-1E-1,-1.5795041E-3,9.284245E-3,5.281185E-2,6.943437E-2,1.3061725E-2,-7.558714E-3,8.240951E-2,-2.1958413E-2,1E-1,-1E-1,-7.97795E-3,-2.5978154E-2,9.9759005E-2,4.784787E-2,-8.833901E-2,3.9794814E-2,-4.1907486E-2,-7.636345E-2,-5.1586353E-3,-5.250605E-2,-1E-1,5.2018125E-2,-3.8601074E-2,-1.0782745E-2,1E-1,-3.5438135E-2,-6.658787E-2,-5.9639346E-2,-2.473533E-2,-1.5262398E-2,-9.94032E-2],"split_indices":[10,21,6,8,12,15,6,6,28,23,14,16,17,27,27,2,4,14,0,14,27,14,21,21,27,0,23,10,27,27,26,0,23,13,0,27,1,23,12,0,0,0,0,2,14,19,10,14,1,28,0,0,0,26,27,23,16,0,0,1,27,0,0,0,0,0,0,0,0,0,0,0,0,0,0,0,0,0,0,0,0,0,0,0,0,0,0,0,0,0,0,0,0,0,0,0,0,0,0,0,0,0,0,0,0,0,0],"split_type":[0,0,0,0,0,0,0,0,0,0,0,0,0,0,0,0,0,0,0,0,0,0,0,0,0,0,0,0,0,0,0,0,0,0,0,0,0,0,0,0,0,0,0,0,0,0,0,0,0,0,0,0,0,0,0,0,0,0,0,0,0,0,0,0,0,0,0,0,0,0,0,0,0,0,0,0,0,0,0,0,0,0,0,0,0,0,0,0,0,0,0,0,0,0,0,0,0,0,0,0,0,0,0,0,0,0,0],"sum_hessian":[6.736958E3,4.0899854E3,2.646973E3,3.2186133E3,8.71372E2,2.1115557E3,5.354173E2,2.0616145E3,1.1569987E3,6.689589E2,2.0241306E2,1.7171389E3,3.9441666E2,4.1424506E2,1.21172264E2,2.0128368E3,4.877769E1,1.153241E3,3.7576735E0,6.551025E2,1.385646E1,4.14567E1,1.6095636E2,1.6330023E3,8.413671E1,3.8894943E2,5.4672184E0,5.26292E1,3.6161584E2,1.6530857E1,1.046414E2,1.9102329E3,1.02603874E2,3.062794E1,1.8149754E1,8.4600525E2,3.0723578E2,6.453152E2,9.787281E0,1.1974652E1,1.881807E0,3.9942608E1,1.5140916E0,1.0435703E2,5.659933E1,1.6149778E3,1.8024485E1,4.7612774E1,3.6523937E1,6.908465E1,3.1986478E2,3.9997704E0,1.4674481E0,5.0353287E1,2.2759142E0,4.617853E1,3.1543732E2,1.104331E0,1.5426527E1,7.866101E1,2.5980396E1,1.8819402E3,2.8292757E1,4.5059505E1,5.754437E1,2.6979347E1,3.6485913E0,3.9751148E0,1.4174638E1,3.5557423E1,8.104478E2,1.2539946E2,1.8183633E2,6.405001E2,4.815081E0,5.965601E0,3.8216805E0,7.317824E0,3.2624786E1,8.662684E1,1.7730192E1,1.2685505E0,5.533078E1,1.6128093E3,2.168502E0,1.3624934E1,4.399551E0,4.450797E1,3.1048076E0,3.432913E1,2.194807E0,5.867469E1,1.040996E1,9.450221E0,3.1041458E2,3.2550827E1,1.780246E1,1.1323376E0,1.1435767E0,4.2844654E1,3.3338766E0,2.5751248E2,5.7924843E1,4.389543E1,3.476558E1,2.2344043E0,2.3745993E1],"tree_param":{"num_deleted":"0","num_feature":"32","num_nodes":"107","size_leaf_vector":"1"}},{"base_weights":[-1.3182801E-2,-1.4916174E-1,1.5507261E-1,-1.003673E-1,-4.1034213E-1,6.4879075E-2,2.8484553E-1,-1.921617E-1,-6.061452E-2,-3.388205E-1,-5.9713304E-1,1.1136542E-1,-2.7410042E-2,2.4481578E-1,5.976852E-1,-3.8895592E-2,-2.2233132E-1,-9.0500355E-2,7.997188E-2,-7.7054137E-1,-3.017907E-1,-1E-1,-5.3508127E-1,1.277185E-1,-3.696415E-1,1.4880307E-2,-2.2068839E-1,3.1856412E-1,1.6531879E-1,2.6046726E-1,7.025019E-1,-8.7788194E-2,9.703634E-1,-2.4445745E-1,1.1036726E-1,-6.78563E-2,-2.0022964E-1,6.6981345E-2,7.601033E-1,8.2665846E-2,-8.562154E-1,1E-1,-3.107026E-1,6.8669474E-1,-5.685806E-1,1.595634E-1,-7.328047E-2,-7.908701E-1,1.5836987E-1,-3.604331E-2,3.267831E-1,7.6682395E-1,-2.9305825E-1,3.252261E-1,-1E-1,-2.1770471E-1,1.9292054E-1,4.26473E-1,-5.5420077E-1,1E0,5.4298806E-1,-4.1928454E-4,-9.940333E-2,1.966496E-2,1E-1,-6.719307E-2,-2.3019815E-2,-2.0658304E-3,9.768112E-2,6.3672983E-3,-1.2921961E-2,-2.7044285E-2,3.532056E-2,8.370899E-3,-1E-1,1E-1,-7.44223E-2,-9.143345E-2,1.4418028E-2,-3.3951797E-2,1.7366922E-2,1E-1,-1.0503904E-2,8.237679E-2,-5.92201E-2,1.6678847E-2,-9.9843346E-2,-3.710584E-2,5.441666E-3,5.3347107E-2,-9.467038E-2,3.4843747E-2,-1E-1,-2.152678E-3,-8.9662604E-2,1E-1,2.230571E-2,-3.3039562E-2,1E-1,-3.662487E-2,7.225948E-2,3.4773152E-2,-9.758875E-3,-7.255716E-2,9.727399E-3,9.1611125E-2,1.7559094E-2,5.6783374E-2,8.728442E-3,-1.6068054E-2,-1E-1,2.3556333E-2,1E-1,3.4200806E-2,6.983932E-2],"categories":[],"categories_nodes":[],"categories_segments":[],"categories_sizes":[],"default_left":[0,0,0,0,0,0,0,0,0,0,0,0,0,0,0,0,0,0,0,0,0,0,0,0,0,0,0,0,0,0,0,0,0,0,0,0,0,0,0,0,0,0,0,0,0,0,0,0,0,0,0,0,0,0,0,0,0,0,0,0,0,0,0,0,0,0,0,0,0,0,0,0,0,0,0,0,0,0,0,0,0,0,0,0,0,0,0,0,0,0,0,0,0,0,0,0,0,0,0,0,0,0,0,0,0,0,0,0,0,0,0,0,0,0,0],"id":10,"left_children":[1,3,5,7,9,11,13,15,17,19,21,23,25,27,29,31,33,35,37,39,41,-1,43,45,47,49,51,53,55,57,59,61,63,65,67,69,71,73,75,-1,77,-1,79,81,83,85,87,89,91,93,95,97,99,101,-1,103,105,107,109,111,113,-1,-1,-1,-1,-1,-1,-1,-1,-1,-1,-1,-1,-1,-1,-1,-1,-1,-1,-1,-1,-1,-1,-1,-1,-1,-1,-1,-1,-1,-1,-1,-1,-1,-1,-1,-1,-1,-1,-1,-1,-1,-1,-1,-1,-1,-1,-1,-1,-1,-1,-1,-1,-1,-1],"loss_changes":[1.5326492E2,4.71725E1,3.502687E1,1.1384003E1,7.584381E0,7.5869565E0,1.5224251E1,4.3529434E0,9.169228E0,6.5423126E0,3.6167831E0,9.295853E0,4.8499413E0,6.3369217E0,4.7139854E0,7.800274E0,5.8270226E0,4.4559317E0,3.331411E0,5.2007256E0,5.3280373E0,0E0,6.18396E0,7.294958E0,8.780751E0,7.7538543E0,7.836739E0,6.28693E0,5.6089087E0,4.894145E0,4.9530106E0,1.1362681E1,7.4753284E-1,4.350403E0,5.676193E0,1.2055189E1,1.2032625E1,7.8336453E0,5.435718E0,0E0,1.972229E0,0E0,5.506836E0,1.6392629E0,5.036911E0,8.387234E0,5.963784E0,5.00692E0,5.407552E0,5.2266865E0,5.374083E0,4.7269545E0,7.6954975E0,5.389141E0,0E0,5.80779E0,6.0014153E0,1.3493705E0,1.0733297E0,1.707344E0,2.042427E0,0E0,0E0,0E0,0E0,0E0,0E0,0E0,0E0,0E0,0E0,0E0,0E0,0E0,0E0,0E0,0E0,0E0,0E0,0E0,0E0,0E0,0E0,0E0,0E0,0E0,0E0,0E0,0E0,0E0,0E0,0E0,0E0,0E0,0E0,0E0,0E0,0E0,0E0,0E0,0E0,0E0,0E0,0E0,0E0,0E0,0E0,0E0,0E0,0E0,0E0,0E0,0E0,0E0,0E0],"parents":[2147483647,0,0,1,1,2,2,3,3,4,4,5,5,6,6,7,7,8,8,9,9,10,10,11,11,12,12,13,13,14,14,15,15,16,16,17,17,18,18,19,19,20,20,22,22,23,23,24,24,25,25,26,26,27,27,28,28,29,29,30,30,31,31,32,32,33,33,34,34,35,35,36,36,37,37,38,38,40,40,42,42,43,43,44,44,45,45,46,46,47,47,48,48,49,49,50,50,51,51,52,52,53,53,55,55,56,56,57,57,58,58,59,59,60,60],"right_children":[2,4,6,8,10,12,14,16,18,20,22,24,26,28,30,32,34,36,38,40,42,-1,44,46,48,50,52,54,56,58,60,62,64,66,68,70,72,74,76,-1,78,-1,80,82,84,86,88,90,92,94,96,98,100,102,-1,104,106,108,110,112,114,-1,-1,-1,-1,-1,-1,-1,-1,-1,-1,-1,-1,-1,-1,-1,-1,-1,-1,-1,-1,-1,-1,-1,-1,-1,-1,-1,-1,-1,-1,-1,-1,-1,-1,-1,-1,-1,-1,-1,-1,-1,-1,-1,-1,-1,-1,-1,-1,-1,-1,-1,-1,-1,-1],"split_conditions":[4.208374E-2,1.0449219E0,6.09375E-1,2.2506714E-2,2.6171875E0,1.9744873E-2,1.2460938E0,1.6552734E-1,1.8371582E-2,7.7783203E-1,1.9616699E-1,7.0996094E-1,8.337402E-2,8.7890625E-3,4.6020508E-2,2.7392578E-1,2.5268555E-1,1.5571594E-2,4.5141602E-1,9.7998047E-1,9.8828125E-1,-1E-1,2.614746E-1,1.2261963E-1,2.0837402E-1,3.427124E-2,4.6020508E-2,6.8115234E-2,1.8829346E-2,2.3376465E-2,1.541748E-1,1.3757324E-1,5.1651E-3,1.7810059E-1,3.1933594E-1,2.4246216E-2,1.5722656E-1,3.0410767E-2,1.7236328E-1,8.2665846E-2,1.21032715E-1,1E-1,2.6523438E0,3.046875E0,2.0273438E0,3.5083008E-1,3.4716797E-1,3.6010742E-1,9.613037E-4,7.6538086E-2,3.869629E-2,7.434082E-2,3.5961914E-1,1.262207E-1,-1E-1,1.6357422E0,2.1621704E-2,3.3398438E0,1.6191406E0,1.2880859E0,3.9414062E0,-4.1928454E-4,-9.940333E-2,1.966496E-2,1E-1,-6.719307E-2,-2.3019815E-2,-2.0658304E-3,9.768112E-2,6.3672983E-3,-1.2921961E-2,-2.7044285E-2,3.532056E-2,8.370899E-3,-1E-1,1E-1,-7.44223E-2,-9.143345E-2,1.4418028E-2,-3.3951797E-2,1.7366922E-2,1E-1,-1.0503904E-2,8.237679E-2,-5.92201E-2,1.6678847E-2,-9.9843346E-2,-3.710584E-2,5.441666E-3,5.3347107E-2,-9.467038E-2,3.4843747E-2,-1E-1,-2.152678E-3,-8.9662604E-2,1E-1,2.230571E-2,-3.3039562E-2,1E-1,-3.662487E-2,7.225948E-2,3.4773152E-2,-9.758875E-3,-7.255716E-2,9.727399E-3,9.1611125E-2,1.7559094E-2,5.6783374E-2,8.728442E-3,-1.6068054E-2,-1E-1,2.3556333E-2,1E-1,3.4200806E-2,6.983932E-2],"split_indices":[21,10,12,27,30,14,5,10,7,18,27,21,10,14,14,14,17,5,25,1,30,0,31,4,5,10,14,31,14,14,14,1,25,10,12,30,27,20,18,0,27,0,11,30,18,18,17,17,14,31,10,18,23,30,0,7,14,0,5,5,0,0,0,0,0,0,0,0,0,0,0,0,0,0,0,0,0,0,0,0,0,0,0,0,0,0,0,0,0,0,0,0,0,0,0,0,0,0,0,0,0,0,0,0,0,0,0,0,0,0,0,0,0,0,0],"split_type":[0,0,0,0,0,0,0,0,0,0,0,0,0,0,0,0,0,0,0,0,0,0,0,0,0,0,0,0,0,0,0,0,0,0,0,0,0,0,0,0,0,0,0,0,0,0,0,0,0,0,0,0,0,0,0,0,0,0,0,0,0,0,0,0,0,0,0,0,0,0,0,0,0,0,0,0,0,0,0,0,0,0,0,0,0,0,0,0,0,0,0,0,0,0,0,0,0,0,0,0,0,0,0,0,0,0,0,0,0,0,0,0,0,0,0],"sum_hessian":[6.6968677E3,3.7037346E3,2.9931328E3,3.1218806E3,5.8185406E2,1.7667341E3,1.2263988E3,9.422553E2,2.1796252E3,4.2278497E2,1.5906909E2,1.1747844E3,5.919497E2,1.0888556E3,1.3754317E2,1.55349E2,7.869064E2,1.7978044E3,3.8182077E2,3.1833801E1,3.9095117E2,1.8517538E1,1.4055156E2,1.1368682E3,3.7916267E1,4.8643756E2,1.0551216E2,5.6329083E2,5.255648E2,3.344105E1,1.0410211E2,1.4904182E2,6.3071737E0,7.3808514E2,4.8821182E1,1.4916099E3,3.0619458E2,3.7574255E2,6.0782104E0,1.1803297E0,3.0653473E1,1.6283773E0,3.8932278E2,3.2305167E0,1.3732104E2,9.815622E2,1.5530597E2,2.0813873E1,1.7102392E1,4.189251E2,6.751245E1,6.549263E0,9.89629E1,5.617808E2,1.5099936E0,3.4864902E1,4.9069992E2,2.817609E1,5.2649636E0,3.2062298E1,7.203982E1,1.3737453E2,1.16673E1,1.717736E0,4.5894375E0,2.2336847E1,7.157483E2,4.325606E1,5.56512E0,4.7450146E2,1.01710846E3,2.7217557E2,3.4019012E1,3.7172354E2,4.0190167E0,4.828912E0,1.2492985E0,2.9051708E1,1.6017638E0,3.6774466E2,2.1578135E1,1.7290808E0,1.501436E0,1.725621E0,1.3559541E2,9.7632654E2,5.235603E0,4.6039753E1,1.0926621E2,1.936167E0,1.8877707E1,1.5882799E1,1.2195921E0,4.129838E2,5.9413023E0,6.513005E0,6.0999447E1,2.4675605E0,4.0817027E0,9.290717E1,6.055722E0,5.335584E2,2.8222414E1,1.2847015E1,2.2017889E1,1.0269601E1,4.8043033E2,1.9411873E1,8.764216E0,3.7105908E0,1.5543727E0,3.632975E0,2.8429323E1,3.280937E1,3.9230446E1],"tree_param":{"num_deleted":"0","num_feature":"32","num_nodes":"115","size_leaf_vector":"1"}},{"base_weights":[-1.0111238E-2,-1.2687536E-1,1.6743657E-1,-5.4701794E-2,-2.5891745E-1,9.541961E-2,3.3107007E-1,-6.893288E-2,1.860631E-1,-2.1178468E-1,-4.6785516E-1,1.1368037E-1,-1.9632965E-1,-1E-1,3.3543128E-1,-5.7731505E-2,-3.3382496E-1,2.321301E-1,-1E0,-2.3120293E-1,9.994451E-2,-3.9642298E-1,-6.8674797E-1,7.094777E-2,2.3282468E-1,7.365423E-2,-3.3087203E-1,2.877522E-1,4.6538123E-1,-6.8611965E-2,3.70138E-1,-2.1394718E-1,-9.090856E-1,4.222405E-3,4.7307086E-1,1.5303376E-2,-1E-1,-2.1374616E-1,-5.269756E-1,-1.6481283E-1,4.7632942E-1,-3.535101E-1,-7.2282046E-1,-8.2765156E-1,-3.801798E-1,-3.8330205E-2,1.3351238E-1,2.7676937E-1,-1.8586361E-1,-4.7688648E-1,2.9285184E-1,-1E0,-2.1315278E-1,1E0,2.7537468E-1,-4.435946E-2,4.7518724E-1,-7.209523E-3,7.370234E-2,2.1062058E-3,7.731238E-2,1.808758E-5,-6.711559E-2,-1E-1,2.1730878E-3,-1.959553E-2,3.0674925E-2,6.276985E-2,-1.6867248E-2,3.42972E-2,-2.233255E-2,-8.2653455E-2,-1.3398585E-2,-5.33452E-2,1.5553029E-2,1E-1,1.8509345E-2,-3.7158363E-2,1E-1,-1.1431301E-2,-8.1132494E-2,-3.029861E-2,-8.9333504E-2,4.631823E-2,-4.772606E-2,-1.5021867E-2,9.314058E-3,1.5282787E-2,-4.1128647E-2,3.209063E-2,-1.5662445E-2,-4.8301693E-2,2.02675E-2,-1E-1,7.917373E-3,3.8334396E-2,-1E-1,-1E-1,-8.907055E-3,5.9396893E-2,-2.9345278E-2,3.564335E-2,1E-1,2.8054252E-2,-7.108707E-2,7.2496936E-2,4.211171E-2],"categories":[],"categories_nodes":[],"categories_segments":[],"categories_sizes":[],"default_left":[0,0,0,0,0,0,0,0,0,0,0,0,0,0,0,0,0,0,0,0,0,0,0,0,0,0,0,0,0,0,0,0,0,0,0,0,0,0,0,0,0,0,0,0,0,0,0,0,0,0,0,0,0,0,0,0,0,0,0,0,0,0,0,0,0,0,0,0,0,0,0,0,0,0,0,0,0,0,0,0,0,0,0,0,0,0,0,0,0,0,0,0,0,0,0,0,0,0,0,0,0,0,0,0,0,0,0],"id":11,"left_children":[1,3,5,7,9,11,13,15,17,19,21,23,25,-1,27,29,31,33,35,37,39,41,43,45,47,49,51,53,55,57,59,61,63,65,67,-1,-1,69,71,73,75,77,79,81,83,85,87,89,91,93,95,97,99,101,103,-1,105,-1,-1,-1,-1,-1,-1,-1,-1,-1,-1,-1,-1,-1,-1,-1,-1,-1,-1,-1,-1,-1,-1,-1,-1,-1,-1,-1,-1,-1,-1,-1,-1,-1,-1,-1,-1,-1,-1,-1,-1,-1,-1,-1,-1,-1,-1,-1,-1,-1,-1],"loss_changes":[1.379823E2,3.82499E1,3.1086365E1,8.912363E0,1.38725815E1,9.7985E0,5.2794037E0,7.2596245E0,8.3676815E0,7.0415077E0,3.797989E0,8.77911E0,3.9639654E0,0E0,4.852852E0,1.0988148E1,6.6545544E0,7.726452E0,1.9579263E0,5.524357E0,6.923233E0,2.5266132E0,2.3930016E0,8.708231E0,8.434221E0,4.5913982E0,5.889193E0,5.246731E0,2.1219864E0,6.4998713E0,8.220587E0,8.17468E0,1.6781101E0,4.501279E0,6.893857E0,0E0,0E0,5.583416E0,6.971863E0,4.9324965E0,5.393563E0,4.9731236E0,1.0987024E0,1.179985E0,1.9885211E0,6.842932E0,8.583589E0,7.945263E0,5.163575E0,5.4634705E0,3.605065E0,1.4540262E0,4.2966537E0,1.8226147E-1,3.172348E0,0E0,2.5661888E0,0E0,0E0,0E0,0E0,0E0,0E0,0E0,0E0,0E0,0E0,0E0,0E0,0E0,0E0,0E0,0E0,0E0,0E0,0E0,0E0,0E0,0E0,0E0,0E0,0E0,0E0,0E0,0E0,0E0,0E0,0E0,0E0,0E0,0E0,0E0,0E0,0E0,0E0,0E0,0E0,0E0,0E0,0E0,0E0,0E0,0E0,0E0,0E0,0E0,0E0],"parents":[2147483647,0,0,1,1,2,2,3,3,4,4,5,5,6,6,7,7,8,8,9,9,10,10,11,11,12,12,14,14,15,15,16,16,17,17,18,18,19,19,20,20,21,21,22,22,23,23,24,24,25,25,26,26,27,27,28,28,29,29,30,30,31,31,32,32,33,33,34,34,37,37,38,38,39,39,40,40,41,41,42,42,43,43,44,44,45,45,46,46,47,47,48,48,49,49,50,50,51,51,52,52,53,53,54,54,56,56],"right_children":[2,4,6,8,10,12,14,16,18,20,22,24,26,-1,28,30,32,34,36,38,40,42,44,46,48,50,52,54,56,58,60,62,64,66,68,-1,-1,70,72,74,76,78,80,82,84,86,88,90,92,94,96,98,100,102,104,-1,106,-1,-1,-1,-1,-1,-1,-1,-1,-1,-1,-1,-1,-1,-1,-1,-1,-1,-1,-1,-1,-1,-1,-1,-1,-1,-1,-1,-1,-1,-1,-1,-1,-1,-1,-1,-1,-1,-1,-1,-1,-1,-1,-1,-1,-1,-1,-1,-1,-1,-1],"split_conditions":[7.2753906E-2,3.449707E-1,1.0478516E0,6.6833496E-2,3.15625E0,1.0205078E-1,6.118164E-1,5.9295654E-2,1.1212158E-1,6.210327E-2,1.6784668E-4,2.1118164E-2,7.873535E-3,-1E-1,2.9980469E0,5.2246094E-2,4.5092773E-1,1.7285156E-1,1.21520996E-1,9.70459E-3,5.991211E-1,7.328125E0,6.088257E-2,1.9721985E-3,3.6791992E-1,2.4993896E-2,3.2287598E-2,6.2646484E-1,1.9414062E0,6.6064453E-1,2.7572632E-2,5.8044434E-2,5.621338E-2,9.411621E-2,2.746582E-1,1.5303376E-2,-1E-1,2.4902344E-1,1.3476562E-1,4.8217773E-2,1.1640625E0,5.5078125E0,7.7685547E-1,2.1923828E-1,1.5615234E0,4.423828E-1,7.3791504E-2,2.4536133E-1,1.0772705E-2,9.613037E-4,2.553711E-1,1.9384766E-1,3.0929565E-2,9.613037E-4,4.2851562E0,-4.435946E-2,3.6445312E0,-7.209523E-3,7.370234E-2,2.1062058E-3,7.731238E-2,1.808758E-5,-6.711559E-2,-1E-1,2.1730878E-3,-1.959553E-2,3.0674925E-2,6.276985E-2,-1.6867248E-2,3.42972E-2,-2.233255E-2,-8.2653455E-2,-1.3398585E-2,-5.33452E-2,1.5553029E-2,1E-1,1.8509345E-2,-3.7158363E-2,1E-1,-1.1431301E-2,-8.1132494E-2,-3.029861E-2,-8.9333504E-2,4.631823E-2,-4.772606E-2,-1.5021867E-2,9.314058E-3,1.5282787E-2,-4.1128647E-2,3.209063E-2,-1.5662445E-2,-4.8301693E-2,2.02675E-2,-1E-1,7.917373E-3,3.8334396E-2,-1E-1,-1E-1,-8.907055E-3,5.9396893E-2,-2.9345278E-2,3.564335E-2,1E-1,2.8054252E-2,-7.108707E-2,7.2496936E-2,4.211171E-2],"split_indices":[21,10,21,5,1,8,0,21,31,28,16,28,10,0,21,21,13,25,18,0,25,24,16,30,21,28,10,9,17,14,31,30,5,5,18,0,0,30,17,31,14,6,31,27,4,0,31,25,14,14,30,21,14,14,27,0,12,0,0,0,0,0,0,0,0,0,0,0,0,0,0,0,0,0,0,0,0,0,0,0,0,0,0,0,0,0,0,0,0,0,0,0,0,0,0,0,0,0,0,0,0,0,0,0,0,0,0],"split_type":[0,0,0,0,0,0,0,0,0,0,0,0,0,0,0,0,0,0,0,0,0,0,0,0,0,0,0,0,0,0,0,0,0,0,0,0,0,0,0,0,0,0,0,0,0,0,0,0,0,0,0,0,0,0,0,0,0,0,0,0,0,0,0,0,0,0,0,0,0,0,0,0,0,0,0,0,0,0,0,0,0,0,0,0,0,0,0,0,0,0,0,0,0,0,0,0,0,0,0,0,0,0,0,0,0,0,0],"sum_hessian":[6.65375E3,4.0141404E3,2.6396096E3,2.5963838E3,1.4177566E3,1.8340197E3,8.0558984E2,2.452156E3,1.442279E2,1.1584448E3,2.5931168E2,1.7265635E3,1.0745626E2,1.7386016E0,8.0385126E2,2.3538381E3,9.8317795E1,1.397418E2,4.4860997E0,1.0907576E3,6.7687225E1,1.976295E2,6.168219E1,1.2719559E3,4.5460745E2,3.5889656E1,7.1566605E1,5.9043353E2,2.1341771E2,2.2962847E3,5.7553455E1,8.2498055E1,1.5819743E1,7.233608E1,6.740572E1,1.2248628E0,3.261237E0,1.0315946E3,5.9163033E1,4.006603E1,2.76212E1,1.765065E2,2.1123007E1,4.109469E1,2.05875E1,4.6323593E2,8.0872003E2,4.1173184E2,4.2875587E1,9.885487E0,2.600417E1,8.961718E0,6.2604885E1,8.135605E0,5.822979E2,1.8056381E0,2.1161208E2,2.2873057E3,8.978936E0,3.1403372E1,2.6150085E1,5.6865433E1,2.5632618E1,1.412117E1,1.6985729E0,4.3743744E1,2.859234E1,5.4335506E1,1.3070218E1,1.6861465E1,1.01473315E3,3.2946304E1,2.6216728E1,1.8319437E1,2.174659E1,7.174183E0,2.0447018E1,1.7503436E2,1.4721291E0,2.9731164E0,1.814989E1,5.1967783E0,3.589791E1,1.7359378E0,1.885156E1,2.5017847E2,2.1305748E2,7.81724E2,2.6996054E1,3.739121E2,3.781973E1,2.4157122E1,1.8718468E1,2.7778704E0,7.1076164E0,2.4993187E1,1.0109835E0,7.004319E0,1.9573987E0,5.086086E0,5.75188E1,1.854476E0,6.281129E0,5.799745E2,2.323463E0,3.5448135E1,1.7616394E2],"tree_param":{"num_deleted":"0","num_feature":"32","num_nodes":"107","size_leaf_vector":"1"}},{"base_weights":[-2.029476E-2,-9.7609214E-2,1.7922193E-1,-5.9822664E-2,-3.305341E-1,1.5043695E-1,5.415846E-1,3.4009546E-2,-1.0375141E-1,-2.7319238E-1,-5.395694E-1,1.2271388E-1,2.6892382E-1,4.13421E-1,7.137186E-1,1.2087425E-1,-4.417169E-2,-1.1279195E-1,5.2166647E-1,-4.165998E-1,-2.3748043E-1,-9.532902E-1,-4.844794E-1,1.3493407E-1,-1.8966347E-1,2.52141E-1,9.035493E-1,5.0207675E-1,-4.5555183E-3,7.2191946E-2,7.573627E-1,4.28E-1,9.241752E-2,-7.7857906E-1,-3.5109855E-2,-1.08516976E-1,-8.303218E-1,7.050365E-1,-3.450269E-1,-5.1197827E-1,1.5014131E-1,2.584658E-2,-2.8617826E-1,-8.920635E-3,-1E0,5.194271E-1,-5.1372886E-1,1.2413142E-1,5.9589905E-1,-4.4227865E-1,5.2644238E-2,-4.5906523E-1,2.6300576E-1,-1.2640275E-2,1E-1,5.5752164E-1,6.760306E-2,7.977923E-2,-2.7671248E-1,-4.436609E-2,5.738761E-2,7.997399E-1,6.8768673E-3,4.9857136E-2,-1E-1,-1.0323341E-2,1.821017E-2,1.53817525E-2,-1E-1,-5.116164E-3,3.3205006E-2,-5.6335162E-3,-1.5117516E-2,8.7711046E-4,-9.448506E-2,8.2579695E-2,-1.7943157E-2,-8.24385E-2,1.6701618E-2,3.7154406E-2,-5.5279683E-2,-2.3064671E-2,9.1334276E-2,-7.8272365E-2,1.5004757E-2,-5.003051E-2,-2.4458697E-2,-2.0392489E-2,-1E-1,1E-1,-4.2100005E-2,-9.686253E-2,-4.650412E-2,1.2684447E-2,-1E-1,8.5192956E-2,4.9689314E-3,-7.3287E-2,4.623722E-3,8.188746E-2,-3.3241566E-2,7.527183E-2,-1E-1,6.818235E-2,2.3452368E-2,3.591406E-2,7.301196E-2,-1E-1,3.8967494E-2,5.796516E-4,-5.928458E-2,1E-1,6.939997E-2,-2.5028905E-2,3.1322703E-2],"categories":[],"categories_nodes":[],"categories_segments":[],"categories_sizes":[],"default_left":[0,0,0,0,0,0,0,0,0,0,0,0,0,0,0,0,0,0,0,0,0,0,0,0,0,0,0,0,0,0,0,0,0,0,0,0,0,0,0,0,0,0,0,0,0,0,0,0,0,0,0,0,0,0,0,0,0,0,0,0,0,0,0,0,0,0,0,0,0,0,0,0,0,0,0,0,0,0,0,0,0,0,0,0,0,0,0,0,0,0,0,0,0,0,0,0,0,0,0,0,0,0,0,0,0,0,0,0,0,0,0,0,0,0,0],"id":12,"left_children":[1,3,5,7,9,11,13,15,17,19,21,23,25,27,29,31,33,35,37,39,41,43,45,47,49,51,53,55,57,59,61,63,65,67,69,71,73,75,77,79,81,83,85,-1,87,89,91,93,95,97,99,101,103,-1,-1,105,107,-1,109,-1,-1,111,113,-1,-1,-1,-1,-1,-1,-1,-1,-1,-1,-1,-1,-1,-1,-1,-1,-1,-1,-1,-1,-1,-1,-1,-1,-1,-1,-1,-1,-1,-1,-1,-1,-1,-1,-1,-1,-1,-1,-1,-1,-1,-1,-1,-1,-1,-1,-1,-1,-1,-1,-1,-1],"loss_changes":[1.03058754E2,4.2358864E1,1.938147E1,1.7085264E1,7.905861E0,5.6497765E0,2.7258377E0,8.984737E0,1.6019814E1,2.611599E0,2.811142E0,5.3844185E0,3.2570248E0,2.9989252E0,1.5430641E0,5.4367256E0,4.6087303E0,8.448044E0,6.6641474E0,5.709156E0,5.4710293E0,1.0235529E0,4.047777E0,6.6563034E0,3.2837071E0,2.594551E0,2.2714834E0,1.5696926E0,3.5272574E0,1.4813638E0,1.6903973E0,6.509901E0,1.0103523E1,2.1959882E0,4.0787053E0,6.1533585E0,1.5781097E0,3.744976E0,2.0342195E0,3.429987E0,4.79738E0,6.8874435E0,3.0806236E0,0E0,7.123585E-1,2.937343E0,2.331749E0,4.959381E0,4.2488747E0,3.7510042E0,8.557394E0,6.8574157E0,3.6092072E0,0E0,0E0,1.7591991E0,3.7171059E0,0E0,1.0795655E0,0E0,0E0,8.1121826E-1,3.824015E-1,0E0,0E0,0E0,0E0,0E0,0E0,0E0,0E0,0E0,0E0,0E0,0E0,0E0,0E0,0E0,0E0,0E0,0E0,0E0,0E0,0E0,0E0,0E0,0E0,0E0,0E0,0E0,0E0,0E0,0E0,0E0,0E0,0E0,0E0,0E0,0E0,0E0,0E0,0E0,0E0,0E0,0E0,0E0,0E0,0E0,0E0,0E0,0E0,0E0,0E0,0E0,0E0],"parents":[2147483647,0,0,1,1,2,2,3,3,4,4,5,5,6,6,7,7,8,8,9,9,10,10,11,11,12,12,13,13,14,14,15,15,16,16,17,17,18,18,19,19,20,20,21,21,22,22,23,23,24,24,25,25,26,26,27,27,28,28,29,29,30,30,31,31,32,32,33,33,34,34,35,35,36,36,37,37,38,38,39,39,40,40,41,41,42,42,44,44,45,45,46,46,47,47,48,48,49,49,50,50,51,51,52,52,55,55,56,56,58,58,61,61,62,62],"right_children":[2,4,6,8,10,12,14,16,18,20,22,24,26,28,30,32,34,36,38,40,42,44,46,48,50,52,54,56,58,60,62,64,66,68,70,72,74,76,78,80,82,84,86,-1,88,90,92,94,96,98,100,102,104,-1,-1,106,108,-1,110,-1,-1,112,114,-1,-1,-1,-1,-1,-1,-1,-1,-1,-1,-1,-1,-1,-1,-1,-1,-1,-1,-1,-1,-1,-1,-1,-1,-1,-1,-1,-1,-1,-1,-1,-1,-1,-1,-1,-1,-1,-1,-1,-1,-1,-1,-1,-1,-1,-1,-1,-1,-1,-1,-1,-1],"split_conditions":[3.4716797E-1,9.160156E-1,1.2460938E0,9.376526E-3,2.9121094E0,6.1035156E-1,5.109375E0,1.9744873E-2,9.848633E-1,1.6923828E0,2.1716309E-1,1.2353516E0,4.3907166E-3,2.4658203E-1,1.8829346E-2,2.8182983E-2,2.0736694E-2,4.8046875E-1,1.578125E0,1.8951416E-2,1.4248047E0,3.0390625E0,2.2485352E-1,2.7128906E0,1.3115234E0,1.8632812E0,1.5820312E0,1.6191406E0,3.2441406E0,3.875E0,6.6064453E-1,1.1444092E-1,9.234619E-2,3.213501E-2,5.019531E-1,1.6418457E-2,2.1133423E-2,1.5507812E0,1.4248047E0,8.222656E-1,6.669922E-1,2.3300781E0,2.9863281E0,-8.920635E-3,1.2768555E-1,3.2109375E0,3.2128906E0,1.3710938E0,2.8945312E0,1.8818359E0,1.3505859E0,2.78125E0,2.1699219E0,-1.2640275E-2,1E-1,5.142212E-2,3.8671875E0,7.977923E-2,1.5439453E0,-4.436609E-2,5.738761E-2,1.6064453E-1,7.348633E-1,4.9857136E-2,-1E-1,-1.0323341E-2,1.821017E-2,1.53817525E-2,-1E-1,-5.116164E-3,3.3205006E-2,-5.6335162E-3,-1.5117516E-2,8.7711046E-4,-9.448506E-2,8.2579695E-2,-1.7943157E-2,-8.24385E-2,1.6701618E-2,3.7154406E-2,-5.5279683E-2,-2.3064671E-2,9.1334276E-2,-7.8272365E-2,1.5004757E-2,-5.003051E-2,-2.4458697E-2,-2.0392489E-2,-1E-1,1E-1,-4.2100005E-2,-9.686253E-2,-4.650412E-2,1.2684447E-2,-1E-1,8.5192956E-2,4.9689314E-3,-7.3287E-2,4.623722E-3,8.188746E-2,-3.3241566E-2,7.527183E-2,-1E-1,6.818235E-2,2.3452368E-2,3.591406E-2,7.301196E-2,-1E-1,3.8967494E-2,5.796516E-4,-5.928458E-2,1E-1,6.939997E-2,-2.5028905E-2,3.1322703E-2],"split_indices":[17,30,5,4,11,5,21,14,11,1,27,17,23,14,14,9,14,2,8,16,6,6,27,7,17,2,21,5,9,17,14,11,12,9,2,14,21,1,6,6,4,13,13,0,27,11,6,9,7,12,17,7,2,0,0,14,9,0,5,0,0,14,14,0,0,0,0,0,0,0,0,0,0,0,0,0,0,0,0,0,0,0,0,0,0,0,0,0,0,0,0,0,0,0,0,0,0,0,0,0,0,0,0,0,0,0,0,0,0,0,0,0,0,0,0],"split_type":[0,0,0,0,0,0,0,0,0,0,0,0,0,0,0,0,0,0,0,0,0,0,0,0,0,0,0,0,0,0,0,0,0,0,0,0,0,0,0,0,0,0,0,0,0,0,0,0,0,0,0,0,0,0,0,0,0,0,0,0,0,0,0,0,0,0,0,0,0,0,0,0,0,0,0,0,0,0,0,0,0,0,0,0,0,0,0,0,0,0,0,0,0,0,0,0,0,0,0,0,0,0,0,0,0,0,0,0,0,0,0,0,0,0,0],"sum_hessian":[6.678919E3,4.813973E3,1.8649458E3,4.143109E3,6.708645E2,1.7290134E3,1.3593236E2,1.3212125E3,2.8218965E3,5.28261E2,1.4260353E2,1.4028224E3,3.2619104E2,7.98679E1,5.606446E1,6.255915E2,6.95621E2,2.7824946E3,3.9401855E1,1.0319562E2,4.2506537E2,1.4841441E1,1.27762085E2,1.3505568E3,5.2265675E1,3.191484E2,7.042646E0,6.57258E1,1.4142103E1,3.7402637E0,5.23242E1,5.185832E1,5.7373315E2,7.4435964E0,6.8817737E2,2.7671594E3,1.5335234E1,3.2675156E1,6.726701E0,8.841297E1,1.4782643E1,6.641332E1,3.5865204E2,1.4810189E0,1.3360422E1,3.142598E0,1.2461949E2,1.3208716E3,2.9685148E1,2.518454E1,2.7081135E1,4.1814036E0,3.14967E2,1.6374103E0,5.405236E0,5.8036335E1,7.6894617E0,3.0928073E0,1.1049296E1,1.9011145E0,1.8391494E0,4.9465435E1,2.8587625E0,5.034119E1,1.5171278E0,1.8028362E2,3.9344955E2,1.7116113E0,5.731985E0,6.6017596E2,2.8001434E1,1.2456874E3,1.5214719E3,1.9526441E0,1.3382589E1,2.8808178E1,3.8669777E0,3.1591842E0,3.5675168E0,3.546491E0,8.486648E1,1.03276205E1,4.455023E0,8.137127E0,5.8276196E1,5.6539135E1,3.0211288E2,1.7020067E0,1.1658416E1,1.718877E0,1.4237211E0,1.0221713E1,1.1439778E2,1.3192073E3,1.6643021E0,1.9830215E1,9.854933E0,1.5477577E1,9.706963E0,8.680735E0,1.8400402E1,2.0512643E0,2.1301396E0,1.8595076E1,2.9637192E2,2.8434732E1,2.9601603E1,1.1184304E0,6.571031E0,6.353356E0,4.69594E0,9.508096E0,3.995734E1,1.6536235E0,1.2051389E0],"tree_param":{"num_deleted":"0","num_feature":"32","num_nodes":"115","size_leaf_vector":"1"}},{"base_weights":[-1.0979268E-2,-9.3650244E-2,1.3871484E-1,-4.9325354E-2,-2.5223443E-1,8.9962184E-2,3.4079674E-1,-5.0631907E-2,1E-1,-1.9235861E-1,-3.5981977E-1,2.477804E-1,7.329305E-2,2.4148981E-1,4.3834597E-1,-5.2492734E-2,7.794277E-1,-4.084672E-1,-1.1967414E-1,-6.6303086E-1,-3.1620023E-1,3.5445684E-1,-4.343235E-2,6.637757E-1,6.6545226E-2,3.9237082E-1,6.519306E-2,3.8895553E-1,6.264983E-1,-5.6654613E-2,3.169629E-1,1E0,-2.6133344E-2,-4.7975865E-1,2.909531E-1,2.7952534E-1,-1.7063136E-1,-5.005187E-1,-1E0,5.1264805E-1,-3.2969934E-1,4.0767097E-1,-4.3594027E-1,-2.6540026E-1,7.930413E-1,-6.629659E-1,8.976643E-1,-4.3981352E-1,7.754327E-2,3.16768E-1,8.088622E-1,1.2041312E-1,-4.4560143E-1,6.0179496E-1,3.005973E-1,7.525326E-1,3.669052E-1,-7.2886082E-3,4.312918E-3,-2.6010547E-2,5.317221E-2,-2.1115366E-2,1E-1,-5.599245E-2,-4.5415047E-3,7.479005E-2,-2.7563011E-2,-5.2310403E-2,3.8675647E-2,-1.8945638E-2,3.053183E-2,-6.3178666E-2,6.3317455E-2,-1E-1,-4.1414678E-2,-2.7922982E-2,7.916009E-2,-5.088278E-3,-3.650981E-2,2.437954E-2,9.309939E-2,-7.612852E-2,7.343456E-2,6.492604E-2,-3.8731407E-2,1E-1,-2.5989441E-2,-1E-1,1.672108E-2,1E-1,-1.2394622E-2,-5.4210167E-2,7.119431E-2,8.104274E-3,-8.089646E-2,3.8300693E-2,-4.8112925E-2,1.4717535E-3,9.0525195E-2,8.537179E-3,7.886845E-2,-5.856937E-2,2.1356123E-2,4.3525305E-2,8.357328E-2,-2.9881094E-2,3.5628803E-2,2.255529E-2,7.954482E-2,-3.459858E-2,4.6376765E-2],"categories":[],"categories_nodes":[],"categories_segments":[],"categories_sizes":[],"default_left":[0,0,0,0,0,0,0,0,0,0,0,0,0,0,0,0,0,0,0,0,0,0,0,0,0,0,0,0,0,0,0,0,0,0,0,0,0,0,0,0,0,0,0,0,0,0,0,0,0,0,0,0,0,0,0,0,0,0,0,0,0,0,0,0,0,0,0,0,0,0,0,0,0,0,0,0,0,0,0,0,0,0,0,0,0,0,0,0,0,0,0,0,0,0,0,0,0,0,0,0,0,0,0,0,0,0,0,0,0,0,0],"id":13,"left_children":[1,3,5,7,9,11,13,15,-1,17,19,21,23,25,27,29,31,33,35,37,39,41,43,45,47,49,51,53,55,57,59,61,-1,63,65,67,69,71,73,75,77,79,81,83,85,87,89,91,93,95,97,99,101,103,105,107,109,-1,-1,-1,-1,-1,-1,-1,-1,-1,-1,-1,-1,-1,-1,-1,-1,-1,-1,-1,-1,-1,-1,-1,-1,-1,-1,-1,-1,-1,-1,-1,-1,-1,-1,-1,-1,-1,-1,-1,-1,-1,-1,-1,-1,-1,-1,-1,-1,-1,-1,-1,-1,-1,-1],"loss_changes":[8.228634E1,3.0097038E1,2.3276173E1,5.5716944E0,5.9568443E0,4.9992237E0,4.344887E0,5.2101154E0,0E0,9.425079E0,4.1989326E0,5.662588E0,6.8348866E0,6.089616E0,1.8987579E0,5.1537666E0,2.1895518E0,7.6881065E0,9.25766E0,2.4075298E0,3.4508839E0,5.778267E0,9.424919E0,6.6136084E0,9.546276E0,3.6381454E0,3.0778553E0,3.3028755E0,1.2386551E0,5.353977E0,4.7681293E0,2.2817206E0,0E0,4.771311E0,3.9927497E0,4.6459684E0,3.660777E0,5.210334E0,9.658909E-2,1.345847E0,2.8360214E0,1.0516394E1,3.9410431E0,4.7084765E0,5.951483E0,1.6371262E0,4.136709E0,4.681371E0,5.2544975E0,5.8035183E0,1.391902E0,2.2168932E0,1.1106513E0,1.7146053E0,4.5429068E0,5.039139E-1,1.3400772E0,0E0,0E0,0E0,0E0,0E0,0E0,0E0,0E0,0E0,0E0,0E0,0E0,0E0,0E0,0E0,0E0,0E0,0E0,0E0,0E0,0E0,0E0,0E0,0E0,0E0,0E0,0E0,0E0,0E0,0E0,0E0,0E0,0E0,0E0,0E0,0E0,0E0,0E0,0E0,0E0,0E0,0E0,0E0,0E0,0E0,0E0,0E0,0E0,0E0,0E0,0E0,0E0,0E0,0E0],"parents":[2147483647,0,0,1,1,2,2,3,3,4,4,5,5,6,6,7,7,9,9,10,10,11,11,12,12,13,13,14,14,15,15,16,16,17,17,18,18,19,19,20,20,21,21,22,22,23,23,24,24,25,25,26,26,27,27,28,28,29,29,30,30,31,31,33,33,34,34,35,35,36,36,37,37,38,38,39,39,40,40,41,41,42,42,43,43,44,44,45,45,46,46,47,47,48,48,49,49,50,50,51,51,52,52,53,53,54,54,55,55,56,56],"right_children":[2,4,6,8,10,12,14,16,-1,18,20,22,24,26,28,30,32,34,36,38,40,42,44,46,48,50,52,54,56,58,60,62,-1,64,66,68,70,72,74,76,78,80,82,84,86,88,90,92,94,96,98,100,102,104,106,108,110,-1,-1,-1,-1,-1,-1,-1,-1,-1,-1,-1,-1,-1,-1,-1,-1,-1,-1,-1,-1,-1,-1,-1,-1,-1,-1,-1,-1,-1,-1,-1,-1,-1,-1,-1,-1,-1,-1,-1,-1,-1,-1,-1,-1,-1,-1,-1,-1,-1,-1,-1,-1,-1,-1],"split_conditions":[5.3710938E-2,6.040039E-1,6.1035156E-1,1.2817383E-1,1.90625E0,6.488037E-2,9.5751953E-1,5.973816E-3,1E-1,7.519531E-1,1.7246094E0,2.8027344E-1,1.7175293E-1,2.7578125E0,3.9414062E0,8.294678E-2,3.0639648E-1,1.7468262E-1,8.8378906E-1,2.7734375E0,1.9628906E0,2.6367188E-1,1.5539551E-1,5.2490234E-2,1.2854004E-1,1.7021484E0,3.5585938E0,4.2851562E0,5.40625E0,1.9055176E-1,3.85437E-2,2.3803711E-1,-2.6133344E-2,8.6621094E-1,9.47876E-2,2.9736328E-1,2.6000977E-1,2.6308594E0,2.34375E-1,2.9257812E0,1.9238281E0,6.0821533E-2,4.7045898E-1,2.7648926E-2,7.7819824E-2,7.647705E-2,8.2336426E-2,6.0577393E-3,3.2177734E-1,3.2519531E0,1.8203125E0,1.0757446E-3,3.84375E0,3.7519531E0,2.6816406E0,6.6328125E0,6.359375E0,-7.2886082E-3,4.312918E-3,-2.6010547E-2,5.317221E-2,-2.1115366E-2,1E-1,-5.599245E-2,-4.5415047E-3,7.479005E-2,-2.7563011E-2,-5.2310403E-2,3.8675647E-2,-1.8945638E-2,3.053183E-2,-6.3178666E-2,6.3317455E-2,-1E-1,-4.1414678E-2,-2.7922982E-2,7.916009E-2,-5.088278E-3,-3.650981E-2,2.437954E-2,9.309939E-2,-7.612852E-2,7.343456E-2,6.492604E-2,-3.8731407E-2,1E-1,-2.5989441E-2,-1E-1,1.672108E-2,1E-1,-1.2394622E-2,-5.4210167E-2,7.119431E-2,8.104274E-3,-8.089646E-2,3.8300693E-2,-4.8112925E-2,1.4717535E-3,9.0525195E-2,8.537179E-3,7.886845E-2,-5.856937E-2,2.1356123E-2,4.3525305E-2,8.357328E-2,-2.9881094E-2,3.5628803E-2,2.255529E-2,7.954482E-2,-3.459858E-2,4.6376765E-2],"split_indices":[5,10,5,19,6,5,5,3,0,10,30,0,15,2,0,29,18,27,6,1,6,25,4,30,0,0,2,27,0,9,23,18,0,11,31,4,27,8,27,25,30,4,13,18,31,9,2,19,10,15,9,30,2,2,9,2,9,0,0,0,0,0,0,0,0,0,0,0,0,0,0,0,0,0,0,0,0,0,0,0,0,0,0,0,0,0,0,0,0,0,0,0,0,0,0,0,0,0,0,0,0,0,0,0,0,0,0,0,0,0,0],"split_type":[0,0,0,0,0,0,0,0,0,0,0,0,0,0,0,0,0,0,0,0,0,0,0,0,0,0,0,0,0,0,0,0,0,0,0,0,0,0,0,0,0,0,0,0,0,0,0,0,0,0,0,0,0,0,0,0,0,0,0,0,0,0,0,0,0,0,0,0,0,0,0,0,0,0,0,0,0,0,0,0,0,0,0,0,0,0,0,0,0,0,0,0,0,0,0,0,0,0,0,0,0,0,0,0,0,0,0,0,0,0,0],"sum_hessian":[6.6471587E3,4.28247E3,2.3646887E3,3.3480017E3,9.3446844E2,1.9062478E3,4.5844086E2,3.3456309E3,2.3708177E0,6.0214E2,3.3232843E2,1.8078323E2,1.7254646E3,2.2889606E2,2.295448E2,3.339082E3,6.548798E0,1.5038603E2,4.51754E2,4.0009758E1,2.9231866E2,1.3215523E2,4.8628E1,1.8395102E1,1.7070695E3,1.2267815E2,1.0621791E2,1.842468E2,4.5297997E1,3.3027239E3,3.635817E1,5.3131585E0,1.2356391E0,1.3676022E2,1.3625812E1,5.0630276E1,4.0112372E2,3.1323484E1,8.686273E0,4.092014E0,2.8822665E2,1.2427269E2,7.882541E0,3.8969666E1,9.658334E0,2.4818995E0,1.5913202E1,3.546029E1,1.6716091E3,1.05320595E2,1.7357555E1,9.654505E1,9.672857E0,5.2345295E1,1.319015E2,2.9215006E1,1.608299E1,2.8408782E3,4.6184576E2,9.8037815E0,2.6554386E1,1.2371917E0,4.075967E0,1.152075E2,2.1552729E1,7.365523E0,6.2602887E0,5.5099306E0,4.5120346E1,3.8644095E2,1.4682781E1,2.846975E1,2.8537343E0,6.491307E0,2.1949654E0,1.0657164E0,3.0262973E0,3.2745506E1,2.5548114E2,9.57538E1,2.851889E1,6.441314E0,1.4412273E0,4.0745687E0,3.4895096E1,5.991389E0,3.6669447E0,1.2559129E0,1.2259867E0,1.2706741E1,3.2064607E0,3.3054066E1,2.4062238E0,1.6659415E3,5.6676736E0,9.772754E1,7.5930533E0,2.0035121E0,1.5354043E1,9.280643E1,3.7386274E0,8.069335E0,1.6035228E0,3.224816E1,2.0097136E1,1.0841974E1,1.2105953E2,2.6710997E0,2.6543905E1,1.6161885E0,1.4466803E1],"tree_param":{"num_deleted":"0","num_feature":"32","num_nodes":"111","size_leaf_vector":"1"}},{"base_weights":[-6.34847E-3,-8.469071E-2,1.3586278E-1,-4.512265E-2,-2.7343416E-1,9.0085804E-2,2.917567E-1,-8.175862E-2,1.3093966E-2,-2.5169817E-1,-7.047859E-1,9.562288E-2,-5.5107754E-1,2.609372E-1,5.8556074E-1,-9.797042E-2,3.8049374E-2,2.2934822E-2,-5.25949E-1,-5.8789873E-1,-2.330876E-1,-1.3961314E-2,-7.2823924E-1,8.1734544E-1,9.16534E-2,3.4063953E-1,-1E0,4.3256775E-1,2.1412656E-1,8.9866154E-2,5.0304675E-1,-9.046922E-2,-4.0936652E-1,1.3371241E-1,-3.0315605E-1,1.1463491E-2,5.782283E-1,-2.922342E-1,-1E0,-7.251946E-1,1.5278466E-2,4.8295924E-1,-2.4435662E-1,-7.6532394E-1,-3.9678353E-1,1E0,-4.1224014E-2,-7.454127E-2,1.1059624E-1,-7.298384E-2,9.5780596E-2,-1E0,3.343025E-2,-6.6390765E-1,4.7503376E-1,-7.6300246E-1,2.3184308E-1,-5.4502625E-2,5.7878256E-1,-9.334515E-3,6.059577E-2,-5.1446464E-2,1E-1,-5.3941755E-4,3.379933E-2,-5.4715198E-2,1.4836225E-2,2.6392867E-3,-2.8847603E-2,-5.9203148E-2,7.731953E-2,1.8145036E-2,-8.7856136E-2,-1E-1,4.773457E-3,-1E-1,-5.189086E-2,7.417251E-2,-7.257677E-2,7.086611E-2,-1.2858577E-2,-2.4851492E-2,1E-1,-6.2411554E-2,-1E-1,2.4135498E-2,-7.459397E-2,3.3517364E-2,1E-1,6.934009E-2,-1.3097529E-2,8.973334E-3,4.012705E-2,7.2692566E-2,-9.721868E-2,-2.8407326E-2,-1E-1,-1E-1,2.0375393E-2,3.451506E-2,7.080842E-2,2.1983063E-2,-1E-1,1.4349877E-2,3.371238E-2,7.384831E-2,3.8470667E-2],"categories":[],"categories_nodes":[],"categories_segments":[],"categories_sizes":[],"default_left":[0,0,0,0,0,0,0,0,0,0,0,0,0,0,0,0,0,0,0,0,0,0,0,0,0,0,0,0,0,0,0,0,0,0,0,0,0,0,0,0,0,0,0,0,0,0,0,0,0,0,0,0,0,0,0,0,0,0,0,0,0,0,0,0,0,0,0,0,0,0,0,0,0,0,0,0,0,0,0,0,0,0,0,0,0,0,0,0,0,0,0,0,0,0,0,0,0,0,0,0,0,0,0,0,0,0,0],"id":14,"left_children":[1,3,5,7,9,11,13,15,17,19,21,23,25,27,29,31,33,35,37,39,41,-1,43,45,47,49,51,53,55,-1,57,59,61,63,65,67,69,71,73,75,77,79,81,83,85,87,-1,89,91,93,-1,95,-1,97,99,101,103,-1,105,-1,-1,-1,-1,-1,-1,-1,-1,-1,-1,-1,-1,-1,-1,-1,-1,-1,-1,-1,-1,-1,-1,-1,-1,-1,-1,-1,-1,-1,-1,-1,-1,-1,-1,-1,-1,-1,-1,-1,-1,-1,-1,-1,-1,-1,-1,-1,-1],"loss_changes":[7.399711E1,3.1970457E1,1.6810005E1,7.5545206E0,6.779461E0,6.532323E0,4.692219E0,4.225874E0,7.272773E0,4.2925606E0,3.6279106E-1,5.111595E0,6.9593487E0,3.812561E0,8.39571E-1,4.4360466E0,8.52083E0,8.562008E0,3.32029E0,3.0318546E0,5.544323E0,0E0,1.0696602E-1,3.5385995E0,5.6800585E0,1.6519165E0,4.0537434E0,5.1198826E0,6.8225937E0,0E0,3.6365185E0,3.8043623E0,7.2917027E0,5.787768E0,6.3825116E0,5.9137883E0,6.6651125E0,5.617501E0,1.4165335E0,1.3683157E0,4.706479E0,1.5756474E0,3.7290115E0,4.6051216E-1,1.3917302E0,4.9615097E-1,0E0,8.105479E0,9.774061E0,4.043967E0,0E0,5.584688E-1,0E0,2.2840438E0,2.7800713E0,2.4867687E0,3.4657402E0,0E0,9.403076E-1,0E0,0E0,0E0,0E0,0E0,0E0,0E0,0E0,0E0,0E0,0E0,0E0,0E0,0E0,0E0,0E0,0E0,0E0,0E0,0E0,0E0,0E0,0E0,0E0,0E0,0E0,0E0,0E0,0E0,0E0,0E0,0E0,0E0,0E0,0E0,0E0,0E0,0E0,0E0,0E0,0E0,0E0,0E0,0E0,0E0,0E0,0E0,0E0],"parents":[2147483647,0,0,1,1,2,2,3,3,4,4,5,5,6,6,7,7,8,8,9,9,10,10,11,11,12,12,13,13,14,14,15,15,16,16,17,17,18,18,19,19,20,20,22,22,23,23,24,24,25,25,26,26,27,27,28,28,30,30,31,31,32,32,33,33,34,34,35,35,36,36,37,37,38,38,39,39,40,40,41,41,42,42,43,43,44,44,45,45,47,47,48,48,49,49,51,51,53,53,54,54,55,55,56,56,58,58],"right_children":[2,4,6,8,10,12,14,16,18,20,22,24,26,28,30,32,34,36,38,40,42,-1,44,46,48,50,52,54,56,-1,58,60,62,64,66,68,70,72,74,76,78,80,82,84,86,88,-1,90,92,94,-1,96,-1,98,100,102,104,-1,106,-1,-1,-1,-1,-1,-1,-1,-1,-1,-1,-1,-1,-1,-1,-1,-1,-1,-1,-1,-1,-1,-1,-1,-1,-1,-1,-1,-1,-1,-1,-1,-1,-1,-1,-1,-1,-1,-1,-1,-1,-1,-1,-1,-1,-1,-1,-1,-1],"split_conditions":[5.3710938E-2,1.0078125E0,1.2060547E0,9.9365234E-2,4.3798828E-1,1.1982422E0,8.8203125E0,7.952881E-2,3.5864258E-1,9.2285156E-1,6.381836E-1,7.9589844E-2,1.1669922E0,2.0175781E0,6.6328125E0,3.9672852E-1,3.203125E-1,6.875E-1,4.4580078E-1,1.1787109E0,9.4970703E-1,-1.3961314E-2,5.0476074E-2,7.684326E-2,5.7144165E-3,1.8632812E0,2.3789062E0,4.6362305E-1,3.1113281E0,8.9866154E-2,1.875E0,3.359375E-1,4.4604492E-1,1.3842773E-1,4.5043945E-1,4.0844727E-1,9.515381E-2,1.2109375E-1,4.4799805E-1,7.3291016E-1,5.0634766E-1,6.894531E-1,2.0654297E-1,1.1455078E0,8.7768555E-2,1.322937E-2,-4.1224014E-2,1.5991211E-1,1.7236328E-1,2.2753906E0,9.5780596E-2,1.2041016E0,3.343025E-2,1.6503906E0,2.0839844E0,5.571289E-1,9.5751953E-1,-5.4502625E-2,1.196875E1,-9.334515E-3,6.059577E-2,-5.1446464E-2,1E-1,-5.3941755E-4,3.379933E-2,-5.4715198E-2,1.4836225E-2,2.6392867E-3,-2.8847603E-2,-5.9203148E-2,7.731953E-2,1.8145036E-2,-8.7856136E-2,-1E-1,4.773457E-3,-1E-1,-5.189086E-2,7.417251E-2,-7.257677E-2,7.086611E-2,-1.2858577E-2,-2.4851492E-2,1E-1,-6.2411554E-2,-1E-1,2.4135498E-2,-7.459397E-2,3.3517364E-2,1E-1,6.934009E-2,-1.3097529E-2,8.973334E-3,4.012705E-2,7.2692566E-2,-9.721868E-2,-2.8407326E-2,-1E-1,-1E-1,2.0375393E-2,3.451506E-2,7.080842E-2,2.1983063E-2,-1E-1,1.4349877E-2,3.371238E-2,7.384831E-2,3.8470667E-2],"split_indices":[5,6,9,27,27,0,7,31,0,23,31,17,17,12,2,15,0,7,13,6,23,0,16,2,7,2,27,5,7,0,5,17,18,6,15,2,9,23,17,30,4,18,16,31,16,18,0,18,18,15,0,17,0,2,2,5,5,0,7,0,0,0,0,0,0,0,0,0,0,0,0,0,0,0,0,0,0,0,0,0,0,0,0,0,0,0,0,0,0,0,0,0,0,0,0,0,0,0,0,0,0,0,0,0,0,0,0],"split_type":[0,0,0,0,0,0,0,0,0,0,0,0,0,0,0,0,0,0,0,0,0,0,0,0,0,0,0,0,0,0,0,0,0,0,0,0,0,0,0,0,0,0,0,0,0,0,0,0,0,0,0,0,0,0,0,0,0,0,0,0,0,0,0,0,0,0,0,0,0,0,0,0,0,0,0,0,0,0,0,0,0,0,0,0,0,0,0,0,0,0,0,0,0,0,0,0,0,0,0,0,0,0,0,0,0,0,0],"sum_hessian":[6.639752E3,4.2815234E3,2.3582283E3,3.5405283E3,7.409951E2,1.8241573E3,5.340711E2,2.1727825E3,1.3677458E3,7.0695483E2,3.4040264E1,1.8093823E3,1.477496E1,4.850757E2,4.8995377E1,1.9139755E3,2.5880704E2,1.3441641E3,2.3581825E1,3.5476727E1,6.714781E2,1.6333342E0,3.240693E1,8.776373E0,1.800606E3,5.1973004E0,9.577659E0,1.0218293E2,3.828928E2,8.156052E0,4.0839325E1,1.8702145E3,4.376093E1,2.0260986E2,5.6197174E1,1.3179581E3,2.620592E1,1.86522E1,4.929623E0,2.8733976E1,6.7427497E0,9.755331E0,6.617228E2,2.7968689E1,4.438239E0,7.337187E0,1.4391859E0,1.8393353E2,1.6166725E3,3.639716E0,1.5575846E0,7.7390556E0,1.8386034E0,3.2643127E0,9.891862E1,6.069528E0,3.7682324E2,2.334657E0,3.8504665E1,1.8633855E3,6.8289547E0,