{"learner":{"attributes":{"best_iteration":"0","best_score":"0.00495740260364326"},"feature_names":[],"feature_types":[],"gradient_booster":{"model":{"cats":{"enc":[],"feature_segments":[],"sorted_idx":[]},"gbtree_model_param":{"num_parallel_tree":"1","num_trees":"11"},"iteration_indptr":[0,1,2,3,4,5,6,7,8,9,10,11],"tree_info":[0,0,0,0,0,0,0,0,0,0,0],"trees":[{"base_weights":[-2.527257E-4,-3.2873864E-3,1.7738217E-2,-3.3687872E-3,4.1017596E-2,1.6283885E-2,1.2281514E-1,-4.5398512E-4,-9.5715735E-4,2.4659489E-1,1.9960845E-2,1.3212567E-2,5.867377E-2,6.636399E-2,8.988515E-2,4.7505205E-3,-4.1406634E-3,4.9772993E-2,-3.0267556E-4,-4.4206562E-4,2.4659489E-1,-4.5336565E-4,1.7330159E-2,1.01738244E-1,-4.4988593E-4,1.9564147E-1,-4.383577E-4,1.6407317E-3,1.4144551E-2,-4.5392136E-4,1.9610953E-2,-2.2700666E-4,3.3030656E-1,2.6116049E-2,5.5409055E-3,4.3132965E-2,1.6435E-1,3.9591387E-1,5.8243625E-2,-1.9963007E-4,3.8156298E-4,5.031658E-3,9.89022E-4,-4.4743344E-4,1.2909587E-2,4.9772993E-2,-2.2700666E-4,2.0364546E-3,6.9011534E-3,3.399978E-4,9.238052E-3,2.1818655E-2,2.1835396E-3,1.0875308E-2,2.7564147E-2,1.3896559E-2,7.465949E-2,-4.1908925E-4,2.465949E-2],"categories":[],"categories_nodes":[],"categories_segments":[],"categories_sizes":[],"default_left":[0,0,0,0,0,0,0,0,0,0,0,0,0,0,0,0,0,0,0,0,0,0,0,0,0,0,0,0,0,0,0,0,0,0,0,0,0,0,0,0,0,0,0,0,0,0,0,0,0,0,0,0,0,0,0,0,0,0,0],"id":0,"left_children":[1,3,5,7,9,11,13,-1,15,17,19,21,23,-1,25,27,29,-1,-1,-1,31,-1,33,35,-1,37,-1,39,41,-1,43,-1,45,47,49,51,53,55,57,-1,-1,-1,-1,-1,-1,-1,-1,-1,-1,-1,-1,-1,-1,-1,-1,-1,-1,-1,-1],"loss_changes":[1.5282117E0,8.651659E-2,6.153798E-1,6.751597E-2,1.8554452E-1,5.1817346E-1,9.1986305E-1,0E0,1.4203972E-1,2.5226146E-1,2.2764292E-1,2.7175915E-1,7.3227113E-1,0E0,5.292418E-1,8.174524E-2,4.7590464E-2,0E0,0E0,0E0,8.4081456E-2,0E0,3.1245708E-1,5.800116E-1,0E0,6.648654E-1,0E0,1.6650626E-2,1.0660826E-1,0E0,2.1944661E-1,0E0,1.6817316E-1,4.251622E-1,2.3951924E-1,3.0840594E-1,4.4645786E-1,7.9731774E-1,1.8918738E-1,0E0,0E0,0E0,0E0,0E0,0E0,0E0,0E0,0E0,0E0,0E0,0E0,0E0,0E0,0E0,0E0,0E0,0E0,0E0,0E0],"parents":[2147483647,0,0,1,1,2,2,3,3,4,4,5,5,6,6,8,8,9,9,10,10,11,11,12,12,14,14,15,15,16,16,20,20,22,22,23,23,25,25,27,27,28,28,30,30,32,32,33,33,34,34,35,35,36,36,37,37,38,38],"right_children":[2,4,6,8,10,12,14,-1,16,18,20,22,24,-1,26,28,30,-1,-1,-1,32,-1,34,36,-1,38,-1,40,42,-1,44,-1,46,48,50,52,54,56,58,-1,-1,-1,-1,-1,-1,-1,-1,-1,-1,-1,-1,-1,-1,-1,-1,-1,-1,-1,-1],"split_conditions":[1.0498047E-2,7.1868896E-3,4.6661377E-2,2.2144318E-3,7.221222E-3,3.993988E-3,3.2653809E-3,-4.5398512E-4,2.3384094E-3,2.029419E-3,2.5558472E-3,1.2329102E-2,9.0789795E-3,6.636399E-2,1.8844604E-2,2.3040771E-3,1.676941E-2,4.9772993E-2,-3.0267556E-4,-4.4206562E-4,6.465912E-3,-4.5336565E-4,7.5302124E-3,1.2130737E-2,-4.4988593E-4,6.462097E-3,-4.383577E-4,2.2659302E-3,2.3078918E-3,-4.5392136E-4,6.465912E-3,-2.2700666E-4,7.3623657E-3,6.5135956E-4,3.567505E-2,1.2588501E-3,5.214691E-3,4.7836304E-3,7.3394775E-3,-1.9963007E-4,3.8156298E-4,5.031658E-3,9.89022E-4,-4.4743344E-4,1.2909587E-2,4.9772993E-2,-2.2700666E-4,2.0364546E-3,6.9011534E-3,3.399978E-4,9.238052E-3,2.1818655E-2,2.1835396E-3,1.0875308E-2,2.7564147E-2,1.3896559E-2,7.465949E-2,-4.1908925E-4,2.465949E-2],"split_indices":[6,11,19,4,11,4,26,0,4,1,26,6,26,0,6,4,1,0,0,0,4,0,26,19,0,1,0,4,4,0,4,0,4,4,3,26,4,1,1,0,0,0,0,0,0,0,0,0,0,0,0,0,0,0,0,0,0,0,0],"split_type":[0,0,0,0,0,0,0,0,0,0,0,0,0,0,0,0,0,0,0,0,0,0,0,0,0,0,0,0,0,0,0,0,0,0,0,0,0,0,0,0,0,0,0,0,0,0,0,0,0,0,0,0,0,0,0,0,0,0,0],"sum_hessian":[2.7989E4,2.395E4,4.039E3,2.3907E4,4.3E1,3.985E3,5.4E1,1.6092E4,7.815E3,3E0,4E1,3.717E3,2.68E2,2E0,5.2E1,2.798E3,5.017E3,1E0,2E0,3.7E1,3E0,7E2,3.017E3,1.59E2,1.09E2,2.4E1,2.8E1,2.103E3,6.95E2,4.935E3,8.2E1,1E0,2E0,1.728E3,1.289E3,8.3E1,7.6E1,9E0,1.5E1,7.87E2,1.316E3,7.2E1,6.23E2,6.8E1,1.4E1,1E0,1E0,1.525E3,2.03E2,1.259E3,3E1,8E0,7.5E1,5.2E1,2.4E1,6E0,3E0,1.2E1,3E0],"tree_param":{"num_deleted":"0","num_feature":"32","num_nodes":"59","size_leaf_vector":"1"}},{"base_weights":[2.620902E-4,-2.6160344E-3,2.3557436E-2,-2.7578431E-3,3.8608212E-2,2.0790705E-2,1.4467144E-1,-2.9570092E-3,2.0091716E-2,-6.2247273E-3,9.2797264E-2,-6.1252704E-3,2.4876485E-2,2.3462734E-1,-3.9498578E-4,-4.0911857E-4,-6.829319E-4,-6.7206095E-3,8.6798474E-2,-5.0995294E-3,-2.1402852E-3,2.4265145E-1,5.24338E-2,-5.367826E-3,-9.08795E-3,2.275677E-2,7.061963E-2,1.5469106E-1,4.8294795E-1,4.65245E-3,-3.4418092E-3,-5.496665E-3,-1.3870064E-2,-4.431929E-3,1.3034704E-1,-1.9516861E-2,-4.0006312E-4,3.29049E-1,-1.1027487E-2,1.0441935E-1,-1.3444443E-2,-4.939655E-4,-6.48039E-4,-1.0933128E-2,-6.529036E-4,1.5758485E-2,3.615864E-2,5.607892E-2,3.2785285E-1,3.949724E-2,2.8181553E-1,5.3706456E-2,-2.0508879E-4,1.9994478E-4,1.2236998E-3,-3.7883245E-4,9.498667E-4,-4.1901047E-4,-6.946378E-4,-2.04635E-4,-1.4335653E-3,-3.8827534E-4,-7.7077205E-4,9.334118E-3,3.855222E-2,-2.7156563E-3,-2.1187289E-4,4.979569E-2,1.9567605E-2,-1.3179394E-3,-3.3618367E-4,-3.82664E-4,3.2154914E-2,-2.1875498E-3,-5.39313E-4,-1.1175211E-3,-3.8189066E-4,3.4364112E-4,3.924884E-3,1.4414768E-3,8.352474E-3,7.926372E-3,-6.3097157E-4,6.622823E-2,-4.932441E-4,-8.850262E-4,1.766403E-2,7.5451634E-3,6.131801E-2],"categories":[],"categories_nodes":[],"categories_segments":[],"categories_sizes":[],"default_left":[0,0,0,0,0,0,0,0,0,0,0,0,0,0,0,0,0,0,0,0,0,0,0,0,0,0,0,0,0,0,0,0,0,0,0,0,0,0,0,0,0,0,0,0,0,0,0,0,0,0,0,0,0,0,0,0,0,0,0,0,0,0,0,0,0,0,0,0,0,0,0,0,0,0,0,0,0,0,0,0,0,0,0,0,0,0,0,0,0],"id":1,"left_children":[1,3,5,7,9,11,13,15,17,19,21,23,25,27,-1,-1,29,31,33,35,-1,37,39,41,43,45,47,49,51,53,55,57,59,61,63,65,-1,67,69,71,73,-1,-1,75,-1,77,79,81,83,85,87,-1,-1,-1,-1,-1,-1,-1,-1,-1,-1,-1,-1,-1,-1,-1,-1,-1,-1,-1,-1,-1,-1,-1,-1,-1,-1,-1,-1,-1,-1,-1,-1,-1,-1,-1,-1,-1,-1],"loss_changes":[1.8883036E0,1.4664724E-1,1.034765E0,1.1374895E-1,2.095107E-1,3.3325994E-1,9.234127E-1,6.3876346E-2,3.8691306E-1,7.106187E-4,2.2317359E-1,8.488428E-4,2.534039E-1,7.788348E-1,0E0,0E0,1.213502E-1,1.2800936E-3,2.4690074E-1,6.5070647E-4,0E0,1.7896655E-1,1.1099479E-1,1.20903365E-4,3.063497E-4,2.3531234E-1,4.1549546E-1,4.8676336E-1,2.6356626E-1,5.6517847E-2,2.4402447E-2,2.2470858E-4,9.177392E-5,7.851515E-6,3.6061996E-1,3.4121238E-4,0E0,3.772819E-2,5.1803363E-6,4.242921E-1,9.002383E-4,0E0,0E0,3.4823082E-5,0E0,4.7861522E-1,8.865893E-1,1.6105807E-1,6.710258E-1,1.2754329E-1,1.0478414E0,0E0,0E0,0E0,0E0,0E0,0E0,0E0,0E0,0E0,0E0,0E0,0E0,0E0,0E0,0E0,0E0,0E0,0E0,0E0,0E0,0E0,0E0,0E0,0E0,0E0,0E0,0E0,0E0,0E0,0E0,0E0,0E0,0E0,0E0,0E0,0E0,0E0,0E0],"parents":[2147483647,0,0,1,1,2,2,3,3,4,4,5,5,6,6,7,7,8,8,9,9,10,10,11,11,12,12,13,13,16,16,17,17,18,18,19,19,21,21,22,22,23,23,24,24,25,25,26,26,27,27,28,28,29,29,30,30,31,31,32,32,33,33,34,34,35,35,37,37,38,38,39,39,40,40,43,43,45,45,46,46,47,47,48,48,49,49,50,50],"right_children":[2,4,6,8,10,12,14,16,18,20,22,24,26,28,-1,-1,30,32,34,36,-1,38,40,42,44,46,48,50,52,54,56,58,60,62,64,66,-1,68,70,72,74,-1,-1,76,-1,78,80,82,84,86,88,-1,-1,-1,-1,-1,-1,-1,-1,-1,-1,-1,-1,-1,-1,-1,-1,-1,-1,-1,-1,-1,-1,-1,-1,-1,-1,-1,-1,-1,-1,-1,-1,-1,-1,-1,-1,-1,-1],"split_conditions":[1.2329102E-2,6.9351196E-3,4.6661377E-2,1.676941E-2,3.1795502E-3,2.0523071E-2,2.003479E-2,3.288269E-3,2.0904541E-2,1.0574341E-2,7.1372986E-3,5.3977966E-4,3.9253235E-3,1.8951416E-2,-3.9498578E-4,-4.0911857E-4,3.4637451E-3,2.0202637E-2,1.0604858E-2,1.852417E-2,-2.1402852E-3,3.982544E-3,2.1408081E-2,1.5083313E-2,1.7547607E-4,8.728027E-3,2.0507812E-2,2.2094727E-2,4.9621582E-2,3.4179688E-3,6.0043335E-3,1.7959595E-2,1.7089844E-2,1.3648987E-2,1.285553E-2,2.029419E-3,-4.0006312E-4,3.206253E-3,4.119873E-3,2.0904541E-2,5.519867E-3,-4.939655E-4,-6.48039E-4,1.9851685E-2,-6.529036E-4,1.9897461E-2,2.073288E-3,5.3482056E-3,1.828003E-2,7.3394775E-3,4.7836304E-3,5.3706456E-2,-2.0508879E-4,1.9994478E-4,1.2236998E-3,-3.7883245E-4,9.498667E-4,-4.1901047E-4,-6.946378E-4,-2.04635E-4,-1.4335653E-3,-3.8827534E-4,-7.7077205E-4,9.334118E-3,3.855222E-2,-2.7156563E-3,-2.1187289E-4,4.979569E-2,1.9567605E-2,-1.3179394E-3,-3.3618367E-4,-3.82664E-4,3.2154914E-2,-2.1875498E-3,-5.39313E-4,-1.1175211E-3,-3.8189066E-4,3.4364112E-4,3.924884E-3,1.4414768E-3,8.352474E-3,7.926372E-3,-6.3097157E-4,6.622823E-2,-4.932441E-4,-8.850262E-4,1.766403E-2,7.5451634E-3,6.131801E-2],"split_indices":[6,11,19,1,1,27,6,19,27,6,11,11,11,6,0,0,19,27,12,27,0,1,27,19,10,12,1,15,19,19,11,1,1,19,19,1,0,1,1,27,12,0,0,27,0,6,1,11,6,1,1,0,0,0,0,0,0,0,0,0,0,0,0,0,0,0,0,0,0,0,0,0,0,0,0,0,0,0,0,0,0,0,0,0,0,0,0,0,0],"split_type":[0,0,0,0,0,0,0,0,0,0,0,0,0,0,0,0,0,0,0,0,0,0,0,0,0,0,0,0,0,0,0,0,0,0,0,0,0,0,0,0,0,0,0,0,0,0,0,0,0,0,0,0,0,0,0,0,0,0,0,0,0,0,0,0,0,0,0,0,0,0,0,0,0,0,0,0,0,0,0,0,0,0,0,0,0,0,0,0,0],"sum_hessian":[2.8162E4,2.5066E4,3.096E3,2.4981E4,8.5E1,3.028E3,6.8E1,2.4766E4,2.15E2,4.7E1,3.8E1,3.99E2,2.629E3,4.2E1,2.6E1,1.6524E4,8.242E3,1.54E2,6.1E1,4.5E1,2E0,7E0,3.1E1,3.2E2,7.9E1,2.514E3,1.15E2,3.3E1,9E0,2.809E3,5.433E3,1.33E2,2.1E1,2E1,4.1E1,2E0,4.3E1,5E0,2E0,1.7E1,1.4E1,2.35E2,8.5E1,4.4E1,3.5E1,1.653E3,8.61E2,1.1E2,5E0,1.8E1,1.5E1,8E0,1E0,2.082E3,7.27E2,5.292E3,1.41E2,7.2E1,6.1E1,1E0,2E1,1.9E1,1E0,3.7E1,4E0,1E0,1E0,1E0,4E0,1E0,1E0,1.2E1,5E0,6E0,8E0,4.2E1,2E0,1.085E3,5.68E2,5.91E2,2.7E2,8E1,3E1,2E0,3E0,1.4E1,4E0,1E1,5E0],"tree_param":{"num_deleted":"0","num_feature":"32","num_nodes":"89","size_leaf_vector":"1"}},{"base_weights":[-1.3710363E-4,-4.2959378E-4,1.4360625E-1,-5.894954E-4,1.394028E-1,1.7586768E-1,-7.29316E-3,-1.1919646E-3,1.9119943E-2,8.668962E-2,4.867227E-1,2.66049E-1,7.0198074E-2,-2.3431827E-3,-3.336111E-4,-1.4816966E-3,3.3961024E-2,3.8049214E-2,-3.2876462E-3,4.911485E-2,5.470365E-2,6.548646E-2,-8.851535E-4,1.4638752E-1,4.6251523E-1,2.2269163E-1,-1.0436074E-2,-2.2493317E-3,4.507345E-3,6.865694E-2,-9.054565E-3,2.5599143E-2,1.6162188E-1,-5.515179E-3,8.721576E-3,2.3672271E-1,2.3392454E-2,2.8772613E-1,-1.1216383E-2,-1.9483434E-4,5.2081674E-2,-2.4711931E-4,2.9815775E-1,-1.566996E-2,-3.2434412E-4,-3.562189E-4,7.528014E-5,1.04948704E-4,2.191733E-3,-9.0772024E-4,1.2202385E-2,-7.5510005E-4,-1.3759935E-3,1.2381128E-2,1.7798714E-3,1.0189614E-2,4.930394E-2,-4.693986E-4,-7.749636E-4,5.5116974E-3,-7.968379E-4,-8.851535E-4,3.215313E-2,-1.6398876E-3,1.8583756E-2,4.2324267E-2,1.4942745E-2,-3.91573E-3,-2.8291074E-4,-1.2990929E-3,3.629857E-2,-2.1651548E-3,-2.7800925E-4],"categories":[],"categories_nodes":[],"categories_segments":[],"categories_sizes":[],"default_left":[0,0,0,0,0,0,0,0,0,0,0,0,0,0,0,0,0,0,0,0,0,0,0,0,0,0,0,0,0,0,0,0,0,0,0,0,0,0,0,0,0,0,0,0,0,0,0,0,0,0,0,0,0,0,0,0,0,0,0,0,0,0,0,0,0,0,0,0,0,0,0,0,0],"id":2,"left_children":[1,3,5,7,9,11,13,15,17,19,21,23,25,-1,-1,27,29,31,33,-1,35,-1,-1,37,39,41,43,45,47,49,51,53,55,57,59,61,63,65,67,-1,-1,-1,69,71,-1,-1,-1,-1,-1,-1,-1,-1,-1,-1,-1,-1,-1,-1,-1,-1,-1,-1,-1,-1,-1,-1,-1,-1,-1,-1,-1,-1,-1],"loss_changes":[1.180139E0,6.264145E-1,2.7877188E-1,3.322784E-1,5.43673E-1,4.2920685E-1,6.2430534E-4,2.765919E-1,3.5217735E-1,3.483057E-1,3.391037E-1,5.200294E-1,2.851363E-1,0E0,0E0,1.238227E-1,3.319489E-1,6.8818253E-1,1.0240208E-2,0E0,1.5404102E-1,0E0,0E0,3.8191107E-1,2.4472499E-1,1.3667417E-1,5.515021E-4,9.409111E-2,1.8419285E-1,5.1136464E-1,6.035818E-4,3.1189594E-1,7.6132166E-1,5.544685E-4,4.689942E-2,8.6153254E-2,1.6464518E-1,1.05431736E-1,1.9983533E-3,0E0,0E0,0E0,1.2574226E-1,6.3372357E-4,0E0,0E0,0E0,0E0,0E0,0E0,0E0,0E0,0E0,0E0,0E0,0E0,0E0,0E0,0E0,0E0,0E0,0E0,0E0,0E0,0E0,0E0,0E0,0E0,0E0,0E0,0E0,0E0,0E0],"parents":[2147483647,0,0,1,1,2,2,3,3,4,4,5,5,6,6,7,7,8,8,9,9,10,10,11,11,12,12,15,15,16,16,17,17,18,18,20,20,23,23,24,24,25,25,26,26,27,27,28,28,29,29,30,30,31,31,32,32,33,33,34,34,35,35,36,36,37,37,38,38,42,42,43,43],"right_children":[2,4,6,8,10,12,14,16,18,20,22,24,26,-1,-1,28,30,32,34,-1,36,-1,-1,38,40,42,44,46,48,50,52,54,56,58,60,62,64,66,68,-1,-1,-1,70,72,-1,-1,-1,-1,-1,-1,-1,-1,-1,-1,-1,-1,-1,-1,-1,-1,-1,-1,-1,-1,-1,-1,-1,-1,-1,-1,-1,-1,-1],"split_conditions":[4.6661377E-2,3.567505E-2,7.4005127E-3,2.6535034E-2,4.3182373E-2,2.3773193E-2,7.461548E-3,1.9226074E-2,1.4175415E-2,4.083252E-2,3.8635254E-2,2.2094727E-2,3.1795502E-3,-2.3431827E-3,-3.336111E-4,3.4576416E-2,2.1408081E-2,4.0496826E-2,4.458618E-2,4.911485E-2,4.5776367E-5,6.548646E-2,-8.851535E-4,1.8859863E-2,5.0582886E-3,1.3427734E-3,4.737854E-3,2.2735596E-3,3.2520294E-4,6.412506E-3,8.651733E-3,2.3269653E-3,1.361084E-2,4.0496826E-2,1.7807007E-2,3.8635254E-2,3.9733887E-2,6.996155E-3,6.462097E-3,-1.9483434E-4,5.2081674E-2,-2.4711931E-4,5.7891846E-2,2.6733398E-2,-3.2434412E-4,-3.562189E-4,7.528014E-5,1.04948704E-4,2.191733E-3,-9.0772024E-4,1.2202385E-2,-7.5510005E-4,-1.3759935E-3,1.2381128E-2,1.7798714E-3,1.0189614E-2,4.930394E-2,-4.693986E-4,-7.749636E-4,5.5116974E-3,-7.968379E-4,-8.851535E-4,3.215313E-2,-1.6398876E-3,1.8583756E-2,4.2324267E-2,1.4942745E-2,-3.91573E-3,-2.8291074E-4,-1.2990929E-3,3.629857E-2,-2.1651548E-3,-2.7800925E-4],"split_indices":[19,3,1,19,15,15,1,1,15,22,3,15,1,0,0,27,27,19,19,0,12,0,0,15,1,1,1,4,1,12,12,15,15,19,15,3,15,1,1,0,0,0,27,15,0,0,0,0,0,0,0,0,0,0,0,0,0,0,0,0,0,0,0,0,0,0,0,0,0,0,0,0,0],"split_type":[0,0,0,0,0,0,0,0,0,0,0,0,0,0,0,0,0,0,0,0,0,0,0,0,0,0,0,0,0,0,0,0,0,0,0,0,0,0,0,0,0,0,0,0,0,0,0,0,0,0,0,0,0,0,0,0,0,0,0,0,0,0,0,0,0,0,0,0,0,0,0,0,0],"sum_hessian":[2.8067E4,2.8011E4,5.6E1,2.798E4,3.1E1,4.6E1,1E1,2.7151E4,8.29E2,2.8E1,3E0,2.4E1,2.2E1,1E0,9E0,2.693E4,2.21E2,4.49E2,3.8E2,1E0,2.7E1,2E0,1E0,1.6E1,8E0,7E0,1.5E1,2.3871E4,3.059E3,1.22E2,9.9E1,4.09E2,4E1,3.21E2,5.9E1,3E0,2.4E1,8E0,8E0,1E0,7E0,2E0,5E0,8E0,7E0,1.6608E4,7.263E3,2.553E3,5.06E2,5E1,7.2E1,7.7E1,2.2E1,2.9E1,3.8E2,3.5E1,5E0,2.37E2,8.4E1,1.5E1,4.4E1,1E0,2E0,2E1,4E0,3E0,5E0,1E0,7E0,1E0,4E0,5E0,3E0],"tree_param":{"num_deleted":"0","num_feature":"32","num_nodes":"73","size_leaf_vector":"1"}},{"base_weights":[-1.05576415E-4,-2.3745706E-3,1.8115878E-2,-3.4705354E-3,-2.8004145E-4,1.6477391E-2,1.06972896E-1,-3.3946212E-3,-4.119731E-3,-1.0673841E-3,8.295821E-3,1.9981684E-2,-6.440713E-3,5.553768E-2,8.008059E-2,-3.3205474E-4,-3.7982564E-3,-3.781003E-4,-5.8119786E-3,2.8294637E-3,-3.4229727E-3,-1.9169837E-3,4.3206554E-2,1.859669E-2,1.257534E-1,-5.392645E-4,-8.799758E-4,5.2202642E-2,3.4284398E-1,-3.7818414E-3,-1.2131272E-3,-5.853108E-4,-2.35459E-4,-2.1247051E-3,5.273826E-3,-1.584522E-3,-3.6081173E-3,-4.611975E-3,1.0780036E-2,-8.424982E-3,9.1865085E-2,-5.4807044E-3,2.305836E-2,3.7649354E-1,7.97716E-2,1.3493437E-1,-7.4496535E-3,-3.2522157E-2,6.0392883E-2,-3.7720887E-4,-5.296187E-4,-3.0419996E-4,2.0015405E-3,2.70658E-4,1.0554916E-3,-3.8209918E-4,1.6750355E-3,-3.400866E-4,-3.8366052E-4,-3.800939E-4,-8.206735E-4,1.9207759E-2,1.0218692E-4,-6.062865E-4,-1.9127621E-3,1.8235411E-2,2.973779E-3,-4.497702E-4,-8.2838954E-4,5.1081465E-3,1.7791605E-3,-4.454982E-4,4.7284443E-2,-1.3042362E-3,1.268307E-2,2.6100988E-2,5.325305E-3,-1.7177446E-3,-3.1314814E-4,-1.7298353E-4,-4.70534E-3],"categories":[],"categories_nodes":[],"categories_segments":[],"categories_sizes":[],"default_left":[0,0,0,0,0,0,0,0,0,0,0,0,0,0,0,0,0,0,0,0,0,0,0,0,0,0,0,0,0,0,0,0,0,0,0,0,0,0,0,0,0,0,0,0,0,0,0,0,0,0,0,0,0,0,0,0,0,0,0,0,0,0,0,0,0,0,0,0,0,0,0,0,0,0,0,0,0,0,0,0,0],"id":3,"left_children":[1,3,5,7,9,11,13,15,17,19,21,23,25,-1,27,-1,29,-1,31,33,35,37,39,41,43,-1,-1,45,47,49,-1,-1,-1,51,53,55,57,59,61,63,65,67,69,71,73,75,77,79,-1,-1,-1,-1,-1,-1,-1,-1,-1,-1,-1,-1,-1,-1,-1,-1,-1,-1,-1,-1,-1,-1,-1,-1,-1,-1,-1,-1,-1,-1,-1,-1,-1],"loss_changes":[1.1585537E0,5.720137E-2,4.500066E-1,7.9225004E-4,5.781395E-2,2.4491894E-1,6.3080746E-1,4.2545795E-4,9.5706806E-4,7.199431E-2,2.5678912E-1,3.849895E-1,9.538848E-4,0E0,3.7766916E-1,0E0,2.6393682E-4,0E0,2.6460737E-5,3.5795618E-2,1.6580559E-3,1.9143563E-2,4.102812E-1,2.8061408E-1,3.61969E-1,0E0,0E0,2.4776204E-1,5.096531E-1,1.34296715E-5,0E0,0E0,0E0,1.9902783E-2,2.6802432E-2,1.8475428E-2,1.9720197E-4,1.3128426E-3,1.7317863E-1,1.9065035E-3,4.6681166E-1,1.0897573E-3,3.2423377E-1,1.8563008E-1,1.3268642E-1,2.0235875E-1,1.2063973E-3,1.2609574E-3,0E0,0E0,0E0,0E0,0E0,0E0,0E0,0E0,0E0,0E0,0E0,0E0,0E0,0E0,0E0,0E0,0E0,0E0,0E0,0E0,0E0,0E0,0E0,0E0,0E0,0E0,0E0,0E0,0E0,0E0,0E0,0E0,0E0],"parents":[2147483647,0,0,1,1,2,2,3,3,4,4,5,5,6,6,7,7,8,8,9,9,10,10,11,11,12,12,14,14,16,16,18,18,19,19,20,20,21,21,22,22,23,23,24,24,27,27,28,28,29,29,33,33,34,34,35,35,36,36,37,37,38,38,39,39,40,40,41,41,42,42,43,43,44,44,45,45,46,46,47,47],"right_children":[2,4,6,8,10,12,14,16,18,20,22,24,26,-1,28,-1,30,-1,32,34,36,38,40,42,44,-1,-1,46,48,50,-1,-1,-1,52,54,56,58,60,62,64,66,68,70,72,74,76,78,80,-1,-1,-1,-1,-1,-1,-1,-1,-1,-1,-1,-1,-1,-1,-1,-1,-1,-1,-1,-1,-1,-1,-1,-1,-1,-1,-1,-1,-1,-1,-1,-1,-1],"split_conditions":[1.2252808E-2,3.288269E-3,4.6661377E-2,3.4576416E-2,9.521484E-3,1.4678955E-2,3.2653809E-3,2.2144318E-3,3.2520294E-4,3.4751892E-3,5.794525E-3,4.5684814E-2,1.9897461E-2,5.553768E-2,5.7891846E-2,-3.3205474E-4,1.7410278E-2,-3.781003E-4,1.6601562E-2,5.607605E-3,3.5362244E-3,4.951477E-3,1.1886597E-2,2.0523071E-2,2.8030396E-2,-5.392645E-4,-8.799758E-4,1.828003E-2,2.6836395E-3,1.0040283E-2,-1.2131272E-3,-5.853108E-4,-2.35459E-4,2.3269653E-3,3.4179688E-3,3.528595E-3,2.2659302E-3,3.993988E-3,5.004883E-3,1.6601562E-2,7.6408386E-3,1.7410278E-2,1.335144E-2,2.394104E-2,5.267334E-2,6.591797E-3,1.8844604E-2,1.3427734E-3,6.0392883E-2,-3.7720887E-4,-5.296187E-4,-3.0419996E-4,2.0015405E-3,2.70658E-4,1.0554916E-3,-3.8209918E-4,1.6750355E-3,-3.400866E-4,-3.8366052E-4,-3.800939E-4,-8.206735E-4,1.9207759E-2,1.0218692E-4,-6.062865E-4,-1.9127621E-3,1.8235411E-2,2.973779E-3,-4.497702E-4,-8.2838954E-4,5.1081465E-3,1.7791605E-3,-4.454982E-4,4.7284443E-2,-1.3042362E-3,1.268307E-2,2.6100988E-2,5.325305E-3,-1.7177446E-3,-3.1314814E-4,-1.7298353E-4,-4.70534E-3],"split_indices":[6,19,19,27,6,26,26,4,1,19,4,22,6,0,27,0,1,0,1,27,19,4,19,27,6,0,0,6,1,6,0,0,0,4,19,19,4,4,4,1,4,1,6,6,22,1,6,1,0,0,0,0,0,0,0,0,0,0,0,0,0,0,0,0,0,0,0,0,0,0,0,0,0,0,0,0,0,0,0,0,0],"split_type":[0,0,0,0,0,0,0,0,0,0,0,0,0,0,0,0,0,0,0,0,0,0,0,0,0,0,0,0,0,0,0,0,0,0,0,0,0,0,0,0,0,0,0,0,0,0,0,0,0,0,0,0,0,0,0,0,0,0,0,0,0,0,0,0,0,0,0,0,0,0,0,0,0,0,0,0,0,0,0,0,0],"sum_hessian":[2.802E4,2.4918E4,3.102E3,1.6358E4,8.56E3,3.047E3,5.5E1,1.4651E4,1.707E3,7.841E3,7.19E2,2.643E3,4.04E2,2E0,5.3E1,1.2387E4,2.264E3,1.425E3,2.82E2,2.954E3,4.887E3,5.57E2,1.62E2,2.61E3,3.3E1,2.82E2,1.22E2,4.9E1,4E0,2.261E3,3E0,2.78E2,4E0,9.76E2,1.978E3,4.48E2,4.439E3,4.6E2,9.7E1,7.9E1,8.3E1,4.08E2,2.202E3,4E0,2.9E1,2E1,2.9E1,2E0,2E0,2.25E3,1.1E1,9.38E2,3.8E1,1.332E3,6.46E2,4E2,4.8E1,2.336E3,2.103E3,3.77E2,8.3E1,4E0,9.3E1,6.6E1,1.3E1,3.3E1,5E1,3.04E2,1.04E2,3.47E2,1.855E3,1E0,3E0,1E1,1.9E1,7E0,1.3E1,8E0,2.1E1,1E0,1E0],"tree_param":{"num_deleted":"0","num_feature":"32","num_nodes":"81","size_leaf_vector":"1"}},{"base_weights":[3.853135E-4,4.9554474E-5,1.4465246E-1,-2.1472112E-3,1.3410043E-2,2.2018935E-1,-2.857929E-4,-2.2501936E-3,4.7199678E-2,1.26075735E-2,1.4966545E-1,1.733629E-1,6.334066E-2,-3.1093282E-3,-5.164793E-4,1.6109224E-2,1.8704404E-1,1.1716589E-2,1.1122303E-1,3.3065924E-1,-1.49958795E-2,6.292035E-2,2.7029088E-1,-3.0542575E-3,-3.6741633E-3,3.7202109E-3,-2.9756823E-3,1.2990545E-1,-6.4652963E-3,3.522971E-1,-1.5617807E-2,1.9617375E-2,-1.1234311E-3,2.9117608E-1,4.71193E-2,-1.7705504E-2,5.3225417E-2,-4.9244724E-3,-2.592511E-3,3.8876373E-2,2.530945E-2,4.4249848E-1,1.0426032E-1,-2.9900167E-4,-3.419179E-4,-4.0797424E-4,-3.515624E-4,-3.6205576E-5,5.872791E-4,-3.1268856E-4,4.4947863E-4,-5.6166254E-4,4.7151893E-2,-1.8335432E-3,-5.2277755E-4,4.5401227E-2,-2.7281838E-3,-2.1401888E-3,-4.6277916E-4,1.3942409E-3,5.1742145E-3,-3.5796486E-4,3.5183055E-3,-1.1764773E-3,4.4460732E-2,1.4157449E-3,4.520637E-2,-1.5881866E-4,-2.133779E-3,-2.1175819E-4,-5.5071723E-4,1.0520381E-2,-3.0062576E-3,4.9204152E-2,-1.6943521E-4,-3.0916117E-3,2.9969055E-2],"categories":[],"categories_nodes":[],"categories_segments":[],"categories_sizes":[],"default_left":[0,0,0,0,0,0,0,0,0,0,0,0,0,0,0,0,0,0,0,0,0,0,0,0,0,0,0,0,0,0,0,0,0,0,0,0,0,0,0,0,0,0,0,0,0,0,0,0,0,0,0,0,0,0,0,0,0,0,0,0,0,0,0,0,0,0,0,0,0,0,0,0,0,0,0,0,0],"id":4,"left_children":[1,3,5,7,9,11,-1,13,15,17,19,21,-1,23,25,27,29,31,33,35,37,39,41,43,45,47,49,51,53,55,57,59,61,63,65,67,-1,69,-1,-1,71,73,75,-1,-1,-1,-1,-1,-1,-1,-1,-1,-1,-1,-1,-1,-1,-1,-1,-1,-1,-1,-1,-1,-1,-1,-1,-1,-1,-1,-1,-1,-1,-1,-1,-1,-1],"loss_changes":[1.355994E0,8.197704E-1,7.2489035E-1,1.2200504E-1,4.2935306E-1,7.2221947E-1,0E0,3.565388E-2,2.1437812E-1,3.4330273E-1,6.9042015E-1,4.1119206E-1,0E0,4.8667192E-4,8.266405E-2,1.0873348E-1,3.0691648E-1,3.9444518E-1,3.9002818E-1,7.819382E-1,1.3032779E-3,2.3526585E-1,5.5429125E-1,3.3180416E-4,7.677078E-5,2.5608618E-2,5.684443E-3,3.2672152E-1,4.3297E-4,2.0543104E-1,2.1879212E-4,4.3809158E-1,1.322857E-1,4.2355597E-1,3.539883E-1,2.588249E-4,0E0,1.4227116E-6,0E0,0E0,8.721703E-2,2.2090018E-1,3.26276E-1,0E0,0E0,0E0,0E0,0E0,0E0,0E0,0E0,0E0,0E0,0E0,0E0,0E0,0E0,0E0,0E0,0E0,0E0,0E0,0E0,0E0,0E0,0E0,0E0,0E0,0E0,0E0,0E0,0E0,0E0,0E0,0E0,0E0,0E0],"parents":[2147483647,0,0,1,1,2,2,3,3,4,4,5,5,7,7,8,8,9,9,10,10,11,11,13,13,14,14,15,15,16,16,17,17,18,18,19,19,20,20,21,21,22,22,23,23,24,24,25,25,26,26,27,27,28,28,29,29,30,30,31,31,32,32,33,33,34,34,35,35,37,37,40,40,41,41,42,42],"right_children":[2,4,6,8,10,12,-1,14,16,18,20,22,-1,24,26,28,30,32,34,36,38,40,42,44,46,48,50,52,54,56,58,60,62,64,66,68,-1,70,-1,-1,72,74,76,-1,-1,-1,-1,-1,-1,-1,-1,-1,-1,-1,-1,-1,-1,-1,-1,-1,-1,-1,-1,-1,-1,-1,-1,-1,-1,-1,-1,-1,-1,-1,-1,-1,-1],"split_conditions":[4.6661377E-2,1.0253906E-2,2.003479E-2,7.0762634E-3,6.465912E-3,1.9180298E-2,-2.857929E-4,3.288269E-3,1.9989014E-3,3.567505E-2,2.1759033E-2,2.2094727E-2,6.334066E-2,3.4576416E-2,3.4751892E-3,1.8539429E-3,2.609253E-3,8.7890625E-3,7.095337E-4,2.128601E-2,7.0762634E-3,3.2653809E-3,2.3773193E-2,2.2659302E-3,5.340576E-5,2.2735596E-3,9.887695E-3,1.7204285E-3,1.852417E-2,9.887695E-3,7.6408386E-3,1.9721985E-3,3.15094E-3,3.8635254E-2,4.525757E-2,6.5612793E-3,5.3225417E-2,7.2135925E-3,-2.592511E-3,3.8876373E-2,1.7944336E-2,1.838684E-2,1.8722534E-2,-2.9900167E-4,-3.419179E-4,-4.0797424E-4,-3.515624E-4,-3.6205576E-5,5.872791E-4,-3.1268856E-4,4.4947863E-4,-5.6166254E-4,4.7151893E-2,-1.8335432E-3,-5.2277755E-4,4.5401227E-2,-2.7281838E-3,-2.1401888E-3,-4.6277916E-4,1.3942409E-3,5.1742145E-3,-3.5796486E-4,3.5183055E-3,-1.1764773E-3,4.4460732E-2,1.4157449E-3,4.520637E-2,-1.5881866E-4,-2.133779E-3,-2.1175819E-4,-5.5071723E-4,1.0520381E-2,-3.0062576E-3,4.9204152E-2,-1.6943521E-4,-3.0916117E-3,2.9969055E-2],"split_indices":[19,6,6,11,4,6,0,19,26,3,27,15,0,27,19,12,26,26,12,27,11,26,15,4,15,4,6,12,27,6,4,4,31,3,15,4,0,4,0,0,6,6,6,0,0,0,0,0,0,0,0,0,0,0,0,0,0,0,0,0,0,0,0,0,0,0,0,0,0,0,0,0,0,0,0,0,0],"split_type":[0,0,0,0,0,0,0,0,0,0,0,0,0,0,0,0,0,0,0,0,0,0,0,0,0,0,0,0,0,0,0,0,0,0,0,0,0,0,0,0,0,0,0,0,0,0,0,0,0,0,0,0,0,0,0,0,0,0,0,0,0,0,0,0,0,0,0,0,0,0,0,0,0,0,0,0,0],"sum_hessian":[2.7993E4,2.7929E4,6.4E1,2.3986E4,3.943E3,4.2E1,2.2E1,2.3937E4,4.9E1,3.921E3,2.2E1,3.9E1,3E0,1.6005E4,7.932E3,4.1E1,8E0,3.887E3,3.4E1,1E1,1.2E1,1.9E1,2E1,1.4589E4,1.416E3,2.913E3,5.019E3,6E0,3.5E1,4E0,4E0,2.406E3,1.481E3,8E0,2.6E1,4E0,6E0,7E0,5E0,1E0,1.8E1,9E0,1.1E1,1.2413E4,2.176E3,3.91E2,1.025E3,1.006E3,1.907E3,4.92E3,9.9E1,5E0,1E0,2E0,3.3E1,3E0,1E0,2E0,2E0,2.046E3,3.6E2,1.388E3,9.3E1,3E0,5E0,2.5E1,1E0,1E0,3E0,2E0,5E0,7E0,1.1E1,8E0,1E0,7E0,4E0],"tree_param":{"num_deleted":"0","num_feature":"32","num_nodes":"77","size_leaf_vector":"1"}},{"base_weights":[-9.24322E-5,-2.5548518E-4,1.3470234E-1,-5.664347E-4,6.992086E-2,6.6682056E-2,4.4101664E-1,-1.0727845E-3,2.4322854E-2,6.2463943E-2,4.93561E-2,2.6686785E-1,-2.2287187E-3,5.392971E-1,-2.519282E-3,-1.4077625E-3,1.0049656E-2,2.2717471E-1,2.1333493E-2,1.6880043E-1,3.6318548E-2,-1.0882415E-3,4.075567E-1,-7.380732E-4,6.778117E-2,-1.6589563E-3,9.417108E-3,8.543469E-2,5.3497273E-3,-1.1169488E-3,3.7241513E-1,1.1357195E-3,4.116391E-2,3.6471814E-2,4.8495966E-1,8.190669E-2,-1.4774998E-2,1.8213576E-1,5.7226576E-2,-2.0424117E-4,4.3106763E-4,-8.505578E-4,2.797189E-3,4.8308126E-3,3.876362E-2,1.4625345E-3,-6.1645726E-4,4.6984892E-2,-8.6600706E-4,-2.182643E-4,1.4971969E-2,3.3505533E-3,1.5677163E-2,2.2232307E-2,-1.5519971E-3,2.8518567E-2,6.5626316E-2,3.145813E-2,6.1340944E-4,-4.840655E-3,-1.3029507E-3,-5.2799727E-3,4.434711E-2],"categories":[],"categories_nodes":[],"categories_segments":[],"categories_sizes":[],"default_left":[0,0,0,0,0,0,0,0,0,0,0,0,0,0,0,0,0,0,0,0,0,0,0,0,0,0,0,0,0,0,0,0,0,0,0,0,0,0,0,0,0,0,0,0,0,0,0,0,0,0,0,0,0,0,0,0,0,0,0,0,0,0,0],"id":5,"left_children":[1,3,5,7,9,11,13,15,17,19,-1,21,-1,23,-1,25,27,29,31,33,35,-1,37,-1,-1,39,41,43,45,-1,47,49,51,53,55,57,59,61,-1,-1,-1,-1,-1,-1,-1,-1,-1,-1,-1,-1,-1,-1,-1,-1,-1,-1,-1,-1,-1,-1,-1,-1,-1],"loss_changes":[6.185147E-1,6.1337095E-1,6.790021E-1,3.526997E-1,3.6089242E-1,5.224488E-1,2.8850198E-1,1.0220094E-1,3.3352333E-1,3.3583522E-1,0E0,3.561225E-1,0E0,3.8361728E-1,0E0,7.2415434E-2,2.8369498E-1,2.8109732E-1,2.2064543E-1,9.863985E-1,2.3413616E-1,0E0,1.1854309E-1,0E0,0E0,5.9577726E-2,2.0109905E-1,5.086001E-1,8.083265E-2,0E0,1.8971694E-1,1.3542397E-1,2.408795E-1,1.7737971E-1,5.2397013E-2,9.3247926E-1,2.1870593E-3,2.690029E-1,0E0,0E0,0E0,0E0,0E0,0E0,0E0,0E0,0E0,0E0,0E0,0E0,0E0,0E0,0E0,0E0,0E0,0E0,0E0,0E0,0E0,0E0,0E0,0E0,0E0],"parents":[2147483647,0,0,1,1,2,2,3,3,4,4,5,5,6,6,7,7,8,8,9,9,11,11,13,13,15,15,16,16,17,17,18,18,19,19,20,20,22,22,25,25,26,26,27,27,28,28,30,30,31,31,32,32,33,33,34,34,35,35,36,36,37,37],"right_children":[2,4,6,8,10,12,14,16,18,20,-1,22,-1,24,-1,26,28,30,32,34,36,-1,38,-1,-1,40,42,44,46,-1,48,50,52,54,56,58,60,62,-1,-1,-1,-1,-1,-1,-1,-1,-1,-1,-1,-1,-1,-1,-1,-1,-1,-1,-1,-1,-1,-1,-1,-1,-1],"split_conditions":[3.567505E-2,4.458618E-2,3.9733887E-2,3.944397E-3,6.311035E-2,7.095337E-4,3.8635254E-2,2.6535034E-2,3.9711E-3,1.7807007E-2,4.93561E-2,3.8635254E-2,-2.2287187E-3,4.5776367E-5,-2.519282E-3,1.727295E-2,2.8152466E-3,7.030487E-3,3.1795502E-3,4.6875E-2,6.591797E-3,-1.0882415E-3,3.173828E-2,-7.380732E-4,6.778117E-2,1.4770508E-2,8.850098E-3,2.746582E-3,1.4175415E-2,-1.1169488E-3,6.637573E-4,9.307861E-3,2.4795532E-2,1.3885498E-2,7.3394775E-3,2.3773193E-2,1.8173218E-2,3.1280518E-4,5.7226576E-2,-2.0424117E-4,4.3106763E-4,-8.505578E-4,2.797189E-3,4.8308126E-3,3.876362E-2,1.4625345E-3,-6.1645726E-4,4.6984892E-2,-8.6600706E-4,-2.182643E-4,1.4971969E-2,3.3505533E-3,1.5677163E-2,2.2232307E-2,-1.5519971E-3,2.8518567E-2,6.5626316E-2,3.145813E-2,6.1340944E-4,-4.840655E-3,-1.3029507E-3,-5.2799727E-3,4.434711E-2],"split_indices":[3,19,15,11,27,12,3,19,11,15,0,3,0,12,0,1,15,12,1,27,1,0,15,0,0,12,12,15,15,0,10,4,27,15,1,15,15,12,0,0,0,0,0,0,0,0,0,0,0,0,0,0,0,0,0,0,0,0,0,0,0,0,0],"split_type":[0,0,0,0,0,0,0,0,0,0,0,0,0,0,0,0,0,0,0,0,0,0,0,0,0,0,0,0,0,0,0,0,0,0,0,0,0,0,0,0,0,0,0,0,0,0,0,0,0,0,0,0,0,0,0,0,0,0,0,0,0,0,0],"sum_hessian":[2.8139E4,2.8106E4,3.3E1,2.7983E4,1.23E2,2.8E1,5E0,2.7426E4,5.57E2,1.22E2,1E0,8E0,2E1,4E0,1E0,2.6625E4,8.01E2,7E0,5.5E2,2.3E1,9.9E1,3E0,5E0,1E0,3E0,2.6022E4,6.03E2,4.6E1,7.55E2,3E0,4E0,2.73E2,2.77E2,1.7E1,6E0,5.2E1,4.7E1,3E0,2E0,2.4452E4,1.57E3,3.07E2,2.96E2,4.2E1,4E0,4.18E2,3.37E2,3E0,1E0,2.68E2,5E0,2.61E2,1.6E1,3E0,1.4E1,4E0,2E0,1.2E1,4E1,1E0,4.6E1,2E0,1E0],"tree_param":{"num_deleted":"0","num_feature":"32","num_nodes":"63","size_leaf_vector":"1"}},{"base_weights":[-1.273716E-4,-2.6808938E-4,7.822401E-2,-5.402667E-4,2.8944887E-2,3.4878972E-1,5.3532805E-2,-6.3234195E-4,8.404581E-2,6.136821E-2,-1.0995258E-2,4.6526693E-2,-3.2095373E-5,1.7727299E-1,-2.249573E-2,-7.8088354E-4,4.3715812E-2,4.2129755E-2,5.788894E-2,3.819721E-2,1.2377839E-1,-1.2136069E-2,-3.106679E-3,7.26001E-2,5.2547812E-2,-3.805464E-2,-6.5032695E-3,-1.1463715E-3,1.1339376E-2,1.6198475E-2,1.0293629E-1,3.2305416E-2,2.6884434E-1,-1.2263401E-2,1.0318502E-1,-1.9213822E-3,1.7553324E-1,-9.870134E-3,-1.5485244E-2,-4.4950173E-4,-1.8241743E-4,-4.2434506E-2,1.5400477E-1,-4.066774E-2,-7.356435E-5,-1.4579871E-3,-1.5066443E-3,-1.5881057E-4,3.3711444E-4,5.974678E-3,2.4242807E-4,-1.2316633E-3,7.954755E-3,4.828575E-2,7.212277E-3,-3.0893178E-3,1.4283234E-2,4.1746523E-2,-1.4198725E-3,-8.8830554E-4,-2.1004162E-3,4.5062527E-2,4.98234E-3,9.286455E-3,4.631744E-2,-8.0771506E-4,-1.6817221E-3,-1.5764661E-3,-2.4336948E-4,-6.7220363E-3,-1.9076096E-3,3.7041802E-2,-1.5938183E-3,-3.1777786E-3,-6.267165E-3,-2.2646096E-4,-1.0865843E-4],"categories":[],"categories_nodes":[],"categories_segments":[],"categories_sizes":[],"default_left":[0,0,0,0,0,0,0,0,0,0,0,0,0,0,0,0,0,0,0,0,0,0,0,0,0,0,0,0,0,0,0,0,0,0,0,0,0,0,0,0,0,0,0,0,0,0,0,0,0,0,0,0,0,0,0,0,0,0,0,0,0,0,0,0,0,0,0,0,0,0,0,0,0,0,0,0,0],"id":6,"left_children":[1,3,5,7,9,11,13,15,17,19,21,-1,-1,23,25,27,29,-1,31,33,35,37,39,41,-1,43,45,47,49,51,53,55,57,59,61,-1,63,65,67,-1,-1,69,71,73,-1,-1,75,-1,-1,-1,-1,-1,-1,-1,-1,-1,-1,-1,-1,-1,-1,-1,-1,-1,-1,-1,-1,-1,-1,-1,-1,-1,-1,-1,-1,-1,-1],"loss_changes":[3.0749822E-1,2.2136655E-1,3.1535804E-1,2.1487744E-1,3.3348775E-1,1.6280308E-1,4.4615376E-1,1.8154739E-1,2.4025504E-1,2.0061916E-1,1.006227E-3,0E0,0E0,6.179077E-1,7.2172787E-3,1.2166882E-1,1.4825484E-1,0E0,1.4782737E-1,3.4559453E-1,2.8459316E-1,6.1364844E-4,2.028911E-5,1.4700043E-1,0E0,1.4328547E-3,6.237253E-4,5.3206466E-2,3.468267E-1,1.1658971E-1,3.0466953E-1,1.9301149E-1,1.3212581E-1,1.5862267E-3,8.303871E-1,0E0,6.2279713E-1,6.488939E-4,1.0385923E-4,0E0,0E0,2.7704053E-3,3.3690494E-1,7.470269E-4,0E0,0E0,1.0416097E-6,0E0,0E0,0E0,0E0,0E0,0E0,0E0,0E0,0E0,0E0,0E0,0E0,0E0,0E0,0E0,0E0,0E0,0E0,0E0,0E0,0E0,0E0,0E0,0E0,0E0,0E0,0E0,0E0,0E0,0E0],"parents":[2147483647,0,0,1,1,2,2,3,3,4,4,5,5,6,6,7,7,8,8,9,9,10,10,13,13,14,14,15,15,16,16,18,18,19,19,20,20,21,21,22,22,23,23,25,25,26,26,27,27,28,28,29,29,30,30,31,31,32,32,33,33,34,34,36,36,37,37,38,38,41,41,42,42,43,43,46,46],"right_children":[2,4,6,8,10,12,14,16,18,20,22,-1,-1,24,26,28,30,-1,32,34,36,38,40,42,-1,44,46,48,50,52,54,56,58,60,62,-1,64,66,68,-1,-1,70,72,74,-1,-1,76,-1,-1,-1,-1,-1,-1,-1,-1,-1,-1,-1,-1,-1,-1,-1,-1,-1,-1,-1,-1,-1,-1,-1,-1,-1,-1,-1,-1,-1,-1],"split_conditions":[4.6661377E-2,1.9088745E-2,3.2653809E-3,3.692627E-2,2.1408081E-2,3.0517578E-5,6.05011E-3,6.9351196E-3,4.083252E-2,1.9721985E-3,2.2232056E-2,4.6526693E-2,-3.2095373E-5,5.0582886E-3,4.9362183E-3,2.6535034E-2,1.2588501E-3,4.2129755E-2,4.3182373E-2,3.944397E-3,1.2619019E-2,4.8160553E-4,2.015686E-2,5.622864E-3,5.2547812E-2,7.461548E-3,2.2094727E-2,3.805542E-2,5.0964355E-3,1.4137268E-2,6.9999695E-3,1.2741089E-2,3.8635254E-2,2.9325485E-4,4.1503906E-3,-1.9213822E-3,3.8108826E-3,3.7631989E-3,5.2757263E-3,-4.4950173E-4,-1.8241743E-4,3.1147003E-3,5.996704E-3,4.638672E-3,-7.356435E-5,-1.4579871E-3,6.462097E-3,-1.5881057E-4,3.3711444E-4,5.974678E-3,2.4242807E-4,-1.2316633E-3,7.954755E-3,4.828575E-2,7.212277E-3,-3.0893178E-3,1.4283234E-2,4.1746523E-2,-1.4198725E-3,-8.8830554E-4,-2.1004162E-3,4.5062527E-2,4.98234E-3,9.286455E-3,4.631744E-2,-8.0771506E-4,-1.6817221E-3,-1.5764661E-3,-2.4336948E-4,-6.7220363E-3,-1.9076096E-3,3.7041802E-2,-1.5938183E-3,-3.1777786E-3,-6.267165E-3,-2.2646096E-4,-1.0865843E-4],"split_indices":[19,1,26,3,27,0,1,11,22,4,27,0,0,1,26,19,26,0,15,11,19,4,1,26,0,1,15,27,15,19,11,26,3,4,11,0,4,11,4,0,0,1,26,26,0,0,1,0,0,0,0,0,0,0,0,0,0,0,0,0,0,0,0,0,0,0,0,0,0,0,0,0,0,0,0,0,0],"split_type":[0,0,0,0,0,0,0,0,0,0,0,0,0,0,0,0,0,0,0,0,0,0,0,0,0,0,0,0,0,0,0,0,0,0,0,0,0,0,0,0,0,0,0,0,0,0,0,0,0,0,0,0,0,0,0,0,0,0,0,0,0,0,0,0,0,0,0,0,0,0,0,0,0,0,0,0,0],"sum_hessian":[2.7887E4,2.7838E4,4.9E1,2.7582E4,2.56E2,3E0,4.6E1,2.7553E4,2.9E1,1.41E2,1.15E2,2E0,1E0,1.7E1,2.9E1,2.7462E4,9.1E1,1E0,2.8E1,1.04E2,3.7E1,1E2,1.5E1,1.4E1,3E0,1.4E1,1.5E1,2.6659E4,8.03E2,6.3E1,2.8E1,2.6E1,2E0,5.9E1,4.5E1,1E1,2.7E1,6.2E1,3.8E1,6E0,9E0,6E0,8E0,1.3E1,1E0,5E0,1E1,2.4285E4,2.374E3,1.24E2,6.79E2,4.4E1,1.9E1,1E0,2.7E1,1.7E1,9E0,1E0,1E0,4.4E1,1.5E1,5E0,4E1,2.2E1,5E0,5.1E1,1.1E1,3.7E1,1E0,2E0,4E0,3E0,5E0,1.1E1,2E0,2E0,8E0],"tree_param":{"num_deleted":"0","num_feature":"32","num_nodes":"77","size_leaf_vector":"1"}},{"base_weights":[2.2177231E-4,-1.5922809E-3,1.4785507E-2,-1.7464968E-3,4.5186523E-2,1.3028038E-2,9.949514E-2,-1.7787471E-3,6.0038015E-2,-1.3764385E-2,9.3963146E-2,2.0835007E-2,5.337636E-4,4.3424916E-2,8.140077E-2,-2.5546104E-3,-1.4054745E-4,-1.1160378E-2,4.572094E-2,-7.560172E-3,-3.6085162E-3,1.9567327E-1,3.1099854E-2,1.9263376E-2,1.7326206E-1,-2.1030963E-3,2.8515745E-2,1.5609291E-1,1.3295529E-2,-2.472947E-3,-4.5370637E-3,4.308858E-3,-2.3652238E-3,-3.0811348E-3,-3.4371063E-3,-2.8629508E-3,-1.5840305E-2,1.0322462E-1,5.9269216E-2,2.0584701E-1,3.019529E-3,3.20522E-2,7.472972E-3,-3.1308688E-3,3.2488704E-1,-3.2193016E-3,3.9630387E-2,3.257947E-1,1.9219255E-2,3.126307E-1,8.157228E-2,7.28449E-2,-1.20706875E-2,-2.3721576E-4,-3.3828913E-4,-5.681614E-4,-2.8991778E-4,-4.0508905E-5,6.600294E-4,-2.7706893E-4,7.1027374E-4,-9.713243E-5,-7.680251E-4,-1.1709493E-4,-3.8141097E-4,-2.859602E-3,-1.1705132E-3,2.8899003E-2,-1.855708E-3,4.5871463E-2,-3.1347058E-3,-2.5126762E-3,6.9489526E-3,2.4039664E-3,1.1880125E-2,-1.3938501E-3,1.8133996E-3,1.0297329E-2,5.705889E-2,-6.1677484E-4,2.7809318E-4,1.1633783E-2,-1.6847244E-3,4.9462046E-2,-5.9284485E-4,-1.1154768E-3,1.1460287E-2,-5.1818117E-3,4.2416155E-2,-2.1461346E-3,2.2133505E-2,-2.2042184E-3,4.634143E-2,-4.0120445E-3,-4.918551E-5],"categories":[],"categories_nodes":[],"categories_segments":[],"categories_sizes":[],"default_left":[0,0,0,0,0,0,0,0,0,0,0,0,0,0,0,0,0,0,0,0,0,0,0,0,0,0,0,0,0,0,0,0,0,0,0,0,0,0,0,0,0,0,0,0,0,0,0,0,0,0,0,0,0,0,0,0,0,0,0,0,0,0,0,0,0,0,0,0,0,0,0,0,0,0,0,0,0,0,0,0,0,0,0,0,0,0,0,0,0,0,0,0,0,0,0],"id":7,"left_children":[1,3,5,7,9,11,13,15,17,19,21,23,25,-1,27,29,31,33,-1,35,-1,37,39,41,43,45,47,49,51,53,55,57,59,61,-1,63,65,67,-1,69,71,73,75,-1,77,79,81,83,85,87,89,91,93,-1,-1,-1,-1,-1,-1,-1,-1,-1,-1,-1,-1,-1,-1,-1,-1,-1,-1,-1,-1,-1,-1,-1,-1,-1,-1,-1,-1,-1,-1,-1,-1,-1,-1,-1,-1,-1,-1,-1,-1,-1,-1],"loss_changes":[7.410873E-1,1.8002579E-1,4.6125698E-1,4.964804E-2,2.3707828E-1,2.9700553E-1,3.4625322E-1,3.1585738E-2,3.7271616E-1,4.989539E-3,2.816371E-1,4.4559646E-1,8.653549E-2,0E0,3.0822712E-1,2.7189627E-3,7.9079315E-2,2.1443954E-3,0E0,1.1603523E-3,0E0,5.6278515E-1,1.416802E-1,2.796182E-1,5.995145E-1,5.0064698E-2,2.728672E-1,3.1279165E-1,5.072718E-2,1.477629E-3,1.2320401E-3,2.876762E-2,2.0465836E-2,8.957261E-5,0E0,2.9330462E-5,2.454978E-4,3.4470522E-1,0E0,2.5429416E-1,5.038903E-2,6.1576533E-1,2.2098814E-1,0E0,5.410154E-1,1.8504634E-2,1.2326309E-1,1.709426E-1,2.880996E-1,3.878047E-1,3.0715573E-1,3.8081458E-1,7.775069E-3,0E0,0E0,0E0,0E0,0E0,0E0,0E0,0E0,0E0,0E0,0E0,0E0,0E0,0E0,0E0,0E0,0E0,0E0,0E0,0E0,0E0,0E0,0E0,0E0,0E0,0E0,0E0,0E0,0E0,0E0,0E0,0E0,0E0,0E0,0E0,0E0,0E0,0E0,0E0,0E0,0E0,0E0],"parents":[2147483647,0,0,1,1,2,2,3,3,4,4,5,5,6,6,7,7,8,8,9,9,10,10,11,11,12,12,14,14,15,15,16,16,17,17,19,19,21,21,22,22,23,23,24,24,25,25,26,26,27,27,28,28,29,29,30,30,31,31,32,32,33,33,35,35,36,36,37,37,39,39,40,40,41,41,42,42,44,44,45,45,46,46,47,47,48,48,49,49,50,50,51,51,52,52],"right_children":[2,4,6,8,10,12,14,16,18,20,22,24,26,-1,28,30,32,34,-1,36,-1,38,40,42,44,46,48,50,52,54,56,58,60,62,-1,64,66,68,-1,70,72,74,76,-1,78,80,82,84,86,88,90,92,94,-1,-1,-1,-1,-1,-1,-1,-1,-1,-1,-1,-1,-1,-1,-1,-1,-1,-1,-1,-1,-1,-1,-1,-1,-1,-1,-1,-1,-1,-1,-1,-1,-1,-1,-1,-1,-1,-1,-1,-1,-1,-1],"split_conditions":[1.2390137E-2,6.9351196E-3,4.6661377E-2,1.9729614E-2,6.790161E-4,8.7890625E-3,3.2653809E-3,2.2144318E-3,1.21154785E-2,1.0345459E-2,4.383087E-3,3.993988E-3,3.15094E-3,4.3424916E-2,6.462097E-3,1.0253906E-2,2.33078E-3,5.0697327E-3,4.572094E-2,1.4137268E-2,-3.6085162E-3,3.7631989E-3,6.9999695E-3,1.0917664E-2,1.7959595E-2,5.267334E-2,3.200531E-3,2.3773193E-2,1.7944336E-2,3.4576416E-2,8.7890625E-3,5.607605E-3,1.5975952E-2,6.318092E-5,-3.4371063E-3,8.544922E-3,8.178711E-3,7.221222E-3,5.9269216E-2,3.982544E-3,7.2135925E-3,1.9061565E-4,4.8828125E-3,-3.1308688E-3,1.1444092E-5,6.713867E-2,1.24053955E-2,1.651001E-2,1.725769E-2,4.9362183E-3,5.7891846E-2,1.78833E-2,1.8859863E-2,-2.3721576E-4,-3.3828913E-4,-5.681614E-4,-2.8991778E-4,-4.0508905E-5,6.600294E-4,-2.7706893E-4,7.1027374E-4,-9.713243E-5,-7.680251E-4,-1.1709493E-4,-3.8141097E-4,-2.859602E-3,-1.1705132E-3,2.8899003E-2,-1.855708E-3,4.5871463E-2,-3.1347058E-3,-2.5126762E-3,6.9489526E-3,2.4039664E-3,1.1880125E-2,-1.3938501E-3,1.8133996E-3,1.0297329E-2,5.705889E-2,-6.1677484E-4,2.7809318E-4,1.1633783E-2,-1.6847244E-3,4.9462046E-2,-5.9284485E-4,-1.1154768E-3,1.1460287E-2,-5.1818117E-3,4.2416155E-2,-2.1461346E-3,2.2133505E-2,-2.2042184E-3,4.634143E-2,-4.0120445E-3,-4.918551E-5],"split_indices":[6,11,19,1,26,26,26,4,6,6,12,4,31,0,1,6,4,12,0,19,0,1,11,1,1,22,31,15,6,27,26,27,1,4,0,6,6,11,0,1,4,4,26,0,11,27,26,6,6,26,27,6,15,0,0,0,0,0,0,0,0,0,0,0,0,0,0,0,0,0,0,0,0,0,0,0,0,0,0,0,0,0,0,0,0,0,0,0,0,0,0,0,0,0,0],"split_type":[0,0,0,0,0,0,0,0,0,0,0,0,0,0,0,0,0,0,0,0,0,0,0,0,0,0,0,0,0,0,0,0,0,0,0,0,0,0,0,0,0,0,0,0,0,0,0,0,0,0,0,0,0,0,0,0,0,0,0,0,0,0,0,0,0,0,0,0,0,0,0,0,0,0,0,0,0,0,0,0,0,0,0,0,0,0,0,0,0,0,0,0,0,0,0],"sum_hessian":[2.8049E4,2.4943E4,3.106E3,2.4862E4,8.1E1,3.044E3,6.2E1,2.485E4,1.2E1,3.7E1,4.4E1,1.873E3,1.171E3,2E0,6E1,1.6863E4,7.987E3,1.1E1,1E0,3E1,7E0,1.6E1,2.8E1,1.855E3,1.8E1,1.071E3,1E2,2.8E1,3.2E1,1.6198E4,6.65E2,2.662E3,5.325E3,9E0,2E0,2E1,1E1,1.4E1,2E0,3E0,2.5E1,8.89E2,9.66E2,8E0,1E1,1.044E3,2.7E1,2E0,9.8E1,8E0,2E1,9E0,2.3E1,1.4586E4,1.612E3,3.9E2,2.75E2,8.71E2,1.791E3,5.107E3,2.18E2,7E0,2E0,8E0,1.2E1,1E0,9E0,5E0,9E0,1E0,2E0,1.8E1,7E0,8.15E2,7.4E1,3.21E2,6.45E2,6E0,4E0,7E2,3.44E2,1.1E1,1.6E1,1E0,1E0,7.5E1,2.3E1,2E0,6E0,1.2E1,8E0,8E0,1E0,6E0,1.7E1],"tree_param":{"num_deleted":"0","num_feature":"32","num_nodes":"95","size_leaf_vector":"1"}},{"base_weights":[2.4285908E-4,-1.35026E-3,1.3044759E-2,-1.4008553E-3,8.274486E-2,1.2132681E-2,9.496264E-2,-2.269284E-3,5.4681906E-4,2.4766397E-2,4.4722166E-2,7.1043572E-3,2.8026737E-2,5.2125335E-2,5.2023973E-2,-2.1905394E-3,-3.5529018E-3,4.778548E-3,-1.4527513E-3,1.16689734E-1,-3.9267648E-2,-5.3627314E-3,1.5407707E-2,5.459596E-3,8.696216E-2,4.000936E-2,2.7994307E-2,-2.1565186E-3,-4.100215E-3,-3.253778E-3,-5.1758387E-3,-4.4089886E-3,5.3673116E-3,-2.4414656E-3,9.051995E-3,-2.6136886E-2,4.154114E-2,-8.142048E-3,-2.3820985E-2,-6.322178E-3,1.0636358E-1,2.4663584E-2,-8.038914E-3,1.8379161E-2,-1.10567E-2,7.627361E-2,3.768724E-1,1.431006E-1,5.6415E-3,-2.2148142E-4,1.8967629E-3,-4.1947266E-4,-3.1633416E-4,-3.009529E-4,-3.988505E-4,-4.1579624E-4,-6.1012595E-4,-4.1371593E-4,-5.176172E-4,2.2640326E-3,4.496142E-4,-9.624355E-5,-2.6040865E-4,1.3235863E-4,2.384782E-3,-4.60859E-4,-3.8952888E-3,-1.7593193E-4,-3.0881655E-3,-8.4278546E-4,5.3628784E-4,4.843629E-2,-1.6831023E-3,4.3079033E-3,1.1510004E-4,-1.5910903E-4,-2.0971354E-3,9.794604E-4,1.3196473E-2,-1.3179735E-3,-8.5662847E-4,6.1856E-3,2.613439E-2,6.993302E-2,-3.9803535E-3,-1.7776926E-3,3.933054E-2,-2.398851E-3,1.4081125E-2],"categories":[],"categories_nodes":[],"categories_segments":[],"categories_sizes":[],"default_left":[0,0,0,0,0,0,0,0,0,0,0,0,0,0,0,0,0,0,0,0,0,0,0,0,0,0,0,0,0,0,0,0,0,0,0,0,0,0,0,0,0,0,0,0,0,0,0,0,0,0,0,0,0,0,0,0,0,0,0,0,0,0,0,0,0,0,0,0,0,0,0,0,0,0,0,0,0,0,0,0,0,0,0,0,0,0,0,0,0],"id":8,"left_children":[1,3,5,7,9,11,13,15,17,19,-1,21,23,25,-1,27,29,31,33,35,37,39,41,43,45,-1,47,49,51,53,55,57,59,61,63,65,-1,-1,67,69,71,73,75,77,79,81,83,85,87,-1,-1,-1,-1,-1,-1,-1,-1,-1,-1,-1,-1,-1,-1,-1,-1,-1,-1,-1,-1,-1,-1,-1,-1,-1,-1,-1,-1,-1,-1,-1,-1,-1,-1,-1,-1,-1,-1,-1,-1],"loss_changes":[5.714637E-1,1.0614177E-1,2.3054045E-1,4.2125966E-2,3.05901E-1,2.4499688E-1,5.92285E-1,1.7332956E-3,6.500081E-2,8.6989254E-2,0E0,2.4148798E-1,9.7973835E-1,2.574983E-1,0E0,1.0457188E-3,4.65706E-4,1.3357546E-2,5.420687E-2,2.6685E-1,3.920568E-3,1.00685805E-1,3.0402493E-1,1.1414993E-1,6.033939E-1,0E0,7.8954116E-2,1.9683518E-2,1.1789147E-5,1.3909768E-4,1.1875201E-4,9.658281E-6,3.476379E-2,1.1445377E-3,5.1310766E-2,1.2000154E-3,0E0,0E0,1.1918303E-3,2.2829376E-2,3.8069212E-1,4.3467724E-1,3.307091E-2,2.9123205E-1,1.1295993E-3,5.1215196E-1,9.6835876E-1,2.0825335E-1,1.1151506E-1,0E0,0E0,0E0,0E0,0E0,0E0,0E0,0E0,0E0,0E0,0E0,0E0,0E0,0E0,0E0,0E0,0E0,0E0,0E0,0E0,0E0,0E0,0E0,0E0,0E0,0E0,0E0,0E0,0E0,0E0,0E0,0E0,0E0,0E0,0E0,0E0,0E0,0E0,0E0,0E0],"parents":[2147483647,0,0,1,1,2,2,3,3,4,4,5,5,6,6,7,7,8,8,9,9,11,11,12,12,13,13,15,15,16,16,17,17,18,18,19,19,20,20,21,21,22,22,23,23,24,24,26,26,27,27,28,28,29,29,30,30,31,31,32,32,33,33,34,34,35,35,38,38,39,39,40,40,41,41,42,42,43,43,44,44,45,45,46,46,47,47,48,48],"right_children":[2,4,6,8,10,12,14,16,18,20,-1,22,24,26,-1,28,30,32,34,36,38,40,42,44,46,-1,48,50,52,54,56,58,60,62,64,66,-1,-1,68,70,72,74,76,78,80,82,84,86,88,-1,-1,-1,-1,-1,-1,-1,-1,-1,-1,-1,-1,-1,-1,-1,-1,-1,-1,-1,-1,-1,-1,-1,-1,-1,-1,-1,-1,-1,-1,-1,-1,-1,-1,-1,-1,-1,-1,-1,-1],"split_conditions":[1.2252808E-2,8.026123E-3,3.567505E-2,2.2392273E-3,9.307861E-3,9.765625E-3,4.3182373E-2,9.017944E-3,2.3384094E-3,3.5820007E-3,4.4722166E-2,1.6418457E-2,2.073288E-3,2.2781372E-2,5.2023973E-2,2.2182465E-3,1.512146E-2,2.9830933E-3,9.521484E-3,3.4160614E-3,4.184723E-3,3.2901764E-3,2.1011353E-2,4.425049E-3,3.944397E-3,4.000936E-2,4.5776367E-5,2.2144318E-3,5.0735474E-4,7.4768066E-3,1.0574341E-2,2.2888184E-3,3.0059814E-3,2.3765564E-3,5.794525E-3,2.445221E-3,4.154114E-2,-8.142048E-3,3.2405853E-3,9.094238E-3,3.332138E-3,1.4533997E-2,3.5858154E-4,3.124237E-3,1.3221741E-2,1.6357422E-2,3.0326843E-3,3.8635254E-2,3.9733887E-2,-2.2148142E-4,1.8967629E-3,-4.1947266E-4,-3.1633416E-4,-3.009529E-4,-3.988505E-4,-4.1579624E-4,-6.1012595E-4,-4.1371593E-4,-5.176172E-4,2.2640326E-3,4.496142E-4,-9.624355E-5,-2.6040865E-4,1.3235863E-4,2.384782E-3,-4.60859E-4,-3.8952888E-3,-1.7593193E-4,-3.0881655E-3,-8.4278546E-4,5.3628784E-4,4.843629E-2,-1.6831023E-3,4.3079033E-3,1.1510004E-4,-1.5910903E-4,-2.0971354E-3,9.794604E-4,1.3196473E-2,-1.3179735E-3,-8.5662847E-4,6.1856E-3,2.613439E-2,6.993302E-2,-3.9803535E-3,-1.7776926E-3,3.933054E-2,-2.398851E-3,1.4081125E-2],"split_indices":[6,11,3,4,4,12,15,6,4,12,0,6,1,6,0,4,12,15,6,1,12,11,6,22,11,0,12,4,12,15,6,4,15,4,4,1,0,0,1,12,11,1,10,3,22,12,4,3,15,0,0,0,0,0,0,0,0,0,0,0,0,0,0,0,0,0,0,0,0,0,0,0,0,0,0,0,0,0,0,0,0,0,0,0,0,0,0,0,0],"split_type":[0,0,0,0,0,0,0,0,0,0,0,0,0,0,0,0,0,0,0,0,0,0,0,0,0,0,0,0,0,0,0,0,0,0,0,0,0,0,0,0,0,0,0,0,0,0,0,0,0,0,0,0,0,0,0,0,0,0,0,0,0,0,0,0,0,0,0,0,0,0,0,0,0,0,0,0,0,0,0,0,0,0,0,0,0,0,0,0,0],"sum_hessian":[2.8018E4,2.4918E4,3.1E3,2.4904E4,1.4E1,3.067E3,3.3E1,1.7224E4,7.68E3,1.3E1,1E0,2.331E3,7.36E2,3.1E1,2E0,1.6231E4,9.93E2,2.464E3,5.216E3,5E0,8E0,9.32E2,1.399E3,5.33E2,2.03E2,1E0,3E1,1.5949E4,2.82E2,8.41E2,1.52E2,1.48E2,2.316E3,4.768E3,4.48E2,4E0,1E0,1E0,7E0,9.25E2,7E0,1.003E3,3.96E2,2.99E2,2.34E2,1.97E2,6E0,4E0,2.6E1,1.5906E4,4.3E1,2.53E2,2.9E1,6.35E2,2.06E2,7.5E1,7.7E1,1.14E2,3.4E1,1.1E2,2.206E3,4.73E2,4.295E3,2.95E2,1.53E2,2E0,2E0,2E0,5E0,7.84E2,1.41E2,1E0,6E0,5.62E2,4.41E2,2.65E2,1.31E2,2.79E2,2E1,1.24E2,1.1E2,1.84E2,1.3E1,3E0,3E0,3E0,1E0,2.2E1,4E0],"tree_param":{"num_deleted":"0","num_feature":"32","num_nodes":"89","size_leaf_vector":"1"}},{"base_weights":[-4.3625518E-5,-1.5575252E-3,1.1930791E-2,-1.6460601E-3,9.534764E-3,1.9963514E-2,-7.8099506E-4,-8.690735E-4,-2.1901855E-3,-1.0329188E-2,5.3990938E-2,1.8121775E-2,2.0386219E-1,-3.6441067E-3,3.2719582E-2,-1.9557343E-3,1.9025573E-3,-2.1523628E-3,-9.158318E-3,-8.152924E-3,-2.748594E-2,3.1168252E-1,1.4814574E-2,3.075509E-2,4.7754133E-3,5.2966285E-1,8.1671156E-2,-5.8646263E-3,2.5379226E-2,1.5245454E-1,1.7024186E-2,-1.7472944E-3,-2.7782687E-3,3.3988275E-3,-2.5868209E-3,-2.2551164E-3,4.8491135E-3,-6.5813605E-3,-1.5839517E-2,-2.3516796E-3,-9.999006E-3,-2.22453E-3,-4.1033397E-3,-4.8436704E-3,3.7004766E-1,-1.7626071E-2,1.5931602E-1,3.8049467E-2,-1.2918895E-2,-1.1060123E-2,1.4678118E-2,-1.9909334E-3,6.720333E-2,3.0012647E-2,2.7830097E-1,-3.6038952E-3,-1.072353E-2,-9.841983E-4,2.2578624E-1,-8.106739E-4,3.467494E-1,-1.6704837E-2,5.4451276E-2,-2.0239572E-4,1.1652837E-3,-5.995966E-4,-1.4297337E-4,2.0359278E-4,1.775695E-3,-7.107888E-4,-3.208752E-5,-2.1259626E-4,-6.422076E-4,-4.0619355E-4,1.0573048E-2,-3.382186E-4,-9.0749963E-4,-1.806226E-3,-5.1142916E-4,-1.7902823E-4,-6.994628E-4,-6.56596E-4,-1.5252273E-3,4.4497047E-2,-3.9744596E-3,-4.7643163E-4,-3.346505E-3,-2.3022327E-3,2.84712E-2,3.5933298E-3,3.8426325E-2,-1.6592452E-3,-1.2383288E-3,-1.3757102E-3,2.564155E-4,1.2413545E-2,1.1910532E-3,1.23953065E-2,-4.4194246E-3,4.733766E-2,-5.5925115E-3,-7.401581E-4,2.1052337E-4,-8.899802E-4,-1.7911233E-3,5.7855863E-2,-2.29198E-3,-5.282587E-4,5.8319826E-2,-1.1593103E-3,-3.0221988E-3,1.0435715E-2,-8.826957E-4],"categories":[],"categories_nodes":[],"categories_segments":[],"categories_sizes":[],"default_left":[0,0,0,0,0,0,0,0,0,0,0,0,0,0,0,0,0,0,0,0,0,0,0,0,0,0,0,0,0,0,0,0,0,0,0,0,0,0,0,0,0,0,0,0,0,0,0,0,0,0,0,0,0,0,0,0,0,0,0,0,0,0,0,0,0,0,0,0,0,0,0,0,0,0,0,0,0,0,0,0,0,0,0,0,0,0,0,0,0,0,0,0,0,0,0,0,0,0,0,0,0,0,0,0,0,0,0,0,0,0,0,0,0],"id":9,"left_children":[1,3,5,7,9,11,13,15,17,19,21,23,25,27,29,31,33,35,37,39,41,43,45,47,49,51,53,55,57,59,61,63,65,67,69,71,73,75,77,79,81,-1,-1,-1,83,85,87,89,91,93,95,-1,-1,97,99,101,103,-1,105,-1,107,109,111,-1,-1,-1,-1,-1,-1,-1,-1,-1,-1,-1,-1,-1,-1,-1,-1,-1,-1,-1,-1,-1,-1,-1,-1,-1,-1,-1,-1,-1,-1,-1,-1,-1,-1,-1,-1,-1,-1,-1,-1,-1,-1,-1,-1,-1,-1,-1,-1,-1,-1],"loss_changes":[5.076407E-1,2.4429556E-2,3.2094812E-1,1.0425501E-2,1.745235E-1,6.486292E-1,1.1694478E-1,3.0603841E-2,3.8031265E-3,4.891162E-3,6.112031E-1,3.215586E-1,7.131303E-1,7.252268E-2,1.7781618E-1,1.246551E-3,1.923377E-2,1.0390818E-2,1.238693E-3,1.2937644E-3,1.5215855E-4,1.8607116E-1,2.5594503E-1,3.1269467E-1,1.4584315E-1,4.045937E-1,1.440115E-1,1.1429358E-2,5.6690836E-1,3.459696E-1,1.0947421E-1,2.1622423E-2,6.3873753E-3,4.1977808E-2,7.332777E-3,7.6392516E-3,1.8831186E-1,4.3200632E-4,4.0825224E-4,6.828035E-5,1.5770812E-3,0E0,0E0,0E0,2.3260468E-1,9.007831E-3,2.3519966E-1,6.016159E-1,7.196143E-5,1.3189767E-2,1.7179891E-1,0E0,0E0,9.610134E-2,2.2207169E-1,1.5496155E-2,4.1794814E-3,0E0,1.0660999E0,0E0,4.192685E-1,2.8280541E-3,1.3039735E-1,0E0,0E0,0E0,0E0,0E0,0E0,0E0,0E0,0E0,0E0,0E0,0E0,0E0,0E0,0E0,0E0,0E0,0E0,0E0,0E0,0E0,0E0,0E0,0E0,0E0,0E0,0E0,0E0,0E0,0E0,0E0,0E0,0E0,0E0,0E0,0E0,0E0,0E0,0E0,0E0,0E0,0E0,0E0,0E0,0E0,0E0,0E0,0E0,0E0,0E0],"parents":[2147483647,0,0,1,1,2,2,3,3,4,4,5,5,6,6,7,7,8,8,9,9,10,10,11,11,12,12,13,13,14,14,15,15,16,16,17,17,18,18,19,19,20,20,21,21,22,22,23,23,24,24,25,25,26,26,27,27,28,28,29,29,30,30,31,31,32,32,33,33,34,34,35,35,36,36,37,37,38,38,39,39,40,40,44,44,45,45,46,46,47,47,48,48,49,49,50,50,53,53,54,54,55,55,56,56,58,58,60,60,61,61,62,62],"right_children":[2,4,6,8,10,12,14,16,18,20,22,24,26,28,30,32,34,36,38,40,42,44,46,48,50,52,54,56,58,60,62,64,66,68,70,72,74,76,78,80,82,-1,-1,-1,84,86,88,90,92,94,96,-1,-1,98,100,102,104,-1,106,-1,108,110,112,-1,-1,-1,-1,-1,-1,-1,-1,-1,-1,-1,-1,-1,-1,-1,-1,-1,-1,-1,-1,-1,-1,-1,-1,-1,-1,-1,-1,-1,-1,-1,-1,-1,-1,-1,-1,-1,-1,-1,-1,-1,-1,-1,-1,-1,-1,-1,-1,-1,-1],"split_conditions":[1.2329102E-2,1.676941E-2,8.522034E-3,5.619049E-3,2.0904541E-2,3.917694E-3,9.222412E-2,5.607605E-3,1.21154785E-2,2.0523071E-2,8.666992E-3,1.0917664E-2,4.310608E-3,3.7612915E-3,2.2781372E-2,3.3874512E-3,6.4086914E-4,1.171875E-2,2.4490356E-3,9.033203E-3,1.8737793E-2,1.6921997E-2,6.465912E-3,4.425049E-3,5.1345825E-3,1.7959595E-2,1.8997192E-2,8.850098E-3,1.725769E-2,2.2918701E-2,3.173828E-2,3.3798218E-3,3.4599304E-3,3.211975E-3,3.4751892E-3,1.0650635E-2,3.993988E-3,1.15356445E-2,7.3623657E-3,2.015686E-2,1.0345459E-2,-2.22453E-3,-4.1033397E-3,-4.8436704E-3,1.3145447E-2,1.0925293E-2,1.1421204E-2,8.384705E-3,1.008606E-2,3.0258179E-2,1.1917114E-2,-1.9909334E-3,6.720333E-2,1.8371582E-2,1.9088745E-2,6.412506E-3,1.7089844E-2,-9.841983E-4,1.7471313E-2,-8.106739E-4,2.2232056E-2,4.4647217E-2,1.4678955E-2,-2.0239572E-4,1.1652837E-3,-5.995966E-4,-1.4297337E-4,2.0359278E-4,1.775695E-3,-7.107888E-4,-3.208752E-5,-2.1259626E-4,-6.422076E-4,-4.0619355E-4,1.0573048E-2,-3.382186E-4,-9.0749963E-4,-1.806226E-3,-5.1142916E-4,-1.7902823E-4,-6.994628E-4,-6.56596E-4,-1.5252273E-3,4.4497047E-2,-3.9744596E-3,-4.7643163E-4,-3.346505E-3,-2.3022327E-3,2.84712E-2,3.5933298E-3,3.8426325E-2,-1.6592452E-3,-1.2383288E-3,-1.3757102E-3,2.564155E-4,1.2413545E-2,1.1910532E-3,1.23953065E-2,-4.4194246E-3,4.733766E-2,-5.5925115E-3,-7.401581E-4,2.1052337E-4,-8.899802E-4,-1.7911233E-3,5.7855863E-2,-2.29198E-3,-5.282587E-4,5.8319826E-2,-1.1593103E-3,-3.0221988E-3,1.0435715E-2,-8.826957E-4],"split_indices":[6,1,26,27,27,4,27,27,6,27,26,1,4,31,6,19,12,6,4,12,1,1,4,22,26,1,1,12,6,15,15,19,19,15,19,6,4,12,26,1,6,0,0,0,19,12,19,26,12,27,1,0,0,1,1,12,1,0,6,0,6,22,26,0,0,0,0,0,0,0,0,0,0,0,0,0,0,0,0,0,0,0,0,0,0,0,0,0,0,0,0,0,0,0,0,0,0,0,0,0,0,0,0,0,0,0,0,0,0,0,0,0,0],"split_type":[0,0,0,0,0,0,0,0,0,0,0,0,0,0,0,0,0,0,0,0,0,0,0,0,0,0,0,0,0,0,0,0,0,0,0,0,0,0,0,0,0,0,0,0,0,0,0,0,0,0,0,0,0,0,0,0,0,0,0,0,0,0,0,0,0,0,0,0,0,0,0,0,0,0,0,0,0,0,0,0,0,0,0,0,0,0,0,0,0,0,0,0,0,0,0,0,0,0,0,0,0,0,0,0,0,0,0,0,0,0,0,0,0],"sum_hessian":[2.8001E4,2.4859E4,3.142E3,2.4663E4,1.96E2,1.925E3,1.217E3,1.0159E4,1.4504E4,1.36E2,6E1,1.907E3,1.8E1,1.122E3,9.5E1,7.298E3,2.861E3,1.4427E4,7.7E1,1.22E2,1.4E1,7E0,5.3E1,9.79E2,9.28E2,4E0,1.4E1,1.043E3,7.9E1,1E1,8.5E1,5.825E3,1.473E3,2.146E3,7.15E2,1.4219E4,2.08E2,5.7E1,2E1,3E1,9.2E1,1.2E1,2E0,1E0,6E0,4.4E1,9E0,8.39E2,1.4E2,3.57E2,5.71E2,1E0,3E0,1.2E1,2E0,7.13E2,3.3E2,6.8E1,1.1E1,6E0,4E0,4.5E1,4E1,5.708E3,1.17E2,4.34E2,1.039E3,1.961E3,1.85E2,2.38E2,4.77E2,1.3793E4,4.26E2,1.92E2,1.6E1,2.6E1,3.1E1,1.6E1,4E0,2.8E1,2E0,5.7E1,3.5E1,5E0,1E0,2.5E1,1.9E1,4E0,5E0,8.35E2,4E0,1.4E1,1.26E2,2.98E2,5.9E1,1.3E1,5.58E2,5E0,7E0,1E0,1E0,4.28E2,2.85E2,2.65E2,6.5E1,4E0,7E0,2E0,2E0,3.4E1,1.1E1,2.2E1,1.8E1],"tree_param":{"num_deleted":"0","num_feature":"32","num_nodes":"113","size_leaf_vector":"1"}},{"base_weights":[5.4578126E-5,-8.5281965E-5,4.1479364E-2,-1.2581951E-3,2.6636864E-3,5.785434E-2,-1.8198123E-2,-1.1461604E-3,-1.0565665E-2,1.6812962E-3,1.7200617E-2,1.59771E-2,1.3929464E-1,-2.2752306E-3,-5.8394317E-3,-1.7929199E-3,1.5714281E-4,-8.723974E-3,-2.7748892E-2,1.4826341E-3,4.5719206E-2,-1.3341532E-3,5.4172426E-2,8.514483E-2,-1.6098926E-2,4.20796E-2,2.411043E-1,-1.3118936E-4,-7.3880685E-4,-1.7057054E-3,-4.2741317E-3,3.9263126E-3,-1.971292E-3,-4.9060434E-3,-1.18084345E-2,-1.1468191E-2,-4.2987033E-3,-1.0941033E-3,5.0680316E-3,2.1233897E-1,2.9186524E-2,-4.0463046E-3,1.8769841E-1,3.764022E-2,2.2910877E-1,1.670823E-1,-1.7677912E-2,-6.422432E-3,-4.7954284E-2,-1.9464508E-2,2.742295E-1,2.770671E-1,-7.724315E-3,-1.7720897E-4,1.7056464E-3,-3.2261477E-4,-4.7073953E-4,1.5758611E-3,3.1436892E-4,-5.8669888E-5,-2.1419227E-4,-4.4740606E-4,-1.0640112E-3,-8.1576145E-4,-1.4966426E-3,-6.956235E-4,-1.6393682E-3,-1.5367777E-4,1.9765615E-3,4.5298427E-4,1.3864579E-2,-3.2420575E-3,3.50929E-2,-1.1198948E-3,1.1097556E-2,-8.340768E-4,2.9229582E-3,4.8818428E-2,-9.4691303E-4,-6.069308E-4,7.0135132E-3,7.1870446E-2,4.681781E-3,8.083279E-3,4.2853918E-2,-2.2086205E-3,-2.9686876E-4,-8.8028976E-4,-1.9432689E-4,-1.3100355E-3,-5.106194E-3,-1.9697324E-4,-2.7965677E-3,-1.3837442E-3,4.251817E-2,5.4050338E-2,1.5846975E-2],"categories":[],"categories_nodes":[],"categories_segments":[],"categories_sizes":[],"default_left":[0,0,0,0,0,0,0,0,0,0,0,0,0,0,0,0,0,0,0,0,0,0,0,0,0,0,0,0,0,0,0,0,0,0,0,0,0,0,0,0,0,0,0,0,0,0,0,0,0,0,0,0,0,0,0,0,0,0,0,0,0,0,0,0,0,0,0,0,0,0,0,0,0,0,0,0,0,0,0,0,0,0,0,0,0,0,0,0,0,0,0,0,0,0,0,0,0],"id":10,"left_children":[1,3,5,7,9,11,13,15,17,19,21,23,25,-1,27,29,31,33,35,37,39,41,43,45,47,49,51,-1,-1,53,55,57,59,61,63,65,-1,67,69,71,73,75,77,79,81,83,85,87,89,91,93,95,-1,-1,-1,-1,-1,-1,-1,-1,-1,-1,-1,-1,-1,-1,-1,-1,-1,-1,-1,-1,-1,-1,-1,-1,-1,-1,-1,-1,-1,-1,-1,-1,-1,-1,-1,-1,-1,-1,-1,-1,-1,-1,-1,-1,-1],"loss_changes":[1.6184984E-1,8.977435E-2,9.291124E-2,2.0338403E-2,1.1888847E-1,2.501511E-1,1.0490972E-3,1.6256064E-2,7.099837E-3,6.818052E-2,3.612064E-1,1.12302035E-1,2.3729017E-1,0E0,3.9388207E-5,2.7818643E-3,5.1327236E-2,2.4268571E-3,4.964942E-3,7.1761966E-2,9.021606E-2,1.8122455E-1,5.003831E-1,1.3775423E-1,1.0480703E-2,2.0536214E-1,1.5878552E-1,0E0,0E0,1.5540615E-2,1.8323492E-4,2.1332342E-2,9.6478686E-4,1.9018957E-4,1.2153033E-3,1.5264493E-4,0E0,4.176834E-2,2.3287082E-1,1.1314103E-1,1.1024474E-1,4.9973715E-2,3.0085298E-1,2.3052032E-1,1.3050847E0,1.683147E-1,4.5317388E-4,2.8144324E-4,1.9758195E-4,1.7296281E-3,1.3633646E-1,2.5801772E-1,0E0,0E0,0E0,0E0,0E0,0E0,0E0,0E0,0E0,0E0,0E0,0E0,0E0,0E0,0E0,0E0,0E0,0E0,0E0,0E0,0E0,0E0,0E0,0E0,0E0,0E0,0E0,0E0,0E0,0E0,0E0,0E0,0E0,0E0,0E0,0E0,0E0,0E0,0E0,0E0,0E0,0E0,0E0,0E0,0E0],"parents":[2147483647,0,0,1,1,2,2,3,3,4,4,5,5,6,6,7,7,8,8,9,9,10,10,11,11,12,12,14,14,15,15,16,16,17,17,18,18,19,19,20,20,21,21,22,22,23,23,24,24,25,25,26,26,29,29,30,30,31,31,32,32,33,33,34,34,35,35,37,37,38,38,39,39,40,40,41,41,42,42,43,43,44,44,45,45,46,46,47,47,48,48,49,49,50,50,51,51],"right_children":[2,4,6,8,10,12,14,16,18,20,22,24,26,-1,28,30,32,34,36,38,40,42,44,46,48,50,52,-1,-1,54,56,58,60,62,64,66,-1,68,70,72,74,76,78,80,82,84,86,88,90,92,94,96,-1,-1,-1,-1,-1,-1,-1,-1,-1,-1,-1,-1,-1,-1,-1,-1,-1,-1,-1,-1,-1,-1,-1,-1,-1,-1,-1,-1,-1,-1,-1,-1,-1,-1,-1,-1,-1,-1,-1,-1,-1,-1,-1,-1,-1],"split_conditions":[6.9351196E-3,2.06604E-2,2.2232056E-2,1.7089844E-2,1.676941E-2,2.0904541E-2,7.9193115E-3,2.248764E-3,2.0523071E-2,3.567505E-2,8.911133E-3,7.221222E-3,3.7631989E-3,-2.2752306E-3,7.2784424E-3,2.2182465E-3,2.3384094E-3,8.850098E-3,4.3654442E-4,3.2520294E-4,4.083252E-2,2.6016235E-3,2.1457672E-3,3.9100647E-3,3.3245087E-3,9.307861E-3,8.285522E-3,-1.3118936E-4,-7.3880685E-4,2.2144318E-3,5.607605E-3,5.187988E-4,2.3765564E-3,1.9226074E-2,1.81427E-2,1.826477E-2,-4.2987033E-3,3.8414001E-3,6.311035E-2,3.692627E-2,4.1160583E-3,1.7089844E-3,2.7236938E-3,9.765625E-3,2.3326874E-3,7.1868896E-3,5.519867E-3,3.9863586E-3,7.2784424E-3,6.2675476E-3,7.0762634E-3,4.383087E-3,-7.724315E-3,-1.7720897E-4,1.7056464E-3,-3.2261477E-4,-4.7073953E-4,1.5758611E-3,3.1436892E-4,-5.8669888E-5,-2.1419227E-4,-4.4740606E-4,-1.0640112E-3,-8.1576145E-4,-1.4966426E-3,-6.956235E-4,-1.6393682E-3,-1.5367777E-4,1.9765615E-3,4.5298427E-4,1.3864579E-2,-3.2420575E-3,3.50929E-2,-1.1198948E-3,1.1097556E-2,-8.340768E-4,2.9229582E-3,4.8818428E-2,-9.4691303E-4,-6.069308E-4,7.0135132E-3,7.1870446E-2,4.681781E-3,8.083279E-3,4.2853918E-2,-2.2086205E-3,-2.9686876E-4,-8.8028976E-4,-1.9432689E-4,-1.3100355E-3,-5.106194E-3,-1.9697324E-4,-2.7965677E-3,-1.3837442E-3,4.251817E-2,5.4050338E-2,1.5846975E-2],"split_indices":[11,27,27,1,1,27,12,4,27,3,12,11,1,0,11,4,4,12,4,1,22,10,11,12,1,4,11,0,0,4,27,12,4,1,1,1,0,31,27,3,12,10,10,12,11,11,12,12,11,4,11,12,0,0,0,0,0,0,0,0,0,0,0,0,0,0,0,0,0,0,0,0,0,0,0,0,0,0,0,0,0,0,0,0,0,0,0,0,0,0,0,0,0,0,0,0,0],"split_type":[0,0,0,0,0,0,0,0,0,0,0,0,0,0,0,0,0,0,0,0,0,0,0,0,0,0,0,0,0,0,0,0,0,0,0,0,0,0,0,0,0,0,0,0,0,0,0,0,0,0,0,0,0,0,0,0,0,0,0,0,0,0,0,0,0,0,0,0,0,0,0,0,0,0,0,0,0,0,0,0,0,0,0,0,0,0,0,0,0,0,0,0,0,0,0,0,0],"sum_hessian":[2.7934E4,2.7841E4,9.3E1,1.9515E4,8.326E3,7.3E1,2E1,1.9284E4,2.31E2,7.8E3,5.26E2,4.9E1,2.4E1,1.4E1,6E0,1.2888E4,6.396E3,2.1E2,2.1E1,7.766E3,3.4E1,3.51E2,1.75E2,1.5E1,3.4E1,1.3E1,1.1E1,2E0,4E0,1.2452E4,4.36E2,2.308E3,4.088E3,9.5E1,1.15E2,1.1E1,1E1,4.519E3,3.247E3,2E0,3.2E1,3.47E2,4E0,1.61E2,1.4E1,8E0,7E0,2.7E1,7E0,1.1E1,2E0,1E1,1E0,1.2409E4,4.3E1,1.3E2,3.06E2,1.42E2,2.166E3,4.49E2,3.639E3,9E1,5E0,5.5E1,6E1,7E0,4E0,4.426E3,9.3E1,3.235E3,1.2E1,1E0,1E0,2.2E1,1E1,3.08E2,3.9E1,1E0,3E0,6.9E1,9.2E1,3E0,1.1E1,7E0,1E0,5E0,2E0,1.7E1,1E1,1E0,6E0,4E0,7E0,1E0,1E0,2E0,8E0],"tree_param":{"num_deleted":"0","num_feature":"32","num_nodes":"97","size_leaf_vector":"1"}}]},"name":"gbtree"},"learner_model_param":{"base_score":"[4.5401333E-3]","boost_from_average":"1","num_class":"0","num_feature":"32","num_target":"1"},"objective":{"name":"reg:squarederror","reg_loss_param":{"scale_pos_weight":"1"}}},"version":[3,1,2]}