{"learner":{"attributes":{"best_iteration":"0","best_score":"0.00430084622384861"},"feature_names":[],"feature_types":[],"gradient_booster":{"model":{"cats":{"enc":[],"feature_segments":[],"sorted_idx":[]},"gbtree_model_param":{"num_parallel_tree":"1","num_trees":"11"},"iteration_indptr":[0,1,2,3,4,5,6,7,8,9,10,11],"tree_info":[0,0,0,0,0,0,0,0,0,0,0],"trees":[{"base_weights":[-2.1714001E-4,-9.338398E-4,3.4826163E-2,-1.1792975E-3,7.898832E-2,2.4596909E-1,3.0156089E-2,7.2010565E-3,-2.5291268E-3,3.711523E-1,4.76078E-2,-3.8476914E-4,5.9648216E-1,2.7092265E-2,1.778206E-1,3.7654804E-4,4.0087912E-2,-3.1703352E-3,6.594492E-3,6.637351E-2,1.6300221E-1,1.0593644E-2,2.687297E-1,7.46702E-2,-2.1986807E-4,4.168502E-2,-4.3717955E-4,-3.664468E-4,3.2966888E-1,-1.4353887E-3,5.333723E-2,2.7045464E-2,8.591095E-2,-5.4909324E-4,-4.0901736E-3,1.06958054E-1,5.4094344E-3,-3.517889E-4,4.9780134E-2,-4.320215E-4,8.691149E-2,4.9633554E-1,-3.664468E-4,3.2864522E-2,1.8628824E-1,-2.9315744E-4,4.96702E-1,-1.7486529E-4,4.846566E-3,1.5296706E-3,8.827667E-3,1.9604238E-2,2.3611435E-3,3.9648212E-2,7.4205482E-3,6.3902367E-4,-1.5835384E-4,-2.9538153E-4,-4.3230606E-4,4.9780134E-2,5.4684835E-3,4.7798324E-4,1.9648213E-2,4.9780134E-2,-3.9576256E-4,5.9648216E-2,-2.1986807E-4,2.777924E-3,2.4615232E-2,6.637351E-2,1.01097245E-2,6.637351E-2,-2.1986807E-4],"categories":[],"categories_nodes":[],"categories_segments":[],"categories_sizes":[],"default_left":[0,0,0,0,0,0,0,0,0,0,0,0,0,0,0,0,0,0,0,0,0,0,0,0,0,0,0,0,0,0,0,0,0,0,0,0,0,0,0,0,0,0,0,0,0,0,0,0,0,0,0,0,0,0,0,0,0,0,0,0,0,0,0,0,0,0,0,0,0,0,0,0,0],"id":0,"left_children":[1,3,5,7,9,11,13,15,17,19,21,-1,23,25,27,29,31,33,35,-1,37,39,41,-1,-1,43,-1,-1,45,47,49,51,53,55,57,59,61,-1,-1,-1,63,65,-1,67,69,-1,71,-1,-1,-1,-1,-1,-1,-1,-1,-1,-1,-1,-1,-1,-1,-1,-1,-1,-1,-1,-1,-1,-1,-1,-1,-1,-1],"loss_changes":[7.030162E-1,5.3820115E-1,5.457585E-1,3.0936882E-1,7.52464E-1,1.0530636E0,2.4401242E-1,8.514974E-1,1.3781507E-1,3.790189E-1,6.2737036E-1,0E0,4.5131063E-1,2.4812177E-1,3.0434823E-1,3.0168325E-1,3.8734078E-1,5.3061694E-2,1.8341637E-1,0E0,3.3625588E-1,7.6634444E-2,6.838023E-1,0E0,0E0,4.6452683E-1,0E0,0E0,3.3478785E-1,4.760668E-2,1.3687757E-1,2.907644E-1,4.940741E-1,4.1055955E-2,4.298508E-3,3.405292E-1,1.8311948E-1,0E0,0E0,0E0,4.1267928E-1,3.0087066E-1,0E0,3.7169752E-1,7.8705585E-1,0E0,3.3479106E-1,0E0,0E0,0E0,0E0,0E0,0E0,0E0,0E0,0E0,0E0,0E0,0E0,0E0,0E0,0E0,0E0,0E0,0E0,0E0,0E0,0E0,0E0,0E0,0E0,0E0,0E0],"parents":[2147483647,0,0,1,1,2,2,3,3,4,4,5,5,6,6,7,7,8,8,9,9,10,10,12,12,13,13,14,14,15,15,16,16,17,17,18,18,20,20,21,21,22,22,25,25,28,28,29,29,30,30,31,31,32,32,33,33,34,34,35,35,36,36,40,40,41,41,43,43,44,44,46,46],"right_children":[2,4,6,8,10,12,14,16,18,20,22,-1,24,26,28,30,32,34,36,-1,38,40,42,-1,-1,44,-1,-1,46,48,50,52,54,56,58,60,62,-1,-1,-1,64,66,-1,68,70,-1,72,-1,-1,-1,-1,-1,-1,-1,-1,-1,-1,-1,-1,-1,-1,-1,-1,-1,-1,-1,-1,-1,-1,-1,-1,-1,-1],"split_conditions":[1.5579224E-2,1.5335083E-3,2.6290894E-2,4.787445E-4,1.8615723E-3,2.3441315E-3,7.067871E-2,2.6107788E-2,3.7155151E-3,3.8146973E-2,3.274536E-2,-3.8476914E-4,1.7578125E-2,2.4738312E-3,1.0391235E-2,5.4626465E-2,1.7700195E-3,3.8986206E-3,3.8223267E-3,6.637351E-2,1.8577576E-3,5.9143066E-2,3.366089E-2,7.46702E-2,-2.1986807E-4,2.4795532E-3,-4.3717955E-4,-3.664468E-4,1.6860962E-2,5.722046E-5,2.588272E-3,2.6290894E-2,2.0141602E-3,1.04522705E-2,7.4653625E-3,1.0795593E-2,3.7750244E-2,-3.517889E-4,4.9780134E-2,-4.320215E-4,1.0108948E-2,3.0517578E-5,-3.664468E-4,6.185913E-2,2.5787354E-3,-2.9315744E-4,1.2435913E-2,-1.7486529E-4,4.846566E-3,1.5296706E-3,8.827667E-3,1.9604238E-2,2.3611435E-3,3.9648212E-2,7.4205482E-3,6.3902367E-4,-1.5835384E-4,-2.9538153E-4,-4.3230606E-4,4.9780134E-2,5.4684835E-3,4.7798324E-4,1.9648213E-2,4.9780134E-2,-3.9576256E-4,5.9648216E-2,-2.1986807E-4,2.777924E-3,2.4615232E-2,6.637351E-2,1.01097245E-2,6.637351E-2,-2.1986807E-4],"split_indices":[5,0,6,19,0,24,8,6,5,6,12,0,1,12,1,25,28,12,5,0,0,6,12,0,0,10,0,0,5,9,6,6,28,19,12,6,25,0,0,0,24,7,0,6,10,0,12,0,0,0,0,0,0,0,0,0,0,0,0,0,0,0,0,0,0,0,0,0,0,0,0,0,0],"split_type":[0,0,0,0,0,0,0,0,0,0,0,0,0,0,0,0,0,0,0,0,0,0,0,0,0,0,0,0,0,0,0,0,0,0,0,0,0,0,0,0,0,0,0,0,0,0,0,0,0,0,0,0,0,0,0,0,0,0,0,0,0,0,0,0,0,0,0,0,0,0,0,0,0],"sum_hessian":[2.7989E4,2.7429E4,5.6E2,2.7346E4,8.3E1,1.1E1,5.49E2,3.793E3,2.3553E4,7E0,7.6E1,7E0,4E0,5.39E2,1E1,3.142E3,6.51E2,2.2007E4,1.546E3,2E0,5E0,6.6E1,1E1,3E0,1E0,3.68E2,1.71E2,5E0,5E0,3.039E3,1.03E2,5.08E2,1.43E2,5.717E3,1.629E4,1.7E1,1.529E3,4E0,1E0,5.6E1,1E1,5E0,5E0,3.48E2,2E1,2E0,3E0,3.021E3,1.8E1,5E1,5.3E1,9E0,4.99E2,4E0,1.39E2,7.41E2,4.976E3,2.773E3,1.3517E4,1E0,1.6E1,1.525E3,4E0,1E0,9E0,4E0,1E0,3.41E2,7E0,2E0,1.8E1,2E0,1E0],"tree_param":{"num_deleted":"0","num_feature":"32","num_nodes":"73","size_leaf_vector":"1"}},{"base_weights":[1.7800443E-5,-1.6230182E-3,1.5762985E-2,-1.903659E-3,5.4921173E-2,1.3308649E-2,1.11949824E-1,4.6464694E-3,-3.0554417E-3,3.9459318E-1,4.0550016E-2,1.0520704E-2,7.9269454E-2,2.9816234E-1,5.133511E-2,4.2371298E-4,2.3961393E-2,-1.075005E-3,-3.55046E-3,6.6216104E-2,-4.5056702E-4,2.6853211E-2,2.3237284E-1,1.0158248E-2,3.074902E-1,1.3475588E-1,-3.8680848E-4,-5.7930045E-4,4.8111486E-1,1.3299296E-2,4.9493113E-1,-1.0855787E-3,1.4646991E-2,4.9788874E-2,2.253225E-2,-1.4776874E-3,1.7234784E-2,-3.991186E-3,-2.9348829E-3,1.9287214E-2,2.3198782E-1,-3.690426E-4,3.747489E-1,4.74607E-2,8.047257E-3,4.646146E-2,-3.3792524E-4,2.788807E-1,6.123549E-2,6.1108476E-1,-2.5843127E-2,-6.7136404E-3,1.8675327E-1,6.6216104E-2,-3.3792524E-4,1.3742491E-3,-2.6751222E-4,3.0267687E-4,1.0221019E-2,1.3792375E-2,1.8826564E-3,-2.1973833E-4,4.6886626E-4,3.2997575E-2,6.735249E-4,-4.510074E-4,-3.974557E-4,3.0633455E-4,-3.1750117E-4,1.1886284E-2,3.849239E-4,4.6797723E-2,-2.6677325E-4,4.6944384E-2,-2.0154576E-4,-5.1508297E-4,9.077362E-3,4.7403132E-4,3.4110544E-3,-6.278375E-4,4.219087E-2,1.8754661E-3,3.2007482E-2,-3.3792524E-4,6.993481E-2,-3.3792524E-4,-3.5385438E-3,-5.714271E-4,-9.540069E-4,4.854937E-2,-9.305251E-4],"categories":[],"categories_nodes":[],"categories_segments":[],"categories_sizes":[],"default_left":[0,0,0,0,0,0,0,0,0,0,0,0,0,0,0,0,0,0,0,0,0,0,0,0,0,0,0,0,0,0,0,0,0,0,0,0,0,0,0,0,0,0,0,0,0,0,0,0,0,0,0,0,0,0,0,0,0,0,0,0,0,0,0,0,0,0,0,0,0,0,0,0,0,0,0,0,0,0,0,0,0,0,0,0,0,0,0,0,0,0,0],"id":1,"left_children":[1,3,5,7,9,11,13,15,17,19,21,23,25,27,29,31,33,35,37,-1,-1,39,41,43,45,47,-1,-1,49,51,53,55,57,-1,59,61,63,65,67,69,71,-1,73,75,77,-1,-1,79,81,83,85,87,89,-1,-1,-1,-1,-1,-1,-1,-1,-1,-1,-1,-1,-1,-1,-1,-1,-1,-1,-1,-1,-1,-1,-1,-1,-1,-1,-1,-1,-1,-1,-1,-1,-1,-1,-1,-1,-1,-1],"loss_changes":[7.276164E-1,4.048493E-1,6.259971E-1,1.9149673E-1,5.990658E-1,4.7600594E-1,7.2965026E-1,3.0960003E-1,2.115807E-2,5.3691345E-1,3.1429794E-1,2.6478872E-1,4.848867E-1,8.9253736E-1,8.539171E-1,6.690731E-2,4.5002896E-1,3.18622E-2,4.6733767E-3,0E0,0E0,1.7401108E-1,2.70261E-1,1.9545728E-1,1.4810553E-1,6.5047777E-1,0E0,0E0,6.7468524E-1,1.6787732E-1,3.3556718E-1,6.645662E-2,3.039243E-1,0E0,2.881746E-1,1.8764855E-2,3.0315554E-1,6.888807E-5,1.0393191E-2,1.7171401E-1,2.2275332E-1,0E0,1.7933452E-1,3.0354244E-1,2.0281532E-1,0E0,0E0,8.5914934E-1,4.6681267E-1,4.3624043E-1,5.234955E-4,6.977003E-5,2.9737067E-1,0E0,0E0,0E0,0E0,0E0,0E0,0E0,0E0,0E0,0E0,0E0,0E0,0E0,0E0,0E0,0E0,0E0,0E0,0E0,0E0,0E0,0E0,0E0,0E0,0E0,0E0,0E0,0E0,0E0,0E0,0E0,0E0,0E0,0E0,0E0,0E0,0E0,0E0],"parents":[2147483647,0,0,1,1,2,2,3,3,4,4,5,5,6,6,7,7,8,8,9,9,10,10,11,11,12,12,13,13,14,14,15,15,16,16,17,17,18,18,21,21,22,22,23,23,24,24,25,25,28,28,29,29,30,30,31,31,32,32,34,34,35,35,36,36,37,37,38,38,39,39,40,40,42,42,43,43,44,44,47,47,48,48,49,49,50,50,51,51,52,52],"right_children":[2,4,6,8,10,12,14,16,18,20,22,24,26,28,30,32,34,36,38,-1,-1,40,42,44,46,48,-1,-1,50,52,54,56,58,-1,60,62,64,66,68,70,72,-1,74,76,78,-1,-1,80,82,84,86,88,90,-1,-1,-1,-1,-1,-1,-1,-1,-1,-1,-1,-1,-1,-1,-1,-1,-1,-1,-1,-1,-1,-1,-1,-1,-1,-1,-1,-1,-1,-1,-1,-1,-1,-1,-1,-1,-1,-1],"split_conditions":[3.1852722E-3,1.6403198E-4,1.7196655E-2,2.029419E-3,3.0899048E-4,2.7404785E-2,1.7669678E-2,2.0812988E-2,2.3727417E-3,3.8146973E-3,1.3580322E-2,7.8552246E-2,2.4738312E-3,9.590149E-3,4.534912E-2,5.0354004E-2,2.0950317E-2,1.3961792E-2,2.0690918E-2,6.6216104E-2,-4.5056702E-4,1.0482788E-2,2.7008057E-3,3.9672852E-4,3.704834E-2,1.5090942E-2,-3.8680848E-4,-5.7930045E-4,3.528595E-3,1.6860962E-2,2.2277832E-2,3.4561157E-3,2.588272E-3,4.9788874E-2,1.9592285E-2,1.203537E-3,2.0965576E-2,3.8986206E-3,8.81958E-3,1.1672974E-2,1.0635376E-2,-3.690426E-4,5.0315857E-3,1.3198853E-2,2.7267456E-2,4.646146E-2,-3.3792524E-4,1.0345459E-2,1.8672943E-3,2.1858215E-3,4.3182373E-3,3.7597656E-2,1.7959595E-2,6.6216104E-2,-3.3792524E-4,1.3742491E-3,-2.6751222E-4,3.0267687E-4,1.0221019E-2,1.3792375E-2,1.8826564E-3,-2.1973833E-4,4.6886626E-4,3.2997575E-2,6.735249E-4,-4.510074E-4,-3.974557E-4,3.0633455E-4,-3.1750117E-4,1.1886284E-2,3.849239E-4,4.6797723E-2,-2.6677325E-4,4.6944384E-2,-2.0154576E-4,-5.1508297E-4,9.077362E-3,4.7403132E-4,3.4110544E-3,-6.278375E-4,4.219087E-2,1.8754661E-3,3.2007482E-2,-3.3792524E-4,6.993481E-2,-3.3792524E-4,-3.5385438E-3,-5.714271E-4,-9.540069E-4,4.854937E-2,-9.305251E-4],"split_indices":[5,0,31,19,0,5,31,6,12,15,31,6,12,5,24,8,6,31,6,0,0,0,0,21,1,8,0,0,15,5,12,18,6,0,21,23,21,12,19,18,0,0,0,19,1,0,0,29,12,12,1,1,5,0,0,0,0,0,0,0,0,0,0,0,0,0,0,0,0,0,0,0,0,0,0,0,0,0,0,0,0,0,0,0,0,0,0,0,0,0,0],"split_type":[0,0,0,0,0,0,0,0,0,0,0,0,0,0,0,0,0,0,0,0,0,0,0,0,0,0,0,0,0,0,0,0,0,0,0,0,0,0,0,0,0,0,0,0,0,0,0,0,0,0,0,0,0,0,0,0,0,0,0,0,0,0,0,0,0,0,0,0,0,0,0,0,0,0,0,0,0,0,0,0,0,0,0,0,0,0,0,0,0,0,0],"sum_hessian":[2.8162E4,2.5505E4,2.657E3,2.538E4,1.25E2,2.592E3,6.5E1,3.795E3,2.1585E4,4E0,1.21E2,2.488E3,1.04E2,1.5E1,5E1,3.115E3,6.8E2,4.317E3,1.7268E4,2E0,2E0,1.14E2,7E0,2.486E3,2E0,6.2E1,4.2E1,6E0,9E0,4.7E1,3E0,2.817E3,2.98E2,1E0,6.79E2,4.225E3,9.2E1,1.006E4,7.208E3,1.11E2,3E0,3E0,4E0,1.32E2,2.354E3,1E0,1E0,2E1,4.2E1,7E0,2E0,4.3E1,4E0,2E0,1E0,2.72E2,2.545E3,2.64E2,3.4E1,2E1,6.59E2,3.784E3,4.41E2,2E0,9E1,3.04E2,9.756E3,2.77E2,6.931E3,1.4E1,9.7E1,1E0,2E0,3E0,1E0,6E1,7.2E1,2.09E3,2.64E2,7E0,1.3E1,3.7E1,5E0,1E0,6E0,1E0,1E0,3.4E1,9E0,1E0,3E0],"tree_param":{"num_deleted":"0","num_feature":"32","num_nodes":"91","size_leaf_vector":"1"}},{"base_weights":[-4.9787217E-5,-1.4759423E-3,1.3455351E-2,-1.9884955E-3,1.7038828E-2,1.0104065E-2,8.3069056E-2,3.3100948E-3,-2.690867E-3,1.3091409E-2,1.9222099E-1,3.0123245E-2,3.7959695E-3,1.54045E-1,1.7366756E-2,-1.5630025E-3,1.1379661E-2,-5.8845384E-4,-3.409482E-3,2.9924115E-2,-5.3027924E-3,-7.4654934E-4,5.930871E-1,2.8555095E-2,4.949152E-2,3.056527E-4,1.6408358E-2,9.614791E-2,3.174666E-1,2.3565143E-1,-8.825778E-3,-3.2274208E-3,2.1614218E-2,9.886455E-3,1.3421069E-1,-9.007525E-4,2.0539455E-2,-2.75296E-3,-3.617094E-3,7.1570575E-3,1.519082E-1,-4.265774E-3,-8.894186E-3,7.4351914E-2,-4.3205806E-4,7.598979E-2,1.7308293E-2,9.6038856E-2,-3.2561802E-4,2.4383713E-1,1.4198039E-2,3.7259063E-1,6.0090315E-2,5.4633975E-1,1.04180045E-1,-2.602255E-2,4.3841258E-1,-2.8622448E-2,-6.462707E-3,-3.7927096E-4,2.3514123E-3,8.357304E-3,-1.0014495E-3,1.38256E-2,9.0382074E-4,-6.9051207E-4,2.9999668E-2,6.7911875E-5,-4.312354E-4,8.6975953E-4,3.2552864E-2,-3.0007117E-4,3.0506495E-3,-4.3040127E-4,-3.5951607E-4,1.01527956E-4,1.2214535E-2,2.1160023E-2,-6.816121E-4,-3.862731E-4,-5.569766E-4,-9.645756E-4,-3.9178217E-4,2.4935765E-2,2.371592E-3,4.20671E-3,-8.4346853E-4,-3.9151005E-4,3.3056978E-2,-9.194397E-5,4.0069055E-3,-6.4340275E-4,4.9732532E-2,2.8742037E-3,-6.244692E-4,-4.193971E-4,6.2517844E-2,3.8416937E-3,4.635127E-2,-3.8454848E-4,7.671829E-2,-4.8631761E-4,4.8826292E-2,-3.2239654E-3,-3.6856183E-4,-1.4041035E-3,5.9391078E-2,-5.112888E-3,-4.5870172E-4,-5.985223E-4,-1.093495E-3],"categories":[],"categories_nodes":[],"categories_segments":[],"categories_sizes":[],"default_left":[0,0,0,0,0,0,0,0,0,0,0,0,0,0,0,0,0,0,0,0,0,0,0,0,0,0,0,0,0,0,0,0,0,0,0,0,0,0,0,0,0,0,0,0,0,0,0,0,0,0,0,0,0,0,0,0,0,0,0,0,0,0,0,0,0,0,0,0,0,0,0,0,0,0,0,0,0,0,0,0,0,0,0,0,0,0,0,0,0,0,0,0,0,0,0,0,0,0,0,0,0,0,0,0,0,0,0,0,0,0,0],"id":2,"left_children":[1,3,5,7,9,11,13,15,17,19,21,23,25,27,29,31,33,35,37,39,41,-1,43,45,-1,47,49,51,53,55,57,59,61,63,65,67,69,71,73,75,77,79,81,-1,-1,83,85,87,89,91,93,95,97,99,101,103,105,107,109,-1,-1,-1,-1,-1,-1,-1,-1,-1,-1,-1,-1,-1,-1,-1,-1,-1,-1,-1,-1,-1,-1,-1,-1,-1,-1,-1,-1,-1,-1,-1,-1,-1,-1,-1,-1,-1,-1,-1,-1,-1,-1,-1,-1,-1,-1,-1,-1,-1,-1,-1,-1],"loss_changes":[5.4062134E-1,2.4096107E-1,6.246258E-1,9.195053E-2,4.7048151E-1,3.2304356E-1,5.709085E-1,1.1374214E-1,3.295514E-2,2.0760691E-1,1.2051406E0,4.326607E-1,8.570432E-2,5.277126E-1,3.737127E-1,6.966194E-2,1.9840887E-1,3.6691397E-2,2.2059083E-3,9.709392E-1,1.1575734E-3,0E0,4.52559E-1,3.2517985E-1,0E0,9.2252895E-2,2.0867318E-1,4.261646E-1,6.753155E-1,3.828098E-1,2.5750962E-3,2.5545701E-2,2.3795794E-1,1.1602403E-1,3.0620682E-1,2.9528752E-2,2.8971145E-1,3.231025E-2,1.7055869E-4,2.089208E-1,5.2254415E-1,1.1040177E-4,2.2775587E-4,0E0,0E0,1.0544116E0,3.1648806E-1,2.3571718E-1,3.642547E-2,2.569629E-1,1.24756165E-1,4.784779E-1,3.406778E-1,8.5348296E-1,3.7930924E-1,4.3666083E-4,2.8976202E-1,3.011181E-3,4.9864873E-5,0E0,0E0,0E0,0E0,0E0,0E0,0E0,0E0,0E0,0E0,0E0,0E0,0E0,0E0,0E0,0E0,0E0,0E0,0E0,0E0,0E0,0E0,0E0,0E0,0E0,0E0,0E0,0E0,0E0,0E0,0E0,0E0,0E0,0E0,0E0,0E0,0E0,0E0,0E0,0E0,0E0,0E0,0E0,0E0,0E0,0E0,0E0,0E0,0E0,0E0,0E0,0E0],"parents":[2147483647,0,0,1,1,2,2,3,3,4,4,5,5,6,6,7,7,8,8,9,9,10,10,11,11,12,12,13,13,14,14,15,15,16,16,17,17,18,18,19,19,20,20,22,22,23,23,25,25,26,26,27,27,28,28,29,29,30,30,31,31,32,32,33,33,34,34,35,35,36,36,37,37,38,38,39,39,40,40,41,41,42,42,45,45,46,46,47,47,48,48,49,49,50,50,51,51,52,52,53,53,54,54,55,55,56,56,57,57,58,58],"right_children":[2,4,6,8,10,12,14,16,18,20,22,24,26,28,30,32,34,36,38,40,42,-1,44,46,-1,48,50,52,54,56,58,60,62,64,66,68,70,72,74,76,78,80,82,-1,-1,84,86,88,90,92,94,96,98,100,102,104,106,108,110,-1,-1,-1,-1,-1,-1,-1,-1,-1,-1,-1,-1,-1,-1,-1,-1,-1,-1,-1,-1,-1,-1,-1,-1,-1,-1,-1,-1,-1,-1,-1,-1,-1,-1,-1,-1,-1,-1,-1,-1,-1,-1,-1,-1,-1,-1,-1,-1,-1,-1,-1,-1],"split_conditions":[3.0822754E-3,3.543091E-2,1.5701294E-2,2.641678E-4,2.456665E-3,7.429123E-4,1.8749237E-3,2.1781921E-3,3.8986206E-3,3.5339355E-2,2.670288E-2,4.534912E-2,8.003235E-3,5.8174133E-4,1.8348694E-3,5.1483154E-2,1.31073E-2,3.8337708E-3,8.850098E-3,2.2369385E-2,6.402588E-2,-7.4654934E-4,3.552246E-2,4.386902E-5,4.949152E-2,3.1738281E-3,8.041382E-3,1.5975952E-2,3.0021667E-3,1.7410278E-2,1.9874573E-3,2.0523071E-3,4.837036E-2,2.248764E-3,3.528595E-3,2.5482178E-3,4.211426E-3,1.3793945E-2,2.029419E-3,7.281494E-2,8.773804E-3,5.3497314E-2,2.641678E-4,7.4351914E-2,-4.3205806E-4,9.979248E-3,2.7484894E-3,4.386902E-5,1.4282227E-2,6.5956116E-3,3.5743713E-3,9.124756E-3,4.6203613E-2,1.4076233E-3,3.0273438E-2,2.3773193E-2,7.0381165E-4,7.0381165E-4,1.5213013E-2,-3.7927096E-4,2.3514123E-3,8.357304E-3,-1.0014495E-3,1.38256E-2,9.0382074E-4,-6.9051207E-4,2.9999668E-2,6.7911875E-5,-4.312354E-4,8.6975953E-4,3.2552864E-2,-3.0007117E-4,3.0506495E-3,-4.3040127E-4,-3.5951607E-4,1.01527956E-4,1.2214535E-2,2.1160023E-2,-6.816121E-4,-3.862731E-4,-5.569766E-4,-9.645756E-4,-3.9178217E-4,2.4935765E-2,2.371592E-3,4.20671E-3,-8.4346853E-4,-3.9151005E-4,3.3056978E-2,-9.194397E-5,4.0069055E-3,-6.4340275E-4,4.9732532E-2,2.8742037E-3,-6.244692E-4,-4.193971E-4,6.2517844E-2,3.8416937E-3,4.635127E-2,-3.8454848E-4,7.671829E-2,-4.8631761E-4,4.8826292E-2,-3.2239654E-3,-3.6856183E-4,-1.4041035E-3,5.9391078E-2,-5.112888E-3,-4.5870172E-4,-5.985223E-4,-1.093495E-3],"split_indices":[5,24,31,19,7,4,15,15,12,27,2,24,15,15,4,25,31,12,12,3,24,0,2,15,0,5,15,31,12,31,15,5,2,15,15,29,18,31,19,4,28,24,19,0,0,8,24,31,31,1,12,12,1,12,1,1,2,2,5,0,0,0,0,0,0,0,0,0,0,0,0,0,0,0,0,0,0,0,0,0,0,0,0,0,0,0,0,0,0,0,0,0,0,0,0,0,0,0,0,0,0,0,0,0,0,0,0,0,0,0,0],"split_type":[0,0,0,0,0,0,0,0,0,0,0,0,0,0,0,0,0,0,0,0,0,0,0,0,0,0,0,0,0,0,0,0,0,0,0,0,0,0,0,0,0,0,0,0,0,0,0,0,0,0,0,0,0,0,0,0,0,0,0,0,0,0,0,0,0,0,0,0,0,0,0,0,0,0,0,0,0,0,0,0,0,0,0,0,0,0,0,0,0,0,0,0,0,0,0,0,0,0,0,0,0,0,0,0,0,0,0,0,0,0,0],"sum_hessian":[2.8067E4,2.5387E4,2.68E3,2.4704E4,6.83E2,2.558E3,1.22E2,2.891E3,2.1813E4,6.69E2,1.4E1,6.12E2,1.946E3,5.8E1,6.4E1,1.803E3,1.088E3,5.557E3,1.6256E4,3.49E2,3.2E2,1E1,4E0,6.11E2,1E0,1.525E3,4.21E2,4.4E1,1.4E1,6E0,5.8E1,1.683E3,1.2E2,1.076E3,1.2E1,5.477E3,8E1,3.909E3,1.2347E4,2.95E2,5.4E1,2.5E2,7E1,3E0,1E0,1.16E2,4.95E2,9E0,1.516E3,3E0,4.18E2,4E0,4E1,6E0,8E0,3E0,3E0,5E0,5.3E1,1.649E3,3.4E1,4E1,8E1,6E0,1.07E3,7E0,5E0,3.744E3,1.733E3,7.8E1,2E0,3.881E3,2.8E1,3.76E2,1.1971E4,2.81E2,1.4E1,3.9E1,1.5E1,1.94E2,5.6E1,6E1,1E1,2.6E1,9E1,2.52E2,2.43E2,7E0,2E0,1.495E3,2.1E1,2E0,1E0,2.44E2,1.74E2,2E0,2E0,3.9E1,1E0,2E0,4E0,7E0,1E0,2E0,1E0,1E0,2E0,2E0,3E0,5E1,3E0],"tree_param":{"num_deleted":"0","num_feature":"32","num_nodes":"111","size_leaf_vector":"1"}},{"base_weights":[1.3728987E-4,-1.1076876E-3,1.188063E-2,-1.3272858E-3,4.504829E-2,1.0973171E-2,1.727372E-1,-1.36276E-3,2.2261587E-1,4.5430463E-2,3.0671591E-2,-1.3596698E-4,2.134287E-2,4.4690067E-1,-9.0345956E-4,4.6730484E-3,-2.427425E-3,-8.847816E-4,4.5850348E-2,1.6790107E-2,2.8468066E-1,3.0251361E-2,-2.8796871E-3,1.7751962E-2,7.331246E-2,5.467869E-2,-2.6265238E-3,6.8978703E-4,2.692676E-2,-3.3183496E-3,-1.5200824E-3,1.0115201E-1,1.6761242E-3,-7.182014E-4,4.3240753E-1,2.2025287E-2,2.3656647E-1,1.4610982E-2,-3.5988984E-3,1.3993027E-2,7.953449E-2,7.22445E-2,4.2267777E-2,-3.31875E-4,4.7507012E-4,2.390498E-3,2.377295E-2,-3.5683077E-4,-3.242445E-4,1.13633905E-4,-2.1995546E-4,4.844065E-3,4.722669E-2,6.43135E-3,-7.1865186E-4,5.8189135E-2,-8.021953E-4,5.602326E-4,1.1909471E-2,4.814619E-2,-5.5526383E-4,-5.615858E-4,3.1314325E-2,-5.367219E-4,2.0573559E-4,6.190041E-3,9.98834E-4,1.8113323E-2,-6.6579826E-4,1.5513453E-2,1.0458529E-4],"categories":[],"categories_nodes":[],"categories_segments":[],"categories_sizes":[],"default_left":[0,0,0,0,0,0,0,0,0,0,0,0,0,0,0,0,0,0,0,0,0,0,0,0,0,0,0,0,0,0,0,0,0,0,0,0,0,0,0,0,0,0,0,0,0,0,0,0,0,0,0,0,0,0,0,0,0,0,0,0,0,0,0,0,0,0,0,0,0,0,0],"id":3,"left_children":[1,3,5,7,9,11,13,15,17,-1,19,21,23,25,-1,27,29,-1,-1,31,33,35,37,39,41,-1,-1,43,45,47,49,51,53,-1,55,57,59,61,63,65,67,-1,69,-1,-1,-1,-1,-1,-1,-1,-1,-1,-1,-1,-1,-1,-1,-1,-1,-1,-1,-1,-1,-1,-1,-1,-1,-1,-1,-1,-1],"loss_changes":[4.096856E-1,2.5685972E-1,3.9018172E-1,2.0063211E-1,6.921164E-1,3.078131E-1,7.5156534E-1,1.6203938E-1,2.2245438E-1,0E0,4.0776488E-1,1.0772337E-1,2.5660473E-1,2.97938E-1,0E0,3.3513814E-1,1.7321631E-2,0E0,0E0,1.426354E-1,2.6180127E-1,1.7638603E-1,1.4959275E-2,2.9940107E-1,1.763002E0,0E0,0E0,5.223663E-2,3.5995468E-1,1.9360334E-4,1.9173026E-2,3.096766E-1,5.375493E-2,0E0,2.6801628E-1,1.6512619E-1,2.3984884E-1,2.8556168E-1,1.14033995E-2,2.3363554E-1,6.492274E-1,0E0,3.9995998E-1,0E0,0E0,0E0,0E0,0E0,0E0,0E0,0E0,0E0,0E0,0E0,0E0,0E0,0E0,0E0,0E0,0E0,0E0,0E0,0E0,0E0,0E0,0E0,0E0,0E0,0E0,0E0,0E0],"parents":[2147483647,0,0,1,1,2,2,3,3,4,4,5,5,6,6,7,7,8,8,10,10,11,11,12,12,13,13,15,15,16,16,19,19,20,20,21,21,22,22,23,23,24,24,27,27,28,28,29,29,30,30,31,31,32,32,34,34,35,35,36,36,37,37,38,38,39,39,40,40,42,42],"right_children":[2,4,6,8,10,12,14,16,18,-1,20,22,24,26,-1,28,30,-1,-1,32,34,36,38,40,42,-1,-1,44,46,48,50,52,54,-1,56,58,60,62,64,66,68,-1,70,-1,-1,-1,-1,-1,-1,-1,-1,-1,-1,-1,-1,-1,-1,-1,-1,-1,-1,-1,-1,-1,-1,-1,-1,-1,-1,-1,-1],"split_conditions":[3.0822754E-3,1.6403198E-4,4.534912E-2,9.010315E-3,3.0899048E-4,1.0276794E-2,4.2057037E-4,2.029419E-3,1.9714355E-2,4.5430463E-2,1.3580322E-2,3.8223267E-3,2.7404785E-2,4.8614502E-2,-9.0345956E-4,2.3498535E-2,2.0690918E-2,-8.847816E-4,4.5850348E-2,4.386902E-5,2.7008057E-3,1.0925293E-2,8.72612E-4,1.4259338E-2,1.0810852E-2,5.467869E-2,-2.6265238E-3,2.588272E-3,1.7986298E-3,1.9470215E-2,1.7593384E-2,1.8310547E-2,2.3208618E-2,-7.182014E-4,5.0315857E-3,3.7155151E-3,1.386261E-2,6.685257E-4,3.604126E-2,3.9672852E-4,5.054474E-3,7.22445E-2,1.3137817E-2,-3.31875E-4,4.7507012E-4,2.390498E-3,2.377295E-2,-3.5683077E-4,-3.242445E-4,1.13633905E-4,-2.1995546E-4,4.844065E-3,4.722669E-2,6.43135E-3,-7.1865186E-4,5.8189135E-2,-8.021953E-4,5.602326E-4,1.1909471E-2,4.814619E-2,-5.5526383E-4,-5.615858E-4,3.1314325E-2,-5.367219E-4,2.0573559E-4,6.190041E-3,9.98834E-4,1.8113323E-2,-6.6579826E-4,1.5513453E-2,1.0458529E-4],"split_indices":[5,0,24,7,0,29,4,19,4,0,31,5,5,1,0,6,6,0,0,31,0,31,19,4,29,0,0,6,19,4,4,18,21,0,0,5,4,19,2,21,2,0,8,0,0,0,0,0,0,0,0,0,0,0,0,0,0,0,0,0,0,0,0,0,0,0,0,0,0,0,0],"split_type":[0,0,0,0,0,0,0,0,0,0,0,0,0,0,0,0,0,0,0,0,0,0,0,0,0,0,0,0,0,0,0,0,0,0,0,0,0,0,0,0,0,0,0,0,0,0,0,0,0,0,0,0,0,0,0,0,0,0,0,0,0,0,0,0,0,0,0,0,0,0,0],"sum_hessian":[2.802E4,2.5335E4,2.685E3,2.5216E4,1.19E2,2.671E3,1.4E1,2.5213E4,3E0,3E0,1.16E2,1.29E3,1.381E3,5E0,9E0,3.78E3,2.1433E4,2E0,1E0,1.11E2,5E0,1.06E2,1.184E3,1.293E3,8.8E1,4E0,1E0,3.207E3,5.73E2,1.0813E4,1.062E4,1.6E1,9.5E1,2E0,3E0,1.03E2,3E0,4.6E1,1.138E3,1.22E3,7.3E1,3E0,8.5E1,1.614E3,1.593E3,5.66E2,7E0,2.508E3,8.305E3,2.163E3,8.457E3,1.5E1,1E0,1.1E1,8.4E1,2E0,1E0,8.9E1,1.4E1,1E0,2E0,4.4E1,2E0,8.67E2,2.71E2,9.3E1,1.127E3,3.3E1,4E1,2.2E1,6.3E1],"tree_param":{"num_deleted":"0","num_feature":"32","num_nodes":"71","size_leaf_vector":"1"}},{"base_weights":[3.4727487E-5,-7.9284125E-4,1.840165E-2,-8.5729035E-4,7.76572E-2,4.674062E-2,6.586017E-3,2.1771993E-3,-2.4084926E-3,3.1787074E-1,-1.1692111E-2,7.569277E-2,2.119958E-2,1.9685939E-2,-3.3896117E-4,1.6340556E-3,9.268095E-2,-2.0261102E-4,-2.718391E-3,6.504083E-2,-1.100012E-3,-4.2843368E-4,-1.644912E-2,6.539294E-2,4.7648767E-1,1.2330229E-2,1.9820204E-1,1.6425656E-2,4.8910443E-2,-3.423834E-3,3.5845887E-2,-1.3061407E-3,6.6186953E-3,2.678578E-1,3.0603955E-2,-3.9441944E-3,1.4461885E-3,-2.991714E-3,-1.8673172E-3,-5.30753E-4,-1.8571077E-3,1.2817684E-2,1.08963184E-1,-5.96774E-4,6.392954E-2,1.7551675E-1,7.6770666E-3,-1.7404709E-3,4.7206166E-1,1.3460186E-2,2.9958954E-1,4.850394E-3,-5.625959E-3,2.7169243E-1,1.8146234E-2,-2.8405563E-4,5.0758704E-4,3.7300258E-3,2.5969002E-4,6.44938E-2,1.5126626E-2,8.835261E-4,4.5067586E-2,-3.8668944E-4,-1.3420772E-3,5.822252E-4,-8.110491E-5,-3.1141037E-4,2.6526183E-4,1.0103798E-3,-2.0960341E-4,-1.0726528E-3,1.8666707E-2,6.2497288E-2,8.99173E-3,-4.930814E-4,4.486535E-2,-1.0456331E-4,6.1101816E-3,6.418326E-2,-1.8625542E-3,5.741491E-4,7.826142E-3,4.6335038E-2,-1.3966048E-3,-4.0358314E-4,3.8252622E-3,-2.8390798E-3,-5.3302903E-4,-1.7645633E-4,4.093032E-2,4.055993E-3,-6.198887E-4],"categories":[],"categories_nodes":[],"categories_segments":[],"categories_sizes":[],"default_left":[0,0,0,0,0,0,0,0,0,0,0,0,0,0,0,0,0,0,0,0,0,0,0,0,0,0,0,0,0,0,0,0,0,0,0,0,0,0,0,0,0,0,0,0,0,0,0,0,0,0,0,0,0,0,0,0,0,0,0,0,0,0,0,0,0,0,0,0,0,0,0,0,0,0,0,0,0,0,0,0,0,0,0,0,0,0,0,0,0,0,0,0,0],"id":4,"left_children":[1,3,5,7,9,11,13,15,17,19,21,23,25,27,29,31,33,35,37,-1,-1,-1,39,41,43,45,47,49,-1,51,53,55,57,59,61,63,65,67,69,-1,-1,71,73,-1,-1,75,77,-1,79,81,83,85,87,89,91,-1,-1,-1,-1,-1,-1,-1,-1,-1,-1,-1,-1,-1,-1,-1,-1,-1,-1,-1,-1,-1,-1,-1,-1,-1,-1,-1,-1,-1,-1,-1,-1,-1,-1,-1,-1,-1,-1],"loss_changes":[4.255204E-1,1.3550757E-1,4.0384755E-1,1.2600039E-1,4.759007E-1,2.6090652E-1,7.738799E-2,4.4496107E-1,1.2108043E-2,6.6332597E-1,5.28587E-4,6.541088E-1,2.9583657E-1,4.4344494E-1,6.252147E-2,1.3194034E-1,5.790229E-1,1.3472896E-2,3.6071986E-3,0E0,0E0,0E0,1.3785297E-4,3.719902E-1,3.1800508E-1,1.3685122E-1,5.3962994E-1,2.428434E-1,0E0,9.429265E-3,1.7874351E-1,5.547024E-2,4.1204232E-1,5.179436E-1,3.7093922E-1,4.3743942E-4,1.4979489E-2,8.128017E-3,1.0365322E-2,0E0,0E0,3.0898827E-1,8.184838E-1,0E0,0E0,2.4864656E-1,8.3013326E-2,0E0,3.4517217E-1,1.4560352E-1,1.6051552E-1,3.2507733E-2,2.5948565E-3,1.1361413E-1,2.316932E-2,0E0,0E0,0E0,0E0,0E0,0E0,0E0,0E0,0E0,0E0,0E0,0E0,0E0,0E0,0E0,0E0,0E0,0E0,0E0,0E0,0E0,0E0,0E0,0E0,0E0,0E0,0E0,0E0,0E0,0E0,0E0,0E0,0E0,0E0,0E0,0E0,0E0,0E0],"parents":[2147483647,0,0,1,1,2,2,3,3,4,4,5,5,6,6,7,7,8,8,9,9,10,10,11,11,12,12,13,13,14,14,15,15,16,16,17,17,18,18,22,22,23,23,24,24,25,25,26,26,27,27,29,29,30,30,31,31,32,32,33,33,34,34,35,35,36,36,37,37,38,38,41,41,42,42,45,45,46,46,48,48,49,49,50,50,51,51,52,52,53,53,54,54],"right_children":[2,4,6,8,10,12,14,16,18,20,22,24,26,28,30,32,34,36,38,-1,-1,-1,40,42,44,46,48,50,-1,52,54,56,58,60,62,64,66,68,70,-1,-1,72,74,-1,-1,76,78,-1,80,82,84,86,88,90,92,-1,-1,-1,-1,-1,-1,-1,-1,-1,-1,-1,-1,-1,-1,-1,-1,-1,-1,-1,-1,-1,-1,-1,-1,-1,-1,-1,-1,-1,-1,-1,-1,-1,-1,-1,-1,-1,-1],"split_conditions":[4.4769287E-2,8.239746E-2,8.72612E-4,1.7593384E-2,3.1036377E-2,1.737976E-2,3.1929016E-3,1.3793945E-2,2.1858215E-3,1.9714355E-2,2.1362305E-4,1.3420105E-2,4.245758E-3,2.105713E-3,4.3548584E-2,2.407837E-2,2.4002075E-2,2.3223877E-2,5.2833557E-3,6.504083E-2,-1.100012E-3,-4.2843368E-4,6.088257E-2,8.293152E-3,3.3813477E-2,2.961731E-2,3.1280518E-2,2.3773193E-2,4.8910443E-2,1.4785767E-2,4.434204E-2,1.121521E-2,7.429123E-4,4.863739E-4,4.058838E-3,1.4602661E-2,2.1896362E-2,3.7139893E-2,5.2986145E-3,-5.30753E-4,-1.8571077E-3,1.4770508E-2,8.743286E-3,-5.96774E-4,6.392954E-2,2.8945923E-2,3.475952E-2,-1.7404709E-3,2.6153564E-2,1.4053345E-2,1.1474609E-2,1.4587402E-2,1.1310577E-3,6.768799E-2,4.7950745E-3,-2.8405563E-4,5.0758704E-4,3.7300258E-3,2.5969002E-4,6.44938E-2,1.5126626E-2,8.835261E-4,4.5067586E-2,-3.8668944E-4,-1.3420772E-3,5.822252E-4,-8.110491E-5,-3.1141037E-4,2.6526183E-4,1.0103798E-3,-2.0960341E-4,-1.0726528E-3,1.8666707E-2,6.2497288E-2,8.99173E-3,-4.930814E-4,4.486535E-2,-1.0456331E-4,6.1101816E-3,6.418326E-2,-1.8625542E-3,5.741491E-4,7.826142E-3,4.6335038E-2,-1.3966048E-3,-4.0358314E-4,3.8252622E-3,-2.8390798E-3,-5.3302903E-4,-1.7645633E-4,4.093032E-2,4.055993E-3,-6.198887E-4],"split_indices":[6,25,19,4,13,18,4,31,12,4,6,15,28,28,18,6,21,19,25,0,0,0,12,31,4,21,18,31,0,21,18,25,4,12,17,31,4,6,25,0,0,13,31,0,0,21,17,0,3,15,12,21,19,4,4,0,0,0,0,0,0,0,0,0,0,0,0,0,0,0,0,0,0,0,0,0,0,0,0,0,0,0,0,0,0,0,0,0,0,0,0,0,0],"split_type":[0,0,0,0,0,0,0,0,0,0,0,0,0,0,0,0,0,0,0,0,0,0,0,0,0,0,0,0,0,0,0,0,0,0,0,0,0,0,0,0,0,0,0,0,0,0,0,0,0,0,0,0,0,0,0,0,0,0,0,0,0,0,0,0,0,0,0,0,0,0,0,0,0,0,0,0,0,0,0,0,0,0,0,0,0,0,0,0,0,0,0,0,0],"sum_hessian":[2.7993E4,2.6787E4,1.206E3,2.6766E4,2.1E1,3.54E2,8.52E2,9.054E3,1.7712E4,5E0,1.6E1,1.65E2,1.89E2,2.94E2,5.58E2,9.001E3,5.3E1,2.182E3,1.553E4,2E0,3E0,7E0,9E0,1.62E2,3E0,1.81E2,8E0,2.93E2,1E0,5.15E2,4.3E1,5.662E3,3.339E3,1.3E1,4E1,6.67E2,1.515E3,1.1753E4,3.777E3,2E0,7E0,7.4E1,8.8E1,1E0,2E0,4E0,1.77E2,5E0,3E0,2.91E2,2E0,1.08E2,4.07E2,2E0,4.1E1,4.565E3,1.097E3,3.86E2,2.953E3,2E0,1.1E1,3.9E1,1E0,6.63E2,4E0,5.15E2,1E3,1.1504E4,2.49E2,7E1,3.707E3,6.6E1,8E0,2E0,8.6E1,3E0,1E0,1.53E2,2.4E1,2E0,1E0,2.61E2,3E1,1E0,1E0,8.6E1,2.2E1,4E0,4.03E2,1E0,1E0,2.1E1,2E1],"tree_param":{"num_deleted":"0","num_feature":"32","num_nodes":"93","size_leaf_vector":"1"}},{"base_weights":[1.2289977E-4,-1.1019221E-3,1.0962338E-2,-1.365497E-3,3.3351135E-2,9.924563E-3,1.7409112E-1,-1.5706276E-3,1.4469588E-2,2.8620552E-2,3.2183775E-1,2.9142933E-2,3.9192317E-3,6.2396158E-2,3.4069803E-1,-1.6751167E-3,1.6065875E-2,-3.4862834E-3,6.5999515E-2,1.4539008E-2,1.0323748E-1,-8.6216844E-4,4.913783E-2,2.37996E-2,1.3593376E-1,1.1428936E-3,3.3627376E-2,4.4018283E-2,-1.1964708E-2,5.6089204E-2,1.4044198E-1,-6.720372E-4,-2.8108398E-3,1.4406075E-1,-1.9184157E-3,-6.6953576E-3,2.4251204E-2,3.9461514E-1,3.526823E-2,1.8111935E-1,9.141296E-3,-2.0459594E-2,1.9903287E-1,1.04259044E-1,1.744669E-2,6.1665274E-2,8.3330736E-2,2.106538E-2,-1.4860255E-3,1.8185982E-1,1.7545164E-2,-1.8408707E-3,-5.652608E-4,4.1305E-2,-3.097251E-2,2.7277295E-3,-9.831096E-5,-2.6798664E-4,-5.8127724E-4,4.789702E-2,-2.1594428E-3,-7.927307E-4,1.0394046E-2,-1.2847021E-3,-3.1698128E-4,3.0702634E-2,-1.3686906E-3,-1.1458247E-3,5.593362E-2,9.507572E-3,-1.1748202E-3,-1.7743998E-3,4.882864E-2,3.657712E-4,9.890939E-3,-2.168972E-3,-2.2339755E-4,-1.8388516E-3,3.530667E-2,4.7561238E-3,2.2204362E-2,8.4594515E-4,7.169352E-3,3.1698525E-2,2.3920422E-3,3.6672533E-3,-1.6108988E-3,1.5520587E-4,-7.406254E-4,4.6512657E-3,4.4480205E-2,6.5168436E-3,-9.515621E-4,-4.6271255E-4,-3.821193E-3],"categories":[],"categories_nodes":[],"categories_segments":[],"categories_sizes":[],"default_left":[0,0,0,0,0,0,0,0,0,0,0,0,0,0,0,0,0,0,0,0,0,0,0,0,0,0,0,0,0,0,0,0,0,0,0,0,0,0,0,0,0,0,0,0,0,0,0,0,0,0,0,0,0,0,0,0,0,0,0,0,0,0,0,0,0,0,0,0,0,0,0,0,0,0,0,0,0,0,0,0,0,0,0,0,0,0,0,0,0,0,0,0,0,0,0],"id":5,"left_children":[1,3,5,7,9,11,13,15,17,19,21,23,25,27,29,31,33,35,37,39,41,-1,-1,43,45,47,49,-1,51,-1,53,55,57,59,61,63,65,67,69,71,73,75,77,79,81,-1,83,85,87,89,91,-1,-1,-1,93,-1,-1,-1,-1,-1,-1,-1,-1,-1,-1,-1,-1,-1,-1,-1,-1,-1,-1,-1,-1,-1,-1,-1,-1,-1,-1,-1,-1,-1,-1,-1,-1,-1,-1,-1,-1,-1,-1,-1,-1],"loss_changes":[3.7360945E-1,2.2964856E-1,4.819364E-1,8.153127E-2,2.5281316E-1,3.2765782E-1,3.1370652E-1,4.567917E-2,2.9724008E-1,1.9813612E-1,1.7231533E-1,3.825032E-1,1.7853042E-1,3.423772E-1,2.298935E-1,2.805484E-2,3.3635333E-1,2.1436155E-2,8.2428145E-1,1.4310792E-1,3.5956043E-1,0E0,0E0,3.2787386E-1,7.5780654E-1,1.037854E-1,4.3783176E-1,0E0,3.4336955E-4,0E0,2.4643803E-1,1.1373909E-1,4.5255646E-3,1.0089736E0,8.2880154E-2,4.622191E-3,2.7240106E-1,4.746307E-1,2.1763593E-1,3.1408545E-1,7.692161E-2,2.6542367E-4,5.7582647E-1,3.033114E-1,2.914235E-1,0E0,4.088622E-1,1.3461372E-1,3.1505242E-2,6.199038E-1,2.1712556E-1,0E0,0E0,0E0,5.860897E-4,0E0,0E0,0E0,0E0,0E0,0E0,0E0,0E0,0E0,0E0,0E0,0E0,0E0,0E0,0E0,0E0,0E0,0E0,0E0,0E0,0E0,0E0,0E0,0E0,0E0,0E0,0E0,0E0,0E0,0E0,0E0,0E0,0E0,0E0,0E0,0E0,0E0,0E0,0E0,0E0],"parents":[2147483647,0,0,1,1,2,2,3,3,4,4,5,5,6,6,7,7,8,8,9,9,10,10,11,11,12,12,13,13,14,14,15,15,16,16,17,17,18,18,19,19,20,20,23,23,24,24,25,25,26,26,28,28,30,30,31,31,32,32,33,33,34,34,35,35,36,36,37,37,38,38,39,39,40,40,41,41,42,42,43,43,44,44,46,46,47,47,48,48,49,49,50,50,54,54],"right_children":[2,4,6,8,10,12,14,16,18,20,22,24,26,28,30,32,34,36,38,40,42,-1,-1,44,46,48,50,-1,52,-1,54,56,58,60,62,64,66,68,70,72,74,76,78,80,82,-1,84,86,88,90,92,-1,-1,-1,94,-1,-1,-1,-1,-1,-1,-1,-1,-1,-1,-1,-1,-1,-1,-1,-1,-1,-1,-1,-1,-1,-1,-1,-1,-1,-1,-1,-1,-1,-1,-1,-1,-1,-1,-1,-1,-1,-1,-1,-1],"split_conditions":[2.0523071E-3,6.512451E-2,3.591919E-2,2.0950317E-2,3.9031982E-2,7.429123E-4,4.534912E-2,5.1483154E-2,4.5433044E-3,9.384155E-4,6.2072754E-2,2.532959E-3,1.3618469E-2,1.1474609E-2,4.232788E-2,8.5258484E-4,3.8635254E-2,1.7700195E-3,2.2277832E-2,4.2785645E-2,2.7954102E-2,-8.6216844E-4,4.913783E-2,2.99263E-3,3.1852722E-4,7.648468E-4,3.604889E-4,4.4018283E-2,3.4332275E-2,5.6089204E-2,5.378723E-3,9.803772E-4,2.9037476E-2,6.2561035E-4,6.768799E-2,2.641678E-4,1.9035339E-3,2.079773E-2,7.429123E-4,1.0345459E-2,7.281494E-2,5.847168E-2,2.5817871E-2,8.575439E-3,2.2872925E-2,6.1665274E-2,1.1505127E-2,1.3420105E-2,1.1882782E-3,6.439209E-3,1.5716553E-2,-1.8408707E-3,-5.652608E-4,4.1305E-2,4.525757E-2,2.7277295E-3,-9.831096E-5,-2.6798664E-4,-5.8127724E-4,4.789702E-2,-2.1594428E-3,-7.927307E-4,1.0394046E-2,-1.2847021E-3,-3.1698128E-4,3.0702634E-2,-1.3686906E-3,-1.1458247E-3,5.593362E-2,9.507572E-3,-1.1748202E-3,-1.7743998E-3,4.882864E-2,3.657712E-4,9.890939E-3,-2.168972E-3,-2.2339755E-4,-1.8388516E-3,3.530667E-2,4.7561238E-3,2.2204362E-2,8.4594515E-4,7.169352E-3,3.1698525E-2,2.3920422E-3,3.6672533E-3,-1.6108988E-3,1.5520587E-4,-7.406254E-4,4.6512657E-3,4.4480205E-2,6.5168436E-3,-9.515621E-4,-4.6271255E-4,-3.821193E-3],"split_indices":[5,25,25,17,17,4,24,25,28,7,1,10,4,12,1,1,21,28,12,21,29,0,0,21,18,21,2,0,21,0,5,2,24,23,4,19,28,3,4,29,4,2,2,19,21,0,5,15,12,5,4,0,0,0,1,0,0,0,0,0,0,0,0,0,0,0,0,0,0,0,0,0,0,0,0,0,0,0,0,0,0,0,0,0,0,0,0,0,0,0,0,0,0,0,0],"split_type":[0,0,0,0,0,0,0,0,0,0,0,0,0,0,0,0,0,0,0,0,0,0,0,0,0,0,0,0,0,0,0,0,0,0,0,0,0,0,0,0,0,0,0,0,0,0,0,0,0,0,0,0,0,0,0,0,0,0,0,0,0,0,0,0,0,0,0,0,0,0,0,0,0,0,0,0,0,0,0,0,0,0,0,0,0,0,0,0,0,0,0,0,0,0,0],"sum_hessian":[2.8139E4,2.5283E4,2.856E3,2.5092E4,1.91E2,2.839E3,1.7E1,2.4772E4,3.2E2,1.89E2,2E0,6.75E2,2.164E3,1.1E1,6E0,2.4627E4,1.45E2,2.38E2,8.2E1,1.6E2,2.9E1,1E0,1E0,6.44E2,3.1E1,1.98E3,1.84E2,1E0,1E1,2E0,4E0,1.3078E4,1.1549E4,1.7E1,1.28E2,2.14E2,2.4E1,6E0,7.6E1,4E0,1.56E2,1.3E1,1.6E1,4.6E1,5.98E2,2E0,2.9E1,2.3E2,1.75E3,1.7E1,1.67E2,4E0,6E0,1E0,3E0,1.43E2,1.2935E4,1.1068E4,4.81E2,5E0,1.2E1,1.22E2,6E0,7.7E1,1.37E2,2E0,2.2E1,2E0,4E0,3.3E1,4.3E1,3E0,1E0,1.48E2,8E0,1.2E1,1E0,7E0,9E0,3.2E1,1.4E1,5.14E2,8.4E1,5E0,2.4E1,1.62E2,6.8E1,1.157E3,5.93E2,1.2E1,5E0,6E1,1.07E2,1E0,2E0],"tree_param":{"num_deleted":"0","num_feature":"32","num_nodes":"95","size_leaf_vector":"1"}},{"base_weights":[1.7106933E-4,1.3953153E-4,2.932684E-1,8.7028695E-3,-7.4730645E-4,4.431742E-2,-3.2715802E-4,6.8029994E-3,6.591203E-2,-8.874644E-4,4.1287284E-2,4.7469954E-3,6.0121108E-2,1.0931471E-3,1.3070488E-1,-9.3879487E-4,5.7870276E-2,2.9117543E-1,1.1152015E-2,2.9392026E-3,4.7938008E-2,5.0557774E-2,4.7475565E-2,1.6642347E-1,-2.0131078E-2,6.0360175E-2,9.196999E-2,1.5970982E-3,-1.952987E-3,4.303215E-2,1.9643001E-2,6.070598E-2,1.1419992E-1,1.3452499E-4,1.3966697E-1,2.1196944E-4,8.207001E-3,1.12142665E-2,-1.3429862E-3,3.250526E-3,2.677022E-2,3.0027825E-2,-2.2905793E-3,-9.583019E-4,-2.5036528E-3,2.8550694E-2,3.4663666E-3,8.944024E-5,2.3751818E-3,1.7692002E-3,-2.0893165E-4,1.2902275E-2,-2.260209E-3,-8.385756E-4,4.24857E-2,-9.5490145E-4,1.0663103E-2,-5.597702E-4,4.3299522E-2],"categories":[],"categories_nodes":[],"categories_segments":[],"categories_sizes":[],"default_left":[0,0,0,0,0,0,0,0,0,0,0,0,0,0,0,0,0,0,0,0,0,0,0,0,0,0,0,0,0,0,0,0,0,0,0,0,0,0,0,0,0,0,0,0,0,0,0,0,0,0,0,0,0,0,0,0,0,0,0],"id":6,"left_children":[1,3,5,7,9,-1,-1,11,13,15,17,19,21,23,25,27,29,31,33,35,37,39,-1,41,43,-1,45,47,49,-1,51,-1,53,55,57,-1,-1,-1,-1,-1,-1,-1,-1,-1,-1,-1,-1,-1,-1,-1,-1,-1,-1,-1,-1,-1,-1,-1,-1],"loss_changes":[2.5774583E-1,2.1178098E-1,1.3480905E-1,2.839933E-1,1.489144E-1,0E0,0E0,2.7749735E-1,3.5264033E-1,7.60199E-2,6.293103E-1,1.9045338E-1,3.487346E-1,1.5423763E-1,7.1382636E-1,6.472713E-2,3.0477872E-1,4.338079E-1,1.0759055E-1,1.5183055E-1,3.8763618E-1,3.5585847E-1,0E0,1.3359126E-1,1.7780513E-3,0E0,4.3373892E-1,1.1191289E-1,4.8182786E-2,0E0,9.995209E-2,0E0,2.701375E-1,7.423791E-2,2.5808516E-1,0E0,0E0,0E0,0E0,0E0,0E0,0E0,0E0,0E0,0E0,0E0,0E0,0E0,0E0,0E0,0E0,0E0,0E0,0E0,0E0,0E0,0E0,0E0,0E0],"parents":[2147483647,0,0,1,1,2,2,3,3,4,4,7,7,8,8,9,9,10,10,11,11,12,12,13,13,14,14,15,15,16,16,17,17,18,18,19,19,20,20,21,21,23,23,24,24,26,26,27,27,28,28,30,30,32,32,33,33,34,34],"right_children":[2,4,6,8,10,-1,-1,12,14,16,18,20,22,24,26,28,30,32,34,36,38,40,-1,42,44,-1,46,48,50,-1,52,-1,54,56,58,-1,-1,-1,-1,-1,-1,-1,-1,-1,-1,-1,-1,-1,-1,-1,-1,-1,-1,-1,-1,-1,-1,-1,-1],"split_conditions":[9.918213E-3,7.429123E-4,1.0635376E-2,1.1917114E-2,1.5335083E-3,4.431742E-2,-3.2715802E-4,4.2057037E-4,1.0871887E-4,5.8517456E-3,1.8615723E-3,2.217102E-2,2.0370483E-2,1.2084961E-2,2.9182434E-4,1.7593384E-2,5.958557E-3,3.528595E-3,1.3420105E-2,1.524353E-2,6.2072754E-2,9.796143E-3,4.7475565E-2,2.1636963E-2,1.8066406E-2,6.0360175E-2,1.5090942E-2,1.2786865E-2,3.604889E-4,4.303215E-2,3.753662E-3,6.070598E-2,1.8577576E-3,1.3580322E-2,3.604889E-4,2.1196944E-4,8.207001E-3,1.12142665E-2,-1.3429862E-3,3.250526E-3,2.677022E-2,3.0027825E-2,-2.2905793E-3,-9.583019E-4,-2.5036528E-3,2.8550694E-2,3.4663666E-3,8.944024E-5,2.3751818E-3,1.7692002E-3,-2.0893165E-4,1.2902275E-2,-2.260209E-3,-8.385756E-4,4.24857E-2,-9.5490145E-4,1.0663103E-2,-5.597702E-4,4.3299522E-2],"split_indices":[0,4,0,15,0,0,0,4,31,7,0,17,17,15,31,4,7,15,15,31,1,15,0,1,1,0,8,31,2,0,18,0,0,31,2,0,0,0,0,0,0,0,0,0,0,0,0,0,0,0,0,0,0,0,0,0,0,0,0],"split_type":[0,0,0,0,0,0,0,0,0,0,0,0,0,0,0,0,0,0,0,0,0,0,0,0,0,0,0,0,0,0,0,0,0,0,0,0,0,0,0,0,0,0,0,0,0,0,0,0,0,0,0,0,0,0,0,0,0,0,0],"sum_hessian":[2.7887E4,2.7885E4,2E0,2.616E3,2.5269E4,1E0,1E0,2.533E3,8.3E1,2.5186E4,8.3E1,2.44E3,9.3E1,4.2E1,4.1E1,2.5165E4,2.1E1,8E0,7.5E1,2.343E3,9.7E1,9.2E1,1E0,4E0,3.8E1,2E0,3.9E1,7.189E3,1.7976E4,1E0,2E1,2E0,6E0,7E1,5E0,2.32E3,2.3E1,4.7E1,5E1,8.6E1,6E0,2E0,2E0,1.3E1,2.5E1,8E0,3.1E1,6.969E3,2.2E2,1.23E2,1.7853E4,5E0,1.5E1,5E0,1E0,6.5E1,5E0,4E0,1E0],"tree_param":{"num_deleted":"0","num_feature":"32","num_nodes":"59","size_leaf_vector":"1"}},{"base_weights":[1.8588857E-4,-1.0325158E-3,1.0851099E-2,-1.1371544E-3,5.493549E-2,1.03469165E-2,2.9828322E-1,2.5217491E-3,-1.7893494E-3,4.7330666E-2,3.5551187E-2,2.8079867E-2,4.811778E-3,-3.4611102E-3,3.9015958E-1,-1.0727824E-3,1.2581045E-2,-2.5467091E-4,-2.1967243E-3,-1.5615482E-2,1.4233667E-1,6.891386E-2,1.6849557E-2,2.9164865E-3,7.8330524E-2,5.2393503E-2,-5.58336E-4,-2.8858501E-3,4.9705664E-3,1.0132671E-2,1.3859E-1,-4.1803382E-3,1.2936622E-3,-3.1374942E-3,-2.1033997E-3,-1.056502E-3,-2.4296818E-2,-1.6175168E-2,2.830564E-1,1.1460078E-1,2.6241029E-3,1.5335954E-2,4.140702E-2,7.0689875E-3,-8.754205E-3,2.9247898E-1,5.082695E-3,-3.3140637E-4,1.0940437E-3,3.4680965E-4,2.4562556E-2,9.201251E-4,1.9047838E-2,2.2913082E-2,-1.454497E-3,-3.9690454E-4,-9.6979085E-4,3.3687283E-3,2.0894067E-5,-3.0587974E-4,-8.8828616E-4,1.9762714E-3,-2.1647401E-4,-2.6322936E-3,-2.0178109E-4,-2.5485232E-3,-5.492082E-4,6.2068593E-2,-4.36585E-3,6.8810433E-3,4.24715E-2,-2.7169555E-3,1.7778408E-2,7.009623E-4,8.518337E-3,6.4836006E-4,4.6452686E-2,-7.1375025E-4,-1.9297401E-3,5.262469E-2,-1.6467095E-3,4.25263E-2,-1.5537873E-3],"categories":[],"categories_nodes":[],"categories_segments":[],"categories_sizes":[],"default_left":[0,0,0,0,0,0,0,0,0,0,0,0,0,0,0,0,0,0,0,0,0,0,0,0,0,0,0,0,0,0,0,0,0,0,0,0,0,0,0,0,0,0,0,0,0,0,0,0,0,0,0,0,0,0,0,0,0,0,0,0,0,0,0,0,0,0,0,0,0,0,0,0,0,0,0,0,0,0,0,0,0,0,0],"id":7,"left_children":[1,3,5,7,9,11,13,15,17,-1,19,21,23,-1,25,27,29,31,33,35,37,39,41,43,45,-1,-1,47,49,51,53,55,57,59,61,-1,63,65,67,69,71,73,-1,75,77,79,81,-1,-1,-1,-1,-1,-1,-1,-1,-1,-1,-1,-1,-1,-1,-1,-1,-1,-1,-1,-1,-1,-1,-1,-1,-1,-1,-1,-1,-1,-1,-1,-1,-1,-1,-1,-1],"loss_changes":[3.64508E-1,1.4749768E-1,4.1369838E-1,5.99703E-2,3.6433554E-1,2.8176415E-1,1.6642949E-1,1.3748796E-1,1.3333492E-2,0E0,2.5356013E-1,3.120479E-1,3.04925E-1,0E0,2.1468806E-1,3.071586E-2,3.074212E-1,2.720554E-2,1.4731288E-3,1.1463361E-3,3.3916464E-1,4.4489992E-1,3.1651253E-1,1.03577904E-1,8.612385E-1,0E0,0E0,1.2801081E-2,2.3308834E-1,1.633695E-1,2.6676702E-1,1.4374387E-3,1.1278613E-1,6.5963157E-4,2.0612575E-2,0E0,4.434241E-4,6.557149E-4,9.095671E-1,1.2061958E0,3.2316834E-1,3.111259E-1,0E0,4.1902515E-1,9.424623E-3,1.0197692E0,3.7051067E-1,0E0,0E0,0E0,0E0,0E0,0E0,0E0,0E0,0E0,0E0,0E0,0E0,0E0,0E0,0E0,0E0,0E0,0E0,0E0,0E0,0E0,0E0,0E0,0E0,0E0,0E0,0E0,0E0,0E0,0E0,0E0,0E0,0E0,0E0,0E0,0E0],"parents":[2147483647,0,0,1,1,2,2,3,3,4,4,5,5,6,6,7,7,8,8,10,10,11,11,12,12,14,14,15,15,16,16,17,17,18,18,19,19,20,20,21,21,22,22,23,23,24,24,27,27,28,28,29,29,30,30,31,31,32,32,33,33,34,34,36,36,37,37,38,38,39,39,40,40,41,41,43,43,44,44,45,45,46,46],"right_children":[2,4,6,8,10,12,14,16,18,-1,20,22,24,-1,26,28,30,32,34,36,38,40,42,44,46,-1,-1,48,50,52,54,56,58,60,62,-1,64,66,68,70,72,74,-1,76,78,80,82,-1,-1,-1,-1,-1,-1,-1,-1,-1,-1,-1,-1,-1,-1,-1,-1,-1,-1,-1,-1,-1,-1,-1,-1,-1,-1,-1,-1,-1,-1,-1,-1,-1,-1,-1,-1],"split_conditions":[2.0523071E-3,1.739502E-3,4.849243E-2,2.029419E-3,1.7471313E-3,7.429123E-4,1.2649536E-2,1.4831543E-2,2.746582E-3,4.7330666E-2,3.2928467E-2,4.386902E-5,1.7196655E-2,-3.4611102E-3,2.1911621E-2,1.7837524E-2,1.7986298E-3,1.4877319E-2,1.4480591E-2,2.848816E-2,2.670288E-2,8.071899E-3,2.7664185E-2,3.5743713E-3,9.365082E-4,5.2393503E-2,-5.58336E-4,5.950928E-4,9.796143E-3,1.1444092E-5,1.6677856E-2,2.8076172E-2,1.04522705E-2,1.2786865E-2,1.4717102E-2,-1.056502E-3,5.4748535E-2,5.5160522E-3,3.552246E-2,3.201294E-2,1.701355E-2,2.8625488E-2,4.140702E-2,2.468872E-2,1.3618469E-2,2.7503967E-3,1.8348694E-3,-3.3140637E-4,1.0940437E-3,3.4680965E-4,2.4562556E-2,9.201251E-4,1.9047838E-2,2.2913082E-2,-1.454497E-3,-3.9690454E-4,-9.6979085E-4,3.3687283E-3,2.0894067E-5,-3.0587974E-4,-8.8828616E-4,1.9762714E-3,-2.1647401E-4,-2.6322936E-3,-2.0178109E-4,-2.5485232E-3,-5.492082E-4,6.2068593E-2,-4.36585E-3,6.8810433E-3,4.24715E-2,-2.7169555E-3,1.7778408E-2,7.009623E-4,8.518337E-3,6.4836006E-4,4.6452686E-2,-7.1375025E-4,-1.9297401E-3,5.262469E-2,-1.6467095E-3,4.25263E-2,-1.5537873E-3],"split_indices":[5,7,25,19,7,4,2,6,12,0,24,15,31,0,2,25,19,4,4,2,2,25,24,12,15,0,0,5,15,9,4,1,19,31,4,0,2,17,2,29,5,5,0,1,4,2,4,0,0,0,0,0,0,0,0,0,0,0,0,0,0,0,0,0,0,0,0,0,0,0,0,0,0,0,0,0,0,0,0,0,0,0,0],"split_type":[0,0,0,0,0,0,0,0,0,0,0,0,0,0,0,0,0,0,0,0,0,0,0,0,0,0,0,0,0,0,0,0,0,0,0,0,0,0,0,0,0,0,0,0,0,0,0,0,0,0,0,0,0,0,0,0,0,0,0,0,0,0,0,0,0,0,0,0,0,0,0,0,0,0,0,0,0,0,0,0,0,0,0],"sum_hessian":[2.8049E4,2.5174E4,2.875E3,2.5128E4,4.6E1,2.871E3,4E0,3.801E3,2.1327E4,1E0,4.5E1,6.82E2,2.189E3,1E0,3E0,2.801E3,1E3,4.474E3,1.6853E4,3.1E1,1.4E1,1.46E2,5.36E2,2.135E3,5.4E1,2E0,1E0,2.155E3,6.46E2,9.82E2,1.8E1,1.265E3,3.209E3,1.518E3,1.5335E4,2.1E1,1E1,7E0,7E0,8.6E1,6E1,5.35E2,1E0,1.575E3,5.6E2,1.3E1,4.1E1,2.091E3,6.4E1,6.43E2,3E0,9.78E2,4E0,1.1E1,7E0,1.22E3,4.5E1,1.03E2,3.106E3,1.499E3,1.9E1,4.2E1,1.5293E4,9E0,1E0,3E0,4E0,3E0,4E0,7.6E1,1E1,5.2E1,8E0,4.79E2,5.6E1,1.574E3,1E0,4.87E2,7.3E1,7E0,6E0,1E0,4E1],"tree_param":{"num_deleted":"0","num_feature":"32","num_nodes":"83","size_leaf_vector":"1"}},{"base_weights":[-6.817067E-5,-3.5962902E-4,2.141832E-2,-1.6803539E-3,3.426376E-3,1.626363E-1,1.5491207E-2,-1.7159453E-3,2.8750623E-2,1.4657523E-2,-9.5930725E-4,4.386312E-1,-1.9224273E-2,9.385778E-3,6.87013E-2,-1.7847891E-3,8.987929E-3,-1.210615E-2,4.842282E-2,1.26028815E-2,6.601999E-2,-1.3829728E-3,1.2961072E-2,-4.81126E-3,6.940313E-2,-8.688249E-4,-2.480025E-3,6.764485E-3,1.2750098E-1,4.496413E-2,4.5629594E-2,-6.5908005E-4,-2.5041886E-3,-5.0052954E-3,1.2628883E-1,-9.309276E-3,-2.3063987E-3,2.7314719E-2,5.1223747E-3,1.2523314E-1,8.117002E-3,9.7402086E-4,-3.2300113E-3,2.7462246E-2,-1.0362173E-2,-1.1856923E-2,1.731997E-2,4.664538E-2,-6.733445E-3,-1.4971533E-2,1.22316726E-1,-7.688209E-5,2.8275936E-3,-4.6283877E-4,-2.2240782E-4,-2.4288509E-4,-2.0169537E-3,6.167996E-2,-6.862932E-4,-9.677559E-4,-1.15594594E-4,9.355486E-4,5.411451E-3,2.4874303E-3,-6.3026306E-4,7.2168657E-3,3.152039E-2,-1.4001289E-3,1.657453E-2,-1.6272765E-5,3.0629728E-3,-1.2401323E-3,-2.9729446E-4,1.1061014E-3,5.2127928E-2,-2.1497959E-3,-4.948953E-4,-8.426385E-4,-1.9555415E-3,9.910877E-3,3.2000613E-4,-1.078988E-3,-2.0077576E-4,-1.1717563E-3,-3.0589502E-3,-1.5404584E-3,2.619636E-2],"categories":[],"categories_nodes":[],"categories_segments":[],"categories_sizes":[],"default_left":[0,0,0,0,0,0,0,0,0,0,0,0,0,0,0,0,0,0,0,0,0,0,0,0,0,0,0,0,0,0,0,0,0,0,0,0,0,0,0,0,0,0,0,0,0,0,0,0,0,0,0,0,0,0,0,0,0,0,0,0,0,0,0,0,0,0,0,0,0,0,0,0,0,0,0,0,0,0,0,0,0,0,0,0,0,0,0],"id":8,"left_children":[1,3,5,7,9,11,13,15,17,19,21,23,25,27,29,31,33,35,-1,37,39,41,43,-1,-1,-1,-1,45,47,-1,49,51,53,55,57,59,-1,61,63,65,67,69,71,73,75,77,79,-1,81,83,85,-1,-1,-1,-1,-1,-1,-1,-1,-1,-1,-1,-1,-1,-1,-1,-1,-1,-1,-1,-1,-1,-1,-1,-1,-1,-1,-1,-1,-1,-1,-1,-1,-1,-1,-1,-1],"loss_changes":[1.7547438E-1,1.3823825E-1,3.1136116E-1,2.2248179E-2,3.5219625E-1,7.613213E-1,1.1663344E-1,1.5102524E-2,4.5248637E-1,2.1107516E-1,3.0349202E-2,7.792778E-1,3.7201564E-4,9.976223E-2,3.0467364E-1,1.6472816E-2,2.1565786E-1,4.901879E-4,0E0,2.1248055E-1,2.6298708E-1,2.173561E-2,5.1693164E-2,0E0,0E0,0E0,0E0,6.290736E-2,3.216348E-1,0E0,1.6913503E-1,2.521181E-2,7.3743835E-3,4.56125E-3,9.186063E-1,4.8867892E-5,0E0,3.1282237E-1,2.8946045E-1,3.6031872E-1,1.4177938E-1,7.396709E-2,6.5621603E-3,7.555597E-1,3.4501553E-3,2.8987732E-3,2.352723E-1,0E0,9.3353185E-5,7.087942E-4,3.1175306E-1,0E0,0E0,0E0,0E0,0E0,0E0,0E0,0E0,0E0,0E0,0E0,0E0,0E0,0E0,0E0,0E0,0E0,0E0,0E0,0E0,0E0,0E0,0E0,0E0,0E0,0E0,0E0,0E0,0E0,0E0,0E0,0E0,0E0,0E0,0E0,0E0],"parents":[2147483647,0,0,1,1,2,2,3,3,4,4,5,5,6,6,7,7,8,8,9,9,10,10,11,11,12,12,13,13,14,14,15,15,16,16,17,17,19,19,20,20,21,21,22,22,27,27,28,28,30,30,31,31,32,32,33,33,34,34,35,35,37,37,38,38,39,39,40,40,41,41,42,42,43,43,44,44,45,45,46,46,48,48,49,49,50,50],"right_children":[2,4,6,8,10,12,14,16,18,20,22,24,26,28,30,32,34,36,-1,38,40,42,44,-1,-1,-1,-1,46,48,-1,50,52,54,56,58,60,-1,62,64,66,68,70,72,74,76,78,80,-1,82,84,86,-1,-1,-1,-1,-1,-1,-1,-1,-1,-1,-1,-1,-1,-1,-1,-1,-1,-1,-1,-1,-1,-1,-1,-1,-1,-1,-1,-1,-1,-1,-1,-1,-1,-1,-1,-1],"split_conditions":[5.1483154E-2,2.4475098E-2,3.8635254E-2,9.918213E-5,6.793976E-3,6.2561035E-4,1.5411377E-3,2.217102E-2,2.1377563E-2,2.9418945E-2,5.9692383E-2,2.0935059E-2,5.4626465E-2,3.9031982E-2,1.7471313E-3,1.329422E-3,2.645874E-2,1.423645E-2,4.842282E-2,3.528595E-3,1.8966675E-2,2.9800415E-2,2.8060913E-2,-4.81126E-3,6.940313E-2,-8.688249E-4,-2.480025E-3,6.1340332E-2,2.017212E-2,4.496413E-2,3.1051636E-2,4.1748047E-2,3.3035278E-3,1.2191772E-2,2.7923584E-2,8.956909E-3,-2.3063987E-3,9.048462E-3,1.1882782E-3,1.3244629E-2,2.3269653E-4,9.307861E-3,2.4795532E-3,1.0528564E-2,2.5817871E-2,5.2490234E-2,5.1696777E-2,4.664538E-2,2.494812E-3,8.094788E-3,2.670288E-2,-7.688209E-5,2.8275936E-3,-4.6283877E-4,-2.2240782E-4,-2.4288509E-4,-2.0169537E-3,6.167996E-2,-6.862932E-4,-9.677559E-4,-1.15594594E-4,9.355486E-4,5.411451E-3,2.4874303E-3,-6.3026306E-4,7.2168657E-3,3.152039E-2,-1.4001289E-3,1.657453E-2,-1.6272765E-5,3.0629728E-3,-1.2401323E-3,-2.9729446E-4,1.1061014E-3,5.2127928E-2,-2.1497959E-3,-4.948953E-4,-8.426385E-4,-1.9555415E-3,9.910877E-3,3.2000613E-4,-1.078988E-3,-2.0077576E-4,-1.1717563E-3,-3.0589502E-3,-1.5404584E-3,2.619636E-2],"split_indices":[25,6,21,9,2,23,7,17,8,4,8,13,25,17,7,29,8,6,0,15,18,6,21,0,0,0,0,8,4,0,29,25,12,6,8,15,0,12,12,15,1,25,4,12,2,8,2,0,2,7,2,0,0,0,0,0,0,0,0,0,0,0,0,0,0,0,0,0,0,0,0,0,0,0,0,0,0,0,0,0,0,0,0,0,0,0,0],"split_type":[0,0,0,0,0,0,0,0,0,0,0,0,0,0,0,0,0,0,0,0,0,0,0,0,0,0,0,0,0,0,0,0,0,0,0,0,0,0,0,0,0,0,0,0,0,0,0,0,0,0,0,0,0,0,0,0,0,0,0,0,0,0,0,0,0,0,0,0,0,0,0,0,0,0,0,0,0,0,0,0,0,0,0,0,0,0,0],"sum_hessian":[2.8018E4,2.7644E4,3.74E2,2.0495E4,7.149E3,1.4E1,3.6E2,2.0472E4,2.3E1,2.007E3,5.142E3,5E0,9E0,3.24E2,3.6E1,2.0342E4,1.3E2,2.2E1,1E0,1.931E3,7.6E1,4.991E3,1.51E2,2E0,3E0,4E0,5E0,3.18E2,6E0,1E0,3.5E1,7.932E3,1.241E4,1.17E2,1.3E1,1.9E1,3E0,6.5E2,1.281E3,3.7E1,3.9E1,2.193E3,2.798E3,9.3E1,5.8E1,1.15E2,2.03E2,1E0,5E0,2E1,1.5E1,7.903E3,2.9E1,1.444E3,1.0966E4,1.01E2,1.6E1,2E0,1.1E1,1.8E1,1E0,3.9E2,2.6E2,4.69E2,8.12E2,3E1,7E0,3.5E1,4E0,2.113E3,8E1,7.5E1,2.723E3,9.1E1,2E0,1.8E1,4E1,8.1E1,3.4E1,2.9E1,1.74E2,2E0,3E0,1.8E1,2E0,8E0,7E0],"tree_param":{"num_deleted":"0","num_feature":"32","num_nodes":"87","size_leaf_vector":"1"}},{"base_weights":[3.2996707E-6,-1.6377089E-4,3.610347E-2,-1.8691245E-4,1.611217E-1,4.119168E-1,2.388635E-2,-4.1558413E-4,1.644612E-2,-2.3843048E-3,3.5800796E-2,5.6845378E-2,-2.8847137E-3,9.136298E-3,1.2472195E-1,3.3907956E-3,-1.0248829E-3,1.0088098E-1,3.2673872E-3,8.3928026E-2,-3.42416E-3,3.1745416E-1,-2.2662794E-2,2.2253634E-3,5.962049E-2,9.404447E-4,-1.6978182E-3,3.3649132E-1,7.366964E-2,2.9284008E-2,1.5905697E-4,-2.4000388E-2,3.2617062E-1,-9.990988E-3,9.6743435E-2,5.382622E-2,1.2147851E-1,-8.257396E-4,-3.5416712E-3,1.6512284E-4,3.2564015E-3,1.3782482E-2,9.4575094E-5,6.9922615E-5,5.900755E-3,-1.5908842E-4,-4.9776625E-4,-1.6565912E-3,5.773848E-2,3.8208365E-2,5.8658826E-3,2.379921E-2,-2.2103607E-3,1.4796661E-3,-6.580825E-4,-2.7771543E-3,-9.5151935E-4,-1.8750409E-3,5.623681E-2,-1.8584458E-3,-8.9387933E-4,3.9008487E-2,-3.994182E-3,-3.4882985E-3,3.7346225E-2],"categories":[],"categories_nodes":[],"categories_segments":[],"categories_sizes":[],"default_left":[0,0,0,0,0,0,0,0,0,0,0,0,0,0,0,0,0,0,0,0,0,0,0,0,0,0,0,0,0,0,0,0,0,0,0,0,0,0,0,0,0,0,0,0,0,0,0,0,0,0,0,0,0,0,0,0,0,0,0,0,0,0,0,0,0],"id":9,"left_children":[1,3,5,7,9,11,13,15,17,-1,-1,-1,-1,19,21,23,25,27,29,31,33,35,37,39,41,43,45,47,49,51,53,55,57,59,61,-1,63,-1,-1,-1,-1,-1,-1,-1,-1,-1,-1,-1,-1,-1,-1,-1,-1,-1,-1,-1,-1,-1,-1,-1,-1,-1,-1,-1,-1],"loss_changes":[1.6889371E-1,1.0406691E-1,5.824456E-1,1.06014274E-1,1.5420407E-1,2.9238176E-1,1.8626414E-1,6.376818E-2,4.2028773E-1,0E0,0E0,0E0,0E0,1.0456282E-1,4.6168703E-1,2.4849536E-1,3.1347074E-2,3.0218565E-1,2.6520127E-2,4.2614597E-1,6.411377E-2,2.3752362E-1,1.5448034E-3,6.470812E-2,3.5319322E-1,8.464423E-2,6.1845146E-3,4.3481082E-1,1.951761E-1,3.8063586E-1,2.9102154E-2,3.9125932E-4,4.1789198E-1,6.5669976E-4,2.561534E-1,0E0,2.1003026E-1,0E0,0E0,0E0,0E0,0E0,0E0,0E0,0E0,0E0,0E0,0E0,0E0,0E0,0E0,0E0,0E0,0E0,0E0,0E0,0E0,0E0,0E0,0E0,0E0,0E0,0E0,0E0,0E0],"parents":[2147483647,0,0,1,1,2,2,3,3,4,4,5,5,6,6,7,7,8,8,13,13,14,14,15,15,16,16,17,17,18,18,19,19,20,20,21,21,22,22,23,23,24,24,25,25,26,26,27,27,28,28,29,29,30,30,31,31,32,32,33,33,34,34,36,36],"right_children":[2,4,6,8,10,12,14,16,18,-1,-1,-1,-1,20,22,24,26,28,30,32,34,36,38,40,42,44,46,48,50,52,54,56,58,60,62,-1,64,-1,-1,-1,-1,-1,-1,-1,-1,-1,-1,-1,-1,-1,-1,-1,-1,-1,-1,-1,-1,-1,-1,-1,-1,-1,-1,-1,-1],"split_conditions":[1.6403198E-4,9.010315E-3,3.0899048E-4,6.335449E-2,2.5421143E-2,3.8146973E-3,3.274536E-2,8.72612E-4,3.074646E-2,-2.3843048E-3,3.5800796E-2,5.6845378E-2,-2.8847137E-3,2.381897E-2,3.366089E-2,1.5838623E-2,2.4738312E-3,5.531311E-5,4.837036E-2,2.305603E-2,1.3183594E-2,2.8442383E-2,7.2898865E-3,2.9510498E-2,7.850647E-3,3.6621094E-3,3.8146973E-2,2.2232056E-2,5.98526E-3,3.1982422E-2,4.7950745E-3,2.105713E-3,4.043579E-4,3.528595E-3,3.7719727E-2,5.382622E-2,7.2898865E-3,-8.257396E-4,-3.5416712E-3,1.6512284E-4,3.2564015E-3,1.3782482E-2,9.4575094E-5,6.9922615E-5,5.900755E-3,-1.5908842E-4,-4.9776625E-4,-1.6565912E-3,5.773848E-2,3.8208365E-2,5.8658826E-3,2.379921E-2,-2.2103607E-3,1.4796661E-3,-6.580825E-4,-2.7771543E-3,-9.5151935E-4,-1.8750409E-3,5.623681E-2,-1.8584458E-3,-8.9387933E-4,3.9008487E-2,-3.994182E-3,-3.4882985E-3,3.7346225E-2],"split_indices":[0,7,0,8,4,15,12,19,2,0,0,0,0,21,12,31,12,1,2,21,31,8,2,17,8,10,6,2,2,6,4,0,0,15,4,0,2,0,0,0,0,0,0,0,0,0,0,0,0,0,0,0,0,0,0,0,0,0,0,0,0,0,0,0,0],"split_type":[0,0,0,0,0,0,0,0,0,0,0,0,0,0,0,0,0,0,0,0,0,0,0,0,0,0,0,0,0,0,0,0,0,0,0,0,0,0,0,0,0,0,0,0,0,0,0,0,0,0,0,0,0,0,0,0,0,0,0,0,0,0,0,0,0],"sum_hessian":[2.8001E4,2.7873E4,1.28E2,2.787E4,3E0,3E0,1.25E2,2.7493E4,3.77E2,2E0,1E0,2E0,1E0,1.1E2,1.5E1,3.793E3,2.37E4,5E1,3.27E2,1.5E1,9.5E1,6E0,9E0,3.717E3,7.6E1,6.045E3,1.7655E4,4E0,4.6E1,3.4E1,2.93E2,1.1E1,4E0,9E1,5E0,2E0,4E0,5E0,4E0,3.649E3,6.8E1,3.2E1,4.4E1,6.021E3,2.4E1,1.7099E4,5.56E2,2E0,2E0,1E0,4.5E1,6E0,2.8E1,9.2E1,2.01E2,8E0,3E0,2E0,2E0,8E0,8.2E1,1E0,4E0,3E0,1E0],"tree_param":{"num_deleted":"0","num_feature":"32","num_nodes":"65","size_leaf_vector":"1"}},{"base_weights":[-2.796437E-5,-4.1441075E-4,1.9955013E-2,-4.4222776E-4,1.9025645E-1,3.3807743E-2,-7.629084E-3,-6.227191E-4,2.4744604E-2,3.85355E-2,-3.22808E-4,2.679877E-2,1.3804282E-1,-1.1681279E-2,1.3491313E-1,-7.187982E-4,1.9396083E-2,2.87912E-1,2.0525709E-2,6.0163163E-2,-6.1293473E-3,5.73229E-2,6.586276E-2,-2.7880989E-2,-7.253232E-3,-1.11362515E-2,3.5955533E-2,-1.0063068E-3,5.564783E-3,2.9652563E-1,8.244942E-3,-9.634904E-4,4.415029E-2,1.2965718E-1,1.1923674E-2,4.5390237E-2,4.4408062E-1,-1.0947593E-2,9.1604E-2,2.0580508E-2,4.6311274E-2,-2.3982005E-2,-5.4052096E-2,-1.3978076E-2,-5.255793E-3,-1.3856718E-4,-1.3924554E-3,-2.084541E-5,-2.019868E-4,2.6961116E-4,9.974409E-3,3.8421527E-2,-2.7116444E-3,-1.5656537E-4,1.5314693E-2,3.1073032E-2,-5.464586E-4,3.611432E-4,6.580277E-3,2.2500418E-3,1.5731044E-2,5.37077E-2,-1.0450557E-3,-1.7051082E-3,1.5197721E-3,4.598112E-2,-2.6684338E-3,-2.6600335E-3,2.0415876E-2,-2.5156836E-3,-3.4564707E-4,-6.351168E-3,-1.2836674E-3,-1.5444803E-3,-2.1646436E-5,-4.6894388E-4,-1.0964645E-3],"categories":[],"categories_nodes":[],"categories_segments":[],"categories_sizes":[],"default_left":[0,0,0,0,0,0,0,0,0,0,0,0,0,0,0,0,0,0,0,0,0,0,0,0,0,0,0,0,0,0,0,0,0,0,0,0,0,0,0,0,0,0,0,0,0,0,0,0,0,0,0,0,0,0,0,0,0,0,0,0,0,0,0,0,0,0,0,0,0,0,0,0,0,0,0,0,0],"id":10,"left_children":[1,3,5,7,9,11,13,15,17,-1,-1,19,21,23,25,27,29,31,33,35,37,-1,39,41,43,45,-1,47,49,51,53,-1,-1,55,57,59,61,63,65,67,-1,69,71,73,75,-1,-1,-1,-1,-1,-1,-1,-1,-1,-1,-1,-1,-1,-1,-1,-1,-1,-1,-1,-1,-1,-1,-1,-1,-1,-1,-1,-1,-1,-1,-1,-1],"loss_changes":[2.157321E-1,1.4544255E-1,2.0277889E-1,1.24589615E-1,1.5223818E-1,2.5419575E-1,1.04390346E-1,5.2347414E-2,2.1059415E-1,0E0,0E0,3.6511278E-1,6.533046E-1,1.2279332E-2,1.6804835E-1,4.8927903E-2,3.992956E-1,1.4135535E-1,1.7963329E-1,9.156544E-1,8.011458E-2,0E0,3.5023636E-1,2.4792273E-3,1.7802138E-3,8.9455396E-5,0E0,2.0940965E-2,3.1988192E-1,1.5231887E-1,1.7935818E-1,0E0,0E0,3.442349E-1,8.0376446E-2,4.0635377E-1,2.592312E-1,2.5951141E-2,3.607067E-1,1.6999683E-1,0E0,7.329229E-4,7.442441E-4,6.2237727E-4,2.977713E-4,0E0,0E0,0E0,0E0,0E0,0E0,0E0,0E0,0E0,0E0,0E0,0E0,0E0,0E0,0E0,0E0,0E0,0E0,0E0,0E0,0E0,0E0,0E0,0E0,0E0,0E0,0E0,0E0,0E0,0E0,0E0,0E0],"parents":[2147483647,0,0,1,1,2,2,3,3,4,4,5,5,6,6,7,7,8,8,11,11,12,12,13,13,14,14,15,15,16,16,17,17,18,18,19,19,20,20,22,22,23,23,24,24,25,25,27,27,28,28,29,29,30,30,33,33,34,34,35,35,36,36,37,37,38,38,39,39,41,41,42,42,43,43,44,44],"right_children":[2,4,6,8,10,12,14,16,18,-1,-1,20,22,24,26,28,30,32,34,36,38,-1,40,42,44,46,-1,48,50,52,54,-1,-1,56,58,60,62,64,66,68,-1,70,72,74,76,-1,-1,-1,-1,-1,-1,-1,-1,-1,-1,-1,-1,-1,-1,-1,-1,-1,-1,-1,-1,-1,-1,-1,-1,-1,-1,-1,-1,-1,-1,-1,-1],"split_conditions":[1.5579224E-2,1.0482788E-2,2.4738312E-3,6.512451E-2,1.0635376E-2,2.4795532E-3,3.2348633E-2,1.18255615E-4,4.8217773E-3,3.85355E-2,-3.22808E-4,7.05719E-3,2.5787354E-3,7.429123E-4,1.8432617E-2,8.110046E-3,3.0899048E-4,6.2072754E-2,2.866745E-3,2.4414062E-4,2.0103455E-3,5.73229E-2,3.3912659E-3,1.6494751E-2,3.9672852E-4,5.531311E-5,3.5955533E-2,1.82724E-3,1.7196655E-2,1.3130188E-2,1.3580322E-2,-9.634904E-4,4.415029E-2,6.4575195E-2,2.456665E-3,2.8625488E-2,1.2039185E-2,7.5531006E-4,2.07901E-3,4.4784546E-3,4.6311274E-2,1.0528564E-2,3.1921387E-2,3.0517578E-2,6.7977905E-3,-1.3856718E-4,-1.3924554E-3,-2.084541E-5,-2.019868E-4,2.6961116E-4,9.974409E-3,3.8421527E-2,-2.7116444E-3,-1.5656537E-4,1.5314693E-2,3.1073032E-2,-5.464586E-4,3.611432E-4,6.580277E-3,2.2500418E-3,1.5731044E-2,5.37077E-2,-1.0450557E-3,-1.7051082E-3,1.5197721E-3,4.598112E-2,-2.6684338E-3,-2.6600335E-3,2.0415876E-2,-2.5156836E-3,-3.4564707E-4,-6.351168E-3,-1.2836674E-3,-1.5444803E-3,-2.1646436E-5,-4.6894388E-4,-1.0964645E-3],"split_indices":[5,0,12,25,0,10,25,0,2,0,0,21,10,4,5,5,0,1,24,25,12,0,25,31,21,1,0,1,31,18,31,0,0,12,7,5,29,10,12,10,0,2,1,5,31,0,0,0,0,0,0,0,0,0,0,0,0,0,0,0,0,0,0,0,0,0,0,0,0,0,0,0,0,0,0,0,0],"split_type":[0,0,0,0,0,0,0,0,0,0,0,0,0,0,0,0,0,0,0,0,0,0,0,0,0,0,0,0,0,0,0,0,0,0,0,0,0,0,0,0,0,0,0,0,0,0,0,0,0,0,0,0,0,0,0,0,0,0,0,0,0,0,0,0,0,0,0,0,0,0,0,0,0,0,0,0,0],"sum_hessian":[2.7934E4,2.7405E4,5.29E2,2.7402E4,3E0,3.52E2,1.77E2,2.7208E4,1.94E2,1E0,2E0,3.31E2,2.1E1,1.73E2,4E0,2.7079E4,1.29E2,2E0,1.92E2,1.64E2,1.67E2,2E0,1.9E1,3.6E1,1.37E2,3E0,1E0,2.5895E4,1.184E3,4E0,1.25E2,1E0,1E0,1.3E1,1.79E2,1.59E2,5E0,1.6E2,7E0,1.8E1,1E0,3.3E1,3E0,3E1,1.07E2,1E0,2E0,1.449E4,1.1405E4,1.15E3,3.4E1,3E0,1E0,1.18E2,7E0,5E0,8E0,1.56E2,2.3E1,1.33E2,2.6E1,4E0,1E0,1.3E2,3E1,1E0,6E0,1.5E1,3E0,3.1E1,2E0,2E0,1E0,2.7E1,3E0,9.9E1,8E0],"tree_param":{"num_deleted":"0","num_feature":"32","num_nodes":"77","size_leaf_vector":"1"}}]},"name":"gbtree"},"learner_model_param":{"base_score":"[4.3973615E-3]","boost_from_average":"1","num_class":"0","num_feature":"32","num_target":"1"},"objective":{"name":"reg:squarederror","reg_loss_param":{"scale_pos_weight":"1"}}},"version":[3,1,2]}